{"layers":[{"out_depth":3,"out_sx":28,"out_sy":28,"layer_type":"input"},{"sx":3,"sy":3,"stride":1,"in_depth":3,"out_depth":12,"out_sx":28,"out_sy":28,"layer_type":"conv","l1_decay_mul":0,"l2_decay_mul":1,"pad":1,"filters":[{"sx":3,"sy":3,"depth":3,"w":{"0":0.01534634714744045,"1":0.23408044456021893,"2":0.25952599748517485,"3":0.03829896954560404,"4":0.07412370298380326,"5":-0.0768814870595484,"6":-0.0779209793071415,"7":0.11468897714086876,"8":0.03654751641930114,"9":-0.20720644801685661,"10":-0.44783761112311327,"11":-0.446735272908537,"12":-0.11084123423784681,"13":-0.2742556482466028,"14":-0.09674597951362711,"15":0.10681488586032692,"16":0.07235854524402839,"17":-0.1202516969250499,"18":-0.037999633973549087,"19":0.10613899513063135,"20":0.19316607518935228,"21":-0.007794470104866943,"22":-0.27589469584872256,"23":-0.21522747351477164,"24":-0.2181186320050276,"25":0.11087175074029115,"26":-0.12604165750937119}},{"sx":3,"sy":3,"depth":3,"w":{"0":-0.03814967438709133,"1":0.12468432085308051,"2":-0.08441435969516302,"3":-0.011796770905137116,"4":-0.12555907753753726,"5":-0.05568184276369256,"6":-0.047910240960661245,"7":-0.1644480770907927,"8":-0.04005700614621908,"9":-0.1144994138442178,"10":0.20834971300842017,"11":0.1454802283688367,"12":-0.15677727895165305,"13":0.31142357214194666,"14":-0.1291855939853778,"15":-0.1786563965247916,"16":0.20400558955505857,"17":0.30882816626382087,"18":0.024301288372567273,"19":-0.30050755182664973,"20":-0.06251125234352745,"21":0.14640694873974885,"22":0.015897830860008743,"23":0.3141621128794533,"24":0.11129407614272391,"25":0.0627184174272793,"26":0.12246811565808018}},{"sx":3,"sy":3,"depth":3,"w":{"0":0.0354365661260711,"1":0.13693947571138734,"2":0.19697229217959897,"3":-0.020732047515017664,"4":0.2188556294132025,"5":-0.27726045211572153,"6":0.25076339551016014,"7":0.10806128306986565,"8":-0.06212492096203748,"9":-0.2096135013981991,"10":-0.24768961379432833,"11":0.06436986554451564,"12":0.048653321455603006,"13":-0.11972105257315484,"14":-0.04238724202673874,"15":0.19233760880198608,"16":-0.026953542763393405,"17":0.1267596305978649,"18":-0.0028834016351763237,"19":-0.08166818758937745,"20":-0.2794393297166255,"21":-0.21768925939647754,"22":-0.22326790484084222,"23":0.1980734434494647,"24":-0.2379865456322034,"25":0.2758510912796273,"26":0.3020694772365879}},{"sx":3,"sy":3,"depth":3,"w":{"0":-0.10449266154433447,"1":-0.4971391816626948,"2":-0.6524641328933979,"3":0.30666509059142044,"4":-0.023101186772546405,"5":-0.32805117304180714,"6":0.128091384211113,"7":-0.16127514737901427,"8":-0.18430639255752068,"9":0.1881745518166023,"10":-0.30261073439024816,"11":-0.12896497711932706,"12":-0.10872490730491713,"13":-0.12424444843927497,"14":0.20704706306664683,"15":-0.13632285416216494,"16":0.16889245997029678,"17":0.07861995909608754,"18":-0.17850871924647982,"19":-0.0488908198952601,"20":-0.14425895320151733,"21":-0.02002284259492579,"22":-0.22044036058386585,"23":0.16649077202407175,"24":0.10953394225605527,"25":0.06824382166361943,"26":0.10927136586277476}},{"sx":3,"sy":3,"depth":3,"w":{"0":-0.013020704236998231,"1":-0.09906326707199481,"2":-0.056387088860820736,"3":-0.03885534406236931,"4":-0.26929660641893577,"5":0.34522630381899444,"6":-0.13350718634621417,"7":-0.4369829022050021,"8":0.0039295973986264165,"9":0.21446448552511305,"10":-0.09018860920657616,"11":-0.16936373139905078,"12":-0.03902999492935055,"13":-0.11056132968388671,"14":0.12542206582736617,"15":0.20726651727666034,"16":-0.23280201655653662,"17":-0.031015637879050897,"18":0.1263206894054632,"19":-0.07967386437481164,"20":0.045420155639394326,"21":-0.3101962802816197,"22":0.03450561681645381,"23":0.049491280096836995,"24":0.1471720906395562,"25":0.21950764082083551,"26":-0.04911384131268742}},{"sx":3,"sy":3,"depth":3,"w":{"0":0.007134968088526505,"1":0.3119909932842191,"2":-0.0462325106046685,"3":-0.133176286827909,"4":-0.31908576652366416,"5":0.18999737399479422,"6":-0.2628874437435601,"7":0.28487782615413676,"8":-0.19521303245321198,"9":0.17911170137891777,"10":0.042316767679656364,"11":0.17988584048796624,"12":-0.082263990701391,"13":0.10219029652316952,"14":0.10323156835203692,"15":-0.21605188781368453,"16":0.196147640809734,"17":-0.06239607691611932,"18":0.12078668761789364,"19":-0.1357704942604346,"20":-0.053767381469049885,"21":-0.3506685425456676,"22":-0.2300103293735418,"23":0.12922944216182466,"24":-0.10359211027319132,"25":0.07895855226995058,"26":-0.04411354034014097}},{"sx":3,"sy":3,"depth":3,"w":{"0":0.11359245934509825,"1":0.08541224039120537,"2":-0.022768002279934155,"3":-0.0172020500467658,"4":0.25581075135126113,"5":-0.08358499709240617,"6":0.08582570565157524,"7":0.23079068594834531,"8":-0.24947414027114578,"9":0.10086008820406066,"10":0.09438949732547036,"11":0.046659472332329574,"12":0.03611817598647802,"13":0.24569712380687317,"14":-0.06061046605376709,"15":-0.057482288576760916,"16":0.35217680514947003,"17":-0.0872054630067261,"18":0.1396715787800182,"19":0.02458227788947008,"20":-0.17458546889409937,"21":-0.13835028365102248,"22":0.13839995538144753,"23":-0.13687496432731278,"24":-0.08217419462816128,"25":-0.17065061090443148,"26":0.20900689387369187}},{"sx":3,"sy":3,"depth":3,"w":{"0":-0.18138402546168983,"1":0.22767522031318058,"2":0.07474160986287388,"3":-0.03820022397704456,"4":-0.1468919943242672,"5":-0.1683023542734842,"6":-0.21552372598062744,"7":0.30089147766349017,"8":0.1342926505204602,"9":-0.02735194179222634,"10":-0.3421717851947135,"11":0.03710925557958179,"12":-0.11623878378505179,"13":0.03370165808805876,"14":-0.040044807858496324,"15":-0.023686263113297322,"16":-0.15390898762195193,"17":0.08057623711415238,"18":-0.2001940298072105,"19":0.14618468477005808,"20":-0.24488163331210355,"21":0.000013454667424972569,"22":0.27499350271763684,"23":-0.08556665126409708,"24":-0.036659797981735895,"25":-0.1354773074582564,"26":-0.14927739338805063}},{"sx":3,"sy":3,"depth":3,"w":{"0":-0.20315151530083148,"1":-0.20826368204002135,"2":-0.44945884747379594,"3":-0.04179686485903814,"4":-0.2611005323345146,"5":0.15131741977223898,"6":0.07539286489305408,"7":0.08763683388848162,"8":0.0884674291919705,"9":0.014189321675825333,"10":-0.22992572829711094,"11":-0.2805595984424576,"12":-0.10858153147848464,"13":0.23012019336195244,"14":0.0030983355207748428,"15":0.11112401650042344,"16":-0.014062870082483065,"17":-0.221978670641254,"18":-0.04717324973074101,"19":0.23156017719095476,"20":0.11868462918899422,"21":-0.12494264693300695,"22":0.09996409319842303,"23":0.19873667891974037,"24":-0.013729305715781527,"25":0.030311983170187008,"26":-0.11806378685560817}},{"sx":3,"sy":3,"depth":3,"w":{"0":-0.16771118650164463,"1":-0.21100732313744117,"2":0.40948136246722316,"3":-0.24487198792833817,"4":0.0937374788237116,"5":-0.060068277583688795,"6":-0.07719023727066485,"7":0.05958676066013916,"8":0.06397701404359792,"9":-0.3122212108022906,"10":-0.2409488532597712,"11":0.16457035286435262,"12":-0.14630965503482035,"13":-0.15835031506089403,"14":-0.2007739349528074,"15":-0.5313766216876228,"16":-0.18023847869008197,"17":0.22929714341904014,"18":-0.06461753644152692,"19":-0.18664440841900176,"20":0.22104192567870412,"21":-0.1496658234625284,"22":-0.18178847921921293,"23":-0.15159337713111334,"24":-0.15839619921648507,"25":0.20493242715794013,"26":-0.1691459120147907}},{"sx":3,"sy":3,"depth":3,"w":{"0":0.34248257834125473,"1":-0.0129954820702212,"2":-0.5612702282534895,"3":0.11692511189664409,"4":-0.0028608774357413262,"5":-0.43602444178800054,"6":0.019430391177225326,"7":0.22308472024067322,"8":-0.022713315223798047,"9":-0.08961385935634539,"10":-0.016248497173398047,"11":0.1392695064025933,"12":-0.1205638853028209,"13":0.1698071920160309,"14":-0.2916206711247531,"15":0.24456284743407725,"16":0.236976984060814,"17":-0.555958189452555,"18":-0.24037093663527118,"19":0.3302922518871294,"20":-0.08333185764313374,"21":0.07667490471983407,"22":0.02939783019810164,"23":-0.1780625095528099,"24":-0.10093752567024564,"25":0.28031952192634235,"26":0.049611597782890156}},{"sx":3,"sy":3,"depth":3,"w":{"0":-0.43795976229547234,"1":0.06933099694207644,"2":-0.38576884810598355,"3":0.06687790575697322,"4":-0.052636340663944986,"5":0.17558606460952167,"6":-0.14517216193149296,"7":0.27214584349046167,"8":0.3427339419539757,"9":-0.1456433870734853,"10":-0.05094640443403266,"11":-0.43436108385760136,"12":-0.17129199172943557,"13":-0.33141363627850057,"14":-0.36104073711141915,"15":-0.22278604380420536,"16":-0.43023509096041496,"17":-0.11708937135671953,"18":0.05623061288851428,"19":-0.17493187754945236,"20":0.10541475897898286,"21":0.013403814536059414,"22":0.10047951992110996,"23":0.06553706527248133,"24":0.38683833842611587,"25":0.1360096304057113,"26":-0.01642284118587289}}],"biases":{"sx":1,"sy":1,"depth":12,"w":{"0":0.11661202841756721,"1":-0.05877711183170941,"2":0.0355281666534566,"3":0.041665714747094275,"4":0.039892666426403406,"5":0.1300248100454667,"6":-0.18349651370311945,"7":0.06475119739986102,"8":0.11864099140237495,"9":0.0697684212126248,"10":0.1325857911147345,"11":0.07070494820136683}}},{"out_depth":12,"out_sx":28,"out_sy":28,"layer_type":"relu"},{"sx":2,"sy":2,"stride":2,"in_depth":12,"out_depth":12,"out_sx":14,"out_sy":14,"layer_type":"pool","pad":0},{"sx":5,"sy":5,"stride":1,"in_depth":12,"out_depth":18,"out_sx":14,"out_sy":14,"layer_type":"conv","l1_decay_mul":0,"l2_decay_mul":1,"pad":2,"filters":[{"sx":5,"sy":5,"depth":12,"w":{"0":0.08013266520169939,"1":-0.029798538634358943,"2":0.050585958102194906,"3":0.04135694867296178,"4":0.038782193403447324,"5":0.14291964198939255,"6":-0.164911748803652,"7":0.05862994580025761,"8":-0.11762911783347181,"9":0.08034039608105659,"10":0.1777923545190637,"11":-0.061611501699579393,"12":-0.0011948706661137386,"13":0.04883952836991264,"14":0.13864805224350268,"15":-0.08126215817751939,"16":0.00815126752863152,"17":-0.10037151659644902,"18":0.1275568987907567,"19":-0.005874497807992017,"20":-0.02650883268764091,"21":0.03704198502253203,"22":0.08385807298450314,"23":-0.10296865529646297,"24":0.09853894505340603,"25":-0.03442886255792235,"26":0.008184372502826389,"27":0.07933840269738085,"28":-0.06760927538104461,"29":0.12215880892994718,"30":0.05419433331613443,"31":0.05338171009889125,"32":0.1082974716998815,"33":-0.0028837872486434306,"34":-0.23777267155898488,"35":-0.034113594618087294,"36":0.015021764760864939,"37":-0.05379623849048937,"38":-0.1455422852769458,"39":-0.07871922072835907,"40":-0.1978192208816537,"41":0.04711175546767389,"42":0.09031641424118662,"43":0.018640316143139546,"44":0.03086835100237261,"45":0.018936639083227444,"46":-0.07347683509628222,"47":-0.021290575421969896,"48":0.05088979642939953,"49":-0.04713839604539135,"50":0.13303999862991017,"51":-0.022877480926324585,"52":-0.16166768315400296,"53":0.06150939844021731,"54":-0.11305790513431875,"55":-0.03653938683365974,"56":-0.11977392743999574,"57":0.05253940426310024,"58":-0.22487151778218978,"59":0.11133537653301011,"60":-0.1526749263102174,"61":-0.006173724885405754,"62":0.02516249378280479,"63":0.04701334904700697,"64":0.13513994294258513,"65":0.2561608268620569,"66":-0.2716614032872303,"67":0.02014245525864327,"68":0.03076461117935131,"69":0.08587501231604176,"70":0.08228544601691332,"71":0.054696986443802324,"72":-0.055994417928701856,"73":0.11684338791341647,"74":0.07769419444070723,"75":0.007762920403619623,"76":0.09762622213776138,"77":0.004008422713849649,"78":-0.06785630161586019,"79":-0.028639836061043308,"80":-0.03593729483350475,"81":0.10959288251418323,"82":0.09066050730675233,"83":-0.1347671692203043,"84":-0.11622743218374808,"85":0.04548225002200636,"86":0.07256623009781096,"87":0.017962935604406375,"88":0.06481492975672326,"89":0.14936205161072721,"90":0.03837367885724121,"91":-0.028749403663321866,"92":0.06497086325080041,"93":0.07290594036896134,"94":0.006302178557581696,"95":-0.01410164952011401,"96":0.04906442998317941,"97":-0.010387172183912342,"98":0.02649836331881743,"99":0.004944205009638476,"100":0.17121796197607303,"101":0.06811323947916241,"102":-0.13515786443450076,"103":-0.07089211626753042,"104":0.0017977674666459563,"105":0.13323340597578265,"106":0.015390946253456855,"107":-0.07053773765989288,"108":0.0026778375455956548,"109":-0.09157791928073335,"110":-0.005162097797908979,"111":-0.045194925711939615,"112":-0.049552046290353986,"113":0.01156264240096733,"114":-0.24297022460367654,"115":0.05185756850027854,"116":0.03165179404984223,"117":-0.12339905061704112,"118":-0.2209490531712912,"119":-0.11885281535048045,"120":0.04008942779585221,"121":0.001730740444674164,"122":-0.23320187012369187,"123":0.03272735642295393,"124":0.21181028328660886,"125":0.05033413449748456,"126":-0.0729395546114674,"127":0.09356694934878784,"128":0.05047750481871009,"129":0.05041621476441848,"130":0.05844121400949598,"131":-0.08863544770861378,"132":0.04277241693939756,"133":0.02305278791617441,"134":-0.13068966197284573,"135":0.049266898361600815,"136":0.1998325876264325,"137":0.1729136934886773,"138":0.02327063492930703,"139":0.11054951946125485,"140":0.08630556861883766,"141":0.009422152231189248,"142":0.17692817180640893,"143":0.1354406343547668,"144":-0.06804839719294119,"145":-0.04728376023573245,"146":0.0015114709018434352,"147":0.0675134923752665,"148":0.08705057815924028,"149":0.14027089001994786,"150":-0.05854941876695131,"151":0.015288187854583614,"152":-0.041473344035746824,"153":-0.09250456844048169,"154":0.14874870040471497,"155":0.02143221102707581,"156":-0.10159073236050345,"157":0.1265795437453613,"158":0.12419250257086892,"159":0.023700288924726906,"160":0.040487492362322464,"161":-0.191848992830193,"162":-0.10872625734657479,"163":0.02102633556904777,"164":0.0796213743896349,"165":0.034165549193337495,"166":-0.042792589029761074,"167":0.05256708033698379,"168":-0.09963069179700401,"169":-0.07791302751499678,"170":-0.006985928163497877,"171":0.0311396360866997,"172":0.03430723374983736,"173":-0.15475017358831647,"174":-0.05252224330146505,"175":-0.020187337421093476,"176":0.11496700941231645,"177":-0.08207499086510543,"178":0.0707281987502201,"179":0.04162240693936696,"180":0.0012383393182937887,"181":0.02939732235072866,"182":-0.06297199546983949,"183":0.09755031927500131,"184":0.04765673719617802,"185":0.03020302006332323,"186":0.14228611177526376,"187":-0.04957437765537131,"188":0.0874701064165206,"189":0.021716674523529402,"190":0.05208699270162994,"191":0.07204083213173598,"192":-0.05587933821301698,"193":0.010006395123864375,"194":-0.0434244067500607,"195":0.04676395113142988,"196":0.19234087078908563,"197":0.006393495829624355,"198":-0.16040035132490596,"199":-0.07150700635592976,"200":0.016739997404834506,"201":0.11813124397096171,"202":0.15371909380869525,"203":-0.07500226685987356,"204":-0.04059017183209719,"205":-0.024490133105056995,"206":0.07003141250452995,"207":0.15108220735149147,"208":0.030062320879595317,"209":-0.005399899649278556,"210":-0.11842426844836486,"211":0.06996291335079965,"212":-0.10374027276844601,"213":0.028539063967151754,"214":0.1738578874748996,"215":0.016979270038501425,"216":-0.048904165694972176,"217":-0.0012525018157256574,"218":0.16857370531041233,"219":0.06518804752194693,"220":-0.015458819713754708,"221":-0.12048009568412842,"222":-0.11275503811631844,"223":0.002630114986174478,"224":-0.07301277512711458,"225":-0.017052047029220335,"226":0.009694409067577285,"227":0.04532709443300865,"228":-0.06775564103124646,"229":0.01337691703282712,"230":-0.12390480818614129,"231":0.04083775141777335,"232":-0.0411633794524196,"233":0.020387646815895007,"234":-0.014605323108116042,"235":-0.04409644678893317,"236":0.004291237168820464,"237":-0.006093363572048872,"238":-0.09860040238013343,"239":0.053580879199744864,"240":-0.0626285117255209,"241":-0.012141293004048807,"242":0.057589852250165705,"243":-0.08484674326814766,"244":0.05495904817743243,"245":0.028789126750293426,"246":0.11563690108621379,"247":-0.03544845758587971,"248":0.07139742745284598,"249":-0.18015850018536259,"250":0.04826111068905204,"251":0.018422456924263902,"252":0.055221607510030475,"253":0.14673265565990926,"254":-0.03549774787188612,"255":0.0423180720492066,"256":0.2292231702772567,"257":-0.1564319168415998,"258":0.043373716721270404,"259":-0.024058488947206164,"260":0.14416361651192952,"261":-0.051307643219881,"262":0.12352461082455152,"263":0.06532588953511076,"264":-0.014668750074550771,"265":0.06367504198251009,"266":-0.07369058639295333,"267":-0.05516087046099797,"268":0.1392457095089699,"269":-0.004564024613818757,"270":-0.05935921247646435,"271":-0.012218790312677093,"272":-0.030999296354695213,"273":-0.09255260573140442,"274":-0.015166774567920283,"275":-0.15535329515211593,"276":-0.020554703072364136,"277":0.07338523323963603,"278":-0.0389510898632819,"279":0.0070779529012345525,"280":-0.11881174771995716,"281":-0.08133673678534063,"282":0.05732935743369067,"283":0.06867429982421405,"284":0.05082937372639891,"285":0.019537777416162156,"286":-0.06644571380360251,"287":0.015079137364201682,"288":0.05770654763784737,"289":-0.033548618541131905,"290":-0.08652179892127347,"291":0.019883714968349297,"292":-0.13472968595711357,"293":-0.14475638313940953,"294":-0.04151807167755861,"295":-0.05475892672820921,"296":0.12662270078297727,"297":-0.10245687076019096,"298":-0.09918521497026338,"299":0.11010666870265719}},{"sx":5,"sy":5,"depth":12,"w":{"0":-0.06235069586378081,"1":0.04036942903986769,"2":-0.006018935361892314,"3":-0.005523399272479412,"4":0.018924237783249136,"5":0.02632587244262449,"6":-0.032687455393601864,"7":0.05616655281923577,"8":-0.01461196879258036,"9":-0.027288402517697347,"10":-0.0003453782989170562,"11":0.027130312738948902,"12":0.04960323808177891,"13":0.001381152684063595,"14":-0.05892138337273552,"15":-0.06642722597450014,"16":-0.03434046059014326,"17":-0.014138851937032383,"18":0.02234637770204665,"19":0.09131497779256326,"20":-0.08370627721715553,"21":-0.11532844049825917,"22":-0.007336211898178256,"23":0.054922626758529436,"24":0.00994409539813188,"25":-0.06891328190410222,"26":-0.0569805828557036,"27":0.011713387822842345,"28":0.027314320939390586,"29":-0.02518133747798058,"30":-0.000017980775816379757,"31":0.029605848539134155,"32":-0.005277128471117547,"33":0.03751515606718377,"34":0.06405863354194703,"35":0.07510911586853039,"36":0.038937238925529645,"37":-0.014896553626487249,"38":0.08119689221158112,"39":-0.037582760611947104,"40":-0.10077446282442709,"41":-0.06111837870883432,"42":-0.0844893908286931,"43":-0.05286427829888222,"44":0.021952025186276432,"45":-0.03912054546741591,"46":0.03392160331815705,"47":-0.010205527738309707,"48":0.034577896701637884,"49":-0.046056108322650224,"50":-0.06587700582204839,"51":0.007897420243359052,"52":0.01309549279742636,"53":-0.03659870968920579,"54":0.051723844156961594,"55":-0.044524664585013245,"56":0.04217825178396656,"57":0.015154600588524357,"58":-0.025174919111819846,"59":-0.10558367557983313,"60":-0.033434598788400556,"61":-0.03905669040698983,"62":-0.006846747774965039,"63":-0.02836417845155568,"64":0.03243049542099136,"65":-0.0021761329859369665,"66":-0.04605873252670891,"67":-0.0009741245732589128,"68":0.08021170238194943,"69":0.01595918909680127,"70":0.038738297346602966,"71":0.03471063039983856,"72":0.004047437198184675,"73":-0.04397482081857297,"74":-0.0955017742848426,"75":-0.022505080588712575,"76":0.04144323760166749,"77":0.021236570698539754,"78":-0.019391246119254066,"79":-0.0034333469751430604,"80":-0.01006777057763751,"81":-0.024948515714627948,"82":-0.028355309871942527,"83":-0.043452050786264615,"84":-0.011592249492511475,"85":-0.08439183651464968,"86":-0.00704496134261091,"87":-0.00933693549327786,"88":-0.01013991209124052,"89":-0.00009091421480752523,"90":-0.02391409113361999,"91":0.016067569847011777,"92":0.008055642029511935,"93":-0.04374224132971111,"94":-0.08009775962914986,"95":-0.019701311162520694,"96":-0.03137231838413641,"97":0.02714690860635161,"98":0.06535633584126735,"99":-0.05660974687266331,"100":0.01705466857438209,"101":-0.020071640327328392,"102":0.010634496894556828,"103":0.09942617788366592,"104":-0.04186287433206641,"105":0.012839251783785024,"106":0.0013944896755265792,"107":-0.002105639352624823,"108":-0.08156087981857363,"109":0.02753041703073994,"110":0.01627470290226295,"111":0.0019854500373044605,"112":-0.05946935804634572,"113":-0.02531914089443874,"114":-0.01044911112146672,"115":-0.024667482684265305,"116":-0.06294846398728429,"117":0.036265925142894506,"118":-0.015158298018510874,"119":0.02281151213561708,"120":-0.0016175013688392139,"121":-0.0539793872139988,"122":-0.007631705973623958,"123":-0.013395955421077738,"124":0.07427909130913206,"125":-0.13394463964103892,"126":0.022792084435697794,"127":-0.005557298348420147,"128":0.015094914777563024,"129":0.004828973664308151,"130":-0.03607381909401406,"131":-0.0025282340283660784,"132":0.04065810227497178,"133":0.003199693837687114,"134":-0.02831379635536708,"135":-0.06413818154596791,"136":-0.009515431182788562,"137":-0.02955592911364063,"138":0.03491814123786278,"139":-0.009002299989870148,"140":0.024066563476394798,"141":0.062049284597229325,"142":0.008374022679305477,"143":0.0663732710787376,"144":-0.045620420278505956,"145":-0.03997381868128544,"146":-0.058389747815829895,"147":-0.05107854103060304,"148":-0.04979205499894931,"149":-0.06449161602554107,"150":0.0520607938951634,"151":-0.05702135163551498,"152":-0.04352680306357306,"153":-0.008057848640184077,"154":-0.12380989616619427,"155":-0.10156256210299042,"156":0.03579265015131058,"157":0.015412219732000434,"158":-0.043377235061846875,"159":-0.020330160121382147,"160":-0.03298966253356846,"161":0.05233369927256226,"162":-0.057764703121764814,"163":-0.020881040167326167,"164":-0.06301309675173807,"165":-0.04842905577905714,"166":-0.06462306733482782,"167":0.013560238442335937,"168":-0.04883246565849209,"169":-0.07156382119213511,"170":0.037237219761274795,"171":-0.0475519647167976,"172":-0.06307663300338454,"173":0.03708369516118112,"174":-0.03141335001426457,"175":-0.06043847408305292,"176":-0.04986578073308823,"177":0.048255273173850984,"178":0.03582726520816998,"179":-0.04206436305522972,"180":-0.07940371771823476,"181":-0.001573001420317958,"182":-0.08942789215856706,"183":-0.045288360590507865,"184":-0.06901577430367364,"185":-0.1097560765929323,"186":-0.05235279322673789,"187":0.05386132346217933,"188":0.03863544427384614,"189":-0.0169502134909896,"190":-0.01616431390034449,"191":-0.016543136938900783,"192":0.009843069163880287,"193":-0.01470695121554846,"194":0.031611758568150586,"195":0.037997699163350315,"196":-0.013498515354123627,"197":-0.00956597999494768,"198":-0.0013019648828608771,"199":-0.1197327146156001,"200":-0.054063332455576846,"201":-0.030403547586849395,"202":0.04324726211793473,"203":-0.030192298411785008,"204":-0.0008826459942027722,"205":-0.09292297333168101,"206":-0.04581638426413468,"207":-0.028988687048483047,"208":-0.04654256128223781,"209":0.013573314628844917,"210":-0.046554991237373715,"211":-0.04702109735215027,"212":-0.0676502595309092,"213":0.09316367173312544,"214":-0.06258736571676761,"215":0.029511718523049537,"216":0.05907789404291846,"217":0.07527065403716383,"218":0.007258127837472971,"219":-0.0638252131178734,"220":-0.002353559485298062,"221":0.008235258296969989,"222":-0.01546746989649787,"223":-0.05554196696526231,"224":-0.01980708624992419,"225":-0.04848408402798542,"226":-0.0781196239521312,"227":-0.03847897171165899,"228":-0.04189768685708703,"229":-0.014971687027622842,"230":0.015403825427912849,"231":-0.09399864418695389,"232":-0.06520027699027763,"233":0.021528484722346163,"234":0.03241498392486367,"235":0.01693535784829445,"236":-0.030466467337253774,"237":0.024855654472407413,"238":-0.022951045426066807,"239":-0.029715914231145495,"240":-0.033629617297070424,"241":-0.062671525292237,"242":0.05821133797800424,"243":-0.01855278592879798,"244":-0.01980967536926522,"245":0.024023218115848427,"246":-0.057093081555112654,"247":-0.019889403712546865,"248":-0.018203114791595476,"249":0.03578181324270371,"250":-0.05106108415766628,"251":-0.028107125868160762,"252":0.023577495083184644,"253":-0.006544939193782243,"254":0.05827383084350097,"255":-0.02959122288698435,"256":-0.00207870125306244,"257":-0.07010771383602958,"258":0.017660566960817033,"259":0.0008399924296677085,"260":-0.03443745538261763,"261":-0.019608053745584966,"262":-0.0873892273969736,"263":-0.03486899606960318,"264":-0.046125724179559166,"265":0.01228740383665002,"266":0.03695109620530685,"267":-0.04389197916990828,"268":0.020896480027437794,"269":0.03946273427003027,"270":-0.0029603849321866316,"271":0.042986741678281225,"272":-0.03385357405233688,"273":0.09860095724701638,"274":-0.0174278647528529,"275":0.03079488168022612,"276":0.039226027670715,"277":0.031138242458672607,"278":0.02363993657374582,"279":0.03464816036795449,"280":-0.016115807366860187,"281":-0.08520892845801542,"282":0.011941240346075903,"283":0.006063514051538727,"284":-0.028974433681793796,"285":0.0249159215991509,"286":-0.031675667978845475,"287":0.0008276295568990366,"288":0.0008739261625532778,"289":-0.08324958607050431,"290":-0.020321997587730654,"291":-0.05129022269329808,"292":0.03960784084728112,"293":-0.016583518472378784,"294":0.005253098042473653,"295":0.008570700517460813,"296":-0.02052720917706086,"297":0.09101230499303678,"298":-0.05709966902358565,"299":-0.07991040845738287}},{"sx":5,"sy":5,"depth":12,"w":{"0":-0.005249867385635497,"1":-0.05165764599111152,"2":0.013489052948573452,"3":-0.040473815719567714,"4":0.10092276245891449,"5":-0.018869739264581187,"6":-0.1110031322285543,"7":-0.09386029127956984,"8":0.028514860010960187,"9":-0.0348926715334742,"10":0.06027587317942381,"11":-0.034858797819954206,"12":-0.10161049013260715,"13":-0.04502320548843203,"14":0.01776011961298908,"15":-0.05476257905044375,"16":-0.05023256888235938,"17":-0.07649456241191364,"18":-0.014991707478838882,"19":-0.1005976075184601,"20":0.07179584316239598,"21":0.007927777479802028,"22":0.010332506095300831,"23":-0.041804266217054575,"24":-0.02910590489874472,"25":-0.01834135126998805,"26":0.015631571469675518,"27":-0.00448440454334424,"28":0.044174048716727435,"29":0.08457928479211549,"30":-0.048721392445301034,"31":0.002960808560720019,"32":0.01422424330371641,"33":-0.03679165211672397,"34":0.07989716124971186,"35":0.014633498180537318,"36":-0.02275505379918354,"37":-0.036072919247480566,"38":0.0011305270937032807,"39":0.03975226360054076,"40":-0.0796485196011585,"41":0.045707173243608415,"42":0.0003964928849865771,"43":-0.020619200236901895,"44":0.028146034177154725,"45":-0.031239308303916684,"46":0.03552080762223087,"47":0.008061939148912775,"48":-0.026544470914276502,"49":-0.12554471303659465,"50":-0.05087741872098029,"51":0.07802782081225185,"52":-0.018616239733958304,"53":-0.04619156842260175,"54":-0.10797352689786514,"55":-0.04508068675321908,"56":0.002138060941694685,"57":-0.0046010436021304175,"58":0.10241019468041362,"59":0.010653366057050515,"60":-0.02529401446565357,"61":0.15548206080573615,"62":-0.05730711549265062,"63":-0.08500063171748154,"64":-0.027620667840781186,"65":-0.013478689218709271,"66":0.011575542478221266,"67":-0.027979868734230903,"68":-0.056225663130151864,"69":0.014918891006627272,"70":-0.05392758663978548,"71":-0.019940536302653942,"72":-0.0065109114910548785,"73":-0.1273193851416438,"74":-0.035678172444165664,"75":0.0012006846810177052,"76":-0.01997404393132111,"77":0.08070290536335617,"78":0.0006689669973092241,"79":-0.030002627775867728,"80":0.017438855153817066,"81":-0.012177701507398634,"82":0.07596828906182593,"83":-0.030570587375817825,"84":0.020532516360443002,"85":-0.16089310714102065,"86":-0.15099638203138796,"87":-0.03288793628213494,"88":0.008401254838822942,"89":0.008101704963163446,"90":-0.05245086841259249,"91":-0.0025774125131681875,"92":0.01209093635146443,"93":0.013231248055287173,"94":-0.12996503021075007,"95":0.050994853591982386,"96":-0.04101117987508485,"97":-0.0005500439091137763,"98":-0.04061849923182835,"99":-0.0348797430664366,"100":-0.008617361489944787,"101":-0.06509838005759437,"102":0.006168950043829421,"103":-0.025167534876187427,"104":-0.005835962231171869,"105":-0.016446521527383195,"106":0.04695103428688777,"107":-0.06687044185596039,"108":0.024550372991936263,"109":-0.043957530205853024,"110":-0.09891596223231923,"111":0.042246325461961616,"112":0.03421556331509407,"113":0.027934721905632752,"114":0.0006950408645146564,"115":0.01852469081271179,"116":0.006821047119338244,"117":-0.06488128258470877,"118":0.007554874798415518,"119":0.03203026929630971,"120":0.011697702732867703,"121":-0.09416811058472187,"122":-0.14849249994803856,"123":-0.04925528839960065,"124":-0.04353078349213833,"125":-0.00570725766920782,"126":0.07616255157195179,"127":-0.051754466348273125,"128":0.03132329711216631,"129":0.031629147814477364,"130":-0.09236844833970854,"131":-0.044150479923496015,"132":0.0830116868361853,"133":-0.08242743476658827,"134":0.047995735958974876,"135":-0.014347271293725337,"136":-0.03316873604296544,"137":0.04070520360875114,"138":0.0879447375539187,"139":-0.027060397891981527,"140":-0.09279043832386674,"141":-0.04308887006113996,"142":0.01755892923087715,"143":-0.040163938989801876,"144":0.05792304896681194,"145":-0.1564849798414742,"146":-0.04299878050275131,"147":-0.008337620181013675,"148":-0.1159090794859222,"149":0.06353760874398309,"150":0.11056778843150798,"151":-0.09742736045716568,"152":-0.0352498825630726,"153":0.03245806189645792,"154":0.08634995396496706,"155":-0.00823842761045511,"156":-0.005692751313395308,"157":-0.07225616542643572,"158":0.02397240337138677,"159":-0.09053716867004355,"160":-0.05041067200909894,"161":0.0036630495336929525,"162":-0.07438917493578538,"163":0.09582405375132606,"164":0.05932836896477393,"165":-0.02420122595018607,"166":0.15391610543536297,"167":-0.018874228877031964,"168":-0.04682836191904073,"169":0.01513494271693213,"170":0.1334012512661474,"171":0.01582908015679963,"172":0.033487912042890915,"173":-0.04675605677618747,"174":-0.05124357461272353,"175":0.047191945229843886,"176":0.049321248932578145,"177":0.0035928418026238062,"178":-0.031305585177950214,"179":0.05065559468366997,"180":0.017160065553023872,"181":-0.014303896721588162,"182":-0.027614674863343156,"183":-0.07064089415910162,"184":-0.05633225387922739,"185":0.02854121957272144,"186":0.04920560619652004,"187":-0.08335180558147644,"188":0.07151674761408394,"189":0.05323782968710667,"190":-0.11396681588790292,"191":-0.005827386594546072,"192":0.08938896139129682,"193":-0.07695492576109388,"194":0.11993594755158223,"195":-0.01052576001258652,"196":0.07204765682081284,"197":-0.03846237415424142,"198":0.010277154797554474,"199":0.08348409496791563,"200":0.03981929223861692,"201":-0.0011199972928621134,"202":0.039635619509516384,"203":-0.0008722795422198874,"204":0.02639255142090481,"205":-0.09363553547449731,"206":-0.01471632112350958,"207":0.061443246474077284,"208":-0.046351165621099734,"209":0.0039403723641029675,"210":-0.0627071399407789,"211":0.05457949993059009,"212":-0.01844732830327344,"213":-0.06277222392759707,"214":0.141941897913945,"215":0.03854491360825038,"216":-0.06172431863649893,"217":-0.05777246974867255,"218":0.011568915148864396,"219":-0.047788188596282685,"220":-0.08629882823007887,"221":0.07440472679851114,"222":-0.09625645820041571,"223":-0.03566932678702109,"224":-0.0266678653415949,"225":-0.020149987385452612,"226":0.10194653911498627,"227":0.043182198591439465,"228":0.0639129994094473,"229":0.03757825066534663,"230":0.1391345984504198,"231":-0.0147628304621784,"232":-0.12922281178142936,"233":-0.008482308740699607,"234":-0.08713876372004538,"235":-0.075853294858977,"236":-0.13728930656052116,"237":-0.054021516414974616,"238":-0.029109762267236036,"239":0.15225186752584494,"240":0.02410560039850445,"241":-0.13858671205909415,"242":-0.1285849424962009,"243":-0.03421139308641406,"244":0.08402538638042664,"245":-0.04632498452830584,"246":0.07215160589710135,"247":-0.04368692831777774,"248":-0.001420941010196456,"249":0.01384594292595928,"250":0.018198724301183525,"251":-0.03661343152359894,"252":-0.003969096306862657,"253":-0.13183079993382824,"254":-0.13297685937892026,"255":-0.08247640088145283,"256":0.09896276005369958,"257":-0.043736553583269396,"258":-0.045782286800586464,"259":0.01354906293439758,"260":-0.011564536191001472,"261":-0.015918934448939173,"262":-0.05666575470786081,"263":-0.01727487989412712,"264":0.03143030774029345,"265":-0.0613179566217906,"266":-0.13725362639232067,"267":-0.03668540192194554,"268":-0.005434784616386394,"269":-0.034780777601350545,"270":-0.04390990124161975,"271":-0.09089352953586984,"272":-0.0561724467728971,"273":-0.016951236065389782,"274":0.009230231733654913,"275":0.0011957181085285292,"276":-0.07596081183069661,"277":0.10237674459231474,"278":0.04784238063077308,"279":0.013308784964278163,"280":0.03228640716153183,"281":-0.08557242919552122,"282":-0.01547910935366423,"283":-0.08399964826496904,"284":0.02370158972990923,"285":-0.019785789715723322,"286":0.0448703140046989,"287":0.11815694482078254,"288":0.07733867626687449,"289":0.03003474881371009,"290":0.07010877009561832,"291":-0.030758351116319686,"292":0.0978678999375549,"293":-0.09421622328490775,"294":0.08550284916108983,"295":-0.01442239852404416,"296":0.039848792378999534,"297":0.06277418284558664,"298":-0.02183067637561525,"299":-0.10710700195789008}},{"sx":5,"sy":5,"depth":12,"w":{"0":-0.05144028581695685,"1":0.03319530548339752,"2":-0.004267568558953961,"3":-0.03990346825022071,"4":0.027765061896083305,"5":-0.0015449011240885823,"6":-0.03541715757638433,"7":0.02455532798251984,"8":-0.039705173727887,"9":-0.07681741730513757,"10":-0.009599043583160312,"11":-0.07912077773221592,"12":0.007254615956859835,"13":0.02275409789577669,"14":-0.0007574853279245017,"15":0.006103470640977825,"16":-0.0021895828766273265,"17":-0.07910117291356278,"18":0.04241526037284476,"19":-0.0009872321815289848,"20":-0.0004164186848586942,"21":0.01627498780638512,"22":0.04940348954217011,"23":0.026463253087471793,"24":-0.05103719099197969,"25":-0.015778166354606403,"26":0.005431793531110996,"27":0.027718328200379557,"28":-0.016525965358229155,"29":-0.04673655038874795,"30":0.008216918994332916,"31":-0.0245923947676695,"32":0.06996850322572781,"33":-0.013949763162582283,"34":0.020678345902737733,"35":-0.041469059254693456,"36":0.0077205406443121675,"37":-0.005202209850115276,"38":-0.011712252084457874,"39":0.08509120033733103,"40":0.02965989137041323,"41":-0.017313456938662868,"42":-0.05651144623409569,"43":-0.04159290480253215,"44":-0.042704658381775396,"45":0.02543633200701769,"46":-0.031736889581633586,"47":-0.021102775605860154,"48":-0.038717686747846286,"49":0.006903350616063855,"50":-0.06277953028920301,"51":-0.034749013118477674,"52":-0.0064031121763712985,"53":0.028632450270202003,"54":-0.026044251051855875,"55":-0.0251992848822288,"56":0.03818174351427012,"57":0.06032629983790449,"58":0.065914461037415,"59":0.02848278283878087,"60":-0.007420697408250183,"61":-0.017041912360692135,"62":-0.031365032856779315,"63":0.0155362192496923,"64":-0.09440448147831748,"65":0.007950101650453708,"66":-0.0029648550699599516,"67":-0.05734308118553281,"68":-0.022141396196167396,"69":-0.011663574271962317,"70":-0.03131980576535204,"71":-0.01623282967348907,"72":0.007720981606361578,"73":-0.0052831713128862375,"74":-0.039275227192199405,"75":-0.041532676603197136,"76":-0.01644330178281291,"77":-0.06136217075321568,"78":-0.025916715390023163,"79":0.007166098934683001,"80":-0.030521866257747412,"81":-0.038914177709546895,"82":-0.0436934344396615,"83":-0.06356882763574008,"84":0.015300843355379854,"85":-0.09763911128931192,"86":-0.031328945499154666,"87":0.007884973946085913,"88":-0.004149026346933531,"89":-0.019334503520612653,"90":0.021158673588410584,"91":-0.01210354948609766,"92":-0.031884671949912444,"93":0.12086864072782252,"94":-0.12461638528181693,"95":-0.03712749007184604,"96":-0.040337466931775895,"97":0.027572876282100867,"98":-0.053990862163088564,"99":0.04537581095931866,"100":-0.0006204130116730307,"101":-0.053430735476475,"102":0.04161640239188895,"103":-0.036187746624940634,"104":0.02858194809892022,"105":-0.028307307885577733,"106":-0.03627646575992464,"107":-0.02915716483403628,"108":0.03499835236088685,"109":-0.05076685326736387,"110":0.08007249148120782,"111":-0.027664814438137446,"112":-0.06240710668449169,"113":-0.04657887111675986,"114":-0.09747714071156163,"115":0.00020884442100811807,"116":-0.019995535572924005,"117":-0.006079046853021979,"118":-0.009697432133132592,"119":0.034270243606840035,"120":-0.026017452871577185,"121":0.000837177578623751,"122":0.00498803895299534,"123":-0.015249844188924278,"124":-0.07985326901746076,"125":-0.06784669806615849,"126":-0.0005665291912302916,"127":-0.03452493407567462,"128":-0.04260201065062134,"129":0.035401175315415506,"130":-0.050685776896407755,"131":0.044781885615172476,"132":-0.009090246409569942,"133":-0.050634513985455584,"134":0.037370365070892204,"135":-0.043445453023458924,"136":-0.002351516882408229,"137":-0.05886601354847824,"138":0.011189322452748115,"139":-0.010020785676958483,"140":0.03146495729556857,"141":-0.06252016373227566,"142":-0.02414718664549313,"143":0.008431007688816347,"144":0.03529589608943121,"145":-0.05396083145633676,"146":-0.10169367402866257,"147":-0.06451882635692738,"148":0.024724248256103285,"149":0.0004719472955199398,"150":-0.02925189898969341,"151":-0.032162944444610216,"152":-0.03758120320893704,"153":0.007208697640234521,"154":-0.12209755658262696,"155":-0.027339005484300766,"156":-0.009670978634833441,"157":-0.05339248841592037,"158":-0.004473208170493346,"159":0.0016180416719375093,"160":0.0627117829871964,"161":-0.012655013844019325,"162":-0.044765191871270094,"163":0.004765776281968938,"164":0.0025558399950417095,"165":-0.016570475092396314,"166":-0.19241766327590348,"167":-0.07744395335088086,"168":0.046127865405803097,"169":0.009100713932724495,"170":-0.024576789394428592,"171":-0.05198796943103055,"172":-0.06991059775537516,"173":-0.014153426468518198,"174":0.0374017455666277,"175":0.0673848113314907,"176":-0.007717480236507926,"177":-0.023144896537031858,"178":0.024406179844382165,"179":-0.044126696846295506,"180":-0.08217621022833571,"181":0.007334794001021293,"182":0.013986872961381451,"183":0.004487709852004265,"184":-0.015830646093074188,"185":-0.006283822812826161,"186":-0.08012637484107181,"187":-0.04371939666785303,"188":-0.03998356227983569,"189":-0.01535403608765657,"190":0.03495340057981603,"191":-0.027675566963720002,"192":-0.012015379697066004,"193":-0.06569004308304406,"194":-0.0013699281866697906,"195":-0.03521521920598034,"196":0.03241099232553022,"197":-0.02263994711561282,"198":0.03179963143684936,"199":0.026723490643017895,"200":-0.020568991575574253,"201":-0.021842490245594627,"202":-0.07536210747746534,"203":0.030745825604658404,"204":0.006693876624791429,"205":-0.04264476776536859,"206":-0.022058078609391556,"207":-0.006372736084247347,"208":-0.0910407429145535,"209":0.08699415475817747,"210":-0.01348556496955888,"211":-0.018234332914897844,"212":0.0193584662835222,"213":-0.02338615631166245,"214":-0.040939800267563886,"215":-0.06670197064931989,"216":0.008368058583760213,"217":-0.03669298348327139,"218":0.011726211856075442,"219":-0.07805134337922526,"220":0.12803968758028084,"221":-0.08919444832695855,"222":-0.03349676252568521,"223":-0.0331602668555214,"224":0.11547327459826048,"225":-0.051613390179174906,"226":-0.05766324287411272,"227":-0.0026363098989283804,"228":0.0005765020723698999,"229":-0.10144579758230944,"230":-0.04177057266066521,"231":-0.08857326015455837,"232":-0.0028145105625893008,"233":0.10948443441587193,"234":-0.0028165907917285025,"235":-0.08782313896100499,"236":0.02853894726505905,"237":-0.04895063326022355,"238":-0.04671172746297249,"239":0.06551603751480847,"240":-0.030424417682029276,"241":-0.01676107615852051,"242":0.10148480828122425,"243":-0.017779145547290962,"244":0.029707780846160693,"245":-0.051073049355189595,"246":-0.040010160262380565,"247":-0.07166694417770637,"248":0.011122644928516424,"249":0.0478588132886679,"250":-0.016232465014316393,"251":-0.04311439846774993,"252":0.0009499612858375894,"253":-0.05657849739159263,"254":-0.043021437087944835,"255":-0.01404452109436133,"256":-0.03572728843767194,"257":0.021304083539180743,"258":0.09481191265065855,"259":0.04868212247753075,"260":-0.003672257033962786,"261":-0.050672434213834265,"262":-0.08039140566686558,"263":0.043918896021192616,"264":0.05953724054904009,"265":0.026219464982425687,"266":-0.02390279512239202,"267":0.02689325528434634,"268":-0.027427883216575452,"269":0.019507926666266183,"270":0.025296614630415618,"271":-0.03834509112433534,"272":-0.01502038394476616,"273":-0.09342566734464229,"274":-0.07483398060498092,"275":-0.0073963571783497925,"276":-0.011214062688878038,"277":-0.04952459077819214,"278":-0.020242381792248444,"279":-0.01859218759828355,"280":-0.05070937754237844,"281":0.03480104098250359,"282":-0.03270844184722807,"283":0.06344348698649716,"284":0.058727696947958055,"285":0.014530612771649583,"286":-0.018915299304467118,"287":-0.03469907213416212,"288":-0.03715255213958621,"289":-0.020676404347581785,"290":-0.07698741694474646,"291":-0.03916308588630752,"292":-0.10140220073176069,"293":-0.028567216295080078,"294":0.0652010351906266,"295":-0.0032406613903892085,"296":0.05502080719617926,"297":0.04870648367283815,"298":-0.06092756437608633,"299":-0.03558616391626211}},{"sx":5,"sy":5,"depth":12,"w":{"0":0.00860848901277735,"1":0.03261450368459182,"2":0.000575050132935106,"3":0.06448239196194933,"4":-0.03296945061835763,"5":-0.023828162948335566,"6":0.041252377027163986,"7":-0.03852221577801485,"8":0.0247864612761328,"9":-0.040272836738373965,"10":-0.11512390583242815,"11":0.0011607487529283465,"12":0.04210857450566871,"13":-0.10888230327540836,"14":-0.11906589052910588,"15":0.03430253450401955,"16":-0.07092586797243321,"17":-0.026632889065620207,"18":0.03425905235768023,"19":-0.030074517405121615,"20":0.02545769339667546,"21":-0.028361567665667962,"22":-0.07279594269365976,"23":-0.05489665004192705,"24":-0.03778784496572495,"25":-0.010519567583108602,"26":-0.05193238774132657,"27":0.023246686692238356,"28":-0.002439714172715939,"29":0.11856742343284249,"30":-0.041031917390963235,"31":0.00768149444073237,"32":-0.02775018888345251,"33":0.055775758537556286,"34":-0.06582809068785503,"35":-0.07018423918852819,"36":0.04453943858071751,"37":-0.014175840635850565,"38":-0.09620234988449146,"39":-0.016063485605888293,"40":0.02225006907181751,"41":0.04619608317448097,"42":-0.0005754686606822435,"43":0.06296640677286804,"44":-0.08547132832309232,"45":0.05650424477162279,"46":-0.05686884437231725,"47":0.038541595164982255,"48":-0.015521762487463394,"49":0.020001427458226112,"50":-0.04653744365737898,"51":-0.059433221146545354,"52":-0.03997905369636279,"53":0.03643073197071242,"54":-0.049826000700712775,"55":0.039341237716649956,"56":-0.03641077907970297,"57":-0.06592813883557395,"58":0.027952770735575096,"59":-0.07989672331213336,"60":-0.0018745548169146488,"61":-0.08073311420879363,"62":-0.061822021613901955,"63":-0.048216263654089216,"64":-0.018575581568030065,"65":0.06559251242190516,"66":-0.02512416954868861,"67":-0.01849393357665955,"68":0.05194450011801862,"69":-0.036678840083112965,"70":0.02721594190409963,"71":-0.04222211307316255,"72":-0.004051232208659102,"73":-0.031937596285915706,"74":0.00670028341380406,"75":-0.03749792302471143,"76":0.018731941581805547,"77":-0.06024507471887835,"78":0.023257148466450554,"79":0.01025358156064115,"80":-0.02292064308248079,"81":-0.0323124848479689,"82":-0.023788163912639295,"83":-0.019042657105307934,"84":-0.00928828976968107,"85":-0.028414912563527833,"86":-0.05634343281527464,"87":-0.027796149526982793,"88":-0.055999343750269555,"89":-0.013669176407020001,"90":-0.12394005840690837,"91":-0.027705516638692515,"92":-0.12108686990138479,"93":-0.020801037083679103,"94":-0.0794863721523161,"95":-0.036674958097902124,"96":-0.04170302313398911,"97":0.00008972375970336201,"98":-0.03500073033397147,"99":0.03577295318200051,"100":0.035594610022668755,"101":0.011807999754387864,"102":-0.022837880184494296,"103":0.012462640855878324,"104":-0.06292921860240384,"105":0.021927242421976207,"106":-0.042435405717123266,"107":-0.1119801135108789,"108":-0.006552643893652473,"109":-0.037133592254507665,"110":-0.06530111451776625,"111":-0.007037775969021143,"112":-0.044535425065911745,"113":-0.10001453882395665,"114":0.03666069195948589,"115":-0.04159525159509002,"116":-0.10892704955906435,"117":0.08014532115919677,"118":0.04360997862118959,"119":0.01507321448635414,"120":0.014656710395834853,"121":-0.021533831088359854,"122":-0.09644291825218153,"123":0.024995808084027835,"124":-0.04329151301905576,"125":0.04965128498076069,"126":0.012810228144424904,"127":-0.016167625680511805,"128":0.024225906876105964,"129":0.01730048789189063,"130":-0.044335033720526155,"131":0.022738002399979737,"132":-0.0016505081136201794,"133":0.04001696198144471,"134":-0.030381800396931863,"135":-0.03076880494464862,"136":-0.044953459510223864,"137":-0.08962400989267653,"138":-0.02436911668092016,"139":-0.07670463175903791,"140":-0.002791052515489348,"141":0.00420943523754871,"142":0.005104545360682082,"143":-0.013406145718204995,"144":-0.09182319771689437,"145":-0.00520015058956183,"146":0.035298396030590644,"147":0.031193987399940143,"148":-0.05371358885600229,"149":0.030649389295874994,"150":-0.016765467450039467,"151":-0.012938447773800757,"152":-0.020078318953380154,"153":-0.05950287372092248,"154":-0.020196542406065044,"155":0.09501442423758728,"156":-0.03993688832421553,"157":-0.06829026884272066,"158":-0.04792696548903934,"159":0.026548255719402582,"160":-0.0734179796324629,"161":-0.04642969092133865,"162":0.015025681316003401,"163":-0.04974079276191029,"164":-0.03118515024194119,"165":-0.032055358247634426,"166":-0.0418550199565185,"167":0.05677451721604907,"168":0.04822628532853106,"169":-0.0010282674594675016,"170":-0.06501684496829804,"171":0.014298931799800308,"172":0.01592315155911989,"173":-0.003951727184923814,"174":-0.020943731590541227,"175":-0.013666989056507478,"176":-0.01482038907880134,"177":-0.025235170999191512,"178":-0.010055597660590276,"179":-0.000835466125596875,"180":0.1520429872855948,"181":-0.012498889278742044,"182":0.03457665716965902,"183":-0.01915784127139398,"184":0.060594875497367244,"185":-0.025611165974881576,"186":-0.0005305500677234466,"187":-0.027771670333265747,"188":-0.0008940844264397703,"189":0.016484023120549,"190":0.029189803207648475,"191":0.03329138692364174,"192":-0.0008029433410791929,"193":-0.07237929056111678,"194":-0.03569639168025356,"195":-0.06948673213933393,"196":-0.018341175183589437,"197":-0.015067608918792066,"198":-0.04851384027667313,"199":0.07576007981285782,"200":0.05514849928748669,"201":-0.03787887431849062,"202":-0.10536414748223123,"203":-0.034764461846719844,"204":-0.006683749580683941,"205":-0.003124639851837821,"206":0.07223120240519108,"207":0.0033739757999221285,"208":0.013368400306109154,"209":-0.01660094074248597,"210":-0.0015248238749502054,"211":-0.03582687614131537,"212":0.022667464059046107,"213":0.09250445725910425,"214":-0.0007735634518372745,"215":-0.07820440501923986,"216":0.09258327340203115,"217":-0.033179166711352806,"218":0.07990600426969295,"219":0.10194024373377224,"220":0.0323033647007053,"221":-0.06484570880767901,"222":0.053306451173538466,"223":-0.07102234479731169,"224":0.02489356672631781,"225":-0.0047597405979666356,"226":-0.014322116871030684,"227":0.058727648012441354,"228":0.034678317400029544,"229":0.02673502968240519,"230":-0.05629745278197632,"231":-0.030072356920988304,"232":0.02605774676368838,"233":-0.02458422185386021,"234":0.030703747528110514,"235":-0.07397100509940331,"236":0.02987598420880239,"237":0.021741856496519704,"238":-0.07104674488390557,"239":0.056931934499513344,"240":-0.00502988560228034,"241":-0.09054533278863915,"242":-0.030458174327848364,"243":0.008740360133431702,"244":0.0016113108874678045,"245":-0.035392484350398754,"246":0.0006053895163969341,"247":-0.11393997443954211,"248":0.040655224050945356,"249":-0.00596908312753526,"250":-0.02407170147501945,"251":-0.08172802547206635,"252":0.009151970116431209,"253":0.02432076119764255,"254":-0.061900509508018585,"255":-0.1151888550436479,"256":-0.0160868196279601,"257":-0.005473364529286928,"258":-0.04791650668432147,"259":0.012948525643626306,"260":-0.022344908619265844,"261":0.01936735726180893,"262":-0.059100765927182324,"263":-0.030826187688808064,"264":-0.0005213651038268608,"265":-0.03482093440407814,"266":-0.008508260293323284,"267":0.044801920022881386,"268":-0.04058938353177931,"269":0.0006389080699665424,"270":-0.043625780676497194,"271":-0.019923646496935617,"272":-0.14744058779417565,"273":-0.04818865456881284,"274":-0.0677689447136631,"275":0.017175752814272083,"276":0.00945331820180192,"277":-0.07921363311136578,"278":-0.05356501394543544,"279":-0.007576831847111148,"280":0.01423772263452533,"281":0.0756589398172605,"282":-0.02998702962170076,"283":0.02759993686248845,"284":0.014912471651417323,"285":0.06854741017320674,"286":0.013810377378863772,"287":0.07276213507949682,"288":-0.014187959517955394,"289":-0.024332772503641926,"290":-0.06308244712877654,"291":-0.028700616017301762,"292":-0.10009083756894914,"293":-0.07334603372102834,"294":-0.04703343605612624,"295":0.0028831041266324225,"296":-0.043505504981160466,"297":-0.02019854816940003,"298":-0.11930857858648823,"299":0.12995374220466913}},{"sx":5,"sy":5,"depth":12,"w":{"0":0.058495278778164884,"1":0.04906161053557599,"2":0.11306601721895526,"3":-0.12848952500268054,"4":-0.08987990313784895,"5":-0.11738564637839295,"6":0.05802322170271374,"7":-0.00870799669407255,"8":-0.10726533596591004,"9":-0.06020911468127026,"10":-0.0736528438036772,"11":0.08378242497164648,"12":0.06953632456819206,"13":0.27792611663540007,"14":0.06936591180642553,"15":0.020494792947475228,"16":-0.06824304411180782,"17":0.01616252813859393,"18":0.16743042162719507,"19":0.012250061924289684,"20":0.19367887052227123,"21":0.13617251705445022,"22":-0.15757360589741243,"23":0.10740779378442575,"24":0.12855342388290583,"25":0.05451191790736256,"26":-0.11551907781964732,"27":-0.035294574974412844,"28":-0.04960125204172458,"29":0.12992017120352503,"30":0.15986869985240998,"31":0.007167825798825546,"32":0.163375947553494,"33":0.036708274070901034,"34":-0.20354001376986444,"35":0.06479544438682101,"36":0.14465592175580094,"37":-0.03943512263386876,"38":-0.04086546191623386,"39":-0.056604897506455386,"40":-0.06872888272424164,"41":0.02620168578789002,"42":0.04523303463997135,"43":-0.03943377670313112,"44":0.07581129597419882,"45":-0.02189049436787954,"46":-0.015339121204729205,"47":0.0803248524701923,"48":-0.060158391999844615,"49":-0.012245363369815594,"50":0.019590682982307706,"51":0.11830994932471627,"52":0.09263595942717257,"53":0.13373798223385783,"54":0.03222776788647266,"55":0.1613122338485064,"56":-0.18340064964960426,"57":-0.010161587111404321,"58":0.09825585147532351,"59":-0.0018486303026048092,"60":-0.016876660324352602,"61":-0.16657102042472688,"62":0.06854002245141864,"63":-0.018191286529831117,"64":0.06666893227361528,"65":-0.08175326766167966,"66":-0.012414385484098603,"67":0.09775572497718377,"68":-0.012544386660712115,"69":-0.12044062024626548,"70":0.18543308108991227,"71":0.02225864645337378,"72":-0.11640855869264052,"73":-0.08635068971385547,"74":0.174303872407219,"75":-0.12074944814334211,"76":-0.2057984940473178,"77":-0.09779208060721797,"78":0.09730718087266674,"79":0.05321928444665321,"80":-0.03191498335016442,"81":-0.07553484710977243,"82":-0.08938839619567394,"83":0.03349658714121392,"84":0.019879195220573683,"85":-0.013232131079228701,"86":0.2563179531761623,"87":-0.07182847583490057,"88":-0.09569167839917307,"89":-0.020360512832719935,"90":0.0754083654218235,"91":0.058468151020635406,"92":0.07551897020939467,"93":-0.005966654235068847,"94":-0.08511099459580901,"95":0.025976806333562117,"96":-0.04182155811444499,"97":0.08625628410717014,"98":0.020216244120737435,"99":-0.09707586335887328,"100":0.12478138940331741,"101":0.052762699085245585,"102":-0.08008026122896392,"103":0.04346571696032228,"104":0.11388453314382019,"105":0.036104091981026806,"106":-0.03463700491019091,"107":-0.04719529137088466,"108":-0.07859615360445742,"109":-0.037836389096192184,"110":-0.10111827493839232,"111":-0.0036759146780851767,"112":0.13997160382987084,"113":-0.053337554645312715,"114":-0.17749206425406486,"115":0.008896244010014622,"116":0.06149600941523143,"117":0.02505257559317982,"118":0.13365922070777964,"119":-0.07582229697449991,"120":-0.021482871454385818,"121":-0.06780291915740987,"122":-0.12070652639632996,"123":0.07402207596160515,"124":0.19656115650298023,"125":0.07903507231531341,"126":-0.22560132666167992,"127":0.0891183072428986,"128":-0.21357292401187689,"129":0.010552477768806027,"130":0.19756271756697277,"131":-0.14838468692417336,"132":-0.1724028127380683,"133":-0.06054760212818886,"134":-0.074255912763526,"135":-0.0793494495394377,"136":0.021504919163395995,"137":0.048193489312462416,"138":-0.21316815840463674,"139":-0.02046544907431273,"140":-0.10360327265052362,"141":-0.1151050025348612,"142":0.2046701165769888,"143":-0.465132970264696,"144":-0.2554783214483366,"145":-0.1356060447575119,"146":0.1053028474273743,"147":-0.1338192691172659,"148":-0.0738436099585813,"149":-0.027646909157720376,"150":-0.14038046031660512,"151":-0.010533457136977262,"152":-0.1942601450137184,"153":-0.02386302497540626,"154":0.08271898944932508,"155":-0.09877186168992295,"156":-0.06503517681384684,"157":-0.048061670226429876,"158":-0.02123936905869347,"159":0.043955399822390454,"160":0.05556282478668965,"161":0.05674943009257891,"162":-0.0240511081464559,"163":0.04245148912795469,"164":-0.008152941536963797,"165":-0.01725499573239865,"166":0.06066690814866722,"167":0.06824337799186088,"168":-0.01219475340904688,"169":-0.0011136310367863775,"170":-0.1375897270868704,"171":0.07724422596170241,"172":0.1747077288435172,"173":-0.006978235539347126,"174":0.014167904267016472,"175":0.019208970758403866,"176":-0.2061685203659029,"177":-0.0448319622739654,"178":0.12120772301712272,"179":-0.11880627416832881,"180":0.049003389200953644,"181":0.1922552989287552,"182":-0.0428663714215534,"183":0.07588164076310265,"184":0.04286575226024545,"185":0.07138767025876994,"186":0.09610465532310035,"187":0.06155451540141687,"188":0.15488395416467385,"189":-0.0681033691872348,"190":0.05136685138108833,"191":0.05103103802140396,"192":0.022764248884476937,"193":-0.020106059732935125,"194":-0.1549940577387179,"195":-0.08563280101543005,"196":-0.011322500298602878,"197":0.22820480173467184,"198":-0.06310543270310733,"199":0.06634177992921275,"200":-0.14619618832919873,"201":0.10410057926168907,"202":0.019317674634651973,"203":0.01821319518619228,"204":0.015407830503157909,"205":-0.05393400738798426,"206":-0.10667461447619346,"207":-0.04807182103458251,"208":-0.032258283791807875,"209":0.12474152724663538,"210":-0.14971822180542613,"211":0.06064880806677177,"212":-0.11051294977733057,"213":0.04607282587571912,"214":-0.009241605503803292,"215":-0.011732253162809719,"216":-0.007157422745991684,"217":-0.10495175097826,"218":0.058997134211770434,"219":-0.10242929247663754,"220":-0.011054728222555658,"221":0.07970939377438029,"222":-0.035629126481275045,"223":0.02050503854785923,"224":0.08362321640490962,"225":-0.04969056884082754,"226":0.02083261686761616,"227":0.04065351039699231,"228":0.023330325843446794,"229":0.1238047920114609,"230":0.10396601459038532,"231":0.05343932591772798,"232":-0.057768749779704094,"233":-0.01567410610264993,"234":0.032996642253834474,"235":0.023592371539498346,"236":-0.04403852953484483,"237":-0.022366065708336227,"238":0.022721790988502966,"239":0.056916764263313525,"240":0.19462100625064285,"241":0.0845699661690743,"242":0.030952599111686293,"243":-0.020040725046130824,"244":-0.20174079448307097,"245":-0.09125600377448259,"246":0.13440334417147293,"247":0.09376434474402588,"248":0.16005546313810234,"249":-0.0017820662817122955,"250":-0.027852994823982888,"251":-0.022638450795798265,"252":0.1113742252073346,"253":0.11139928313360609,"254":-0.1087957687886514,"255":0.0314882656869015,"256":0.02405320267860193,"257":0.10518450535387704,"258":0.018651909613917092,"259":-0.05053918479659553,"260":0.05830703195037851,"261":0.007035954205948528,"262":-0.06150631922324336,"263":-0.08002810921848053,"264":0.09965999787069046,"265":-0.062140472663316,"266":-0.025400507972261198,"267":0.06956527162702103,"268":0.06330286584545497,"269":0.06329901066116399,"270":0.045818050718328895,"271":0.08859672176004667,"272":-0.035716967866213416,"273":0.06631401216392512,"274":-0.07603119412343338,"275":-0.08738253837158995,"276":-0.12100434209064147,"277":-0.14278669053084858,"278":-0.05255731039576927,"279":0.09623009322564809,"280":0.1025556823636186,"281":0.10696044516113919,"282":-0.09355109843731874,"283":0.1394989429621907,"284":-0.0194924312707657,"285":0.030969236767405366,"286":0.12841727606610986,"287":0.06707633753905813,"288":-0.036822644885556734,"289":0.05681998092012974,"290":0.033658481979350285,"291":-0.057871415325028173,"292":-0.007525359156628812,"293":0.018083011884663464,"294":0.02150852715308344,"295":-0.10492849206210028,"296":-0.004291127719966832,"297":0.024636412664629355,"298":0.05823231123561373,"299":0.022953778708747312}},{"sx":5,"sy":5,"depth":12,"w":{"0":0.02603551831437027,"1":-0.017470694157837415,"2":-0.07347760118272263,"3":-0.06753456041840089,"4":0.025056097552945248,"5":-0.011108919336662805,"6":-0.0006450792920913535,"7":-0.08707777280438513,"8":0.005558389134898006,"9":0.0102870794527097,"10":-0.011947698723726918,"11":-0.054800579606318386,"12":0.033743236397975586,"13":-0.03261066034723311,"14":-0.03394507845694809,"15":0.006561031925449843,"16":0.019377680673346605,"17":0.03201360523275717,"18":-0.043435361292155944,"19":0.009467896280448302,"20":-0.03540920149900862,"21":0.02354923329100435,"22":0.035896192921051624,"23":-0.012291232757703661,"24":0.07754466767236934,"25":-0.04730316791622553,"26":-0.11296580663459584,"27":-0.01635314101063278,"28":-0.01076842227414257,"29":-0.011013453278100148,"30":0.021546742075748464,"31":-0.004430775059017799,"32":-0.0978880124021028,"33":0.13214421262283757,"34":-0.06597133560180674,"35":-0.0028331894660109935,"36":0.039859421025993526,"37":0.02529783803690907,"38":-0.04490440962202676,"39":-0.07063054892355498,"40":0.050290003051711295,"41":-0.013451527120825457,"42":-0.016218698170812895,"43":-0.06614932904398087,"44":0.03753941327237577,"45":-0.046430760760511496,"46":-0.030460963117297034,"47":-0.016908444098901788,"48":0.011647049042402045,"49":0.012897031302750692,"50":-0.06009337222580278,"51":-0.01833015395524718,"52":-0.02375334051157151,"53":0.06395479127835764,"54":-0.02779759749112215,"55":0.007262138643952423,"56":0.059601963820666216,"57":0.04003361374433106,"58":-0.07970647952281175,"59":-0.017695767397144402,"60":-0.06384410512773481,"61":0.053942599594245966,"62":-0.0759862579237117,"63":0.05743610589746772,"64":-0.02327494990124124,"65":0.013024536618128508,"66":-0.00369677171821787,"67":-0.05084815732309329,"68":0.0018396605959079563,"69":-0.012168796620711634,"70":-0.060703481558864854,"71":0.0752970141856658,"72":0.018189695496300194,"73":0.017105618274252225,"74":-0.052526296826535146,"75":-0.00962076890824325,"76":0.03626557771171054,"77":-0.026318891868599197,"78":-0.006240076295175357,"79":-0.07689912031874085,"80":-0.07186601573573012,"81":-0.008559607308178516,"82":0.010830148137192462,"83":-0.05014014813386382,"84":0.01868546526101281,"85":-0.05269462783917248,"86":-0.021655574491713972,"87":-0.015266743093973642,"88":-0.004281687545606927,"89":-0.07545204768015858,"90":-0.11749563697075084,"91":0.04141171029253586,"92":-0.052845202939529094,"93":0.04807788566624568,"94":-0.09267178230048198,"95":-0.026629923065505542,"96":-0.06759517494630927,"97":-0.009123723158672959,"98":0.11590411851992011,"99":-0.060484591396263485,"100":-0.008272673916131953,"101":-0.007022735521403141,"102":-0.07314112274529465,"103":-0.0975969776404499,"104":-0.05386510290218628,"105":0.020432546723837233,"106":-0.05623216104614187,"107":0.040651921053843375,"108":-0.01320981413306362,"109":0.0050337821197768825,"110":0.008821690422764253,"111":-0.05315018710476022,"112":-0.06278652936368943,"113":-0.031538894038472536,"114":0.0030763350752598634,"115":-0.0040169609280740195,"116":0.01923023157579856,"117":0.057728139282627836,"118":0.0009542895367382932,"119":0.09847798559167614,"120":0.021893722479445578,"121":-0.06066643481541571,"122":-0.03539616748222088,"123":0.019058188219841947,"124":-0.006012899809427796,"125":-0.022517010454653517,"126":-0.04453277646251594,"127":0.003742303031429073,"128":-0.00986942292292145,"129":0.020553491671085306,"130":-0.0482236806315703,"131":-0.016272623872093495,"132":0.01685948625039714,"133":0.016238122669283307,"134":-0.07175957041372355,"135":0.009658830400524277,"136":0.06643424726152733,"137":0.03290624410872379,"138":-0.10019109738934133,"139":-0.02491255058006301,"140":0.0033111928148839486,"141":0.028776532937450063,"142":-0.00439600249793357,"143":-0.030009421713414374,"144":-0.002380047350512554,"145":-0.0657678254469862,"146":-0.09894182556580997,"147":0.041993749664020544,"148":-0.07269946723251818,"149":0.04727627156352807,"150":-0.05782895640848985,"151":0.014782372602282948,"152":0.050702295685738794,"153":-0.035740432764040826,"154":0.0044530621930911245,"155":0.04953632121930607,"156":-0.012513562627379566,"157":-0.07013593895844968,"158":0.009353766114701201,"159":-0.01124821721128683,"160":0.041296294464698985,"161":-0.02753592389500299,"162":-0.013784937604830513,"163":0.04593246849350963,"164":-0.0840807048551853,"165":-0.04425536965457773,"166":-0.010618532196925426,"167":-0.011795610221507293,"168":-0.04239861339069473,"169":-0.012559814573632798,"170":-0.03548588979207972,"171":0.01515991293853566,"172":-0.14369294080456654,"173":0.0015437943257019793,"174":-0.011968917588465546,"175":-0.027924990582206124,"176":-0.007377983429452349,"177":-0.04224052297815771,"178":0.032550446954218396,"179":-0.009058179868606598,"180":0.007666503524963075,"181":-0.14444422512458407,"182":0.017954613002203527,"183":-0.03120355574255387,"184":0.04556049024678143,"185":0.06498854450757276,"186":0.08342265052838341,"187":0.05248641525267745,"188":0.012579613638097072,"189":-0.0019345102148332302,"190":-0.0003539644343686454,"191":-0.01280400905918215,"192":-0.019781368723671623,"193":-0.0864852321387197,"194":0.008894680648339101,"195":0.025701957866231917,"196":-0.016518570583896077,"197":0.046520294044204026,"198":-0.01959799949999529,"199":0.04149829914504441,"200":0.056847473634090394,"201":-0.028228239025742292,"202":-0.008012645793482607,"203":-0.024438728663128774,"204":0.05095710946281957,"205":-0.060030372721361164,"206":-0.08734518032231459,"207":0.005071665558095239,"208":0.02623871124444915,"209":-0.0008898869710927495,"210":-0.02445432008329175,"211":-0.005013060514488763,"212":-0.04501571567336129,"213":-0.00007890473418869018,"214":-0.018013116731858424,"215":-0.0003233450522023206,"216":0.051687200777003665,"217":0.09790258066358401,"218":-0.004041956143885524,"219":-0.024847398858748385,"220":-0.035070808206847555,"221":0.04941249751749758,"222":-0.04959313638058054,"223":-0.05709491895424398,"224":-0.04971494179802823,"225":-0.02971353029300244,"226":0.05444735578232563,"227":-0.030196688217541425,"228":-0.004747323762599052,"229":-0.0036787648904797127,"230":0.018795648749419944,"231":0.01788021369314063,"232":-0.030922545975089637,"233":0.007207514155056383,"234":-0.039165118503177214,"235":0.02460018878192416,"236":-0.06005503355091964,"237":0.03356160139102312,"238":0.04870957277734758,"239":0.07383301802168564,"240":0.015625558406787667,"241":-0.024804400581769585,"242":0.039428524303978696,"243":-0.011958202072695125,"244":0.02084016989774849,"245":-0.05661635374702741,"246":0.036189786214432175,"247":-0.00040501568576057506,"248":0.02710337857504937,"249":-0.009501249645134404,"250":-0.07281575855774318,"251":0.05089524790160321,"252":0.021547311587383437,"253":0.1200932539843396,"254":-0.01350543471817238,"255":0.013386732920041925,"256":-0.01337443477159746,"257":-0.09779454183839831,"258":-0.01906412624176122,"259":0.03968865757646341,"260":-0.01981618325992997,"261":0.00006789144467482378,"262":0.05822859507546347,"263":0.02425847631886331,"264":0.03273537553574179,"265":-0.012434524475698497,"266":-0.047967861334721376,"267":-0.011960022318248222,"268":0.042346746944792124,"269":0.05469007014673728,"270":0.021349728149883018,"271":0.0045464774576945135,"272":-0.012055048558402504,"273":0.0004129743916804876,"274":-0.06212845275204058,"275":-0.002522668355334717,"276":-0.048378117414321714,"277":0.020323961246197016,"278":-0.03782697639050617,"279":-0.07785665853838013,"280":-0.02550220634715262,"281":0.011550270403464166,"282":-0.06199669218349515,"283":-0.00410491624124606,"284":-0.02348085967754912,"285":0.028455932899797223,"286":0.02026237593857878,"287":-0.03870939905544581,"288":-0.01398178239636897,"289":-0.030919454225089477,"290":-0.0313946514141302,"291":-0.027169355300623872,"292":-0.021982706929721426,"293":0.03559246379149285,"294":-0.004904296215329023,"295":0.0027911787695843655,"296":0.06241051742994526,"297":-0.00223097202739085,"298":0.026076922848654052,"299":0.013475933953879048}},{"sx":5,"sy":5,"depth":12,"w":{"0":-0.06857489626773522,"1":0.10031289840703184,"2":-0.07922998662093092,"3":-0.09561285392010481,"4":-0.003053693589034707,"5":0.05494809729725601,"6":0.08112439001433192,"7":-0.032465243291522866,"8":-0.03921661376551746,"9":0.019942187568089405,"10":-0.06150727536174919,"11":0.0027599009622894695,"12":0.01524569478077496,"13":0.08960490513059884,"14":-0.10060249781431314,"15":0.00006291195615036191,"16":-0.033854065022911,"17":-0.07212960680239125,"18":-0.0724640449756366,"19":-0.0942322649252451,"20":-0.042437147983430484,"21":-0.027457161292285055,"22":0.02543132630491906,"23":-0.09891345090711037,"24":-0.007404814067481513,"25":0.08273743008572397,"26":-0.03352244805403149,"27":0.03023062255847505,"28":0.028213629386821842,"29":0.0015006200508580743,"30":-0.11792597605176895,"31":0.06863810714369625,"32":-0.030494761017768723,"33":-0.02963817484380135,"34":-0.06309238347186674,"35":-0.06055439538967014,"36":0.04805014189245908,"37":0.019859366186441997,"38":0.15120610937288048,"39":0.03146554032869965,"40":0.24073750397911536,"41":-0.033508847726225845,"42":-0.0817325711215146,"43":-0.002243355619688476,"44":-0.007038418670692139,"45":-0.06054574485910824,"46":-0.07229782669829152,"47":0.03701101734867142,"48":0.0024089914646760395,"49":0.0003389593152389442,"50":-0.01833050047491618,"51":-0.04265985635770436,"52":0.1312977536031279,"53":-0.003325655850832348,"54":-0.05336567827962705,"55":0.033537639101475905,"56":-0.037872394823369515,"57":0.03180844068262622,"58":-0.002731634099580478,"59":0.042790408511962426,"60":-0.008958607907341187,"61":0.01130400571654164,"62":0.056430168411219415,"63":-0.11615089129524765,"64":-0.08932159927405724,"65":-0.038151087511652006,"66":0.009888881894094547,"67":-0.0031571247455173907,"68":0.051649922941587725,"69":-0.035285005393793215,"70":-0.06050371800650808,"71":-0.07690174130223495,"72":-0.001921787502994406,"73":-0.013130679337489083,"74":-0.0785312346892598,"75":-0.0034842206636226084,"76":-0.022072331623675317,"77":0.035927994497896645,"78":-0.087162808683969,"79":-0.07277803391395567,"80":-0.00613779171563984,"81":0.09885717982084784,"82":-0.07795983667710336,"83":0.0638411781077402,"84":0.018954134879943657,"85":-0.024184335054447264,"86":-0.04904656700731033,"87":0.010157459807257407,"88":-0.027875449743460498,"89":0.07976748183689637,"90":-0.09335816269628257,"91":-0.04630800716197528,"92":0.04845107467743333,"93":-0.04590968718259563,"94":0.0002226783365608713,"95":0.05319691563134499,"96":-0.02157282688681644,"97":-0.05722686874096333,"98":-0.009131116545475606,"99":-0.038674515366307796,"100":0.07520389297632729,"101":-0.02720386258563012,"102":-0.02243591371943555,"103":-0.10658872480461522,"104":-0.119379957337509,"105":0.0292583345737494,"106":-0.035345367168601705,"107":-0.01178494214638733,"108":-0.04927106574663257,"109":0.0016078258789204805,"110":-0.0068696189382599394,"111":0.052401672577189265,"112":-0.010089637113238636,"113":-0.01323003069829145,"114":0.14497241653156684,"115":-0.05669255645046736,"116":-0.030724370276568394,"117":0.06917255148986647,"118":0.08761072512272972,"119":0.034901556898550914,"120":-0.0015629015586666123,"121":-0.05157761402438086,"122":-0.04258281255897172,"123":-0.032869240509013915,"124":0.017152760198143668,"125":0.05570527539087228,"126":-0.10966712502387949,"127":-0.03924350932665856,"128":0.05162074093283699,"129":0.0696622616610135,"130":0.11921134432510146,"131":-0.024120705827577162,"132":-0.02352373010878289,"133":-0.07066489723952399,"134":-0.19571693179468683,"135":0.05170782548689767,"136":-0.031095566600626203,"137":-0.0690068643956724,"138":-0.11289217288853412,"139":0.0030177976239191707,"140":-0.0683101102939784,"141":-0.004652067307910715,"142":0.0042564560672255,"143":-0.08286890793701815,"144":-0.04118213227043499,"145":-0.06703008369429288,"146":-0.06650570042127825,"147":0.06338823063224701,"148":-0.19092868147196548,"149":0.03896545725320453,"150":0.014647471244186114,"151":-0.024835845585930497,"152":-0.07280864060882351,"153":0.00028304345603160524,"154":0.034090559008156,"155":0.009764656456100173,"156":0.06595614477263048,"157":-0.07260153981807457,"158":-0.023208135102214814,"159":-0.07128874682128282,"160":0.02213047179707555,"161":-0.00672823645454963,"162":-0.04810334721251812,"163":-0.06679430919053943,"164":0.06141669962855418,"165":0.058900728080796175,"166":-0.02143293492976938,"167":-0.019733033580862442,"168":-0.0316577877254562,"169":-0.052798571028915484,"170":-0.06536416663117986,"171":0.06247614721637323,"172":-0.11038608314568774,"173":0.018882099137030137,"174":0.06006101659690687,"175":-0.07134113872348721,"176":-0.06103315332170003,"177":-0.018403305669565634,"178":0.05713597341967533,"179":0.03372635186160222,"180":-0.04681646745074134,"181":-0.09290382740873289,"182":-0.016224361904151056,"183":0.03989929516586003,"184":0.03452598422881207,"185":0.012154926909555703,"186":-0.008411047157238373,"187":-0.011411055929209539,"188":0.04012935605127819,"189":0.01506861954329558,"190":0.13633702092791297,"191":0.11983126331736088,"192":0.026181123086306088,"193":-0.0641893402610618,"194":-0.07522415531507032,"195":0.08520537630922863,"196":0.02032560946440033,"197":-0.001118687830777245,"198":0.01759623217628526,"199":-0.10294867449491499,"200":-0.05437777615499378,"201":-0.04156841660812512,"202":0.055655233403711646,"203":0.03723450020277359,"204":-0.0017612235136367587,"205":-0.21090540762239668,"206":0.014478310018758243,"207":0.06583034802903785,"208":0.011115187881578278,"209":-0.009190983125436222,"210":-0.03217212592727,"211":-0.09894436118248832,"212":0.028306744526986883,"213":0.02471493477987172,"214":-0.00943371676882849,"215":0.004739161904733497,"216":0.01652650523292136,"217":-0.14249886601328718,"218":-0.017032333756613217,"219":0.10453791445112998,"220":0.08046590585013239,"221":0.00379449223819421,"222":0.04219166890885684,"223":0.03378846855141968,"224":-0.01780194900270761,"225":0.02230664475760614,"226":0.13002144070903632,"227":0.04829426891744658,"228":0.03463334195229703,"229":-0.16364779879693794,"230":0.05975220061083149,"231":-0.041966219045857886,"232":0.07730855123025848,"233":0.06982527234457007,"234":-0.13879770316599394,"235":-0.009777695098312923,"236":0.008141945736841535,"237":0.002999793992081333,"238":0.11144735019228087,"239":-0.0437667080124144,"240":-0.09450234729372212,"241":-0.06311788016672831,"242":-0.2281295698451052,"243":0.0061750802279457225,"244":0.02665044752588123,"245":0.013092815994231236,"246":0.04303156035656539,"247":-0.06511504836120237,"248":-0.06684595414795162,"249":-0.002543728919704959,"250":0.12822174764575886,"251":-0.049673661738244446,"252":-0.03183845170376357,"253":-0.11920674041642199,"254":-0.06908258561254552,"255":0.00670535534723667,"256":-0.0569589476782716,"257":-0.08350618070124935,"258":-0.04898041819635973,"259":-0.040995918097743715,"260":-0.036305215671051536,"261":0.03649463616767195,"262":0.03634940322251019,"263":-0.04596142826703133,"264":0.04806469931811974,"265":-0.05422765026238436,"266":0.06701031853489021,"267":0.054926172180329046,"268":0.05826634789047437,"269":-0.04634738302115488,"270":0.11899789075982753,"271":-0.013160316651616799,"272":0.015661965740167046,"273":-0.04471022930075747,"274":-0.011887380847114987,"275":0.0367261217390705,"276":0.07380415772893523,"277":0.03448930295340495,"278":-0.006146930952436401,"279":0.1283006994514535,"280":0.0937746154411284,"281":-0.03318260786607247,"282":0.07037673161999332,"283":-0.020807304171085964,"284":0.016687165715024422,"285":0.04600135558019989,"286":-0.12683916133987097,"287":-0.015676441519861882,"288":-0.012707312667866255,"289":0.03088727431454058,"290":-0.13190641958247906,"291":0.011847706551395403,"292":-0.03651846212245663,"293":-0.1368928410030947,"294":0.07360132488639175,"295":-0.05472543596582862,"296":0.010374637409137242,"297":0.008725019262025917,"298":0.08829570794344171,"299":0.018853295069249928}},{"sx":5,"sy":5,"depth":12,"w":{"0":-0.017837663536921042,"1":0.004687801388132308,"2":-0.008723674559207337,"3":0.0577931892203176,"4":0.002559213325300237,"5":0.02108675709813679,"6":-0.061649148774979255,"7":-0.005696564931021353,"8":-0.02446441939352983,"9":-0.041138921121150855,"10":-0.0023758806348145732,"11":0.044069163944310756,"12":-0.0007909991285587916,"13":-0.013670834496815155,"14":-0.058175130883497815,"15":0.008566004868151126,"16":0.00830794465337277,"17":-0.04477772936358358,"18":0.012168016302189406,"19":-0.04118709543343505,"20":0.02330434386979242,"21":-0.010459790275859863,"22":0.07348359581578581,"23":-0.05396658683041432,"24":0.05309897530059181,"25":0.017022196107620676,"26":-0.05616924993886834,"27":-0.06185925287923144,"28":-0.09069649389273159,"29":0.07253924345111272,"30":0.054995717017410795,"31":0.013142320749282878,"32":0.04841184662638513,"33":-0.04977539095184781,"34":-0.06820132440493533,"35":0.049584023512121586,"36":-0.007761835851375535,"37":-0.01847032048668807,"38":0.022803686467395654,"39":-0.04555093049469074,"40":-0.0038697659479446957,"41":0.01428064166048701,"42":0.004391948090764698,"43":0.03615519186805712,"44":0.0014931815974846853,"45":-0.020357199611068834,"46":0.050679711245572516,"47":-0.003693405692329633,"48":0.08319890746616569,"49":-0.10681507089596173,"50":-0.00966922905642867,"51":-0.06103464082236237,"52":0.01907349667165395,"53":-0.07335703538082583,"54":-0.04802701697143535,"55":-0.043994403923866825,"56":-0.03866220753490461,"57":-0.04318512008015664,"58":0.039638117738224087,"59":0.0450870778314831,"60":-0.022063973419733495,"61":0.02588389453201958,"62":-0.057315849474634153,"63":0.04734567472375743,"64":-0.03494218361983658,"65":0.01880365055683951,"66":-0.03718639449942762,"67":0.009280283178761336,"68":-0.04518534321392468,"69":0.009928374436666648,"70":0.021980432944767824,"71":0.03980860045273294,"72":-0.01657555147591721,"73":0.009055855585447078,"74":-0.03694693742694785,"75":0.03680535477543296,"76":-0.02893867857614438,"77":-0.05934650877517125,"78":-0.030694586910555332,"79":0.04190591744571005,"80":0.002848174446144718,"81":0.017496395016451508,"82":0.1163110762098234,"83":-0.04918973397118248,"84":-0.02201269686423627,"85":0.04646675899232604,"86":-0.061217738067511955,"87":-0.0847859540354877,"88":-0.014833428646120741,"89":-0.0210133231274023,"90":-0.03155678950544536,"91":0.0069965835015969756,"92":0.08469544851951767,"93":-0.014685845979003668,"94":-0.046196157757548165,"95":0.03371612808612321,"96":0.03875176163277771,"97":-0.06645644994887778,"98":-0.034380479285799556,"99":-0.03364630903355557,"100":0.0010227977021389195,"101":0.08914426563301239,"102":-0.07147492396572325,"103":-0.06696372238156391,"104":-0.09140194574935137,"105":0.003263516684885661,"106":0.0012181005247024225,"107":-0.07604115594770419,"108":-0.008092470134761023,"109":0.04589359448975804,"110":-0.048322462625466044,"111":-0.05960352404141873,"112":0.021258010891031794,"113":0.06811900255915541,"114":-0.07833121479130672,"115":0.0065291176544848535,"116":-0.020909660304018033,"117":0.009249574179444716,"118":0.011286051786300133,"119":-0.002211322487723467,"120":0.08599997879441158,"121":-0.045084482716273994,"122":0.020598964328764426,"123":-0.019917352296700778,"124":0.028331111723365623,"125":0.04290396611403668,"126":-0.04714312914258714,"127":-0.005602269934738886,"128":-0.029279804425040957,"129":0.023171110088424367,"130":0.07819103221769708,"131":-0.00391287382613853,"132":-0.015417969171043766,"133":-0.04948310856798796,"134":-0.02513884490109067,"135":0.019121506085113715,"136":0.03108906498870435,"137":-0.031228560463883077,"138":0.00529465814233411,"139":-0.07404101282898566,"140":0.03566580171785765,"141":-0.0031110386770008508,"142":-0.0636370224026145,"143":-0.05842921086913124,"144":0.02813981476181861,"145":-0.030938829476793463,"146":0.007423048977649636,"147":0.014004830618304386,"148":-0.016825741860407775,"149":-0.008304543186125179,"150":0.0035406574139906486,"151":-0.062499726651808446,"152":-0.03136203015309613,"153":0.03433369338922336,"154":-0.006242610366556353,"155":-0.044148729069652295,"156":-0.006982959485897564,"157":-0.013570824173275984,"158":-0.004488946390401432,"159":-0.03828151854395871,"160":0.027228393599124573,"161":0.051082384553821567,"162":-0.09607599844610688,"163":-0.0828431727929596,"164":-0.08291512845024726,"165":-0.09542915858047553,"166":-0.02181510362272818,"167":-0.06594835559844775,"168":0.0002019521437820301,"169":-0.03700071158096303,"170":0.001974776393643719,"171":-0.10389095136189513,"172":-0.019458162859376495,"173":-0.01929362774642049,"174":-0.049269450067842765,"175":-0.04824274510530425,"176":-0.04860007617146395,"177":0.002186439969520821,"178":0.011234898659322593,"179":0.022401850323663146,"180":0.039486869755789515,"181":0.013747878176486976,"182":-0.028324142644108534,"183":-0.009585185369936217,"184":-0.0580949787442681,"185":0.10045400305817544,"186":-0.04592011630398122,"187":0.01354270928762124,"188":0.022035131588097494,"189":-0.05463278145800459,"190":-0.012777438793385523,"191":0.04188713331197183,"192":0.050061258659479926,"193":-0.035153167291190696,"194":-0.010458766242017808,"195":0.03406897947842339,"196":-0.1057522980808125,"197":-0.049922242198191503,"198":-0.08882306613794409,"199":-0.07226936471667625,"200":0.04545251378813103,"201":0.05393893810703068,"202":0.03652300635245669,"203":-0.001419052631169277,"204":-0.012073645039666863,"205":0.021460689213355085,"206":-0.014352679109204982,"207":-0.00011527538127176605,"208":-0.020209914807456264,"209":0.0299656956057719,"210":-0.026512928215549826,"211":-0.042533845909128135,"212":-0.031190349113488055,"213":0.02402396599033652,"214":-0.022503551379055124,"215":0.0035466457474653047,"216":0.011238330365019889,"217":0.03624061197336582,"218":-0.08273317781347733,"219":-0.017480045013044367,"220":0.010995827581239336,"221":-0.034723328618747544,"222":-0.029350367739507447,"223":-0.0361958590425333,"224":-0.044008157306077426,"225":0.025659665826577215,"226":0.0258947238993292,"227":-0.02855543001237307,"228":-0.03148417005667054,"229":-0.07197712690117791,"230":-0.0842445075076948,"231":0.060550859639639874,"232":0.02897285864697513,"233":-0.012355057350559901,"234":0.029364703505296765,"235":0.03606804156649976,"236":-0.013725720436552196,"237":0.028105835243716026,"238":0.008920846526883571,"239":-0.039007499238661154,"240":-0.032255716116533766,"241":-0.007874770170670425,"242":-0.02200703424532274,"243":-0.02138242111895549,"244":-0.03948220522982681,"245":-0.0211880062730429,"246":-0.02913200270363924,"247":-0.016221173562136336,"248":-0.0013208210769166764,"249":0.01559262212781716,"250":0.035903156868325715,"251":0.031321473332018776,"252":0.017701695896585958,"253":0.05756121515557952,"254":-0.05903885655379214,"255":-0.016723323978154285,"256":-0.005829184533508563,"257":-0.0031988410167783,"258":-0.05707868016323099,"259":0.009617361029378838,"260":-0.09382744331707658,"261":0.02653343745902484,"262":-0.042955943487770244,"263":0.08931872436258269,"264":-0.012923867757591152,"265":-0.05456033796532727,"266":-0.02029423078882433,"267":-0.02280997014270649,"268":-0.021196510922096325,"269":-0.017468515700936032,"270":-0.03141353354426434,"271":-0.024781681451014906,"272":0.0038315824622005405,"273":0.05767066658047396,"274":-0.01293832334782173,"275":-0.04046164583720203,"276":-0.05380420216656832,"277":0.01298770239603574,"278":0.07725195693850505,"279":0.10212681856060482,"280":-0.030874894068034453,"281":-0.06779531254610956,"282":0.014352960822669205,"283":0.06866062532478642,"284":0.014297704830472352,"285":-0.041954163434101535,"286":-0.044072623551328356,"287":0.015330857877694413,"288":0.04539099042059714,"289":-0.006116973163049218,"290":0.016468984567918364,"291":0.011474674158318888,"292":0.037444411131654386,"293":-0.028669313258522858,"294":-0.04221962218084414,"295":-0.03856993199501124,"296":0.03210438132589591,"297":-0.014128336177869976,"298":-0.04428433461704528,"299":0.019016591539435346}},{"sx":5,"sy":5,"depth":12,"w":{"0":0.03981724196002505,"1":0.007172512321474688,"2":0.0465175733919751,"3":0.001487986970418585,"4":-0.06870319925243179,"5":-0.0068180445558720815,"6":0.0016110906603378204,"7":-0.02993144359780107,"8":-0.08850688085849691,"9":0.017804562606728528,"10":-0.08339675730231748,"11":-0.04810809079085436,"12":0.0026420277853468404,"13":-0.05498843285337124,"14":-0.02345650362314521,"15":0.021631416765977303,"16":-0.006918669819679149,"17":-0.028274269421174284,"18":0.006574360438630535,"19":0.026177685040059996,"20":0.008230077222431497,"21":0.01773438542380109,"22":-0.020452447734777602,"23":-0.029326901143401998,"24":0.07984653940917202,"25":-0.004943069200875357,"26":-0.03331890268811829,"27":-0.052640303481509575,"28":0.07451371721914897,"29":0.005254671153835286,"30":-0.005652258066563416,"31":-0.045941335837686594,"32":-0.042412196413115215,"33":-0.004009234313836928,"34":-0.07384249584028146,"35":-0.025442826138100075,"36":-0.04585717284499846,"37":-0.015630226828302576,"38":-0.07565153787641606,"39":-0.12405067304400856,"40":0.042130710648823275,"41":0.004901803192554713,"42":0.0100718858241501,"43":-0.04328331330715003,"44":0.021792225484793235,"45":0.025987795671576525,"46":-0.04617650225593038,"47":-0.03939631081397376,"48":0.024401976793957475,"49":-0.01809980912959239,"50":-0.05405630146948034,"51":-0.11065891207355763,"52":-0.030925045566463243,"53":-0.006912736123848823,"54":0.05076496425312348,"55":0.034736419306363946,"56":0.055324862296888426,"57":0.04494396453526345,"58":0.0010993633344017256,"59":-0.024499097709030013,"60":-0.028066576514923225,"61":-0.008352270665594906,"62":-0.0422085745068687,"63":0.017290330486564576,"64":-0.06997065893680314,"65":0.02093861809404662,"66":-0.038199916307418445,"67":0.07257901491694714,"68":0.024694295713846383,"69":-0.05986475075084955,"70":-0.06240179274908319,"71":0.020830794123425086,"72":-0.014929324200752866,"73":-0.07993223825611859,"74":-0.020729730293123173,"75":-0.012916123053650015,"76":-0.021904812026197245,"77":-0.0429760852360821,"78":0.016406897591584566,"79":0.017449941177272547,"80":-0.15131884598553,"81":0.019535475471470592,"82":-0.042767548990500316,"83":-0.020459572873321858,"84":0.0353488382611185,"85":-0.05613474744659111,"86":0.000495339504064664,"87":-0.008278754109100383,"88":0.003964284661202128,"89":-0.0016875676401185164,"90":0.01039198177065762,"91":0.030402384355975226,"92":-0.027435012572046193,"93":0.013315929621589817,"94":-0.018885659911392235,"95":0.009478013019892435,"96":0.029977138730497704,"97":-0.059240187800188374,"98":0.02236940494319041,"99":-0.0312229840407207,"100":-0.09078304189429347,"101":-0.08161710579120049,"102":-0.005415261624942396,"103":-0.06444997809351297,"104":-0.002430304882575151,"105":-0.06480822657637181,"106":-0.04419902729870513,"107":-0.019178176741142354,"108":-0.05098734824713101,"109":0.03083491758187837,"110":-0.015366808783540232,"111":-0.003518978291735965,"112":-0.017579357053472782,"113":-0.11096731694623807,"114":0.035857955153372055,"115":-0.044253155566347235,"116":0.06210056844780648,"117":-0.00817614931963684,"118":-0.026838845256254507,"119":0.04820795152141889,"120":0.04430585977653394,"121":-0.07644512846432938,"122":-0.0050437788449047,"123":-0.05821042061955998,"124":0.06642544224321362,"125":-0.04847592818072612,"126":-0.007707414092711816,"127":-0.061865827816642044,"128":0.07181091526549942,"129":-0.05033817783928068,"130":-0.04564357172313956,"131":-0.030960953324066332,"132":-0.030064540694454564,"133":0.0058904471347293146,"134":0.01770691739783815,"135":0.0011060974518746483,"136":0.006378297209907428,"137":0.006357239614587046,"138":-0.09888269656890482,"139":0.03562064121235713,"140":-0.02811988660519187,"141":-0.05249214467678609,"142":-0.11530791852930584,"143":0.045471006572439944,"144":0.02130037849373332,"145":0.0021636999823169997,"146":-0.007983518092391284,"147":-0.04655546433212385,"148":-0.060830089561053076,"149":0.007859303490803052,"150":-0.07475402171002296,"151":-0.022515661567647886,"152":-0.05551391762295307,"153":-0.021904013135327728,"154":-0.06026852228923819,"155":-0.027586195353861424,"156":-0.0732827288940031,"157":0.0041397742646187416,"158":-0.08131603171668422,"159":0.0009430126943620917,"160":-0.06432727442998912,"161":-0.00895261067132161,"162":-0.0337949111911028,"163":-0.019727559332392758,"164":0.019509713789697167,"165":-0.04328011089106255,"166":-0.007510213938596213,"167":-0.01800711765203686,"168":-0.04212414070535553,"169":-0.055927820034726565,"170":-0.07118015776285008,"171":-0.040631056437401995,"172":-0.07836938600128243,"173":-0.020306197733498326,"174":0.024513904341314466,"175":-0.06767798469189881,"176":0.01686291252529258,"177":-0.02635703174963182,"178":-0.04710276478662337,"179":0.018634470537295552,"180":-0.03531870396291773,"181":-0.018401318652396643,"182":-0.005062005028166733,"183":0.00023685853285246452,"184":-0.06760852422310054,"185":-0.007670016700507564,"186":-0.024801492932756065,"187":-0.01649541931510743,"188":-0.023213327859755644,"189":-0.0045533026091771275,"190":0.04208681796702699,"191":0.030345924307785686,"192":0.024096897627600165,"193":0.016709518295508298,"194":0.07394188096525892,"195":0.02048858866283389,"196":0.0017986208164688633,"197":0.015721134663898045,"198":-0.012171135502307856,"199":0.05530332910746011,"200":-0.040568501793331414,"201":-0.005630502819204799,"202":-0.08079234986195326,"203":0.00021869085507864071,"204":-0.004422968290126218,"205":-0.026663654805007448,"206":0.03762169827997426,"207":0.06045438738944969,"208":-0.046342240864902726,"209":-0.024554685933706532,"210":-0.0705384143454185,"211":0.003769592878352189,"212":-0.0048349472261886685,"213":-0.021408593587144597,"214":-0.008054358684968631,"215":0.026270650952647204,"216":-0.1339015901906321,"217":0.051873583037013136,"218":-0.0922703242464456,"219":-0.005151374016097812,"220":0.026533618211458602,"221":0.10032592693128359,"222":-0.025028767378017132,"223":0.03574957761899037,"224":-0.1057019611127683,"225":-0.03081179365747221,"226":0.008614809817496415,"227":0.008090600612316968,"228":0.03752632074529905,"229":-0.025625631992296623,"230":0.02885380998407545,"231":-0.06736674160006761,"232":-0.02045196254662084,"233":0.004183672170527438,"234":0.06411995090139747,"235":0.014590009699302174,"236":0.038536563539983144,"237":-0.04805992328272495,"238":-0.03784563155694264,"239":0.041853194440304574,"240":-0.043562167994306414,"241":-0.012395923505790133,"242":0.020351108370928517,"243":-0.10736972336856186,"244":-0.03423495355068019,"245":-0.01444292550111768,"246":-0.033713473833252,"247":-0.0375824106265766,"248":-0.021881802225290327,"249":0.054567756883419076,"250":0.04503068837635268,"251":-0.03135153536745606,"252":-0.05329893072663066,"253":0.0747618913707347,"254":-0.12147487337591754,"255":-0.07686489031378797,"256":-0.005153273411308777,"257":0.04989878861110434,"258":-0.042320030339221264,"259":0.0402945495039073,"260":-0.0035084533879455823,"261":-0.02145803580987997,"262":-0.012919392496437103,"263":0.04191087484148838,"264":-0.011422137844048365,"265":-0.006087655169893459,"266":-0.03992014714230169,"267":0.007945478767671495,"268":-0.005114776685230858,"269":-0.04736033510828117,"270":-0.058400790267283745,"271":-0.032886057033908296,"272":-0.0703858780936851,"273":0.06292660490863117,"274":0.02040681089858685,"275":0.027685180931998735,"276":-0.03827202639452746,"277":-0.019232975900861777,"278":0.025943007830258984,"279":0.013081452727214489,"280":-0.02196279067589237,"281":-0.09090728250350248,"282":0.0008435747269228627,"283":-0.07253992805563308,"284":0.016167046537536273,"285":0.04779231137917406,"286":0.006184533544574538,"287":-0.040756489447403725,"288":0.023148908420642926,"289":-0.010570835890416316,"290":0.023492715726901186,"291":-0.022214247955866087,"292":0.029618236330318744,"293":0.0015985262685266474,"294":-0.07367553300241342,"295":-0.015699012648212336,"296":-0.010828700119387151,"297":0.05075782690041331,"298":-0.01506226180543166,"299":-0.04980124815063241}},{"sx":5,"sy":5,"depth":12,"w":{"0":-0.060723123416434016,"1":-0.07160286734160345,"2":0.03660735215794494,"3":-0.051445679777383624,"4":-0.03033482962696315,"5":0.09199405526129963,"6":-0.025373067591682612,"7":-0.02643622223916739,"8":0.04921648769644461,"9":-0.014630557200598686,"10":-0.10557378263588024,"11":-0.0579529767479764,"12":-0.007726186674944299,"13":-0.06158766756610005,"14":0.09209210461058437,"15":0.06788528152113804,"16":-0.0013302804852866879,"17":-0.062415342326653966,"18":-0.011144485763469013,"19":-0.0339972586342517,"20":-0.03411862280095678,"21":0.0006107714062557564,"22":0.04068332193720893,"23":0.0067851412259612495,"24":0.11776364711129159,"25":0.04922123852233332,"26":0.01272095424593277,"27":-0.03563571048204934,"28":0.07059971978605319,"29":-0.0028157833241991685,"30":-0.0006308084271264959,"31":-0.02987292656652925,"32":0.006891413957640383,"33":-0.00914206232906568,"34":-0.1323136422289668,"35":0.01416627359910186,"36":0.03817042797059669,"37":-0.1217581412987244,"38":0.09435751735618358,"39":-0.0019408117084131619,"40":-0.00539481503828388,"41":0.10742582393058353,"42":0.05574136614293992,"43":-0.004725118333641057,"44":0.026899330921469913,"45":0.008957110185302937,"46":-0.0001669335857019004,"47":-0.08392615573071407,"48":-0.030082545977993164,"49":-0.03982225981529669,"50":-0.002780056363888552,"51":-0.022862064275833465,"52":0.00032492900302387326,"53":0.036539632894416314,"54":0.13876357292753946,"55":0.029560474791458593,"56":0.0001802398544136217,"57":-0.09393789128472174,"58":-0.08865655574061394,"59":-0.051462942857424566,"60":0.1758363406141586,"61":-0.061056862108115464,"62":0.06368877368440672,"63":-0.08041841232003619,"64":0.02950306706623353,"65":-0.005893378680954826,"66":-0.07250233138309287,"67":0.024580998024488678,"68":0.061391227694494614,"69":-0.04544353574855055,"70":0.02536655455607867,"71":0.02379173958777205,"72":0.09105329878000645,"73":-0.13846523227720933,"74":-0.07996970072818894,"75":-0.04234807701106911,"76":0.07183072457607216,"77":0.01074367021002373,"78":-0.08657286662264661,"79":0.004376286708248095,"80":0.06967150706297064,"81":0.026963946863798133,"82":-0.01452605622691175,"83":-0.05632616008966165,"84":0.1533244405894142,"85":-0.04689604205838971,"86":-0.06530332469218247,"87":-0.012920519821968027,"88":0.025330358136605134,"89":0.018120574374734816,"90":-0.012111926510444767,"91":0.012192868849268075,"92":0.047029655778902654,"93":-0.004161979837279645,"94":-0.021834184779015407,"95":0.09223187071445932,"96":0.06558135806332514,"97":-0.10882628223170106,"98":-0.004510199974671292,"99":-0.07036441818797012,"100":-0.10681440807182398,"101":-0.11846552523305671,"102":-0.028067756021079367,"103":0.015579005205643922,"104":0.0037329453421666233,"105":-0.020767702030802148,"106":-0.0080555678483772,"107":0.14704317467986688,"108":0.14131538876599756,"109":-0.02640078886209491,"110":0.12398387959817776,"111":-0.039987946058152674,"112":-0.0063200011262087305,"113":-0.04851970761915495,"114":-0.10937919559778204,"115":-0.010571266433283702,"116":-0.027315750125675924,"117":0.04425950547997657,"118":0.014452042719373143,"119":0.12435079979156499,"120":-0.022221433417048866,"121":-0.018110513860259612,"122":-0.026046816860316502,"123":-0.12167133413140187,"124":0.06370046994017285,"125":0.08477903095207784,"126":0.05355621909036374,"127":-0.013998453601860226,"128":0.07938119140363081,"129":0.05730804677955448,"130":0.09569780216501561,"131":0.07955647565325677,"132":-0.033662348519051845,"133":-0.07628526662572305,"134":-0.10226388521849615,"135":-0.05400299362565753,"136":0.0605321135420736,"137":0.0032978852257505176,"138":0.05973418004019466,"139":-0.046010473821516275,"140":0.030865638407413028,"141":-0.017365206431206936,"142":0.003251920931791663,"143":0.05088700153832338,"144":0.009427559878881431,"145":-0.04378716428095164,"146":0.04236842050595192,"147":0.073082449916523,"148":0.11894728200833743,"149":0.008802481410828678,"150":-0.07394014658144872,"151":-0.029809192133747178,"152":0.1549363283338061,"153":-0.06582802309064555,"154":-0.0032180968483254344,"155":0.08080949149714262,"156":0.038015931573025255,"157":0.08843191527191872,"158":-0.058600309963568825,"159":-0.06293862265612543,"160":0.12545167363449808,"161":-0.034719017434858765,"162":0.020638012561446876,"163":-0.04733718784598671,"164":0.1020802311062906,"165":0.000593983311927928,"166":0.04512603972503471,"167":0.030876571601549375,"168":0.08021965559258579,"169":0.03862052000775484,"170":-0.056760376768368176,"171":-0.01887709579757582,"172":-0.021125643041908178,"173":-0.03485115316605283,"174":-0.08202382471907405,"175":0.02873810977626086,"176":0.11410165506335705,"177":-0.04667991072906775,"178":-0.02006142370051221,"179":0.023143999800058313,"180":-0.016676486764975088,"181":-0.10620818020284607,"182":0.030771501176229583,"183":-0.006124697211523711,"184":-0.03722463453749868,"185":-0.019177404292302625,"186":-0.08028329743471312,"187":0.013854993175515324,"188":-0.04894053642175982,"189":0.046429952127388804,"190":-0.03775407641863846,"191":0.006829258713303994,"192":-0.03747968743175104,"193":-0.07942226825296449,"194":-0.024881425990854886,"195":0.04887754637152657,"196":-0.04687195464630544,"197":-0.049233962566742326,"198":0.0083432784197964,"199":-0.052394685763346716,"200":0.00933354484573792,"201":-0.04681152110838629,"202":-0.0766717463289014,"203":0.1355117436244029,"204":0.030894425547071898,"205":-0.03367688411763533,"206":-0.1759041852663507,"207":-0.04676040930004916,"208":0.013522170412264395,"209":-0.026196952635000506,"210":-0.06863112477029892,"211":0.01771121889139996,"212":0.05977469424932858,"213":0.009019159089089507,"214":-0.14509159660903767,"215":-0.020734647215354122,"216":0.042198891411352815,"217":-0.026164669397918273,"218":-0.04958340544732101,"219":-0.006845380578495777,"220":0.01310422827554096,"221":-0.046138804660855945,"222":-0.045952457241191215,"223":0.03972183510829438,"224":-0.02657743000355024,"225":-0.028292479643027474,"226":-0.05160188254157775,"227":-0.04665227355992453,"228":-0.012477196414353747,"229":-0.0591961111811731,"230":-0.09515134224829255,"231":0.0244814307317056,"232":-0.01757062680589813,"233":-0.02897905391899218,"234":-0.07047099192991393,"235":0.08304963840814232,"236":-0.07222353073343397,"237":0.02222237963393798,"238":0.056190747288194155,"239":0.043327717299407105,"240":-0.029736032952758187,"241":-0.020590001806404457,"242":-0.14356800528241953,"243":0.07116420635441824,"244":-0.0007329314806690819,"245":-0.04180503351805043,"246":-0.010475648860335725,"247":0.059860746535788496,"248":0.0011492176289652197,"249":0.04447826404254375,"250":-0.07626501628570262,"251":-0.07512390696686394,"252":0.028152341353514455,"253":-0.0631023104030733,"254":-0.08002551748245078,"255":-0.043424053956311326,"256":-0.03298757511386408,"257":-0.044177843742474035,"258":-0.11896335818155711,"259":-0.0285235511929345,"260":0.004202609699783219,"261":-0.009841050159741797,"262":-0.03334793538114639,"263":0.023284758619724025,"264":-0.08762890961704689,"265":-0.051287667042200225,"266":-0.07756035364296188,"267":0.021001832595631615,"268":-0.07401743688373662,"269":0.00723829673254621,"270":0.008283553616591189,"271":0.01723606316406739,"272":-0.0688455214148254,"273":0.03338739163488198,"274":-0.028344410242828022,"275":-0.03242178362024727,"276":-0.05591347222458488,"277":-0.13057309909812648,"278":-0.1354518539670292,"279":-0.04323526434654616,"280":-0.07360433401851584,"281":0.07151607632050704,"282":0.00126952985571608,"283":0.03397540888605493,"284":-0.013494846766072117,"285":0.038695274932118856,"286":0.01900957239790688,"287":-0.01904085993776883,"288":-0.025804641079305773,"289":-0.015886568623032817,"290":-0.07039659385080291,"291":-0.023480795288569594,"292":-0.02887293794957892,"293":0.0016814208847233027,"294":-0.029263225914635347,"295":-0.009962350702472233,"296":-0.015360273310069863,"297":-0.011000507183308878,"298":-0.03715081651447861,"299":-0.024027875214495474}},{"sx":5,"sy":5,"depth":12,"w":{"0":-0.05978297564044026,"1":-0.025901738906630258,"2":-0.04873666679252509,"3":-0.1072481242794532,"4":0.021090404005703896,"5":0.00012967216302932125,"6":-0.017935008224757815,"7":-0.026100975319598055,"8":0.004998702133255393,"9":-0.048873692099073704,"10":-0.013312902148544041,"11":0.10123849383047306,"12":-0.0640157591002106,"13":-0.016661869474788652,"14":-0.003707499739567716,"15":0.046766234952520094,"16":-0.051781534305581654,"17":-0.009080619603239755,"18":-0.0032440993667582152,"19":-0.10225428625045345,"20":-0.018009749283448104,"21":-0.04057973211126246,"22":-0.042745010378073045,"23":-0.047554612453205386,"24":-0.04188526181853429,"25":-0.005371799972531562,"26":-0.052037476525912424,"27":0.07216456415195062,"28":0.036087197824165154,"29":-0.04292982011612517,"30":-0.021650930410290387,"31":-0.055085558157446195,"32":0.09216668707981153,"33":0.03847209318515683,"34":0.021146271804445768,"35":0.04767163116614164,"36":0.05661978151118701,"37":-0.0282057328528977,"38":-0.06776249563083309,"39":-0.03302967267444208,"40":0.015355936424013733,"41":0.0074876835580144725,"42":-0.01494078908101639,"43":0.0200140998624128,"44":0.006024562957068363,"45":0.0211008720467544,"46":0.025004169020839146,"47":0.016158273541495335,"48":0.08695947948298907,"49":-0.013579960845459938,"50":-0.0757079664418956,"51":-0.04701593160750524,"52":-0.05974016265168333,"53":-0.011998803519968003,"54":-0.03398037903549071,"55":-0.04924160987886339,"56":-0.06717264983511233,"57":-0.10650246331321675,"58":-0.027323053646993525,"59":-0.049372567210574925,"60":-0.020537226512821236,"61":-0.01115363705915011,"62":0.007813411508261545,"63":0.00945038198578851,"64":-0.02631295268522574,"65":-0.0705626778703444,"66":0.030672068306254945,"67":0.03476358429867819,"68":-0.03144158385697396,"69":0.0073363465365245085,"70":0.024540389363600885,"71":0.05246121623737519,"72":0.09899815771388881,"73":-0.016110185582539075,"74":-0.05528522045593507,"75":-0.004674081225344552,"76":0.02774614420422111,"77":-0.07146113639261274,"78":-0.005957901028563019,"79":0.030937483342350202,"80":-0.023033358291292823,"81":-0.03213632312887524,"82":-0.02606321181990193,"83":0.00723418559948766,"84":0.03833781591556954,"85":-0.016385792019823077,"86":0.043545337829091604,"87":0.036528121539317185,"88":0.030217488268772557,"89":0.03959258637508979,"90":-0.009307729863368681,"91":-0.044312840809566566,