{"layers":[{"out_depth":1,"out_sx":24,"out_sy":24,"layer_type":"input"},{"sx":3,"sy":3,"stride":1,"in_depth":1,"out_depth":18,"out_sx":24,"out_sy":24,"layer_type":"conv","l1_decay_mul":0,"l2_decay_mul":1,"pad":1,"filters":[{"sx":3,"sy":3,"depth":1,"w":{"0":-0.1234233656663726,"1":-0.1715910357020058,"2":-0.3690927325686285,"3":-0.04697226574810819,"4":0.052202316209555906,"5":-0.05302249811350174,"6":-0.22664923745008272,"7":-0.19159140092923838,"8":0.2187862766963668}},{"sx":3,"sy":3,"depth":1,"w":{"0":-0.0783068839050301,"1":-0.3969829169728893,"2":-0.20207552683178065,"3":-0.25901675647235234,"4":0.14694556509169054,"5":-0.20984822418362648,"6":-0.0699672220167272,"7":0.3692313036693142,"8":-0.2294542123363972}},{"sx":3,"sy":3,"depth":1,"w":{"0":0.12957271083003197,"1":0.1187778316593289,"2":0.41762491571149707,"3":-0.3295393567850523,"4":-0.3381620063803255,"5":-0.01842447041736078,"6":-0.39387160775739444,"7":0.38985615745544416,"8":0.13900320414290485}},{"sx":3,"sy":3,"depth":1,"w":{"0":-0.13760363764942768,"1":0.09006403364278667,"2":-0.2944860870533972,"3":0.20112631276645063,"4":0.6227889347666332,"5":-0.21558830093439257,"6":0.3251665743080564,"7":0.5233905932428761,"8":0.015602022109863887}},{"sx":3,"sy":3,"depth":1,"w":{"0":0.05428468350843618,"1":0.015521509762928307,"2":0.0525602918601001,"3":-0.45203312174573057,"4":0.22412579593533913,"5":0.6293259029858861,"6":0.05076435579973929,"7":-0.08425280619517403,"8":0.09371352089427848}},{"sx":3,"sy":3,"depth":1,"w":{"0":-0.2348657401572478,"1":-0.19695629681918664,"2":-0.2580571742006747,"3":0.22855098773772164,"4":-0.11086379454891786,"5":-0.4384995817235356,"6":-0.0608710813125857,"7":0.14742920467589166,"8":0.8749274580017005}},{"sx":3,"sy":3,"depth":1,"w":{"0":0.21169622495339288,"1":0.32846752835056975,"2":0.5688621121316239,"3":-0.3792380178249909,"4":0.19113317932584817,"5":-0.056098335676736166,"6":0.072071742034778,"7":-0.571021680218171,"8":-0.38100389227271975}},{"sx":3,"sy":3,"depth":1,"w":{"0":0.19803862711808803,"1":0.042631788021946386,"2":0.09312521343795252,"3":0.32837886473789274,"4":-0.02536822005264789,"5":0.07146468160583179,"6":0.4013125777081463,"7":0.5056953349720242,"8":0.39191451797462284}},{"sx":3,"sy":3,"depth":1,"w":{"0":-0.07410910552135602,"1":0.29825046529689697,"2":-0.03516785180782114,"3":-0.036893971303443296,"4":-0.43867946269947966,"5":0.3470135456896417,"6":-0.17735831193849347,"7":-0.3463443549875901,"8":0.5486771245954098}},{"sx":3,"sy":3,"depth":1,"w":{"0":-0.0513608846715907,"1":-0.18487031083740652,"2":-0.21927803818726177,"3":0.2585532992558962,"4":-0.6567051282425921,"5":0.0046806440392813805,"6":0.7395551003716154,"7":0.14398036878846035,"8":-0.053731069431073045}},{"sx":3,"sy":3,"depth":1,"w":{"0":-0.3323188214520507,"1":0.7792565359506637,"2":-0.029098765420893406,"3":-0.2895773247571651,"4":0.06681050196092968,"5":-0.28255101040381614,"6":-0.1350727180755335,"7":-0.4033911821225223,"8":-0.28291054439790464}},{"sx":3,"sy":3,"depth":1,"w":{"0":0.12360862382289303,"1":0.15409662749131206,"2":-0.2846545743969298,"3":0.10310717943877501,"4":0.3577116232299208,"5":0.24149756441088033,"6":-0.1544280199178883,"7":0.3154343670067881,"8":-0.10184820537177296}},{"sx":3,"sy":3,"depth":1,"w":{"0":-0.1437770559137169,"1":-0.2849455840929942,"2":0.1035482923777563,"3":-0.34807537931282395,"4":-0.1652874556342966,"5":0.6270180060774934,"6":-0.056494337425609595,"7":-0.1743681283334934,"8":0.15095065733690083}},{"sx":3,"sy":3,"depth":1,"w":{"0":0.2563903710499638,"1":0.28781227713288327,"2":0.28302446741014486,"3":-0.20453956803856044,"4":-0.079407998552331,"5":0.21183847517797275,"6":-0.34007123418849855,"7":-0.039182389916599565,"8":-0.027917292240345146}},{"sx":3,"sy":3,"depth":1,"w":{"0":0.10698962859644703,"1":0.07653896415398469,"2":0.2281683587388945,"3":0.15132240558706608,"4":0.0650894751129561,"5":-0.3552015925631061,"6":-0.44507051676063114,"7":-0.24459080622811868,"8":0.15115832690987496}},{"sx":3,"sy":3,"depth":1,"w":{"0":0.3094429892065748,"1":-0.16479774044778336,"2":-0.2984607678603067,"3":-0.13343265286042466,"4":-0.42982924885661794,"5":-0.031000466537249582,"6":-0.029994579611066823,"7":0.5137343265795159,"8":0.21234265045571446}},{"sx":3,"sy":3,"depth":1,"w":{"0":0.2689724679602765,"1":-0.0972435545586315,"2":0.1486100168615585,"3":-0.048683410301699495,"4":-0.1737038929425302,"5":-0.06765562342397788,"6":0.0007437343915453714,"7":-0.29892987621530387,"8":0.361985300226713}},{"sx":3,"sy":3,"depth":1,"w":{"0":0.29374953155920386,"1":0.0994237022656838,"2":0.3855208966265317,"3":-0.17633043055148742,"4":0.32298301741359714,"5":0.2617009747859629,"6":0.2901466445663877,"7":0.567166585378355,"8":0.6185478439069128}}],"biases":{"sx":1,"sy":1,"depth":18,"w":{"0":0.32185906214861804,"1":0.2776653073962349,"2":0.0021720600413555197,"3":-0.035110837684187594,"4":-0.1083359117624249,"5":0.012018919660882789,"6":0.010577674695649988,"7":-0.04591980142928673,"8":0.005534811702273934,"9":0.008393939810689411,"10":0.19703789663230217,"11":-0.15145147366047998,"12":-0.003858541570293444,"13":-0.0013967921084654625,"14":0.18419749836631644,"15":-0.006072808617409517,"16":0.0030276984735645553,"17":-0.03687170218452589}}},{"out_depth":18,"out_sx":24,"out_sy":24,"layer_type":"relu"},{"sx":2,"sy":2,"stride":2,"in_depth":18,"out_depth":18,"out_sx":12,"out_sy":12,"layer_type":"pool","pad":0},{"sx":5,"sy":5,"stride":1,"in_depth":18,"out_depth":28,"out_sx":12,"out_sy":12,"layer_type":"conv","l1_decay_mul":0,"l2_decay_mul":1,"pad":2,"filters":[{"sx":5,"sy":5,"depth":18,"w":{"0":-0.023616699525550067,"1":-0.05057628450919753,"2":-0.03588982382621455,"3":0.016585442857731326,"4":0.06243834196303368,"5":-0.0162484621012703,"6":0.07701823798606677,"7":0.055816519575440156,"8":-0.0017663783188774523,"9":-0.01949521888860301,"10":-0.02226917614998672,"11":0.03333863337265632,"12":-0.01860847754859437,"13":0.07441876986869064,"14":0.026944965442710498,"15":-0.03991872816172531,"16":-0.02377678614639285,"17":0.022276103003728325,"18":-0.06280907043511066,"19":-0.06895504721026281,"20":0.011345053509147683,"21":-0.015120420737070492,"22":0.017400661131358474,"23":0.0016721682609140414,"24":0.0027518131536372233,"25":0.004792000214466934,"26":-0.054368468021406754,"27":-0.007514485352047334,"28":-0.033497017571576054,"29":0.010000720260974823,"30":0.005196615426767059,"31":0.013551871411121599,"32":0.03314505550128876,"33":0.041723747857219044,"34":-0.033711635589878046,"35":-0.01038034651696223,"36":-0.0012350878406872077,"37":-0.020976164031346004,"38":-0.04891836433059422,"39":-0.07977340395037438,"40":-0.04084857327227748,"41":-0.06129721220022119,"42":0.08366674101260685,"43":-0.08896861004923762,"44":-0.04822461741763115,"45":0.008563257011132912,"46":0.044422572003277656,"47":-0.023722744477148672,"48":-0.029034789377923243,"49":-0.021407509655359716,"50":0.029975384692577035,"51":-0.042077433755984224,"52":-0.04431496038711877,"53":-0.07906822053289715,"54":-0.025381484191458036,"55":-0.022904941287565442,"56":0.04627528459968393,"57":-0.05989908395822598,"58":-0.09237110520041072,"59":-0.015895919334602136,"60":0.08430681963228219,"61":-0.031878404884285935,"62":0.04126617930856482,"63":-0.0639925896896598,"64":0.024846276879978944,"65":-0.012654922283107403,"66":-0.03578211677578525,"67":0.02696969709647759,"68":0.04147631248315725,"69":-0.04378386027754698,"70":0.04605414823771053,"71":-0.07441960672010156,"72":-0.028298545011113212,"73":0.015585368095956878,"74":0.11671427388928246,"75":-0.05105456424620835,"76":0.07607965904897115,"77":0.04286126457245564,"78":0.06523193803007421,"79":-0.037829086642447,"80":0.07614335787085243,"81":-0.004391463295984766,"82":-0.036532814885577664,"83":0.020443442049369435,"84":0.1218424091136411,"85":0.08242178304028602,"86":0.009363366103535133,"87":0.04563893542866309,"88":0.046762791804752436,"89":0.08128074300369942,"90":0.012332803357884637,"91":-0.005814958688566844,"92":0.06809798308038366,"93":-0.04948832214771952,"94":-0.02095423900964306,"95":0.010796134581253765,"96":0.09242940709364371,"97":-0.009632124574768659,"98":0.006235540545045267,"99":0.05269636817477512,"100":0.043430761596025255,"101":-0.031176215694720632,"102":0.02103020925000643,"103":0.06987174036325951,"104":0.028497231449947192,"105":0.04456551410341299,"106":0.068355180570519,"107":-0.03282339989987922,"108":0.008059365473589502,"109":-0.009501862805841864,"110":0.05196512264982053,"111":-0.09926245620550499,"112":-0.059512588279194964,"113":-0.0476213923286691,"114":0.09240971356228779,"115":-0.0902841362684616,"116":-0.044621708686782995,"117":0.0009322822995991632,"118":0.04967319217431397,"119":-0.05821689032765303,"120":-0.04434987346584376,"121":0.03145670691569554,"122":0.031373453140265774,"123":0.05787399714533947,"124":-0.023087697053453135,"125":-0.07987050381824261,"126":-0.020006374628446243,"127":0.030560709143575622,"128":-0.0318000890853713,"129":-0.14134423206690347,"130":-0.09313660983075747,"131":-0.07225462662753744,"132":0.0443706393677728,"133":-0.18275735403023063,"134":-0.03277143352100436,"135":-0.022729697143477844,"136":0.078608949654687,"137":-0.12760960571665866,"138":-0.04089498815769052,"139":0.014584872797040085,"140":0.00009327687583105294,"141":-0.013565296230017544,"142":-0.018622054377536085,"143":-0.12389839477308423,"144":0.05651326415009794,"145":0.10078192521307759,"146":0.09149748539740689,"147":-0.023516817800652314,"148":0.005704201155933387,"149":0.06291387510952821,"150":0.05305103128015412,"151":-0.10863096818534243,"152":0.07003796378857535,"153":-0.06315615851501111,"154":0.00329769372403823,"155":-0.022370331998961587,"156":0.0834974755190732,"157":0.018136159124455285,"158":0.07055199218596431,"159":0.1043848945646092,"160":0.06353967945488594,"161":-0.03884689567953803,"162":-0.08291626868177294,"163":-0.08534441857296114,"164":0.04166130773855074,"165":0.03574127221687637,"166":0.04652518044493742,"167":0.014548745234592323,"168":0.02605964982761487,"169":0.020451539788778526,"170":0.08572860624773801,"171":0.02888483540899023,"172":-0.11243040441306625,"173":0.03659111412146349,"174":0.0758286521219002,"175":0.08454568094823955,"176":-0.05999948106045274,"177":0.004569881825401114,"178":-0.005671739390873544,"179":0.05677626686780856,"180":-0.07874899862187569,"181":-0.007246355708509016,"182":-0.05331811626076047,"183":-0.11273344319258782,"184":-0.04658506617497719,"185":-0.06061145693864862,"186":0.025397167949915762,"187":-0.0961737162072414,"188":-0.0661670395139632,"189":-0.005754452376816585,"190":-0.059027963875999304,"191":0.007120668650259202,"192":-0.013869956800850174,"193":-0.026371448500239876,"194":-0.04412612241677286,"195":-0.04009561887042072,"196":-0.0123354272978042,"197":-0.17008760136685705,"198":-0.07353043112734488,"199":-0.05610849173602989,"200":-0.11860187668200162,"201":-0.1176734713923552,"202":-0.12486153083505258,"203":-0.09744398811940669,"204":-0.012102686171300734,"205":-0.11715018720576421,"206":-0.034318014939580165,"207":-0.06099359949585276,"208":0.012727766549136975,"209":-0.07556605440026833,"210":-0.0016152487626306935,"211":-0.047691498300011535,"212":-0.04524525606084414,"213":-0.09932160872755606,"214":-0.02864331819843023,"215":-0.09677543828589837,"216":0.10347643158476388,"217":0.0019871174788486327,"218":0.04831191467077568,"219":-0.1070892944530253,"220":0.07223687412245598,"221":0.1239731521980174,"222":-0.04272824220756862,"223":-0.058412253822430926,"224":0.0674114326401416,"225":-0.017213045013946306,"226":-0.005468446377051504,"227":-0.012299552594404996,"228":0.11640764166929302,"229":-0.032578459484537234,"230":-0.0031527526967880947,"231":0.03961038824767859,"232":-0.010244851688697649,"233":-0.010008146736915241,"234":-0.03857471144577856,"235":-0.027579325988677766,"236":0.05111114616693318,"237":0.07421473514432339,"238":0.10671936748491041,"239":0.07581517705253278,"240":-0.03807266067977977,"241":0.041534701001490516,"242":0.06238180541616226,"243":0.06827126393106728,"244":-0.12420733312042989,"245":0.10447883017203612,"246":0.12755160230892085,"247":-0.04007063504513819,"248":-0.09412945665156255,"249":0.07007487783700049,"250":-0.06819664225635153,"251":0.13540259514758937,"252":-0.10582713599156966,"253":-0.20359060444540567,"254":0.0461960379283867,"255":-0.04522508304303985,"256":0.10789859579148771,"257":-0.09910999979025473,"258":0.005685299747792178,"259":-0.06440929205040416,"260":0.06373241455715463,"261":-0.11686863153129308,"262":-0.08286601223254701,"263":0.025203479460258343,"264":0.07073163530015074,"265":-0.0019562864826713575,"266":-0.06733712115208626,"267":-0.06103833803265597,"268":0.013738216354725582,"269":0.03166636466586565,"270":-0.03261053482847808,"271":0.007946397613247278,"272":-0.07121069658886536,"273":-0.05805406737295134,"274":-0.0718094235012617,"275":0.05140343279806666,"276":-0.03615730556307446,"277":-0.014437066110204387,"278":-0.042881355309575424,"279":0.02731317419480807,"280":-0.09264452976457935,"281":-0.05814939491191352,"282":-0.030399410010441816,"283":-0.04754797892612878,"284":-0.05581194804747355,"285":0.07041749190795968,"286":0.02252244707635511,"287":-0.09699583177285168,"288":0.02866043478619489,"289":0.045904984024299836,"290":-0.016767399579394496,"291":-0.04150996530897596,"292":0.005083132481822465,"293":0.1612054460255594,"294":0.04293092535327232,"295":-0.027920598444737748,"296":0.06098993146979099,"297":0.1398506091118718,"298":-0.015930542833783593,"299":-0.028472771902591582,"300":0.18306553131296185,"301":-0.0942085131280813,"302":0.026447615501046413,"303":0.14984835650699668,"304":0.04432603236078894,"305":-0.042451037318544375,"306":-0.0881483174106933,"307":-0.07061793804617872,"308":0.15642049297483254,"309":0.06731574619454278,"310":0.1242137790635679,"311":0.10736195318106014,"312":-0.058585126223615266,"313":0.07726253891435436,"314":-0.027580734355707997,"315":0.11176447402085266,"316":-0.14810624654077822,"317":0.002855706719621095,"318":0.07815355829197405,"319":0.0030184237948699447,"320":-0.07516414608427284,"321":0.13639547099361757,"322":-0.09084004367935748,"323":0.1137355062460326,"324":-0.09760715328398464,"325":-0.09714640295862285,"326":-0.04321913560413891,"327":0.13404499863520297,"328":0.0017945402205587246,"329":-0.03901482639797861,"330":-0.008519721062200853,"331":0.04622970388476405,"332":-0.050850146954462605,"333":0.015977864589209,"334":-0.0999322709158208,"335":0.06473545789730309,"336":-0.06496613244484126,"337":-0.0550974631156591,"338":-0.07197775392975816,"339":0.03947993793748951,"340":-0.05916022512511639,"341":0.102731781084747,"342":-0.0690642012853488,"343":-0.08751117812414085,"344":0.04790762423046,"345":-0.06000986407246979,"346":0.030485505737413897,"347":-0.09775653060224002,"348":-0.08276999088891612,"349":-0.0391664700109591,"350":0.02930309213506999,"351":-0.05273230257612151,"352":-0.032979688678742736,"353":-0.034559691190634734,"354":0.015445020578750492,"355":-0.007413290223533241,"356":-0.05838492817037094,"357":-0.007534974116204956,"358":0.017955437682273166,"359":-0.06072592945333633,"360":-0.019775230739658877,"361":-0.04021052266976835,"362":-0.05587138295886186,"363":-0.035660274863820764,"364":0.041536151258020466,"365":0.15439791189624735,"366":-0.06727840854818662,"367":0.04872125013457841,"368":0.03851002506586322,"369":-0.035592195080206245,"370":-0.0795657750119116,"371":-0.010222198417564998,"372":0.12136851001089022,"373":0.01413252488696616,"374":-0.05654749384530609,"375":0.03131803077665512,"376":0.011340480787944182,"377":0.04631303004884254,"378":-0.061916764889610544,"379":-0.09567966272450269,"380":0.029857191340750194,"381":0.11728565245576887,"382":0.06022313433730206,"383":0.10762841794620914,"384":-0.002391271795527963,"385":0.13265610964927382,"386":-0.02211819632573864,"387":0.08991982216203757,"388":-0.05799072173436989,"389":0.06680808369851399,"390":0.037324604218336756,"391":-0.02998655212986713,"392":-0.01387220512303339,"393":0.0648213444292598,"394":-0.08088710908209487,"395":0.005918408996577193,"396":-0.1300928922452663,"397":-0.1942542115090812,"398":-0.03863083042285777,"399":0.10768480308235538,"400":-0.012598491584071805,"401":-0.04783815954631518,"402":0.02153866555774475,"403":0.09690276736336928,"404":-0.04664311325815285,"405":-0.02683901502301245,"406":-0.06622679433685216,"407":0.05198738135381614,"408":-0.08120496848774965,"409":0.03346732359348902,"410":-0.042070623617689075,"411":-0.022073926038054775,"412":0.005309198497698006,"413":0.12985742196613206,"414":-0.0814755064360988,"415":-0.1477161430265517,"416":-0.0706233457645269,"417":0.11110509267393259,"418":-0.0106544916223833,"419":-0.11093084438982374,"420":0.01537037889060053,"421":0.07827705523994058,"422":-0.0917477253620901,"423":-0.01308081670780824,"424":-0.07946057704031866,"425":0.05673511270792283,"426":-0.06702352199494757,"427":-0.015520217829559506,"428":-0.04091237198286366,"429":-0.08043623967079709,"430":-0.08612898640168269,"431":0.10429903364058325,"432":-0.0743108842865303,"433":-0.11708033479388898,"434":-0.07527601556583163,"435":-0.11829077707910315,"436":-0.09878759854433324,"437":-0.0802720981385306,"438":0.02446759364841577,"439":-0.100268207360568,"440":-0.05624316295223273,"441":-0.10594929181835178,"442":-0.004477542884689822,"443":-0.06241501496302831,"444":-0.0596544802224309,"445":-0.03758321572559337,"446":-0.029581607564739588,"447":-0.012501819625634753,"448":0.02458892156117725,"449":-0.1383289977890824}},{"sx":5,"sy":5,"depth":18,"w":{"0":-0.017707044484011766,"1":0.02289784007101232,"2":-0.01663203520505925,"3":0.052772583825338094,"4":0.09271861291203072,"5":0.012319207066787463,"6":-0.03773552801612305,"7":0.05273053144139138,"8":0.036190740449283214,"9":-0.013075876792063923,"10":-0.053027130945286834,"11":0.033408029311411305,"12":0.028235528937641852,"13":-0.006335442626830799,"14":-0.07953890002576766,"15":0.12528288118811584,"16":-0.027380563076526053,"17":0.08122289544254213,"18":-0.0401625364007427,"19":0.03614417733823594,"20":-0.05564754335343077,"21":0.08250156867362755,"22":0.001779099122893531,"23":-0.018017171582191478,"24":-0.07026366383470532,"25":0.144697507086731,"26":-0.05037931463306731,"27":0.003343555320155663,"28":-0.0283188376878163,"29":-0.004382685652293596,"30":-0.043146182146789246,"31":-0.08683941019346496,"32":-0.03602758508904549,"33":0.0015396393285903637,"34":-0.0513331016808877,"35":0.08953255190470175,"36":-0.008532470919705916,"37":-0.0407062750403147,"38":0.028834253182994266,"39":-0.02280491674563066,"40":0.014226206015061265,"41":-0.10370956098137465,"42":0.060261499607436625,"43":-0.022790094812163108,"44":0.05645528331384117,"45":-0.052324524174562966,"46":-0.03397753045887255,"47":0.003706046083753288,"48":0.023593334866200664,"49":0.022684114401631712,"50":-0.040505256148133946,"51":-0.14148229354101216,"52":-0.030018769090135598,"53":0.015738758324715923,"54":0.01051336816281382,"55":-0.028798366096141694,"56":-0.05841568767917188,"57":-0.008513458861581363,"58":-0.07919457356756096,"59":-0.04971599864962619,"60":0.07241028115460295,"61":0.02275504961864586,"62":-0.052126750257351646,"63":-0.013284358710213657,"64":-0.01684949317168873,"65":-0.028202184782622892,"66":-0.06800191370854053,"67":-0.0028689236690784175,"68":-0.03351074758066669,"69":-0.025946718970546984,"70":-0.014575149803312358,"71":-0.03833486891452277,"72":0.0035511755765635744,"73":-0.02917698330970415,"74":0.019231368776650153,"75":-0.08957775617921934,"76":-0.030296278538159725,"77":-0.03390287259257482,"78":0.03596659708092843,"79":-0.01579953576026873,"80":0.042644524282277725,"81":-0.08968616936794058,"82":-0.025141009053075127,"83":-0.028324677479084424,"84":0.07127189305842167,"85":0.006625944761494959,"86":0.013193825933632225,"87":-0.044384351977996665,"88":0.006168014504498817,"89":-0.052066159152825066,"90":-0.06246264318206599,"91":-0.04590433974074133,"92":-0.03934652530835295,"93":0.0589817795688916,"94":-0.014125641680101084,"95":0.03317243712799464,"96":-0.0908977485103714,"97":0.14551107184226267,"98":-0.006250195498189087,"99":0.006005560081810558,"100":-0.08807305123116387,"101":0.06197742042704931,"102":-0.02258955423898079,"103":-0.03065229592186577,"104":-0.097451168935317,"105":-0.010399436579941957,"106":-0.11510836578320625,"107":0.028172717173557973,"108":-0.019039157392946756,"109":0.00871261047513216,"110":-0.014285071573387122,"111":-0.0024515429078648347,"112":-0.032821192719624616,"113":0.0657290910518604,"114":-0.08632458765495624,"115":0.10580450504342581,"116":-0.03426493649544106,"117":0.028724386238089587,"118":-0.039279107562788136,"119":-0.03654898194406246,"120":-0.08059287337307465,"121":-0.01652902352830556,"122":-0.03492194872438347,"123":0.06947020665004572,"124":0.013112950807502478,"125":0.04949184443521968,"126":-0.00562577410669095,"127":0.05373477886444814,"128":-0.0394150236388374,"129":0.02069527780338852,"130":-0.05406464842945816,"131":-0.020011574449729654,"132":0.045100460393667295,"133":0.05024035057037615,"134":0.02404879037565476,"135":0.12165886977342305,"136":0.009559699354989359,"137":-0.06363684868221377,"138":-0.0016518408319367679,"139":-0.035808065011880816,"140":-0.05246395460765587,"141":0.03388897479308138,"142":-0.013017280742464799,"143":-0.09496595140652135,"144":0.016664554464597452,"145":-0.027163211994827532,"146":-0.004559457501953513,"147":-0.1577909851736032,"148":-0.12174853462981629,"149":-0.04712329033740035,"150":-0.016302205364360032,"151":-0.12964260861975757,"152":-0.04581737950009339,"153":0.04216865492749481,"154":0.040786996694533895,"155":-0.10831725243409734,"156":-0.03897991405245427,"157":-0.013443679541108434,"158":0.030714896563241688,"159":-0.02788423298412575,"160":0.025439719417258786,"161":-0.04439954480466816,"162":0.02872240765352549,"163":-0.017875324760084483,"164":0.006338864025273195,"165":-0.051590869649661385,"166":-0.014730391933426538,"167":0.019962301909599786,"168":-0.0314019935722822,"169":-0.05316837644615171,"170":0.08457455267315546,"171":-0.052807465909667096,"172":-0.02414224398870134,"173":-0.07043478334543288,"174":0.1082496863822828,"175":-0.04005552029326409,"176":-0.06453957769005977,"177":-0.018852613797167465,"178":0.03984968084342932,"179":-0.06393275354515571,"180":-0.08858898754157472,"181":-0.06154702589221532,"182":0.006840926224557134,"183":0.024153679357123675,"184":-0.03052603284180811,"185":-0.12392101676453482,"186":-0.19593016505794655,"187":0.07797990589099414,"188":-0.09630626629047144,"189":0.031141692273660312,"190":-0.1207034439218324,"191":0.03931654175974112,"192":-0.05228334331260485,"193":-0.019433918016838272,"194":-0.12177311050494753,"195":-0.02073032644490723,"196":-0.14876164513825546,"197":0.07919785273102686,"198":-0.0656661870382938,"199":-0.04293439444055083,"200":-0.12085997955812267,"201":0.031109648390712855,"202":-0.00028198577471296035,"203":0.012589721727858518,"204":-0.021701398346843447,"205":0.04970463815142227,"206":-0.0961153195492752,"207":-0.0433726875283582,"208":-0.06325997854152393,"209":0.07762244529476696,"210":-0.06687543186979056,"211":-0.06712004509839213,"212":-0.0881861434894878,"213":0.028772822785709543,"214":-0.06304532760772502,"215":0.029988329697645307,"216":-0.032129342404012246,"217":0.07361545222812631,"218":0.00829804088780677,"219":0.09322900135409096,"220":-0.0218461978265403,"221":0.06971321699733292,"222":0.11376795379995011,"223":0.0485963183765946,"224":0.017138523205922386,"225":0.06970359100533265,"226":0.025853690913717038,"227":0.054439147072725125,"228":-0.025891664727446997,"229":0.012890800573195523,"230":0.02720786460466538,"231":0.07390457348252186,"232":0.02803907405238971,"233":-0.018129233318805463,"234":0.08967580520558752,"235":0.023621703378789445,"236":-0.0010319814116779935,"237":-0.15332370338142226,"238":-0.06413072779010215,"239":0.009511882861079096,"240":-0.014251198212063883,"241":-0.14411620066134181,"242":-0.019663192837513194,"243":0.015298429513583239,"244":-0.028885796527497575,"245":-0.1417485670202423,"246":0.007823044066042615,"247":-0.03513131833698157,"248":0.023088059783466237,"249":0.0363476139544269,"250":0.04091551477821011,"251":-0.15271719698693684,"252":-0.011485768653876792,"253":-0.021926131620832148,"254":0.024376404678036652,"255":-0.04714251289580393,"256":0.021072001572539443,"257":0.03639570299504778,"258":-0.03429972378089866,"259":-0.07493959752921371,"260":0.000937457860453585,"261":-0.005664493114589267,"262":-0.040173219521001315,"263":-0.04760723945006938,"264":0.1229622580250644,"265":-0.009279085672712704,"266":-0.017780377461037285,"267":-0.015547941934131313,"268":0.05526367252240898,"269":0.012241628493719538,"270":-0.10564509016116899,"271":-0.1114456786499427,"272":-0.024797298332972402,"273":0.045567661939698086,"274":-0.02534278268701154,"275":-0.12306873381494526,"276":-0.01580910292075541,"277":0.0672746121840859,"278":-0.07646795124228752,"279":-0.035233062599232305,"280":-0.057636652804699096,"281":0.060900549021493826,"282":-0.12965624690626745,"283":-0.008079539783599349,"284":-0.0684046050242091,"285":-0.08644038988188571,"286":-0.0715930290307814,"287":0.042070376545601536,"288":-0.03803806048909418,"289":-0.07526090976919146,"290":-0.07120276095230706,"291":-0.005471793429802626,"292":0.0013118128198974792,"293":-0.10125601698943942,"294":0.06532913714314692,"295":0.009925423022473215,"296":-0.02471958111028545,"297":-0.05517456963996579,"298":0.01624432863808193,"299":0.005788409583851898,"300":-0.1395248127434264,"301":0.015059583811124601,"302":0.00950021184030291,"303":-0.08998967959249628,"304":-0.06634803972418107,"305":0.06346762618516334,"306":-0.007543844812545288,"307":-0.005455211524717877,"308":-0.030566586937872488,"309":-0.010368931842553233,"310":-0.0640677290453678,"311":0.006527860027650823,"312":-0.04238778151215953,"313":-0.0755814006086235,"314":0.013065985104059727,"315":0.054643099196108214,"316":-0.01026992018630736,"317":0.023614311757649633,"318":-0.02236639700064579,"319":-0.026779485399644552,"320":0.0006054306710513645,"321":0.08370730514936445,"322":0.03360635225531124,"323":-0.08457685158786496,"324":0.008614810700046004,"325":0.034313700377464736,"326":-0.03456250349370467,"327":-0.10701250383819562,"328":-0.054361163502408896,"329":0.0013573159314867465,"330":-0.11556930279018807,"331":-0.05991219533466773,"332":-0.04188851419602564,"333":0.045982976108200034,"334":-0.030577205073714548,"335":-0.08656361946112652,"336":-0.004156919449307651,"337":-0.09524012775533645,"338":-0.033697867138042785,"339":-0.03550560016348358,"340":-0.010410922151368355,"341":-0.08640040916217295,"342":-0.033267158061428256,"343":-0.0606569866010301,"344":0.03433601463534366,"345":-0.0016889233711170197,"346":0.0036574243937866503,"347":0.0033472343875761124,"348":0.0021368550776201794,"349":-0.10565896106608533,"350":0.05107949233294077,"351":-0.021796131273228145,"352":0.027857209616873598,"353":-0.033071769804506324,"354":0.09183894002996715,"355":0.010510938017270335,"356":-0.008564223923009462,"357":-0.05091352329838405,"358":0.023204653574639706,"359":-0.0428220283505044,"360":-0.048912619345208595,"361":-0.046522632449036296,"362":-0.04112636411648729,"363":-0.015665050289945165,"364":-0.016448100272424906,"365":-0.04505381343602533,"366":-0.032946687396172535,"367":-0.004789573083080881,"368":-0.03135032159743391,"369":-0.10491670012164432,"370":-0.013867455682940538,"371":0.061688044606681536,"372":-0.09196035767576,"373":-0.021993564626402586,"374":-0.002238326064058594,"375":0.0028342528237875696,"376":-0.01923950530074147,"377":0.0208249720785844,"378":-0.04327754871235778,"379":-0.0127092748830951,"380":-0.09992280858282938,"381":0.027101683365619925,"382":-0.05723855747971877,"383":-0.02159078909147632,"384":-0.19926341135484843,"385":-0.04492792768337066,"386":-0.12089661769862654,"387":-0.048279711953351144,"388":-0.08090921637697399,"389":0.07585240905028454,"390":-0.09713324605061716,"391":-0.11555123030240244,"392":-0.17443300681974125,"393":0.008670056420951158,"394":-0.11202928654143175,"395":-0.03214282186853901,"396":0.007685535585748678,"397":-0.014264300079453103,"398":-0.10885075272496987,"399":0.017904911649501563,"400":-0.05409560973656367,"401":-0.06071868469337038,"402":-0.11867803748127406,"403":-0.02081940274531745,"404":-0.07799290887891595,"405":0.02689201725165375,"406":-0.058943586468541406,"407":0.0006267107900566555,"408":-0.02847813669080719,"409":-0.12120749577440013,"410":-0.05614789386607805,"411":-0.09985877555433881,"412":-0.02869253807002154,"413":-0.09366920571943711,"414":0.0331182360183494,"415":0.009661231739748916,"416":-0.024647468568888272,"417":-0.062813349046924,"418":-0.0345521964181964,"419":-0.01085886114965777,"420":-0.04392453383190462,"421":-0.0683571210223516,"422":-0.023894640325535146,"423":-0.028403785460413077,"424":-0.013137604735853401,"425":-0.03939038196787779,"426":0.00606156602662926,"427":-0.07866241320488784,"428":-0.03487134997072926,"429":-0.013820090168608636,"430":-0.02781083643042085,"431":-0.10535937075024109,"432":0.004144350365874165,"433":-0.020850183216510193,"434":0.023784421389921075,"435":-0.05553939529357604,"436":0.01188465867780483,"437":0.012953687777834027,"438":0.013249016150798347,"439":-0.09433577613832408,"440":0.04210266425980056,"441":-0.030923728749417605,"442":-0.003586515327984906,"443":-0.07977710458786015,"444":0.08987331893709702,"445":0.024930143043084642,"446":0.012093208423751233,"447":-0.004284820547312782,"448":0.03298724622234142,"449":-0.028013697570856727}},{"sx":5,"sy":5,"depth":18,"w":{"0":-0.007684547738556689,"1":0.0014361967064427173,"2":-0.01472292436200994,"3":-0.03930924510884747,"4":0.06630709494539848,"5":0.022701508725017434,"6":0.04536047715467533,"7":0.00045540886497613594,"8":0.0403740949394496,"9":-0.003195731278129056,"10":0.02920657961941332,"11":-0.05580425282586476,"12":0.028099850981264454,"13":-0.010633263052294534,"14":0.07749010922380116,"15":0.018519765878663826,"16":0.012786254003582171,"17":-0.06582572121612165,"18":0.06379804276161052,"19":0.10846406869373067,"20":-0.02217941277337019,"21":-0.012843880194504076,"22":-0.049211505035416214,"23":0.01509322230106055,"24":-0.026333609199895178,"25":-0.04233896477800859,"26":-0.07934155525691934,"27":0.07686974730062848,"28":-0.03926903551754153,"29":-0.051122140822279796,"30":-0.046396934666940316,"31":-0.034336603608141544,"32":0.05693753099593963,"33":0.06436275066062365,"34":0.0431774252811248,"35":-0.09259185602895917,"36":0.02360214330762093,"37":0.05020558945635155,"38":0.046393497382622,"39":-0.057421605991967294,"40":0.0015526847677153682,"41":-0.011737925493790585,"42":0.06973982900984466,"43":-0.10035818548369618,"44":-0.01070074904615008,"45":0.004314008326410421,"46":0.12610466465811657,"47":-0.049190637407744375,"48":-0.002215490440081021,"49":0.012671862727235387,"50":0.05742237029844236,"51":-0.05265640205487096,"52":-0.010787326147789919,"53":-0.08692100701807881,"54":0.03871185241101437,"55":0.07321227696331016,"56":-0.014320724575665186,"57":-0.09788478526617529,"58":-0.10210930169838672,"59":0.00796128736585863,"60":0.059565867424620195,"61":-0.10769454784812581,"62":-0.011320129485570842,"63":-0.01977024974287893,"64":0.09596529226644218,"65":-0.01926888229527929,"66":-0.05496253940425237,"67":-0.03915737611259623,"68":0.05722054567915115,"69":0.049583292384789354,"70":0.044726394621322205,"71":-0.13526785492265908,"72":0.06132371590874619,"73":0.04447647001992445,"74":0.05041809697763639,"75":-0.04643298492597727,"76":-0.02943449636279132,"77":0.030220959164199028,"78":-0.011142907278363475,"79":-0.11474590683464768,"80":0.009223894414908165,"81":-0.012679138153145832,"82":-0.04548710276892188,"83":-0.048755414890906075,"84":0.07057092367154646,"85":-0.0009496783071189105,"86":0.032765581161538146,"87":0.0010156656169462493,"88":0.03823537253657029,"89":-0.09262151824998911,"90":0.002979440761039803,"91":0.0026816989786340112,"92":-0.022326185425943296,"93":-0.040955398830819424,"94":0.017680964349480622,"95":-0.03281603863465314,"96":-0.008152266487045754,"97":-0.06140015708607749,"98":0.036676740603928275,"99":0.05138163720978385,"100":-0.019592079840602017,"101":-0.052702854436023565,"102":0.012786419750811689,"103":-0.006563251744809932,"104":-0.010009227302057687,"105":0.009777263368234037,"106":0.0541394759249795,"107":0.006879343071178121,"108":0.04811563671551773,"109":0.05668467976474069,"110":-0.0031939698365400057,"111":-0.011152995789642127,"112":-0.011513482232283101,"113":0.023349032765233237,"114":-0.039060283694244864,"115":-0.07069071685500826,"116":-0.030164494898616813,"117":0.06710019297002424,"118":-0.030313239539001835,"119":0.010607505451593101,"120":0.009085839198480192,"121":-0.007763389576501699,"122":0.0016916548655843387,"123":0.02275905380650567,"124":0.023179943353639862,"125":-0.06160297206345478,"126":0.015126629096452572,"127":-0.003520608093966315,"128":-0.11263453252334332,"129":-0.02884746336360489,"130":-0.1004528957162071,"131":-0.03185399069110511,"132":-0.11909281060926674,"133":-0.054251028872181736,"134":-0.07063456280317489,"135":-0.0006955047627623739,"136":-0.06525711707513447,"137":-0.05874580690018215,"138":-0.014094245042855207,"139":-0.13130615769280513,"140":-0.06180432481787854,"141":-0.03537781637449339,"142":-0.055745561474616546,"143":-0.10364867710567456,"144":0.041495121540851616,"145":0.06387284748808818,"146":-0.03185538278568803,"147":-0.04168967937524453,"148":-0.05126954028083441,"149":0.10602610943246864,"150":-0.05635411745286815,"151":-0.08270805926842878,"152":0.03490646798562067,"153":-0.055935282967100174,"154":-0.007093177320296396,"155":-0.042200668637062906,"156":-0.018376960945787005,"157":-0.045335837220551255,"158":-0.016388502506790758,"159":0.037486456790797526,"160":0.003602801442416504,"161":-0.03362416491412514,"162":0.04909762610334422,"163":0.0489488614184876,"164":0.0006814337569000925,"165":-0.03728544050550631,"166":0.06797873820677182,"167":0.12271835690882592,"168":0.0016046232990391852,"169":-0.03384071775088782,"170":0.03459779893545243,"171":0.04829545681175366,"172":0.046537286469094136,"173":-0.0517482021463515,"174":0.10118426463098133,"175":0.009611853466515012,"176":0.02595757031362248,"177":0.1041740568032466,"178":0.03393165489797144,"179":0.06371611599194195,"180":-0.053414195664214494,"181":0.051635340715565234,"182":-0.08530767647215619,"183":0.10912436107209726,"184":0.06134805120491463,"185":0.09648047148061956,"186":-0.046741474771837294,"187":0.1114882963202378,"188":0.024152774285086123,"189":0.13017019616824174,"190":-0.06822223721556889,"191":0.054440590808936054,"192":0.016521732486421508,"193":-0.036572674183782086,"194":-0.09845316731805488,"195":0.06241558669644125,"196":0.0212459757736425,"197":0.044782542107349894,"198":-0.02224940581820724,"199":0.056459182395300386,"200":0.04073855183826158,"201":-0.043296009371811627,"202":-0.02665089483643198,"203":-0.025961981200393246,"204":0.032122395439214954,"205":0.015035572990634906,"206":-0.0032913941845542825,"207":0.11810677702100354,"208":-0.01848840294722182,"209":-0.013462301306829079,"210":0.033882712726318744,"211":0.022023061653609916,"212":-0.024277512407046044,"213":-0.03173544123340042,"214":0.010690850819606744,"215":-0.08659843272237466,"216":0.004209908020713707,"217":-0.05937157858469786,"218":-0.11221132167066915,"219":-0.020037380221608166,"220":-0.031817324578139294,"221":-0.07387509823865725,"222":-0.022518691331872818,"223":-0.10756917429419163,"224":-0.035734350969306126,"225":-0.09922496478338032,"226":-0.03798364782785278,"227":0.0028328542485250648,"228":-0.0018666621718120174,"229":-0.03532285279896259,"230":-0.015062971510422329,"231":-0.08659493931953853,"232":-0.00985464072883943,"233":-0.11532336894013549,"234":0.023272531971081336,"235":0.02287026887160116,"236":-0.02171932053785019,"237":-0.05954000199455804,"238":0.0551245360208958,"239":-0.05271741192996948,"240":0.024073249955431603,"241":-0.0934198126683955,"242":0.021291564997685253,"243":-0.06733237064949822,"244":-0.0469866687111768,"245":-0.008461511132302887,"246":0.07625314657921989,"247":-0.025971251408955193,"248":0.0019222322380732684,"249":-0.08414800451545162,"250":-0.016308527965508947,"251":-0.08655663591858603,"252":-0.018636850546156027,"253":0.0389808827195143,"254":0.0913510882816208,"255":0.06112146138026597,"256":0.06845542501323072,"257":0.04358703265695688,"258":0.030021327027336706,"259":0.06692071037372446,"260":0.09705727050543407,"261":-0.026846778293604743,"262":-0.032446431967782026,"263":0.06514094304257272,"264":0.16598931715575851,"265":0.03965561474716325,"266":-0.04986700362560831,"267":0.049704720403762795,"268":0.004638148849472194,"269":0.11619949433197667,"270":-0.08143840578695255,"271":-0.034658019925470275,"272":-0.0468171775073776,"273":0.10554766641791166,"274":0.05392123205364373,"275":0.033283072243476625,"276":0.002953034957078367,"277":0.11865046370158926,"278":-0.009572295478849947,"279":0.10489294189100991,"280":-0.12592530002822033,"281":0.06900059480065315,"282":-0.0513717905717044,"283":0.07212193605262902,"284":-0.06356829257653854,"285":0.1138264081527559,"286":0.030734221533118142,"287":0.059306291259169336,"288":0.02038343075038286,"289":0.07150706963518566,"290":0.08343052242214101,"291":0.039757014048329646,"292":0.031641386557911384,"293":-0.009411235700387172,"294":-0.00901243022858574,"295":0.08532948869218449,"296":0.03660354953446099,"297":0.26935123375443953,"298":0.0469492957490168,"299":0.03502865669875358,"300":0.05368314583938059,"301":-0.02769426267203765,"302":0.0369816228624614,"303":0.06645787000951775,"304":0.10220939203513893,"305":-0.0171021691343778,"306":0.03734689956072799,"307":0.0526023379714457,"308":-0.021970947463888404,"309":-0.13548532695324667,"310":-0.06893669412551214,"311":-0.09240365561914027,"312":-0.002444015520863967,"313":-0.1028440525624194,"314":-0.05475689022375285,"315":-0.011938581538110555,"316":0.027673370938911306,"317":-0.10436349621527771,"318":-0.006326867176679043,"319":-0.06208032761578215,"320":0.04352495271854512,"321":-0.057682795990455143,"322":-0.01277687526220512,"323":-0.15845765618067573,"324":0.043179235688699115,"325":0.049929499867719294,"326":0.06493628058288496,"327":-0.06722523282111866,"328":0.002785902024906276,"329":0.02075501579024145,"330":0.012181712154908715,"331":-0.0871772638850804,"332":0.0005398427546392154,"333":-0.11638202973610293,"334":0.03745132944956234,"335":-0.007830324489273078,"336":0.09517799602704605,"337":-0.0019379314104885322,"338":0.03699948910507618,"339":-0.006132400219832609,"340":-0.005487887042410697,"341":-0.022908321898662178,"342":-0.06177086984169736,"343":-0.06791644433254154,"344":0.10765027252889904,"345":0.014781945337976454,"346":0.06331671374314499,"347":-0.04237143469343776,"348":0.10581594805157087,"349":0.059733802094272516,"350":0.08025589145257277,"351":0.04227498888087816,"352":0.08140631455039454,"353":-0.006278556189040802,"354":0.07865802434608576,"355":-0.01535870231921868,"356":-0.00976829656614376,"357":0.027107547059185035,"358":0.04972308997614349,"359":0.04648323894402112,"360":-0.06407697700653255,"361":-0.0534859231244095,"362":0.1055405775746971,"363":0.05718675656767663,"364":0.08289504688156449,"365":-0.003921042817068432,"366":-0.058272269463509094,"367":0.12249357633712658,"368":0.04376888770195644,"369":-0.020191957000829232,"370":-0.09378533631432315,"371":0.06190276445956855,"372":-0.01046163184712502,"373":0.09780560897089667,"374":-0.03331202082764676,"375":0.018454131031642534,"376":0.003264011740608924,"377":0.08744384818018398,"378":-0.018715471955239663,"379":0.015015472172565889,"380":0.05414984166317901,"381":0.19331061751425876,"382":0.03843765311854113,"383":0.12780901078946463,"384":0.035854088944066186,"385":0.10455974661000961,"386":0.06173702521883064,"387":0.17828114386889918,"388":0.0114665250509382,"389":0.13726762877317483,"390":0.06976939158367604,"391":0.014910205395340295,"392":0.02485555015151996,"393":0.10374195624493139,"394":0.08880809135769781,"395":0.08987515611315527,"396":-0.005289986391172347,"397":0.055343767315204614,"398":-0.06444932409728654,"399":0.08928379858723869,"400":-0.08465677029329907,"401":0.05612555863442127,"402":-0.059692260728240555,"403":-0.06787788107589308,"404":-0.06227701409681815,"405":0.13966494604361177,"406":-0.006699808441880793,"407":0.0017353462566368173,"408":-0.009976650136442474,"409":-0.06519973652979644,"410":-0.02213719096785836,"411":0.031774375170704854,"412":-0.03900535645854252,"413":-0.09064055271195612,"414":0.03987279349827652,"415":0.020860732545488363,"416":-0.0035752627779212075,"417":-0.05475435710734198,"418":-0.045751132974133996,"419":-0.09285214531215084,"420":0.028833916280014683,"421":-0.07694280769941411,"422":-0.006485329134038467,"423":0.013697869742049963,"424":0.06603961486810828,"425":-0.14024007375856543,"426":0.03569845703849894,"427":0.02440318782518356,"428":0.002759668084070757,"429":-0.060812129864874984,"430":-0.027199524166838105,"431":-0.09552823186208965,"432":0.029044133576910644,"433":-0.04954888742225983,"434":0.04916331848811481,"435":-0.02308180067007607,"436":0.09819667901565951,"437":-0.009877206608608002,"438":0.05140433923479348,"439":-0.02736598027709551,"440":0.10507338393549023,"441":-0.08496539072683085,"442":0.0782889991089253,"443":0.051305659180527076,"444":0.10125823482623034,"445":0.03711095889736379,"446":0.07022052764964862,"447":-0.03563198770140275,"448":0.056950931306432764,"449":0.04876568982603145}},{"sx":5,"sy":5,"depth":18,"w":{"0":0.03499740328881862,"1":0.031041927997646056,"2":0.0008758973412904969,"3":0.0297259909286324,"4":-0.030135289288185416,"5":0.020146056790469748,"6":0.031181645426042737,"7":0.005920014061889216,"8":0.013589529034194397,"9":-0.023383041232620222,"10":0.03433537792247004,"11":0.00812313773725867,"12":-0.013234907336597034,"13":0.013105981429734537,"14":0.032001884811445176,"15":0.008293912213433279,"16":-0.005339549642040897,"17":0.009142260852923934,"18":0.04939288467369818,"19":0.04420968617878269,"20":0.003292163317349079,"21":-0.01965180023916778,"22":0.009497901354918395,"23":0.008530969961151049,"24":-0.0027875344714256133,"25":-0.006544172851499223,"26":-0.04044209268524522,"27":-0.02241105662689595,"28":-0.002731191442332265,"29":-0.027399620606024282,"30":-0.0021311333908784155,"31":-0.016288738440542586,"32":0.01584071638125208,"33":-0.017755103783338166,"34":-0.03383577940112901,"35":0.022904871078419754,"36":0.007732292680229534,"37":0.014862477182739564,"38":0.015099059428929496,"39":-0.04956122283578232,"40":0.017588374739487107,"41":-0.00007644834761370525,"42":0.036624109767727425,"43":0.027320372124367585,"44":0.035777384474118955,"45":-0.0351443134530093,"46":0.0019890812209394926,"47":0.0019235766781443373,"48":0.019052249609386826,"49":0.03504646821382995,"50":0.03694810958872595,"51":-0.004117111373792597,"52":0.0033461865853702455,"53":0.02969466526704593,"54":-0.00889109190743544,"55":-0.00048551368861099394,"56":-0.04676560895136554,"57":0.08060469031040131,"58":-0.0554424636073649,"59":0.005571586286101612,"60":-0.002211445776470487,"61":0.0775236168768737,"62":-0.024300102632827857,"63":0.093320007438502,"64":0.014595108150490352,"65":0.06544369552838836,"66":-0.02373891401086483,"67":-0.014520510183895203,"68":0.0003288016881554504,"69":0.017195837727477906,"70":0.026112395634664713,"71":0.029129239186894248,"72":0.002497502845349849,"73":-0.0086347827564192,"74":-0.02475037440116355,"75":-0.04798271127512674,"76":-0.03323380144756539,"77":-0.021624980186310285,"78":-0.0381170852043134,"79":-0.06602607891280596,"80":-0.043007196974763434,"81":-0.02626244056809667,"82":-0.016178173620528487,"83":-0.03988149335201461,"84":-0.0298438483290841,"85":-0.05118572558623386,"86":-0.02552335709654419,"87":-0.026216744856651347,"88":-0.031162120185494732,"89":-0.08620725805144151,"90":0.03039788566080826,"91":0.04195014047952867,"92":0.005073416535479305,"93":-0.03703514366597422,"94":0.006314655112923858,"95":0.0038589003453929683,"96":0.023213114416748476,"97":-0.039110248188821396,"98":0.006447312051682985,"99":-0.043247139061200146,"100":0.028331858017408635,"101":-0.011967631598423305,"102":0.03809911595058235,"103":0.017531962761833737,"104":0.03557628918412401,"105":-0.018102890570235255,"106":0.001498177389631259,"107":-0.025703265713727413,"108":0.028431589163173787,"109":0.03944866709512304,"110":-0.029255826022092726,"111":-0.029978509145454527,"112":-0.03164374331551541,"113":-0.0076574521974730825,"114":0.003955382556399368,"115":-0.05935859378976811,"116":-0.022522649430665502,"117":-0.02045800993496798,"118":0.0025528119337548797,"119":-0.04086276275120497,"120":-0.019153235757434293,"121":-0.02182022103408263,"122":0.025125943332488465,"123":-0.008566271192727796,"124":-0.01856024830034492,"125":-0.0713883654105113,"126":0.02578102075888978,"127":0.0018194110296750317,"128":0.040591030494645984,"129":-0.0476245987116038,"130":0.02424666901832972,"131":-0.017215042816274083,"132":0.03114016736365069,"133":-0.026813451010534717,"134":-0.0018331701662413695,"135":-0.018696253466888097,"136":0.033060531148841596,"137":-0.030325634774641928,"138":0.01999059762817344,"139":0.019383163708309458,"140":0.042158820587172276,"141":-0.02358630939932468,"142":-0.024640842150773636,"143":-0.029754254743070373,"144":0.0276617511484549,"145":0.020249376137910363,"146":-0.0023370155967244927,"147":0.010296887747820335,"148":-0.035943661249084574,"149":-0.0129546822134332,"150":0.01593528304919774,"151":-0.003741025874404699,"152":-0.006419263539041176,"153":0.015744236214699038,"154":0.04909103123963345,"155":-0.005605857318381003,"156":-0.02702225476248964,"157":0.03124500389203882,"158":0.03836919887055471,"159":0.035496601270643316,"160":0.018698061129104895,"161":-0.02782092671313459,"162":-0.01858394026338233,"163":-0.01964417907103617,"164":-0.055219220692414264,"165":-0.04223545543504242,"166":-0.03366304291959586,"167":-0.014454572568927635,"168":-0.046426731602335576,"169":-0.0650710599245629,"170":-0.03586602784223169,"171":-0.012592262818880626,"172":-0.01836105929850016,"173":-0.03584803486291063,"174":-0.020907036814858174,"175":-0.042631176011172264,"176":-0.05039831024088208,"177":-0.03383588396119837,"178":-0.04622641328426568,"179":-0.07381194346719204,"180":0.04336727034322224,"181":0.02587437463132017,"182":0.0015734605369383155,"183":-0.07362310051976467,"184":-0.060889824527071895,"185":0.023088612421654907,"186":-0.019129259379294883,"187":-0.08370193072997804,"188":0.0030735485837891435,"189":-0.015612720352427304,"190":0.026079229717280685,"191":-0.06309778292868395,"192":-0.007163910673348447,"193":-0.018882233327811478,"194":0.0377787598984284,"195":-0.02591915806180089,"196":-0.018373420313360915,"197":-0.04088538738248855,"198":0.03832096696311097,"199":0.05194862007179679,"200":-0.018932129696163275,"201":-0.06308635417630351,"202":-0.024037733560317284,"203":-0.0030674717057213668,"204":-0.019408361441017614,"205":-0.05756774169444613,"206":-0.011798300077285873,"207":-0.01780835389257697,"208":0.01343761402693644,"209":-0.05292312064754857,"210":-0.02290785961953831,"211":-0.016211841103729564,"212":0.0008675063238000774,"213":-0.020749688959052402,"214":-0.027876836017545852,"215":-0.011851257463943662,"216":0.011306269785573286,"217":0.02149711767389149,"218":-0.01388309552358475,"219":-0.05269476044992098,"220":-0.02094264186223485,"221":-0.04865068771940203,"222":-0.002409255066155605,"223":-0.05339748977788422,"224":-0.043782581561444524,"225":-0.007326052057449824,"226":0.013280098323750234,"227":-0.03439532764163299,"228":-0.033552160836613595,"229":-0.014917269304223433,"230":-0.0009473641976873992,"231":-0.0340252329588213,"232":-0.054447429360655435,"233":-0.06336774141617171,"234":0.028784154258446503,"235":0.015525809614854552,"236":-0.02949683033448064,"237":-0.0832679205220317,"238":-0.010479532353485617,"239":-0.016111655712099743,"240":-0.023652596491512044,"241":-0.04335202328376104,"242":-0.015331135457496842,"243":-0.028164667831252526,"244":-0.004928601616675336,"245":-0.06234381853143377,"246":-0.011535066035686405,"247":-0.017174075088146137,"248":0.005683581638467624,"249":-0.020845092189808994,"250":-0.0167339710150236,"251":-0.051834758957611166,"252":-0.031630885325529226,"253":-0.03010867952299261,"254":-0.03892395336847526,"255":-0.013714460511746072,"256":-0.042782517572984326,"257":-0.023021332647896697,"258":-0.027115448434158865,"259":-0.02099396072714053,"260":-0.05030961645526415,"261":-0.008055375768836947,"262":-0.037807236327076055,"263":-0.019254690909261945,"264":-0.03873861162609361,"265":-0.037026786547173125,"266":-0.04782357795818778,"267":-0.024434776777132853,"268":-0.0251625765189539,"269":-0.06148560145313886,"270":0.04953916414991322,"271":0.053131276581058776,"272":0.000349610818360511,"273":0.03978884931097113,"274":0.021293565224356534,"275":0.07248037855115913,"276":-0.003757154433147194,"277":0.021922365705796282,"278":-0.0026288462476143264,"279":0.046418174781920514,"280":0.04369811686519074,"281":-0.02876050807683257,"282":0.05288317783289204,"283":0.00019671214214252739,"284":0.01827133823599107,"285":0.01684426633556651,"286":0.0093619579485531,"287":-0.02020912527985214,"288":0.04545849942329524,"289":0.06352825809265976,"290":0.010654931948979023,"291":0.03441047408107664,"292":-0.008929015624760301,"293":0.029322685050833897,"294":0.019315037893003137,"295":0.005529888593230736,"296":-0.0007847247131652517,"297":0.045245127012275926,"298":0.04286506668191735,"299":0.01675870547171346,"300":-0.009154400414395594,"301":-0.003437414496196365,"302":0.027843221754862806,"303":-0.008218031124042756,"304":0.013133049907630262,"305":-0.003889314685705864,"306":0.013673111461915825,"307":0.018399704701790733,"308":-0.032322108803535914,"309":-0.01348466413664516,"310":-0.03837373734905763,"311":-0.04881512659582841,"312":-0.00032656750849135134,"313":-0.051679295176361675,"314":-0.04897748987544836,"315":-0.003219726741308457,"316":0.0084513480725473,"317":-0.026175273597123176,"318":-0.029811664833601655,"319":-0.038464667185936406,"320":-0.008037574734694544,"321":-0.004452180222979162,"322":-0.03378164052518518,"323":-0.04710806186359851,"324":0.046663344767503494,"325":0.00573426295887098,"326":-0.02315661480042067,"327":-0.1119876246842425,"328":-0.02518445002006028,"329":-0.0353699843261544,"330":-0.014605878566751154,"331":-0.08412319344525558,"332":-0.012514765838432277,"333":-0.03278877287499945,"334":-0.014542510710483951,"335":-0.06540938827897617,"336":-0.002828689409562484,"337":-0.015160009487388092,"338":0.03356142074966785,"339":-0.04009420272278272,"340":-0.013172404207447853,"341":-0.08579847061544676,"342":-0.029721767928476778,"343":-0.01712289242195462,"344":-0.030140582981501362,"345":-0.026304890494234328,"346":-0.03588125391235467,"347":-0.029574982133845462,"348":-0.017344145014409285,"349":-0.03375911756244303,"350":-0.038269022818597044,"351":-0.0043474966143837645,"352":-0.019472115695966505,"353":-0.00929320860212091,"354":-0.03290490424582484,"355":-0.021055386453252126,"356":-0.029554137955017375,"357":-0.011807916478581489,"358":-0.02105311117891046,"359":-0.05291869573227763,"360":0.01446846039406018,"361":0.0146034980726843,"362":0.007328030630858666,"363":0.07922995127911298,"364":0.03268203847183517,"365":0.04368524500906404,"366":-0.023535157490869072,"367":0.06448569996250039,"368":0.009814135445749045,"369":0.04487223615457198,"370":-0.030491258410351888,"371":0.02669820843207009,"372":0.0129667638934177,"373":0.021005902883584258,"374":-0.007547741523280357,"375":0.0019928338727600737,"376":0.002538474798287742,"377":0.09438643521257899,"378":-0.006145187589229308,"379":-0.01617288038385717,"380":-0.03304428850632247,"381":0.07825081563438423,"382":0.01549372928832066,"383":0.06924866272393009,"384":0.044327239232014946,"385":0.08918855482428474,"386":-0.028834692370953697,"387":0.10056470855275468,"388":0.013152195211536682,"389":0.06350668912706046,"390":0.006094062916613924,"391":-0.003997669004293365,"392":-0.02536121090774992,"393":0.016817391325062325,"394":0.012977314123488745,"395":0.06959032654013718,"396":-0.006648011802082288,"397":0.03353612454486327,"398":-0.026287606020464482,"399":0.04426615895277188,"400":-0.025197832193413993,"401":0.03678928748053161,"402":0.009164311451353605,"403":0.028306096573316238,"404":-0.027926964325662725,"405":0.045145040548561326,"406":0.00019879105311473833,"407":0.024385890246418362,"408":-0.04028703255797005,"409":-0.005529238680466952,"410":-0.002299035940652445,"411":0.04124127624540145,"412":-0.020947029059938806,"413":0.013558421102847627,"414":-0.005485658733028296,"415":0.008361714049474124,"416":-0.03147571093094224,"417":-0.032076861975158376,"418":-0.03301160505476414,"419":-0.03215962846500977,"420":-0.019271389901901814,"421":-0.0432797539418849,"422":-0.02457240439981518,"423":0.03648608666698013,"424":-0.045022540683921246,"425":-0.030013659141426657,"426":-0.01980496133589977,"427":-0.038894482932808595,"428":-0.026554979061541435,"429":-0.020701231939842912,"430":-0.03774812544189226,"431":-0.0562995735263238,"432":-0.03030640939929293,"433":-0.024473511645735427,"434":-0.04396964484360602,"435":-0.0618529175560376,"436":-0.03163613104691393,"437":-0.06153301089556436,"438":-0.018228513874048512,"439":-0.0836381599804055,"440":-0.043824722964635444,"441":-0.05491163703039747,"442":-0.031763037046570575,"443":-0.0205843314423051,"444":-0.03645283070229594,"445":-0.028057352563978878,"446":-0.04049159394806048,"447":-0.04439665609161359,"448":-0.028348872101500035,"449":-0.10381515307504599}},{"sx":5,"sy":5,"depth":18,"w":{"0":0.001973938360399113,"1":0.0024887154774755,"2":0.0021592904766022385,"3":-0.0026983843451239276,"4":-0.00038019248317637294,"5":-0.003198627939498734,"6":0.0008938430966587268,"7":-0.003082875729089462,"8":-0.00007812547101385555,"9":0.0011744074512130055,"10":0.0036687466086140845,"11":0.002575071024086688,"12":-0.003986453553908554,"13":0.0025660846631807674,"14":-0.00013814738539633914,"15":0.0016940824330635043,"16":-0.003242768370298985,"17":0.0019237429795891197,"18":0.0029916471521935347,"19":-0.0006796220224138495,"20":0.001471808853820559,"21":0.0028338762917849165,"22":0.0017172486202367198,"23":-0.0006452038753606963,"24":-0.0010490747751463732,"25":0.0001735738509327674,"26":0.0005415406821598094,"27":0.001775830075360438,"28":-0.000995771363727549,"29":0.000710185228927767,"30":-0.000010737632886578244,"31":0.0008229179988444987,"32":-0.0036550142604422657,"33":0.0024966653915945965,"34":-0.0036911791822399785,"35":-0.000698968785881871,"36":-0.0005850715143987234,"37":-0.00006305441031771252,"38":-0.002231865807311766,"39":-0.0010476462840841904,"40":-0.0009447773948554678,"41":-0.002538284690635866,"42":-0.0007846225312026076,"43":-0.002657968513574703,"44":-0.003976364800643954,"45":0.0011884442143633817,"46":-0.0018661618066739,"47":0.0017851451598056766,"48":-0.0012514020345941342,"49":-0.0014396798859527356,"50":-0.0017419137905761292,"51":-0.0027682835818972707,"52":0.002250403469587173,"53":-0.002357277200418034,"54":-0.0029468600057263763,"55":0.0011171626206175989,"56":-0.002074458292988765,"57":0.0013446205003403552,"58":0.0009929160993292236,"59":-0.004465113418120557,"60":-0.0013876115120872437,"61":-0.00011684262750290488,"62":0.0015620068569277082,"63":-0.001183712391928665,"64":-0.003921439053328404,"65":-0.002121457282790551,"66":-0.0009295624649230181,"67":-0.003824522616051572,"68":-0.002119950506667198,"69":-0.005854369541295116,"70":0.004812836695321992,"71":0.002156147696124739,"72":-0.001928334136862874,"73":-0.0005254925558326518,"74":-0.0035213936567814593,"75":-0.006162380423508875,"76":-0.003111098344437739,"77":-0.0020544365679283877,"78":-0.00017365430938281519,"79":-0.004022935498693363,"80":-0.0009714613109547847,"81":-0.0007774211189364905,"82":-0.004924965485152555,"83":0.0013073814298060935,"84":-0.0007387739065150578,"85":-0.003651045622311605,"86":-0.00114026782335212,"87":-0.0031112068139973227,"88":-0.003439035507858175,"89":-0.00445358697725342,"90":-0.002588053822632163,"91":-0.0027999761850899113,"92":-0.0014190318840353487,"93":0.00019782818899101716,"94":-0.0009749968822286808,"95":0.0009931726223141766,"96":-0.0025887571696898413,"97":-0.005636715831549046,"98":-0.0018172872300529167,"99":0.0002657180676640066,"100":-0.0005478849541456542,"101":-0.001584414055644531,"102":-0.0004964899457884414,"103":0.001226668112248904,"104":-0.00017794266203840568,"105":0.0004391399016837864,"106":0.0005133380826156996,"107":-0.000038042643490234675,"108":0.0021362386858354504,"109":-0.0024661830177349076,"110":-0.007196078475671443,"111":-0.004680499783788723,"112":0.00217028249225499,"113":-0.0019122758595054754,"114":0.00038155339365327575,"115":-0.002061638908841181,"116":-0.0037992048150844496,"117":-0.000057808892197738316,"118":-0.0008588728719006232,"119":0.0021315168191182315,"120":-0.0002856589283116349,"121":-0.003816847228351001,"122":-0.0026277980118768296,"123":-0.003965482171374151,"124":0.0012656814126596103,"125":-0.001373120738570946,"126":0.0007839257143802948,"127":0.000033397084069099744,"128":0.0005603052096659416,"129":-0.0009410464229455364,"130":0.0024949052805249184,"131":-0.0023412935903904804,"132":0.0014040231193899837,"133":-0.0013295665477371813,"134":0.0017725429228125102,"135":-0.0003047024168430782,"136":-0.0031318152879123073,"137":0.0012174455891147333,"138":0.0005308215956968938,"139":-0.0012569262594015155,"140":0.0016574472637778095,"141":0.0034055616708536496,"142":-0.00043752077650085954,"143":-0.0013059675560412977,"144":-0.0007401716069105533,"145":-0.00482990989013141,"146":-0.0011058420316217763,"147":0.0028321185102467153,"148":-0.0018573320186486028,"149":-0.0036303748147172897,"150":0.002191716252777342,"151":-0.0006334824981200804,"152":-0.00005139940856101253,"153":0.0024943449870870288,"154":-0.0026678463344287254,"155":-0.0003598067716988355,"156":-0.002814967511906601,"157":0.0027491489103069486,"158":0.0013502363054029192,"159":-0.0003203377148868951,"160":-0.0011204922523975788,"161":-0.0035840090784619166,"162":-0.0014596566500979084,"163":-0.003563891172035926,"164":-0.00018318859814543445,"165":0.0015384462934290202,"166":0.0014417779262763826,"167":-0.0037919970415979504,"168":-0.001306615599393175,"169":0.00006871402127130876,"170":-0.0016401989157621073,"171":-0.0016337057115687822,"172":0.0007194108801580735,"173":-0.005691078388622371,"174":0.0006663980325139592,"175":-0.0011348516404909939,"176":0.000269359602164622,"177":0.0027641420079141275,"178":-0.0005751551898762769,"179":0.0001800595142397191,"180":-0.0016170172167327683,"181":0.0015190042683596054,"182":-0.004567707689691305,"183":-0.002302938499310036,"184":-0.003229747011283744,"185":-0.003095651257364565,"186":-0.00033261885690989967,"187":-0.0054791623581187015,"188":0.0012599882789217198,"189":-0.003249179371549528,"190":-0.0016006930700493897,"191":-0.0033253974865916965,"192":-0.003872226896799653,"193":-0.005044584195983787,"194":0.002365207583730096,"195":-0.0036882289528482478,"196":-0.0000010677901985737807,"197":-0.0023635601868370088,"198":-0.003810530869937263,"199":0.003909163973009462,"200":-0.004393650964481997,"201":-0.004778805912602435,"202":0.001792869761349106,"203":-0.0012431226189383517,"204":0.0022443127416636633,"205":0.0024103496854445765,"206":0.003553912087468104,"207":-0.001738147428125909,"208":-0.002876769170630302,"209":0.0018251427658723099,"210":0.0032017228194037603,"211":-0.006268032374981957,"212":0.00026583088423680253,"213":-0.00037308743646592945,"214":0.004678196650267141,"215":-0.0009018367737481553,"216":-0.0033444709645539185,"217":-0.0034414897222699004,"218":-0.0035611843466482954,"219":-0.002844450483188053,"220":-0.0022715338869388657,"221":-0.0016818814251336868,"222":0.0005724427236989004,"223":-0.0009678939789505858,"224":-0.002718313371572924,"225":0.0001957242211265051,"226":-0.0005324158981324526,"227":-0.004728943618189469,"228":-0.002842313877765982,"229":-0.00018029240311054302,"230":0.003015175114189179,"231":0.004325385755624186,"232":0.0006010987639869243,"233":0.0009502003882008842,"234":-0.0016916303446885264,"235":-0.006718475082826842,"236":0.004486478155028715,"237":-0.0008158684433746407,"238":-0.003041770751511583,"239":0.000624718416013834,"240":-0.0024247772739217637,"241":-0.0007628699234298248,"242":-0.003310836133210142,"243":-0.002817184254431347,"244":-0.00210406141511022,"245":-0.0006799555569498129,"246":-0.003464359036741895,"247":0.001275671704809046,"248":-0.003877481983211987,"249":0.0009619388093350382,"250":-0.000537200574645673,"251":-0.00021277007211215429,"252":-0.005132565512506247,"253":-0.0004162534514325357,"254":-0.0010516373827670694,"255":-0.0020429009505811458,"256":-0.0023790749183913683,"257":-0.000039011473263260087,"258":0.0015857721016500933,"259":-0.00023994878767872726,"260":-0.0032699895034865073,"261":-0.0004105016211158096,"262":-0.0035532807310132246,"263":-0.0008845033979919873,"264":0.000047939343966805454,"265":0.0016882762454949953,"266":-0.0019372319315735299,"267":-0.004914843450608269,"268":-0.0015273498691376149,"269":-0.004709843297300175,"270":0.0014294357657019788,"271":-0.00230714333128193,"272":-0.004075073009571167,"273":0.0015377184047871942,"274":0.00039817170413035304,"275":-0.0010255055946946656,"276":0.004344895596550594,"277":-0.0015271893028103642,"278":-0.00030044212734235356,"279":-0.0018636738350027685,"280":0.000490057317225427,"281":-0.004227450516632121,"282":-0.0006584827830291689,"283":-0.004355009812977353,"284":-0.0009240553798983687,"285":-0.0023278738298613483,"286":-0.0012735907098319786,"287":-0.004092365446567799,"288":-0.0006569083281767037,"289":-0.0021935440109258977,"290":-0.0003276494111869113,"291":0.0025374507237888614,"292":-0.003570088245101622,"293":0.0029140205324294922,"294":-0.00031094223681971155,"295":-0.0026839438359337717,"296":0.003209417727962183,"297":0.0016929405971749367,"298":-0.004013556283592714,"299":-0.0008569599184423399,"300":0.00048177522853844515,"301":0.002761932061385333,"302":0.0032346896524329165,"303":-0.003515407500201738,"304":-0.001755439574450185,"305":0.0009376921433964865,"306":-0.0064297007672035784,"307":-0.005337159723747814,"308":-0.002071181282413561,"309":-0.0021287725827115887,"310":0.000751179294750065,"311":-0.0008044539102636613,"312":-0.001420313334032033,"313":0.0004770709654432918,"314":-0.0012462288117814117,"315":-0.0035819136538787735,"316":0.0010977124354582966,"317":0.00335557242321927,"318":-0.00019412230317947268,"319":-0.0011348271839740917,"320":-0.0007745760488324867,"321":0.0008242204388366149,"322":-0.0038592129335119356,"323":-0.003247180053647823,"324":-0.000480172583215881,"325":-0.004143151626903175,"326":0.0029780151779807426,"327":-0.0027253567365128056,"328":0.003463767939156286,"329":-0.002556307915992731,"330":-0.003612401783448716,"331":0.0009588100392563406,"332":-0.0025484493956424627,"333":0.000274461578171442,"334":-0.0055412362579018715,"335":-0.001246076042821645,"336":-0.001027338407401393,"337":-0.0025003647974534506,"338":-0.002448773394565732,"339":-0.002209847351574531,"340":0.0009129200150772469,"341":0.00014235193742892995,"342":-0.005219427274223303,"343":-0.00022892164996748452,"344":-0.00411085278744096,"345":0.00016210424736585826,"346":-0.0007649475476304155,"347":-0.001652779912168754,"348":-0.0006594943220894395,"349":0.00037754940878547945,"350":-0.0009694135994085646,"351":-0.004932754984653603,"352":0.002627224753141299,"353":-0.0007925922945238431,"354":-0.0024601756915946724,"355":-0.002845835023863944,"356":-0.0009670837105209073,"357":0.0006181254783473403,"358":-0.0006915114130420991,"359":-0.0007267305509231688,"360":0.0012897464837963992,"361":-0.003939863263224866,"362":-0.0007180324842001395,"363":-0.0020951621707828217,"364":-0.002167227305781033,"365":0.0007432489999671245,"366":-0.000600272276165426,"367":0.00013526403105796543,"368":-0.0013881024719225317,"369":0.0022761005418265178,"370":0.0002617122739384478,"371":0.0008720724924879824,"372":-0.00207871007427513,"373":0.00040680179950860584,"374":-0.0005961923617962578,"375":-0.0007842469716576302,"376":-0.0014118406783672692,"377":0.00046599209800789583,"378":-0.00024869960923998985,"379":-0.005382888451021558,"380":-0.005318354947319914,"381":-0.0044937562537511935,"382":0.0004249502883371353,"383":0.00003080846979969698,"384":-0.00015936970083864534,"385":-0.0018167819064378223,"386":-0.003095815015146736,"387":-0.0017846354333895995,"388":-0.0021422939163059044,"389":0.0022742369341983907,"390":-0.0017539066309856775,"391":-0.006578185423800173,"392":-0.00423951617855906,"393":0.003515873712073676,"394":-0.0034035824201234023,"395":-0.0015902576154022572,"396":-0.001756111301770864,"397":-0.00013908915770449625,"398":0.0016474287362819447,"399":-0.003592740096799584,"400":0.0014980773883426465,"401":-0.0026443988601174287,"402":-0.00372654863087229,"403":-0.0025377613680037056,"404":0.0014784019487459293,"405":-0.006270845651688713,"406":-0.002178893961668579,"407":0.00019547761837131753,"408":0.0025499572233001924,"409":-0.002018055064501822,"410":-0.0008464031425324347,"411":-0.0017903097067502557,"412":0.0016833450697983916,"413":-0.0014309434183807526,"414":0.0046307771861879045,"415":-0.0006768113723995574,"416":-0.0012056473826700417,"417":-0.0032654041383693,"418":-0.0029912134577744975,"419":-0.0012555035613005634,"420":-0.002128515054994815,"421":0.0026526773391128706,"422":-0.0037768559097790953,"423":-0.00086054007741471,"424":0.0021454702650536414,"425":0.00042596627124109757,"426":0.0021342478809248987,"427":-0.0015985862554943413,"428":-0.00469924685098907,"429":-0.0006287437411289719,"430":0.0012860493702497081,"431":-0.001202503946527913,"432":0.0010789645871045628,"433":-0.0019312770641930661,"434":-0.001798499419667676,"435":0.0010172038151686183,"436":-0.005588823482273789,"437":-0.004356204691322827,"438":-0.00041600698502293004,"439":-0.0030536664504959387,"440":-0.0048057930124917846,"441":0.0022629078753609727,"442":-0.0002265377585559399,"443":-0.002255238416038351,"444":-0.0013688924315599473,"445":-0.0034752395494008674,"446":-0.005447288315058306,"447":-0.000571888332295534,"448":-0.0036243036273031076,"449":-0.001542291089087467}},{"sx":5,"sy":5,"depth":18,"w":{"0":-0.017722198817264653,"1":-0.011243467793198443,"2":-0.027259945810671978,"3":-0.016928322810196697,"4":-0.028529454110138533,"5":-0.004622765663914004,"6":-0.024576491649676287,"7":-0.0328343335820701,"8":-0.010312411986357555,"9":-0.024140971253154623,"10":-0.03308891087866838,"11":-0.017714980271753063,"12":-0.01436891789425172,"13":-0.028116157556560023,"14":-0.028959353877008483,"15":-0.01793566333350479,"16":-0.01342742168524526,"17":-0.031861002375243704,"18":-0.024477024661477196,"19":-0.018276166814556183,"20":-0.02209189689019051,"21":-0.018992391703537274,"22":-0.008243389861835275,"23":-0.024203637560434053,"24":-0.01017787227437233,"25":-0.03131452500656887,"26":-0.006303463944073345,"27":-0.01660924689628072,"28":-0.02020939624404506,"29":-0.019008027916416093,"30":-0.013370372547456976,"31":-0.01380536484569482,"32":-0.0280913595925978,"33":-0.022529071558859984,"34":-0.017512783103585877,"35":-0.028093777524119755,"36":-0.002626991522669922,"37":0.0020679307596445247,"38":-0.0023266781649572354,"39":-0.001214259056644291,"40":-0.010400506370063935,"41":-0.008002154843641763,"42":-0.00406047212179515,"43":-0.009060831642771466,"44":-0.012723584033228425,"45":-0.001028166097889972,"46":-0.0014393529489641545,"47":-0.015716214218569485,"48":-0.010497600059360837,"49":-0.008228565257061084,"50":0.003701610481512071,"51":-0.00028275850520011073,"52":0.00004534450404880663,"53":-0.02454648740370831,"54":0.009722516317400592,"55":0.00450682079788595,"56":-0.03949210945812689,"57":-0.02945109890129298,"58":-0.047238771100977565,"59":0.0011725976247747706,"60":-0.03725015027669068,"61":-0.055413697378199143,"62":-0.045224988340431316,"63":-0.007559398959918829,"64":-0.022192124582627516,"65":-0.01651829432308134,"66":-0.03357589746605047,"67":-0.05051880164030296,"68":-0.007453626543452396,"69":-0.006142065395191944,"70":-0.04500611158484395,"71":-0.07757678231891812,"72":0.01891327988615862,"73":0.014119137842890166,"74":-0.01973161738334066,"75":-0.022984742731968665,"76":-0.041386753268937794,"77":0.01173922419137088,"78":-0.004500711509373136,"79":-0.0428114520048201,"80":-0.023819616445611834,"81":-0.0028893440490886904,"82":0.03245809071260852,"83":-0.0282131652930462,"84":-0.012303758380083152,"85":-0.03106277600385153,"86":0.015202447115389098,"87":-0.006751027796401264,"88":0.006354503751165096,"89":-0.007176501563143541,"90":-0.018653060642289134,"91":-0.022029594875972475,"92":-0.021636760623026167,"93":-0.00932964900971357,"94":-0.019466935316829772,"95":-0.021315690221065556,"96":0.011583236575586516,"97":-0.03717621739044818,"98":-0.01235755407947277,"99":-0.03918158505363659,"100":-0.01710094886832414,"101":0.00013925913869635724,"102":-0.008074467127630347,"103":-0.005566790113763047,"104":-0.01386520684578761,"105":-0.023440912595846804,"106":-0.021042393411876525,"107":-0.02434694712267242,"108":-0.012032865901361685,"109":-0.01863771962464908,"110":-0.0031165317758579604,"111":-0.014230470632831045,"112":-0.002837207047662825,"113":0.00041675131599958786,"114":0.0030652792253744263,"115":-0.022068111221630902,"116":0.006951890220553772,"117":-0.013217848770230512,"118":-0.01034259394814703,"119":-0.009365753073502701,"120":0.0030677149786638843,"121":0.011603590471795724,"122":0.0035291066744150743,"123":-0.00821952178804488,"124":0.0017254583864715377,"125":-0.014954082550402151,"126":0.000139214199338701,"127":0.024930891180758034,"128":0.007745042253492664,"129":-0.014117908555710762,"130":0.010041470388567963,"131":0.005669962134089343,"132":-0.012383771150485414,"133":-0.0015481280741605054,"134":0.004852100869344756,"135":0.023394376033690628,"136":0.00019598048304984755,"137":-0.007651716158782237,"138":0.010356007097053133,"139":0.0030664881342464365,"140":-0.007970348135353167,"141":0.013746912803010535,"142":0.009894758720997297,"143":-0.005878889095574534,"144":-0.005685897292109903,"145":-0.0016713229635284738,"146":-0.024336085617829913,"147":-0.034724876480643964,"148":-0.04395335190889521,"149":-0.041932084204591595,"150":-0.01855282012092128,"151":-0.03546966140640571,"152":-0.03817966462119337,"153":-0.011399392416052258,"154":-0.00809473097978533,"155":-0.017417606706618675,"156":-0.029685871966486917,"157":-0.03512235532482316,"158":-0.014426044383163476,"159":-0.017196658569834728,"160":-0.027248065386947712,"161":-0.04162665137719243,"162":0.040438674145570404,"163":0.019656313005870483,"164":-0.014299517143278765,"165":-0.047390703148058426,"166":-0.06437809993081435,"167":0.010776852841469316,"168":-0.002526167672284285,"169":-0.0003552839670006548,"170":0.002835425141233662,"171":-0.006454657925074516,"172":0.029188648534042596,"173":-0.040762351661035194,"174":-0.006116014850189084,"175":-0.0015522010853877303,"176":0.02731299001594306,"177":0.0030003713402870376,"178":0.02438005710825064,"179":-0.02926669006303787,"180":-0.003640470258371055,"181":0.013119321694529855,"182":-0.02335171353029544,"183":-0.008188254623670758,"184":-0.01896851620020662,"185":-0.030466081521751728,"186":0.00901477140558462,"187":-0.030805658451159224,"188":-0.01082486979220054,"189":0.006766888727938811,"190":0.008754628059747001,"191":-0.011345879110345741,"192":-0.000933228701226222,"193":-0.005977133187339601,"194":-0.01711197404250608,"195":-0.02386741222463947,"196":-0.0047814147292765,"197":-0.04751779068965287,"198":0.003440036593555975,"199":-0.014820596260161977,"200":0.020697912943813186,"201":-0.03142806874328744,"202":0.02324043233925693,"203":-0.015545342909243904,"204":0.014552367801049421,"205":-0.030296135789294586,"206":0.020392581802008196,"207":-0.0359933442115783,"208":0.002041396025880807,"209":-0.012832444347647024,"210":0.023029744525884358,"211":0.02123772609664581,"212":-0.011976410675844242,"213":-0.008440592549795,"214":-0.0013102008883671746,"215":-0.02129148580993395,"216":-0.007331530477806015,"217":0.0159659382046501,"218":-0.018931674561837634,"219":-0.0006695954640727495,"220":-0.0067645219356822,"221":-0.055154043841315586,"222":0.03391023065149597,"223":-0.004887447685451339,"224":-0.03778664357776437,"225":0.007836891486092772,"226":0.013702562607184353,"227":-0.005799837166349803,"228":-0.013684511231714734,"229":0.01116841997149993,"230":0.003528542547671938,"231":-0.04097071208666144,"232":-0.027972090456301415,"233":-0.017070789996644596,"234":0.025110266137173907,"235":0.013403091917895895,"236":-0.05224230435514585,"237":-0.0437186971083377,"238":0.011218552237532509,"239":0.02328915610529027,"240":0.00985030951574643,"241":-0.027409834009336935,"242":-0.019077751441282972,"243":-0.049671950025846436,"244":0.04887780751734857,"245":-0.015286217052523353,"246":-0.01894011690639081,"247":0.00846829925125487,"248":0.05217407380073517,"249":-0.023570190097446663,"250":-0.025819992444543503,"251":-0.04703893311876254,"252":0.04342201370908078,"253":0.058905580697982185,"254":0.02266717962139975,"255":-0.02405647158002792,"256":0.05019908832354179,"257":0.0621278822353226,"258":0.041367493228849,"259":0.008786340513873628,"260":0.030984070794615248,"261":0.02525450773150741,"262":0.018899494262378656,"263":0.002408042277239793,"264":0.05398274425508221,"265":0.05241234802930381,"266":0.023974984498499833,"267":0.02809171191161719,"268":0.024437187141329426,"269":0.00043783956353127853,"270":0.00493720438508688,"271":0.015616880057826967,"272":-0.01884377680442785,"273":0.0068539090836887175,"274":-0.013603812520648304,"275":0.022344310464378084,"276":0.001624173107126421,"277":-0.00779059352313379,"278":-0.0239917068248902,"279":0.05536778989704033,"280":0.0029644533628840806,"281":-0.008019477439094053,"282":-0.015093571991627154,"283":-0.026465170195102042,"284":0.0021434703845434593,"285":0.017090636487030953,"286":-0.0012085247506860015,"287":0.006210700516963865,"288":-0.022379492180549524,"289":0.004161606334823036,"290":0.0008292419141213503,"291":-0.03558119446155796,"292":-0.014055288862028071,"293":-0.05217679484225798,"294":0.0277589523688845,"295":-0.03832992511314062,"296":-0.013027599775760186,"297":0.014149439019270581,"298":0.001537755867188695,"299":-0.03844055280027211,"300":-0.009708768629201765,"301":0.010606585925027502,"302":-0.01355344358116931,"303":-0.0380215414403982,"304":-0.025076704334701407,"305":-0.06586899576335244,"306":0.006827176235441845,"307":0.02486233766304169,"308":-0.02980728259863495,"309":-0.023134434125849566,"310":-0.07859840863780197,"311":-0.05511119153489116,"312":0.022187406912569978,"313":-0.10126526748974149,"314":-0.0713270420353111,"315":0.0077421252599937955,"316":0.06521162369849025,"317":-0.009388014006936396,"318":-0.06387360619821114,"319":-0.021830547291397356,"320":0.03293864085160033,"321":-0.01634832847582509,"322":-0.03211497634125555,"323":-0.09517092472662537,"324":0.07175924092135481,"325":0.01530867549570259,"326":-0.010732457437961744,"327":-0.12497258998583073,"328":-0.004011774160520658,"329":0.026092134661673004,"330":0.05674462682304911,"331":-0.097498724521294,"332":0.05130839130681706,"333":-0.09927217928783796,"334":0.0574599645463113,"335":-0.08453239493935849,"336":0.0415124671345802,"337":0.014753886984228724,"338":0.06238852150569877,"339":0.0019883584091942488,"340":0.0244467783645932,"341":-0.08446926509125978,"342":0.01849755669009992,"343":0.006414915044123237,"344":0.04064280641895673,"345":-0.0386502530948488,"346":0.059851232348338654,"347":0.04619716303627847,"348":0.007302556115699973,"349":-0.0055067618630711985,"350":0.05981458969728576,"351":0.06110159970101681,"352":0.03585273870685959,"353":-0.003128260528475924,"354":0.05948982603078713,"355":0.027971720615958633,"356":0.03803622068677854,"357":0.06471688540894764,"358":0.008726163012822065,"359":-0.08120636353842389,"360":-0.006622601088552742,"361":0.012484042972156382,"362":-0.02533933050929709,"363":-0.0008151408306579935,"364":-0.024134517557065235,"365":0.043953010727701705,"366":-0.02025805597411086,"367":-0.0003873572802461504,"368":0.0010129768262215585,"369":0.03819668595987048,"370":-0.013161653168209376,"371":0.003249276524921383,"372":-0.03048775465013157,"373":-0.008875921337367034,"374":-0.01566225790328127,"375":0.013815507337132892,"376":-0.012158629088875356,"377":0.004982257054236179,"378":-0.022555590595695767,"379":0.00904207878537409,"380":-0.01868999374634997,"381":0.017531430113105505,"382":-0.02937762424532,"383":0.053789386634485195,"384":0.0036377385078544995,"385":-0.06681593240282976,"386":-0.008440586592421181,"387":0.04586433642092019,"388":-0.024486954486651537,"389":-0.017906679402220172,"390":-0.013888235669455668,"391":-0.024410344050793398,"392":-0.024537623208154554,"393":0.011187197456703057,"394":-0.007789018979939914,"395":-0.05572169883706067,"396":0.07621990749565757,"397":0.06429328422719179,"398":0.053988660248436085,"399":0.037510388021869685,"400":0.041451134396990656,"401":0.17733157992163695,"402":0.005071811863631842,"403":0.10016532206787944,"404":0.07965666478080459,"405":0.038812592276516115,"406":0.05617949428470927,"407":0.05727200654073094,"408":0.07222872297751362,"409":-0.01911706735541725,"410":0.06997487789058975,"411":0.12575481130382007,"412":0.08084106398198647,"413":0.09583039629829847,"414":0.04069983805863706,"415":0.0827728938522689,"416":0.004065651750949889,"417":0.09566550353882661,"418":0.024481619487796376,"419":0.1170112725847149,"420":-0.014330592430420128,"421":0.06354292733368573,"422":0.02260640948706349,"423":0.15650751633933013,"424":0.013248870635130097,"425":0.041357906786805676,"426":0.03597899966188742,"427":-0.07403874880532159,"428":-0.006602493560919553,"429":0.13779136748644988,"430":0.013405425371687818,"431":0.03672033587870658,"432":0.013463614938128986,"433":0.0472583635825242,"434":0.029939358449842458,"435":0.08480330275180252,"436":0.012434713326673818,"437":0.029484546187082777,"438":0.04092278271174984,"439":0.06573547719091474,"440":0.04965544172771695,"441":0.08728869997598668,"442":-0.010096702034392687,"443":0.011615838171829054,"444":0.024148302021595007,"445":0.030568607593350682,"446":-0.007591696538096572,"447":0.017355070116330588,"448":0.015869335999368392,"449":0.03654198625519343}},{"sx":5,"sy":5,"depth":18,"w":{"0":0.002945044416872242,"1":-0.0016331124501201056,"2":-0.004898018859618629,"3":-0.001582743489258217,"4":-0.004613046439613766,"5":-0.0022387123604109536,"6":0.0011787230697442713,"7":0.0016211734906681468,"8":-0.002507505286556584,"9":-0.009392894075649432,"10":0.0005825818025191965,"11":0.000995602718574584,"12":-0.003396211930448189,"13":-0.0034633129761252926,"14":-0.005126901931133199,"15":0.002171165153523527,"16":-0.0017669798389059333,"17":0.0008992657781869986,"18":-0.0037117643292881174,"19":-0.0011881255104185984,"20":-0.0029390499597086997,"21":-0.009247600448066511,"22":0.00017083406143822622,"23":0.0020305873146177897,"24":-0.00019903288760600378,"25":-0.003097715918321788,"26":-0.00015515968226281415,"27":-0.0027578060091374354,"28":0.003600055188092613,"29":0.0032260945168440234,"30":-0.004770494568184664,"31":0.000835096743371486,"32":0.0018329231767509973,"33":-0.0012427100661998947,"34":0.003804282387588707,"35":0.004530556415688678,"36":0.0009995330479313327,"37":0.0034315004861288573,"38":0.0037232765818613284,"39":-0.002933024874314252,"40":-0.0033464635262076617,"41":0.0011019313907888971,"42":-0.00024319163118517191,"43":0.002087596160847031,"44":0.0030719410904335364,"45":-0.0027695710198233094,"46":-0.005536674495375306,"47":-0.009658383110513539,"48":-0.0022582779162428953,"49":0.0008825051417473119,"50":-0.001991468398824892,"51":-0.0024619282507977853,"52":-0.0035305506193824693,"53":-0.005723987331325763,"54":0.0002128570794440568,"55":-0.00447114358485103,"56":-0.0014460991171401645,"57":-0.00017695605747580757,"58":-0.0014489922583204762,"59":0.0022170543861515023,"60":-0.0007262877338895635,"61":-0.004717038152244045,"62":0.006136567609246681,"63":0.0008289517483849894,"64":-0.005028108907113164,"65":-0.0005664794170440413,"66":-0.0005389513250579908,"67":-0.004132311264268815,"68":-0.001600639048352242,"69":0.0011428494411318288,"70":0.0004649516359268456,"71":-0.005604196454423034,"72":0.0010938329814089444,"73":0.00253392700216929,"74":-0.0043767700492710025,"75":0.001644703028265498,"76":-0.0008139137926197619,"77":-0.003384335110834999,"78":-0.0020753750377043158,"79":-0.006513559424453209,"80":-0.0024679373463737638,"81":-0.0003630570031484674,"82":-0.001710636446001311,"83":-0.0033822473405272888,"84":-0.0004786925980159715,"85":-0.0067704246065122976,"86":-0.002529382042830036,"87":-0.0010895930945879486,"88":-0.0008833759091669879,"89":-0.0024159601926092267,"90":-0.0028458965876804487,"91":-0.00003131659999947333,"92":-0.005192683231452071,"93":-0.0035751751678807188,"94":-0.0035024641835385488,"95":-0.0015440716389897395,"96":-0.005347027174605448,"97":0.0054725894981673285,"98":-0.002068318636915289,"99":0.004645699506119371,"100":0.0000925049635474046,"101":0.000786685830389642,"102":0.0014033377251001474,"103":-0.0006560803443496551,"104":0.0011622195400197881,"105":0.0000021937446567836347,"106":-0.0008079027410855271,"107":0.0006117255442564788,"108":-0.002395652349144348,"109":0.0020050076949177545,"110":-0.0015593009809072996,"111":-0.006760522414529996,"112":-0.003956219420168486,"113":-0.00026109188703423374,"114":-0.0030031306315192606,"115":0.004023201460977417,"116":-0.0005505398136128449,"117":-0.0034631540994457875,"118":0.0042404230228171805,"119":0.0005340818709470251,"120":0.0035218098402202106,"121":-0.002962036106357309,"122":-0.0010539417203731427,"123":-0.004803759738370632,"124":-0.0012194906037619531,"125":-0.004779438351894011,"126":-0.0018277978425862095,"127":0.0018638739214753904,"128":-0.0017100224299687048,"129":-0.001326270007607011,"130":0.0004021528296650361,"131":-0.005250220791260123,"132":-0.002750573394046175,"133":-0.003328809103856885,"134":-0.008696594105701356,"135":-0.004244128344632561,"136":-0.002886198182858209,"137":-0.004254797491465222,"138":0.0002336197959850942,"139":-0.005815292238936551,"140":-0.0004360030092402191,"141":0.0009796327748047666,"142":-0.006868306457844085,"143":-0.0037274378226619343,"144":-0.0025990955112282477,"145":-0.004434446356770688,"146":-0.003146406299515655,"147":-0.0018795883302957805,"148":0.0012127354629185981,"149":-0.0009411772738869692,"150":-0.007681095638656527,"151":-0.0036911167878769706,"152":-0.0048627857191633735,"153":-0.001983782015209018,"154":-0.005593953768261312,"155":-0.002797824393266354,"156":-0.001261988485762723,"157":-0.0023109425826743964,"158":-0.0025857980488083374,"159":-0.004326408872126106,"160":-0.0025933008453826937,"161":-0.004105749817012293,"162":-0.0033303423892911315,"163":-0.008310556945215378,"164":-0.00043380344024619466,"165":-0.002929697323890718,"166":-0.0011548333768100919,"167":0.0017535130209804053,"168":-0.0009948808788405596,"169":0.0029605556857650135,"170":-0.000001540244640534489,"171":-0.0021780745587899127,"172":-0.003362380804980025,"173":-0.002684886769416155,"174":-0.004466147384117786,"175":-0.0026029824051919856,"176":-0.000830322157690244,"177":0.0021856628655529666,"178":-0.005190267383793787,"179":0.00262105925803516,"180":-0.0010367644765400688,"181":-0.00021074716108805702,"182":0.0022887310219582573,"183":0.00043269188293718286,"184":-0.007904028252155583,"185":-0.0018753604675072505,"186":-0.0023837074270245794,"187":-0.0037676952054873456,"188":-0.007675052805677211,"189":0.000984541220555366,"190":-0.0010121330399370306,"191":-0.007441533502141143,"192":-0.0013780734333087518,"193":-0.0037427550502608614,"194":-0.006414535038104068,"195":0.0034981167718891094,"196":0.0008636933414121074,"197":0.0006271557908359393,"198":-0.0030764702021530586,"199":0.0013215892640509469,"200":-0.006678022517319886,"201":-0.0050864597355640565,"202":-0.00017856587866671187,"203":0.0007138009807414365,"204":-0.002583533101230827,"205":0.0023042194392804316,"206":-0.0009113941098304718,"207":-0.0001433808897428693,"208":-0.001392054103081038,"209":-0.0028371740352005894,"210":-0.002430619942771333,"211":0.0016908741393937177,"212":-0.006424834026134723,"213":-0.004050841175102827,"214":-0.0021467953215345598,"215":-0.007668588194576643,"216":-0.005352716499175745,"217":-0.002806623785447539,"218":-0.0019606535355809235,"219":-0.0009898002325511325,"220":-0.0037440513404725494,"221":-0.00031240384197455583,"222":-0.006198581358455695,"223":-0.005575178796909851,"224":-0.006434058454203669,"225":-0.005679999888549711,"226":-0.005615886674272556,"227":-0.005003840314279005,"228":-0.0021319455089552283,"229":-0.00358551013606653,"230":-0.0007195759479739135,"231":-0.005894099222663833,"232":-0.002982593103272108,"233":-0.0007963245562877038,"234":-0.006217660262195207,"235":0.0014126482770055128,"236":-0.0028364382742770452,"237":0.0026984491447279483,"238":-0.0022827118298162116,"239":0.0005996594930801129,"240":0.00037808833730366856,"241":-0.0016485597749402764,"242":0.0018562249440921968,"243":-0.0030597909737576346,"244":-0.00419793190816196,"245":0.0005824988339531046,"246":-0.00023441687780672435,"247":0.0014483719777627097,"248":-0.0068815013768626304,"249":-0.004564843276856173,"250":-0.0015445158445735474,"251":0.0001917360336287446,"252":-0.001876729424416891,"253":-0.0015124094879665855,"254":-0.0036481842611461148,"255":-0.0008411272238634249,"256":0.0004556135660893417,"257":-0.0037971533720992526,"258":-0.003573428080624407,"259":-0.003418621121319065,"260":0.0018291835075854555,"261":-0.002563154976295187,"262":-0.0003487905611355528,"263":-0.00012196262438940487,"264":0.0038549563054832013,"265":0.004294307259383625,"266":-0.00402987488876879,"267":0.00113860114220731,"268":-0.0037447532487746714,"269":-0.001165756120520218,"270":0.001145376243151275,"271":-0.0010050187864265568,"272":-0.0037319693901628243,"273":-0.0035767490259098296,"274":-0.004926860073856157,"275":0.0007114720585582937,"276":-0.0014860185723365124,"277":0.010084172242868053,"278":-0.0022173327874402144,"279":-0.001954676413802809,"280":-0.002866599616386845,"281":-0.005968567259769153,"282":-0.0014062525530587143,"283":-0.00734270935107969,"284":-0.0011658895581269774,"285":-0.0011529789175669981,"286":-0.0023278621050579445,"287":-0.00490574484333977,"288":-0.0040802378637087924,"289":-0.0027890139268415596,"290":-0.002660108214370021,"291":0.0017227618636771241,"292":-0.002115596112348222,"293":0.0009915915429452554,"294":-0.00045986704112122164,"295":0.0044346197916608895,"296":-0.0015745532420275968,"297":-0.0009906020757436676,"298":0.002079282745149288,"299":-0.0005798825271242399,"300":0.0005575100394963025,"301":-0.004220550825579818,"302":-0.0038216890627175175,"303":-0.002830052831036226,"304":-0.0015091533963843115,"305":-0.0013107037560409283,"306":-0.004087025666263058,"307":-0.00445586690418329,"308":-0.0009267605193704567,"309":-0.0010973476771750069,"310":-0.0026800021096807744,"311":-0.0028090097535039458,"312":-0.004638466586498236,"313":-0.0033291044049880464,"314":-0.0008460695775143967,"315":-0.002534075627174049,"316":0.0011999789861254387,"317":-0.0024046763046520706,"318":-0.005200697288604584,"319":-0.002299154123746212,"320":-0.0013647721825223065,"321":-0.003772721224033676,"322":-0.002043658109115821,"323":-0.0061572477768550935,"324":-0.0042092231671874295,"325":-0.002218606289625442,"326":0.0005313298949529511,"327":0.0024356028565555945,"328":-0.0001553913496715524,"329":-0.004321593161814986,"330":-0.004171259054681784,"331":-0.0013245706724676716,"332":0.002863489732825545,"333":-0.0009917274885121222,"334":-0.004862969587591908,"335":-0.000565977814305169,"336":0.002659829329368242,"337":-0.0003150703556383607,"338":-0.006025364327763934,"339":-0.0019074965349720444,"340":0.0003821546407663804,"341":-0.0007279621089256619,"342":-0.0031838153193953223,"343":-0.0060050629162210715,"344":-0.0024423128273612926,"345":-0.003100770410385427,"346":-0.0030419196850610462,"347":0.002204112584453459,"348":-0.003127536794967284,"349":-0.001566287659922038,"350":-0.003049230337333561,"351":-0.0024643730990001043,"352":-0.002248206085212979,"353":-0.0025677797327044,"354":0.000009987306295841842,"355":-0.002692130604164618,"356":0.0002056343048160714,"357":-0.0031848382264846368,"358":-0.0007196239452786532,"359":-0.004900189618545397,"360":0.0016203761499466163,"361":-0.004747975571355523,"362":-0.0026458643140325764,"363":-0.0011026580530215586,"364":0.0029963852772868873,"365":-0.0023052965211961328,"366":-0.0019370728038585,"367":-0.00012384083292071486,"368":-0.011323660285131184,"369":-0.0014489394093404478,"370":-0.0033166337806263203,"371":0.003022740595446432,"372":0.001583043937537708,"373":-0.0016957389120994223,"374":-0.008589128026162032,"375":-0.003720177459989132,"376":-0.00007254963854099966,"377":-0.009269490707194754,"378":-0.006084661256617946,"379":-0.001171332709943039,"380":0.0028828964114576538,"381":0.0012725487795976847,"382":-0.0011301060576198558,"383":0.0034946961856730427,"384":0.0018849050041951747,"385":-0.00038350361344284404,"386":0.0004154457072268684,"387":-0.007035640054112336,"388":0.0023733088940942186,"389":-0.004943108967451682,"390":-0.002228839460523391,"391":-0.005421873837922638,"392":-0.005051181916264896,"393":0.0008159169245579814,"394":0.0008599445499539514,"395":-0.005076314842429169,"396":-0.007090598046224726,"397":-0.003889618386555365,"398":0.0013111630242479229,"399":-0.0046151513101797045,"400":-0.0006535841710005873,"401":-0.005230962604705394,"402":0.00011069668944752953,"403":-0.006864026498064551,"404":-0.00004641776068705404,"405":-0.0024120699578689185,"406":-0.003696771393108803,"407":-0.0005998953571175514,"408":-0.00516944504641699,"409":-0.00017611152792929583,"410":-0.0012902482946858522,"411":0.00009867652972941572,"412":-0.000055691779086855006,"413":-0.004992577420997666,"414":-0.0031051514850380566,"415":-0.00107627629529649,"416":0.0006151713969768898,"417":-0.0052671761824499815,"418":0.002068393353330508,"419":-0.002929352145263488,"420":0.005232651812528047,"421":-0.00261770496764406,"422":0.00512496805563951,"423":-0.0022950619620689676,"424":-0.0016171760161322031,"425":-0.00928732964698252,"426":-0.0060893012735112485,"427":-0.0026597791925081207,"428":-0.0005670256559943691,"429":-0.0015313210751211883,"430":-0.0023616151513030435,"431":-0.0008330679499528368,"432":-0.007903891576289833,"433":-0.0032500950735071285,"434":-0.005477380195494561,"435":0.0007097709601097584,"436":-0.0035665715703604274,"437":-0.0027399630930708663,"438":0.0014563033432404655,"439":-0.0005317782680458198,"440":0.0025094178753773144,"441":-0.00046931859498942175,"442":-0.005116785194255084,"443":-0.0034130723178967992,"444":0.001830295239683276,"445":-0.0010282919335928289,"446":-0.0033807755738741543,"447":-0.0063427102729780695,"448":-0.0016392607873454792,"449":-0.007866153050812284}},{"sx":5,"sy":5,"depth":18,"w":{"0":-0.07833663479637093,"1":-0.08719335719646842,"2":0.03137269688287686,"3":0.06212400700504917,"4":-0.005002470274566916,"5":-0.026907675708327035,"6":0.02315105417790406,"7":0.009539798310912966,"8":-0.07685218360547383,"9":-0.009068988015875948,"10":-0.10447781183987156,"11":0.0333594012632519,"12":-0.03326614973436657,"13":-0.0071731987764423934,"14":-0.040086733469503893,"15":0.029340416816866426,"16":-0.06464787102353246,"17":0.0197316956716825,"18":-0.06073958587587068,"19":0.01860574772904085,"20":-0.1479394499239583,"21":0.039529460525276144,"22":0.012803426214794371,"23":0.016821878954402833,"24":0.013387195372346826,"25":0.01602549802141832,"26":-0.10952779545630913,"27":0.021501279571031272,"28":-0.10669526842231035,"29":-0.015287426138236583,"30":-0.0037895475215544484,"31":-0.06956117767281551,"32":-0.015146312502737926,"33":0.05928663543440984,"34":-0.057926151948853914,"35":-0.057615158679213165,"36":-0.015763407532421565,"37":-0.024674462690391332,"38":-0.04488432988058901,"39":-0.00045496534772313923,"40":-0.10261183901394869,"41":-0.005177205815748279,"42":-0.03689982044039725,"43":0.015047486647148212,"44":-0.07687006842789484,"45":0.03164578042086933,"46":-0.07888704644136998,"47":-0.04214944416636471,"48":-0.017474715656248925,"49":0.00299531192670116,"50":-0.046935882507667046,"51":-0.03379734256726645,"52":-0.015527511763624815,"53":-0.04489766758916547,"54":0.03867896172642259,"55":0.04496720341485546,"56":-0.07654184998287637,"57":-0.12068580339937746,"58":-0.024510577448527165,"59":-0.1296582325696651,"60":0.042199252696370655,"61":-0.11037241270950301,"62":-0.02818398272150686,"63":-0.020599542897200472,"64":0.08553453370945845,"65":-0.052391792215253995,"66":0.0016233474355335097,"67":-0.04517958751228023,"68":-0.042576312468137485,"69":-0.008731392346670207,"70":-0.05399610273638655,"71":-0.0866913549530476,"72":-0.03294712593996481,"73":0.029669288462951002,"74":-0.008074071588089917,"75":0.030878793726730355,"76":-0.008223040971457431,"77":-0.0884315136266261,"78":0.012962513102539258,"79":-0.000924313105250448,"80":0.022315158651782758,"81":-0.09062046226397195,"82":-0.03211015015259426,"83":-0.064559439869713,"84":0.035023329729035775,"85":0.05145845731876127,"86":-0.06114435869035628,"87":-0.07433205863705639,"88":0.02889514544609961,"89":-0.06742337545044841,"90":-0.05746823993642892,"91":-0.11305332371345733,"92":-0.010550899908732382,"93":-0.01957952774838225,"94":0.0260292542025323,"95":0.002695759181213611,"96":0.0030024263092509507,"97":0.008108683315807908,"98":0.028802555311807712,"99":0.01335152605879659,"100":-0.02387116410899111,"101":-0.0016165028550606333,"102":-0.0198426852310106,"103":0.018191256124959147,"104":-0.05023757264046089,"105":-0.07171166908365328,"106":-0.01545197646333143,"107":0.07235988988070532,"108":-0.048265248200432154,"109":-0.041745456840889934,"110":-0.0341636041577185,"111":-0.10969968879914546,"112":-0.04753418060234452,"113":0.04857327400418723,"114":-0.09529838373705994,"115":-0.03556148651449563,"116":-0.04713067004975488,"117":0.031060319364777978,"118":-0.11888692157118652,"119":-0.05774417895053181,"120":-0.012940462144502068,"121":0.03322737410484258,"122":-0.06034915111404141,"123":-0.02424391052020759,"124":-0.025340482978780644,"125":-0.028875963247747275,"126":-0.048198109634157646,"127":-0.02021455545765298,"128":-0.03129064054587811,"129":-0.06229927929451568,"130":-0.06511995919183353,"131":-0.010439382738836076,"132":-0.05038073664739943,"133":-0.09412562605657586,"134":-0.1223985421965409,"135":0.06471019304771176,"136":-0.03235331024612859,"137":-0.023020050649219158,"138":-0.014775776676623081,"139":-0.06261759133835336,"140":-0.02943845751744092,"141":-0.07730557879235937,"142":-0.04356131150890171,"143":-0.20025745987324967,"144":0.09096694872102677,"145":0.003936375781358944,"146":-0.013754873932006752,"147":-0.19225706006393342,"148":-0.014679017276501016,"149":0.009208645007892188,"150":0.11179253546641613,"151":-0.08902256728424654,"152":-0.03678578697585961,"153":-0.022269344813274344,"154":-0.042620180129964436,"155":-0.12121530187248626,"156":0.03591420771263512,"157":-0.00008589648152067135,"158":0.03722425000020977,"159":-0.01920466653162924,"160":0.028895198744328065,"161":-0.055146498764330414,"162":-0.00529609087543133,"163":-0.010620933510103132,"164":-0.01483548807438659,"165":0.0636613758548543,"166":0.10473301664768331,"167":0.1625022593251889,"168":-0.048991182976697585,"169":0.06449853923578407,"170":0.039432628604459674,"171":-0.01692030148534958,"172":-0.03303077942985369,"173":0.07898817957565589,"174":0.10181066315231858,"175":0.0684369429500034,"176":0.01753688206375324,"177":0.0519929850495542,"178":0.0608744713077082,"179":0.05347466463903051,"180":-0.09782340167590296,"181":-0.10425914643470893,"182":-0.11811948080137005,"183":0.08000039600430794,"184":-0.005304102835489833,"185":-0.006454297210330598,"186":-0.07164947152010227,"187":0.00617826979185989,"188":-0.03800515131607905,"189":0.006993447110691551,"190":-0.006595880631444122,"191":0.00992600166630728,"192":-0.018447729275254947,"193":-0.10461283649984074,"194":-0.04380317291224891,"195":-0.08570476885634518,"196":-0.09944788469994989,"197":-0.08838951291269159,"198":-0.048805536527702614,"199":-0.07448261427661548,"200":-0.0919350612516908,"201":-0.054824613678797283,"202":-0.08597242862577062,"203":-0.015331247460730437,"204":-0.09556159648531273,"205":-0.0649143228482697,"206":-0.013562847855856458,"207":-0.03622006885655624,"208":-0.019662181174284955,"209":-0.014202369203079362,"210":-0.02210765706836795,"211":-0.08633048294695042,"212":0.02628326051323923,"213":-0.018973740165567153,"214":-0.07104071571363711,"215":-0.14433612366717585,"216":-0.02552918571524809,"217":0.018970266870491238,"218":-0.16993888096523815,"219":-0.05853291963702017,"220":-0.15782450489885141,"221":-0.10324648932114791,"222":-0.04786251923423737,"223":-0.11107714905808683,"224":-0.11389783484993807,"225":-0.023906343407829145,"226":0.013638279141801848,"227":-0.0894294228315748,"228":-0.0650576064840733,"229":-0.1494692745528805,"230":-0.015408162140101319,"231":-0.022800068231427446,"232":-0.05188049247203526,"233":-0.1878277943554808,"234":0.10085692029836742,"235":0.054448373417310084,"236":0.10888067259524895,"237":-0.26054028656554795,"238":-0.09304201922247696,"239":0.035577639483242766,"240":0.05323121157384842,"241":-0.14816133716283747,"242":0.08142934043503976,"243":-0.0761206843677264,"244":0.051450669009316455,"245":-0.22815538888899461,"246":0.06838955159003417,"247":0.045558365778677695,"248":0.015090229923501447,"249":-0.013677590999213065,"250":0.09311218933216787,"251":-0.07186591563292652,"252":-0.016574821530299325,"253":-0.019985564329260297,"254":0.155515405187065,"255":-0.00362967710769045,"256":0.1959307560362085,"257":0.13522956920847343,"258":0.1035796794080731,"259":0.15590773845852884,"260":0.2661386327274451,"261":0.0069981715128614504,"262":0.10955310794275534,"263":0.07170974025626656,"264":0.27194709182498816,"265":0.12451960865143329,"266":0.12310619341303142,"267":-0.004595908034707464,"268":0.1510861583517759,"269":0.2144565888650346,"270":-0.015144625234899829,"271":-0.007555949200247232,"272":-0.01977537185577267,"273":-0.02853491704656233,"274":-0.06779013692878613,"275":-0.024564257841787604,"276":0.03745979906429675,"277":0.0009492383365371594,"278":0.0017066254706703935,"279":0.02841887668975032,"280":0.005794306037971794,"281":-0.013649227394627768,"282":0.013262374234277518,"283":-0.059474379750680206,"284":0.013938595606417657,"285":-0.026122704674558277,"286":0.042173200563436306,"287":-0.13253834490397803,"288":-0.06485892317968206,"289":-0.014298045094367938,"290":-0.04180727907525252,"291":-0.040136190723575965,"292":-0.013382972775166544,"293":-0.07860939058019172,"294":0.08653464363882249,"295":-0.1193756495791315,"296":-0.050583925578082965,"297":-0.03196564529948236,"298":-0.051679786899402606,"299":0.043023250156924,"300":0.017916639248516737,"301":-0.02433074948978034,"302":0.005296705807231495,"303":-0.054637941674881174,"304":-0.08032450003326848,"305":-0.11595272726523667,"306":0.01341955968631937,"307":-0.0012617226742291162,"308":-0.10831496625116628,"309":-0.26128620849753764,"310":-0.1330806578416587,"311":-0.0732981927451027,"312":-0.02863791576547497,"313":-0.19479680918510262,"314":-0.03665166616055095,"315":-0.07257795879717215,"316":0.017349538797846557,"317":-0.1184789861591417,"318":-0.10853811344529922,"319":-0.10271902801144595,"320":0.017239828493357454,"321":-0.054927357947813504,"322":0.029820367753070145,"323":-0.2331687774598855,"324":0.09764249499334841,