{"layers":[{"out_depth":3,"out_sx":28,"out_sy":28,"layer_type":"input"},{"sx":3,"sy":3,"stride":1,"in_depth":3,"out_depth":24,"out_sx":28,"out_sy":28,"layer_type":"conv","l1_decay_mul":0,"l2_decay_mul":1,"pad":1,"filters":[{"sx":3,"sy":3,"depth":3,"w":{"0":0.12838841160071457,"1":0.03372939352299333,"2":-0.15533646481694185,"3":-0.0829683017897964,"4":-0.1285814349500597,"5":0.13200250078887585,"6":0.08132668196765674,"7":-0.03931364601415167,"8":-0.23074123313851258,"9":0.027727134314310595,"10":0.07277822638686192,"11":0.028991592941273923,"12":-0.06951911096919312,"13":-0.03690787807649846,"14":-0.05109554129493879,"15":0.0029520511759253075,"16":-0.03324623934051754,"17":0.03976020696116217,"18":-0.07066507411455922,"19":0.00819410427488305,"20":-0.018824819809789055,"21":0.06266436192299184,"22":-0.07375803748379625,"23":-0.02398084411065995,"24":-0.09589499165166833,"25":-0.006343004575345722,"26":0.014449110655514845}},{"sx":3,"sy":3,"depth":3,"w":{"0":0.194538756461931,"1":-0.14237876150873566,"2":0.1738129707938167,"3":-0.05212575951283529,"4":0.024088984101722985,"5":0.3052650962426118,"6":-0.15018877211664658,"7":0.008049495437805206,"8":0.037861649426890215,"9":-0.0740760676333003,"10":0.24724229889982557,"11":-0.10488493611580979,"12":-0.08632011895309197,"13":0.09746560158236202,"14":-0.07734447302783633,"15":-0.2833361843686306,"16":-0.03349587532701282,"17":-0.1749643350489081,"18":0.10275014786052078,"19":-0.021655987189468526,"20":0.050435630123739354,"21":-0.17892750763727244,"22":-0.5103065454838679,"23":-0.5136271214447905,"24":-0.10868539936252779,"25":-0.12843460604788978,"26":-0.1326244766252894}},{"sx":3,"sy":3,"depth":3,"w":{"0":0.17435151661378948,"1":-0.21336898761084158,"2":-0.08441598401070859,"3":0.03697222903298998,"4":0.05007513635216531,"5":-0.10702887824229132,"6":0.06976455239054756,"7":0.010898853479283623,"8":0.16626192831255998,"9":-0.19308044752262948,"10":-0.07867139672508158,"11":0.007987481737461435,"12":-0.12030884997268793,"13":-0.06594381397246041,"14":0.014672058072321966,"15":-0.22180598649019118,"16":-0.057517899215739805,"17":-0.19986731265753913,"18":0.124474442169239,"19":-0.11331511655374447,"20":-0.13695448771909857,"21":0.07467909636520124,"22":-0.07692761667010112,"23":-0.040902852744638646,"24":-0.2541540524987079,"25":0.17990172431756096,"26":-0.06689465722539872}},{"sx":3,"sy":3,"depth":3,"w":{"0":-0.05301299552459832,"1":-0.11523921772647452,"2":0.1512845412133826,"3":-0.11069909649081444,"4":-0.13006328838440176,"5":0.07872958950637692,"6":0.10559039468836741,"7":0.036470471033608176,"8":-0.05822115343870767,"9":0.04824954833094996,"10":0.0037407908223143667,"11":0.006600389142013456,"12":0.10889680247076815,"13":-0.05064713744483769,"14":-0.29477712442383625,"15":-0.07736788494470256,"16":0.046798191654779546,"17":-0.033649933727466344,"18":0.04743072351974631,"19":-0.151265518358553,"20":-0.14257376206680697,"21":0.060953680632176085,"22":-0.12235870091649512,"23":-0.03588949881684627,"24":-0.02791741236888779,"25":-0.02894233463926473,"26":-0.038271813969786676}},{"sx":3,"sy":3,"depth":3,"w":{"0":0.05641863736426685,"1":0.07617032865154648,"2":-0.044875100566067215,"3":0.22449834021681173,"4":0.233992183710362,"5":0.06167272676195459,"6":-0.2574558274414126,"7":-0.018139511783052165,"8":0.2512305341299802,"9":-0.034244489666508726,"10":0.18379155646739426,"11":0.12157038608163169,"12":0.0966029204680502,"13":-0.08942276923347484,"14":-0.27710731660302806,"15":-0.28850058390182853,"16":-0.03295974015748124,"17":0.13892459165809226,"18":-0.06165972083991677,"19":0.1712086960333407,"20":0.05472595508077512,"21":-0.17032420684950736,"22":-0.0018100501314669913,"23":-0.019362070568677763,"24":0.41916440232711155,"25":-0.08932872842083216,"26":-0.16788242672822482}},{"sx":3,"sy":3,"depth":3,"w":{"0":-0.21582009005992422,"1":-0.14128295818961673,"2":-0.03905955646819242,"3":0.14865312084703572,"4":0.1797895881868345,"5":-0.24666984829252211,"6":0.1178047629635385,"7":0.033971463009738426,"8":0.14807238286592567,"9":0.47932352702246805,"10":0.14510582225556082,"11":-0.41005721191820727,"12":-0.2732823163153982,"13":0.1922103803868064,"14":0.08701929934601976,"15":-0.10607374944687396,"16":0.13658305118289035,"17":0.15501896246063054,"18":-0.1836254746398896,"19":-0.0027170299965765627,"20":0.2723444873334937,"21":-0.06148307432249733,"22":0.19488781724466517,"23":0.03569658418495495,"24":-0.14934910942690263,"25":-0.032136611359484216,"26":-0.011500474660175359}},{"sx":3,"sy":3,"depth":3,"w":{"0":-0.08171569063482181,"1":-0.09010611841727686,"2":-0.07303636863788697,"3":-0.11855254824905688,"4":-0.021680026796546823,"5":-0.05029519064128731,"6":-0.0788992221158974,"7":-0.08339512036809145,"8":-0.06784928231148814,"9":-0.06903682489704342,"10":-0.02076762822402167,"11":-0.038164575728875626,"12":0.001976565125572598,"13":-0.022146637066949217,"14":0.13318413622698272,"15":0.010966429012223373,"16":0.22562346490330223,"17":-0.2597578359319231,"18":0.05145671081214736,"19":-0.07107292840061705,"20":-0.05640517006580548,"21":0.051403983980021335,"22":-0.18396691185967004,"23":0.027732510559788086,"24":-0.08158988986261798,"25":-0.09980646450301349,"26":-0.16519114103069021}},{"sx":3,"sy":3,"depth":3,"w":{"0":-0.21936872046011294,"1":0.01585870696505425,"2":0.025783873032445337,"3":0.35171218740400817,"4":0.13999038451801704,"5":0.036533921154426885,"6":-0.2752641921762361,"7":-0.26750085903064025,"8":0.08831168737822653,"9":-0.03580114371409543,"10":-0.3872733066364823,"11":0.039316972797395995,"12":-0.07259157049670618,"13":0.19966342227311382,"14":0.07193085081388807,"15":-0.14432486568701117,"16":0.016008870539932586,"17":-0.16104766545430652,"18":0.07077170320519516,"19":-0.04628046079251948,"20":-0.10151146181893551,"21":-0.08152673354282092,"22":-0.17641059154355254,"23":0.2932293189711396,"24":-0.07620111769094846,"25":-0.025318513939894514,"26":-0.20258052780143126}},{"sx":3,"sy":3,"depth":3,"w":{"0":0.0632843572980894,"1":0.0852529074259128,"2":-0.07255883562396591,"3":-0.050837782704103454,"4":-0.055614453621920516,"5":-0.06282944765782279,"6":0.04061773498173683,"7":-0.025849865882514367,"8":-0.18051017547570997,"9":-0.20965464424364444,"10":-0.09801865152614649,"11":0.032664929831044284,"12":0.04409948666685006,"13":0.12795663703934188,"14":-0.007849716255784418,"15":-0.1072784642209274,"16":-0.07040358847027722,"17":0.02778073381771973,"18":0.0014225173659939217,"19":-0.058516420570036067,"20":0.008768308004169905,"21":0.08138512967929133,"22":-0.06589243788344058,"23":-0.148534066886266,"24":-0.15082163248657454,"25":-0.07423540784987967,"26":0.07789684890025322}},{"sx":3,"sy":3,"depth":3,"w":{"0":-0.08888987118031717,"1":0.03143887639274699,"2":-0.42801464701713415,"3":-0.12296833167096327,"4":0.2873660907623979,"5":0.11538251773095314,"6":-0.16911623514624044,"7":-0.24357867640952074,"8":-0.20827875340955218,"9":0.15604093792170387,"10":0.4015311400260398,"11":-0.04356433582640123,"12":-0.04050450357161698,"13":0.06221829554806979,"14":-0.07796796888499745,"15":-0.027591039244491734,"16":0.10250013777833365,"17":-0.06318895229275542,"18":-0.19522585705072815,"19":-0.03368026720377894,"20":-0.22702933646975565,"21":-0.4144072631656811,"22":0.3817773514701236,"23":-0.08277915436893135,"24":0.059464756062437486,"25":0.05066964526218953,"26":0.05696706238068109}},{"sx":3,"sy":3,"depth":3,"w":{"0":0.17914948658661364,"1":-0.14355083793034837,"2":0.14347802966491802,"3":-0.09639847084698266,"4":-0.219174616396108,"5":0.015438727546824155,"6":-0.17998469321420094,"7":-0.28614680188667224,"8":-0.048052460349868285,"9":0.08196429932088946,"10":-0.07206539566340533,"11":-0.3098114207937136,"12":-0.03125768482325996,"13":-0.08717532700548636,"14":-0.18217159263944063,"15":0.16764464844741445,"16":-0.13232629725050787,"17":0.19254265317020772,"18":0.13163696141954698,"19":0.25157488793560334,"20":-0.04624913509120139,"21":-0.17623873737323595,"22":-0.1372353106306183,"23":-0.16088429522703665,"24":-0.14123614610263177,"25":-0.23305386669243908,"26":0.2715488247345566}},{"sx":3,"sy":3,"depth":3,"w":{"0":0.0339458789317945,"1":-0.08747426571829671,"2":0.07381740311385464,"3":0.05935456070400549,"4":0.06869341078870145,"5":-0.0728816444266651,"6":0.012908015100748134,"7":0.04701092651407204,"8":-0.13244412865708224,"9":-0.07504816744585818,"10":-0.15432162187389256,"11":-0.13500404965547216,"12":-0.15799609499856235,"13":0.10206170138020464,"14":0.003358844717996576,"15":0.37083533340745034,"16":0.10588562858738859,"17":-0.0337641715161282,"18":-0.08649871813665486,"19":-0.09753504615946927,"20":0.09576930591679315,"21":-0.15593513692203867,"22":-0.15041875635863228,"23":0.1443357665420221,"24":0.06702617975188989,"25":-0.126628907544577,"26":-0.17991097757596378}},{"sx":3,"sy":3,"depth":3,"w":{"0":-0.02845759728447763,"1":-0.12446833802996839,"2":-0.1663037763152367,"3":0.19941089069789647,"4":-0.2661379790552156,"5":-0.01853175651795366,"6":-0.1648688325910358,"7":-0.0022050538410731996,"8":-0.22295909639751108,"9":-0.13678318209239096,"10":-0.011322928169334109,"11":-0.09506276993330541,"12":-0.06396025888675673,"13":-0.017275109069512216,"14":0.053467757585930455,"15":-0.3310477442098323,"16":-0.4365320819252443,"17":-0.08912072681493942,"18":0.0794422213394038,"19":-0.14929291932194308,"20":-0.2200549413624384,"21":0.13762616797532462,"22":0.09159738942411783,"23":-0.042384247352230495,"24":0.04304436682386154,"25":0.12617939697083735,"26":-0.0749501882935117}},{"sx":3,"sy":3,"depth":3,"w":{"0":0.08688941594710582,"1":0.05468810768739498,"2":0.2053691663447901,"3":-0.24253418807628763,"4":0.022506592975154643,"5":-0.08424110751423358,"6":0.002901225987129356,"7":0.4025121510656727,"8":-0.2740231753941597,"9":-0.05122786725784861,"10":-0.023715455431791783,"11":-0.13187148921888905,"12":-0.29008571891982626,"13":0.25690277543232665,"14":-0.09229719100971757,"15":0.2555373176877954,"16":-0.1353251408143326,"17":-0.16313284387512464,"18":0.16285177145263008,"19":0.4264141264294166,"20":0.0018069434886331653,"21":-0.02163132301408824,"22":0.030812111247969624,"23":0.07959177965887437,"24":-0.11554105696416601,"25":0.12688483791512647,"26":0.24815075061591416}},{"sx":3,"sy":3,"depth":3,"w":{"0":-0.03880157643329474,"1":0.08331799610235759,"2":-0.17501799814111368,"3":-0.30520791383846313,"4":0.22975227851139868,"5":0.0009458582442669576,"6":-0.06783520189740191,"7":0.1313702732180657,"8":0.004567055141190428,"9":0.07069565767223354,"10":-0.372658153210769,"11":0.16116580714927,"12":-0.12453300482624756,"13":-0.20693825144989578,"14":-0.11381047962282155,"15":0.19371101333886875,"16":-0.07706739167557518,"17":0.10269952521517849,"18":0.04378360601447769,"19":-0.13425194684646485,"20":-0.030005702097827693,"21":0.17493503220918133,"22":-0.07010882983633256,"23":-0.01722581900496604,"24":-0.19572434219887752,"25":-0.009318192368157362,"26":-0.064259629499546}},{"sx":3,"sy":3,"depth":3,"w":{"0":0.012775204406556157,"1":0.03537053589139298,"2":-0.05022557187869243,"3":0.07853762965507939,"4":-0.28918789990482513,"5":0.3164777312680645,"6":0.07278902926215003,"7":-0.2707347126124643,"8":-0.034429287309759325,"9":0.16521665306718486,"10":-0.08067505560771718,"11":-0.19545534800461783,"12":0.05646171181377666,"13":-0.029944134912875914,"14":-0.10400183976995213,"15":0.11055370457715767,"16":-0.08303814647602455,"17":0.029612611160736126,"18":-0.3655798120329434,"19":0.41833207587016624,"20":-0.0064692971545899005,"21":0.05899662941320226,"22":0.07316357367531968,"23":0.026336579636522046,"24":-0.2074829794235184,"25":0.007204086361312808,"26":0.011229874716697114}},{"sx":3,"sy":3,"depth":3,"w":{"0":0.06659344804088103,"1":0.007978889332336331,"2":0.17459683310640742,"3":0.052007832270424985,"4":-0.24428044521705303,"5":-0.0825530774565992,"6":0.13316887785911616,"7":0.2524186649588901,"8":0.17011384816825642,"9":0.12498813136971106,"10":-0.4737037382928374,"11":-0.14468862445094538,"12":0.03307261632278983,"13":0.20634271651330224,"14":-0.08912967806622872,"15":-0.02924078906402411,"16":-0.16075670603438416,"17":-0.06207290496028536,"18":0.005225357035469145,"19":0.04564098754082184,"20":-0.14981032570030414,"21":0.0012034350355535153,"22":0.23308573641371805,"23":-0.1567733544245883,"24":-0.2162167459123005,"25":0.2744600950011934,"26":-0.07683133917678588}},{"sx":3,"sy":3,"depth":3,"w":{"0":-0.06184889087822596,"1":-0.05515297743423895,"2":0.18160718532366102,"3":-0.09415880143906356,"4":-0.023640404160668343,"5":-0.1869462820404709,"6":-0.09184341439017722,"7":0.01825180543096503,"8":-0.09500644245582542,"9":-0.18454580128744,"10":0.0448918845213685,"11":-0.11545792403362977,"12":0.04928403315435113,"13":-0.17468645829343468,"14":0.3096876189835902,"15":-0.0964211049532876,"16":0.008661762910715487,"17":0.010687351695938348,"18":0.05615841365470222,"19":0.002320685098198252,"20":-0.008163466948702423,"21":0.011339664642417664,"22":0.00863708446320919,"23":-0.04277977534276015,"24":-0.09486801124491626,"25":-0.15656768101461443,"26":-0.09255799853045558}},{"sx":3,"sy":3,"depth":3,"w":{"0":0.0394112044873855,"1":0.07652059581073901,"2":-0.0520721411424361,"3":0.055078680763654346,"4":-0.18697047818621726,"5":-0.02098269311211987,"6":0.024909063742320405,"7":0.0591432139623487,"8":0.27612297447925715,"9":0.1882998969720226,"10":-0.044228946634026656,"11":-0.007970229753752103,"12":-0.046265544875768,"13":0.09356464376120772,"14":-0.23398391172705693,"15":-0.156616854923074,"16":-0.18667782052386503,"17":-0.10477522736867444,"18":-0.012132302329735032,"19":0.027870576197740787,"20":0.10239013089454307,"21":-0.08496107233685504,"22":-0.23797084210743766,"23":-0.14202444556059612,"24":-0.12730257464530575,"25":0.10397351993447648,"26":-0.11288407789662185}},{"sx":3,"sy":3,"depth":3,"w":{"0":-0.13693886026252422,"1":-0.05756687362424742,"2":-0.020185592306910714,"3":0.14317583303358994,"4":-0.21585331167590927,"5":0.07798579034536818,"6":0.03652731024487848,"7":0.061536716482908836,"8":0.13296074485060907,"9":-0.05194124773035001,"10":-0.07118679424607027,"11":0.08125041755614237,"12":-0.011645837061018717,"13":0.3353452701122802,"14":-0.2188890874772217,"15":-0.13430533710577688,"16":0.13375696772126572,"17":0.00402101503361445,"18":0.26171101096828847,"19":0.040713759499336276,"20":0.021588803759874955,"21":-0.09836519124567478,"22":0.000629833465029254,"23":-0.3337337014947883,"24":-0.17687213936909996,"25":-0.32049226323038443,"26":-0.09654766432230301}},{"sx":3,"sy":3,"depth":3,"w":{"0":-0.19275051311698033,"1":-0.23566019146395423,"2":0.005382118966126754,"3":-0.2521710866411166,"4":0.0896391630678383,"5":-0.22912742152481058,"6":-0.0692949763710888,"7":-0.09332520121408866,"8":-0.5240986718380868,"9":-0.23662704205456378,"10":-0.14277198996789836,"11":-0.22962443258150625,"12":-0.3809134604505689,"13":0.40053031492389146,"14":-0.14163418038778525,"15":0.016637417647375436,"16":-0.40438078165060715,"17":0.19433525907308294,"18":-0.2578206662789046,"19":-0.0039253707817870475,"20":0.25970498322738966,"21":0.2291846224832916,"22":-0.008639500440555134,"23":-0.2303290163331022,"24":0.1346184104901938,"25":0.018030560008743424,"26":0.27619310651658047}},{"sx":3,"sy":3,"depth":3,"w":{"0":-0.21495099761456862,"1":-0.05196126675336478,"2":-0.13424894285206926,"3":0.17963258654862418,"4":-0.004382653401277291,"5":-0.00940892561834607,"6":-0.02765226264263283,"7":-0.4986242339129242,"8":0.33031856041227087,"9":-0.18563873663347907,"10":0.166179858824189,"11":-0.14674209972956354,"12":-0.08135695358653096,"13":0.07567772742855303,"14":-0.2437635844530842,"15":0.012293752772514705,"16":-0.024996130305744792,"17":0.15375607312636386,"18":0.025483474102950796,"19":0.1303446652829055,"20":-0.035530005639260204,"21":-0.026116835472651128,"22":0.0028449171109740296,"23":-0.05955598758184635,"24":0.13167404518412767,"25":-0.15546390773936694,"26":-0.16229220604119618}},{"sx":3,"sy":3,"depth":3,"w":{"0":-0.11292093735105653,"1":-0.10976897937347514,"2":0.05192087541189462,"3":-0.20995472942014823,"4":0.2158232442442402,"5":-0.36250714196094974,"6":0.32330439262471483,"7":0.12524838066973815,"8":0.08516375047056862,"9":-0.15658537076448587,"10":0.03433069657080019,"11":-0.11402560176433886,"12":-0.3376195768020852,"13":-0.19588902352443363,"14":0.10209435971265277,"15":0.1988603430327241,"16":0.21120236874694442,"17":0.08274656142574234,"18":-0.09159857148889122,"19":-0.1347373622490314,"20":0.06731644821544905,"21":-0.14556760894804052,"22":0.15407615945707798,"23":-0.17953903815520666,"24":0.18517065015633022,"25":0.20711997223845297,"26":-0.07881155939174474}},{"sx":3,"sy":3,"depth":3,"w":{"0":0.11657381988312121,"1":-0.23861522685577954,"2":0.21461778972069911,"3":0.19573245393139638,"4":-0.029022209662007793,"5":-0.20636955092525125,"6":-0.10275001186608806,"7":-0.056495133277720926,"8":0.17864409442017026,"9":0.032883426061588165,"10":-0.2161543118009988,"11":0.25850690986553687,"12":-0.14089371208518336,"13":-0.31253748424908473,"14":-0.1462478883400354,"15":-0.2064452377416266,"16":-0.009395628493846576,"17":0.2263585609665654,"18":0.31751515298944005,"19":-0.14268231450648472,"20":-0.008735541270564397,"21":-0.06796168568450647,"22":-0.13196827907082836,"23":-0.5692562698835076,"24":-0.28261293892370415,"25":-0.2313857194470452,"26":0.312821191189123}}],"biases":{"sx":1,"sy":1,"depth":24,"w":{"0":0.0450471901407015,"1":0.03762700005151881,"2":0.027600830128938537,"3":0.06353191652157493,"4":-0.4565017883466987,"5":-0.45127920106353114,"6":0.07490676010858885,"7":0.09381720336048505,"8":-0.022689879951223364,"9":0.12608814272402077,"10":0.08398516282892858,"11":0.06278417883178572,"12":0.06743470436212266,"13":-0.339381094349443,"14":0.018089285737548578,"15":-0.005796527352382235,"16":0.0268520016564469,"17":0.11896135539634374,"18":0.07904930081573067,"19":0.005025532525062737,"20":0.07033630696982428,"21":0.11155329049676416,"22":0.1347287985461959,"23":0.08992817067053582}}},{"out_depth":24,"out_sx":28,"out_sy":28,"layer_type":"relu"},{"sx":2,"sy":2,"stride":2,"in_depth":24,"out_depth":24,"out_sx":14,"out_sy":14,"layer_type":"pool","pad":0},{"sx":5,"sy":5,"stride":1,"in_depth":24,"out_depth":36,"out_sx":14,"out_sy":14,"layer_type":"conv","l1_decay_mul":0,"l2_decay_mul":1,"pad":2,"filters":[{"sx":5,"sy":5,"depth":24,"w":{"0":0.007649076106043981,"1":-0.0033011035652816003,"2":0.008063847613367859,"3":-0.008109334384082612,"4":0.024708375887435918,"5":0.01944871817747237,"6":-0.00304232573083491,"7":0.003113563620359311,"8":-0.0065240647263174936,"9":0.011577504977044451,"10":0.02276144450934964,"11":-0.013568906935342908,"12":-0.004291898242667128,"13":0.027000902726544755,"14":-0.0025927671057158945,"15":-0.03932569633423468,"16":-0.012565064279355338,"17":-0.002019052511620803,"18":0.0036973455528979083,"19":-0.01484205650274811,"20":0.0021561184599991202,"21":-0.0007789411392735081,"22":0.010581589457241613,"23":-0.012885356222090619,"24":-0.022669957684111404,"25":0.008574236340954344,"26":0.0035635366859799247,"27":0.0011844106394316959,"28":0.018047604140281028,"29":0.017231624244202645,"30":0.000245706119632822,"31":0.0029926450303959084,"32":0.0027475925903294608,"33":-0.004151246456537452,"34":-0.0074209904746914005,"35":-0.0008385929261025891,"36":0.015970277375376322,"37":-0.001587109888196431,"38":-0.00552105425027603,"39":-0.026202139890198973,"40":0.003880589089350496,"41":-0.014616092551902226,"42":-0.008783171876898414,"43":-0.018647726679983444,"44":-0.010415426176239601,"45":0.0034939945846169554,"46":0.016121085526738663,"47":-0.006370414286092024,"48":0.008683536533863423,"49":0.006641938407745479,"50":-0.011158647421311984,"51":-0.007373624833378127,"52":-0.012123133622450539,"53":0.007665192750297103,"54":0.0002729449736550552,"55":0.0010082829445807865,"56":0.009013531629122972,"57":-0.016144869753147127,"58":-0.013740636707093313,"59":0.01879809834396019,"60":-0.026739338697133387,"61":0.018007694414035196,"62":0.006760422681619225,"63":-0.023649259759492166,"64":-0.029815576701439705,"65":0.005476542342114651,"66":-0.008936727108344467,"67":-0.033270991982227306,"68":0.007642040240433551,"69":-0.0324595664588457,"70":0.012774293871365196,"71":-0.002721316157785482,"72":-0.0022525233603693058,"73":-0.00634967308729489,"74":-0.009621329631574476,"75":-0.02683641998714711,"76":-0.0298302127698756,"77":0.017081844087846444,"78":0.00987132731746629,"79":-0.009130657173313052,"80":-0.020345369440412278,"81":0.00548033841771475,"82":-0.021934038523110707,"83":0.017704548839760564,"84":-0.013120261961615297,"85":-0.02951737555045177,"86":0.006084461514556216,"87":-0.018734234656877128,"88":-0.0024637985669931205,"89":0.00046665044387117786,"90":0.021267922236988566,"91":-0.013942908910640905,"92":-0.0019202287953073952,"93":-0.01944440362865173,"94":-0.004641526682798791,"95":0.003920587689781792,"96":-0.012204620966992489,"97":-0.009448971228078275,"98":-0.010911724393570328,"99":-0.012015504761476111,"100":0.010731739959494764,"101":0.012535979343650182,"102":0.0024525075180474878,"103":0.00535156985894853,"104":-0.01948127412463538,"105":0.0017637483017676789,"106":0.005970728592600141,"107":-0.005224741436046249,"108":-0.009022256539250257,"109":0.012421510750269522,"110":0.007526751121879164,"111":-0.014462779228847167,"112":-0.007698844794446368,"113":-0.013710338794114955,"114":-0.005954132709874056,"115":0.005899243608843972,"116":-0.0069489882640537065,"117":0.0030002108485430307,"118":-0.023620238997620484,"119":-0.020851294521945916,"120":-0.005307764992898824,"121":-0.01054993822349788,"122":-0.017458160954563526,"123":0.004115197464320459,"124":-0.016031367141488204,"125":0.01819433256793789,"126":-0.012518063267548956,"127":0.013365945422391778,"128":-0.007542623247133866,"129":0.018865475736056705,"130":-0.012978707722470586,"131":0.00530370793998433,"132":-0.000668857069149444,"133":-0.0009771507530335441,"134":-0.015430897274925033,"135":-0.004776023442506523,"136":0.007486566626974986,"137":0.0019405070779312382,"138":0.013962258756409452,"139":0.013481721755144612,"140":-0.006541249712583747,"141":-0.0017061254685992668,"142":0.01585933629413721,"143":-0.006649972857359972,"144":-0.008500481783502484,"145":0.014788018573304786,"146":0.01739069873600733,"147":0.011119166548837826,"148":-0.023004527273380277,"149":-0.006503347314587337,"150":0.0060585108064682165,"151":-0.010862564703407074,"152":-0.00121442336767477,"153":-0.03237742822252534,"154":-0.006621080612669543,"155":0.001970249076432208,"156":-0.0073562033039329695,"157":0.021040424271111156,"158":-0.04092904518247127,"159":0.004167759545128138,"160":-0.024629169864836518,"161":-0.014128145913176043,"162":-0.00497409432340781,"163":-0.003880744886993005,"164":-0.0031918854131289375,"165":-0.014340811575038323,"166":-0.004240863101744825,"167":-0.012433231785787563,"168":-0.010007054954841773,"169":-0.013889660599770197,"170":-0.004804290041816138,"171":0.01238312291129888,"172":-0.04376890725486889,"173":-0.013345666098653121,"174":-0.003953918093175375,"175":0.0077840967206345936,"176":0.0064041187309360915,"177":-0.01104166444899135,"178":-0.007811815207620902,"179":0.004725619791082868,"180":0.007065693843989683,"181":-0.025730801208179607,"182":-0.01221450190172361,"183":0.01642715386222154,"184":-0.013712662760284157,"185":0.004741300073833784,"186":-0.016506050348155825,"187":-0.001179332720551747,"188":0.012617478376604764,"189":0.015210832651494031,"190":0.01833158263254028,"191":-0.014700028226775805,"192":-0.002878392452376498,"193":-0.004313711893290619,"194":0.0015894009202483603,"195":-0.010848035922864275,"196":0.0031246380743122715,"197":0.027301624193976883,"198":0.0013536267481465772,"199":0.002942884024813729,"200":0.0053615642249234706,"201":0.00816225788000558,"202":0.010552209675434455,"203":-0.00197656143151158,"204":-0.030043865960292546,"205":-0.04023154990459925,"206":0.000025738270831784357,"207":-0.0282965911376812,"208":-0.030987569679402884,"209":-0.013330992595668716,"210":-0.008114358429880859,"211":-0.010626772707995245,"212":-0.0002625678392313763,"213":-0.016956647332464516,"214":-0.01864466333956665,"215":-0.02201239488427709,"216":-0.017479445589722153,"217":-0.014476547571906518,"218":-0.002079238640278127,"219":-0.01467100456608894,"220":-0.014198436005385642,"221":0.022547309548586168,"222":-0.0026370144946229815,"223":-0.003951249968405318,"224":0.021712520449577194,"225":-0.009752849660075183,"226":-0.0006345890031401497,"227":0.007708992022476112,"228":-0.005997907022824992,"229":-0.0062110381462164325,"230":0.00549140537145605,"231":0.005058804770860422,"232":-0.01343773062141268,"233":-0.006498896913433534,"234":-0.022686147289079747,"235":-0.013690507263841929,"236":-0.01235046339183886,"237":-0.010218032120785082,"238":-0.022305462063534873,"239":-0.010108992866790966,"240":-0.000312664431131228,"241":-0.0030037967634528144,"242":0.0045342589670570085,"243":-0.004600865414097862,"244":-0.004979887292232045,"245":0.021353458230131395,"246":0.0029164446538608485,"247":-0.0018345825405559721,"248":0.017781730421456504,"249":0.009649968926516359,"250":0.002440722834127704,"251":-0.009777968380563962,"252":-0.010229637233296021,"253":0.005381954932268962,"254":-0.0025392541891927213,"255":0.0037873753784622385,"256":0.0036771693299684893,"257":-0.002684628382274644,"258":-0.002284534353421732,"259":0.0016437897288961256,"260":-0.0034065943041518575,"261":0.009225743875547227,"262":-0.013848174499044425,"263":-0.0032824366699398,"264":0.00002444106762222764,"265":-0.01746607100068938,"266":-0.012066115210951705,"267":0.0033365753511295747,"268":-0.03807269373153897,"269":0.012019943069866187,"270":-0.0066754371412899825,"271":-0.013244905763713068,"272":-0.020931784807405835,"273":-0.020881915087876336,"274":-0.008278873240338092,"275":0.0023967111915572273,"276":-0.003281753063809016,"277":-0.018912002881723986,"278":0.017754940661053938,"279":0.017219119229271267,"280":-0.038980574425435836,"281":-0.003608355089569287,"282":-0.00927006509779424,"283":-0.0022941250841438552,"284":0.009486921194526324,"285":-0.005698093807089044,"286":-0.0138716780574307,"287":-0.042282510832542516,"288":0.012220564269886235,"289":0.012891885563295175,"290":0.005968278616938801,"291":-0.019583839134333092,"292":-0.014321528316575221,"293":-0.0012078497838379266,"294":-0.01231716415709822,"295":0.007329284684811979,"296":-0.0026997268001942476,"297":0.0010323009539276178,"298":-0.011130419704135915,"299":-0.016019253419419552,"300":0.034393458073919136,"301":-0.028300950009558585,"302":-0.012367471391020395,"303":-0.016423863668566945,"304":-0.02067162610875805,"305":-0.0026464004319933874,"306":0.006516150764602938,"307":0.004522821371090077,"308":-0.0027560600028258726,"309":-0.01811606194209404,"310":0.004261838168454997,"311":-0.015604210394065855,"312":-0.012637005600596567,"313":-0.018117341337321013,"314":-0.006242294817289134,"315":-0.007486394346996033,"316":-0.0031912476493918744,"317":-0.0030424797191619,"318":0.018510287246655318,"319":-0.014421100694889648,"320":-0.025699516610679367,"321":0.005102171196321082,"322":0.0011627128299419836,"323":-0.01877490506084649,"324":-0.003987433412467069,"325":-0.026599511083030266,"326":-0.012073782381925243,"327":0.019722749946225842,"328":-0.01748262133465803,"329":0.021498890341948254,"330":0.02121441670015654,"331":0.00029381237429347264,"332":-0.0029318027869331426,"333":0.002621718285094052,"334":-0.011176295903048005,"335":-0.013399452935893124,"336":0.020295471678199246,"337":-0.02347876800070778,"338":0.0005426011093489172,"339":-0.018331316493016253,"340":-0.04368816413668962,"341":0.01115286497761049,"342":-0.004543604464355333,"343":0.01785877418921365,"344":0.00472418071677385,"345":0.004597571655634844,"346":-0.004522361617110375,"347":-0.001112691219442616,"348":-0.007135500403140066,"349":0.005527698963005845,"350":0.02571885365399975,"351":0.003071626208899034,"352":-0.016754027172931264,"353":0.00533923798404542,"354":0.01252552273206471,"355":-0.007833540053734983,"356":-0.007878434006650012,"357":0.013522748995971558,"358":-0.02136323909132464,"359":-0.006899925285333125,"360":0.013826185517335478,"361":-0.00846222776619183,"362":0.006064504993939444,"363":-0.001968488764918534,"364":-0.003322297839087675,"365":0.006275845513906836,"366":-0.006986546800002048,"367":0.004649382876060158,"368":-0.023439310037280715,"369":0.012779816220092638,"370":0.009321816351772446,"371":0.006396795965387125,"372":0.0007539427448673459,"373":0.02802561023543973,"374":-0.02124259292170282,"375":-0.008933253853723387,"376":-0.0046978562866242446,"377":-0.007500651699155374,"378":0.0031817778748481156,"379":-0.02371645936703802,"380":0.001107127556860106,"381":0.0138208044249406,"382":-0.011901952458912164,"383":-0.01068248778731684,"384":0.010722219343540791,"385":0.007662156650308019,"386":-0.001595075836339374,"387":0.013379828299082592,"388":-0.0246560647703396,"389":0.03372257484399672,"390":0.018422329741071226,"391":-0.007235343724335453,"392":-0.0027856840775705985,"393":-0.004631937870351635,"394":-0.023757928577052424,"395":0.010012491758656835,"396":-0.017431942698520723,"397":-0.007508447785346275,"398":-0.00371938127418157,"399":-0.003169311661753403,"400":-0.01105352992561959,"401":0.00279360640643169,"402":-0.012385562657571828,"403":-0.025950945308767,"404":-0.005110406597024555,"405":0.008123935599037626,"406":0.002414844241654308,"407":-0.008283539021212833,"408":-0.0031351731785976477,"409":-0.037677329380556894,"410":0.008977636066583779,"411":0.004412777030084314,"412":-0.0015988460636110029,"413":-0.02738482042974573,"414":-0.007524544144579562,"415":0.004408890486799125,"416":-0.0006258119891178063,"417":-0.01220599280864205,"418":0.01127646160304895,"419":0.014223072840053537,"420":-0.022274616304996366,"421":-0.043264022035120926,"422":0.02356433473940012,"423":-0.01910966393068787,"424":0.0010430009503420619,"425":-0.024095662326279486,"426":-0.002674471807335601,"427":-0.021601001572432815,"428":0.006087842882082791,"429":0.0011573745523165313,"430":-0.012143217922267633,"431":-0.011674887089660246,"432":-0.004344401235589133,"433":0.00810414715127844,"434":-0.005858035385350962,"435":-0.010858309562198912,"436":-0.005623235162974346,"437":-0.009964014622097702,"438":-0.0051685767097448725,"439":0.0008596689349711907,"440":-0.021806829703822073,"441":-0.0022349906396419293,"442":0.004542697431288091,"443":0.024506895494279722,"444":-0.014623584331733061,"445":-0.017716085743657704,"446":-0.00512985398109712,"447":-0.01567560789186414,"448":-0.027624184712177927,"449":0.0020329220743021117,"450":-0.006420245368937409,"451":-0.0095958691108599,"452":-0.01299604068901994,"453":0.004664594533799255,"454":-0.013021255044078354,"455":0.009386579363991497,"456":-0.003630603832298693,"457":0.006529856332377754,"458":0.007017903497634278,"459":-0.0029900912139355033,"460":0.005623952074798057,"461":-0.00861315000651028,"462":0.0013684208001783524,"463":-0.0017861713027573522,"464":-0.001782488420589125,"465":0.001915632622856817,"466":-0.010142087347108654,"467":-0.011652488057994079,"468":-0.008234647745484745,"469":-0.0021146386114700225,"470":-0.01573574434990624,"471":-0.0009613779242407062,"472":-0.003233344987303092,"473":0.003764943832193899,"474":0.009172588864313916,"475":-0.010461193755247757,"476":0.0091048469836746,"477":0.009591540850441683,"478":-0.008012931031381966,"479":-0.037798055089111215,"480":-0.008972937495531259,"481":0.002432051615345929,"482":0.004690021507620994,"483":0.0051342478337965585,"484":-0.008062043997502965,"485":0.004051611794768857,"486":0.004649794920230854,"487":0.00545412686860834,"488":-0.03381235060128984,"489":-0.007274309738313176,"490":0.015459016822980029,"491":-0.007797940678649687,"492":-0.005582119434225418,"493":0.023328076560919054,"494":-0.024882883069257702,"495":-0.009979151144715885,"496":-0.00896022499698959,"497":-0.0065501625816366685,"498":0.0012288313556813007,"499":-0.005368448962236682,"500":-0.004277567772864595,"501":0.002445703982787387,"502":0.00454809523255804,"503":-0.02306256501377495,"504":0.009225548420777985,"505":-0.004296458846854707,"506":-0.016936688880901198,"507":0.0023899058468331035,"508":-0.038147926069257834,"509":0.015376954088810563,"510":-0.009879602056079347,"511":-0.001843402483723579,"512":0.0000763738524118665,"513":0.0046973808439055185,"514":0.0026144335734271202,"515":-0.01378263085769318,"516":0.003446783319511294,"517":-0.03317818421814402,"518":-0.016276322850639992,"519":0.021383413935307082,"520":-0.012076298796331186,"521":0.0016150863969252496,"522":-0.004680174689372436,"523":0.0025730040872762577,"524":-0.005607593658453441,"525":0.0020801391637800272,"526":0.000920181673518518,"527":-0.03355026224332801,"528":-0.009586287472959112,"529":0.015815019033074747,"530":0.0028896848310675932,"531":-0.003513829969758456,"532":-0.03417082574333781,"533":-0.023360316611581614,"534":-0.01745045196845866,"535":0.00510529813956432,"536":-0.019739935940253254,"537":-0.009988385704883624,"538":-0.011450197646526375,"539":-0.013406901368696034,"540":0.01434415842651676,"541":-0.06598228860650909,"542":-0.02483857776858176,"543":0.0173357756202881,"544":-0.01088295521406867,"545":0.0016023752543896698,"546":-0.01477091944375494,"547":0.007213677796009123,"548":-0.0014184841305164486,"549":-0.01028756003028864,"550":-0.0011969509792250934,"551":0.00888309014728375,"552":-0.010684898200263639,"553":0.01926613422501287,"554":-0.009105530904908725,"555":0.004512000751176722,"556":-0.029394983427966637,"557":-0.0008389270960573809,"558":0.009607345775097545,"559":0.003659195211694324,"560":-0.0014775263384966123,"561":-0.008982086139361268,"562":0.003736758925527062,"563":-0.0033163313028946434,"564":-0.003793291322713743,"565":-0.03166425041672585,"566":-0.02654505668424448,"567":0.001323872432003056,"568":0.021767205755229856,"569":-0.016165001196891394,"570":0.012102214571271171,"571":0.010620669611501885,"572":-0.0005496474918584361,"573":-0.015873149521805165,"574":-0.012401593929366827,"575":0.0012332904116454696,"576":-0.017328375471613144,"577":0.00852097672539452,"578":-0.005477040200385052,"579":-0.01090869279578347,"580":0.0199943242392414,"581":-0.0030881835250907153,"582":-0.017814552801866317,"583":0.017795180580798983,"584":-0.011461531228459174,"585":-0.007468713786190766,"586":-0.002076601687509832,"587":-0.006919327363516304,"588":-0.01308880095611832,"589":-0.013980713972274817,"590":-0.005509503576460709,"591":-0.04563336016080252,"592":0.010897473840820177,"593":0.00977920804879439,"594":-0.005619236654433142,"595":0.007658986026969011,"596":-0.008200725752054201,"597":0.014076019111816286,"598":0.0051654224932427,"599":-0.023598481524170416}},{"sx":5,"sy":5,"depth":24,"w":{"0":-0.004842387650926355,"1":-0.08875451401257713,"2":-0.01039377325652649,"3":0.03433598165458542,"4":-0.011570092952864982,"5":-0.10956702783336375,"6":0.001423457921260314,"7":0.0038366174969610397,"8":0.012910766896810604,"9":0.06993748389524052,"10":0.011059335984240212,"11":0.0316561424843215,"12":0.047443100787375625,"13":-0.16612747539497774,"14":0.012740257633130315,"15":-0.05569270354912176,"16":-0.07243835822884995,"17":0.06624251318893538,"18":-0.011452574964055228,"19":-0.07944513284035716,"20":0.03707557092758725,"21":-0.017972490298151074,"22":-0.03701688331662308,"23":-0.0005998406592359691,"24":-0.026554988780411955,"25":-0.04591581162519975,"26":0.037715812247738754,"27":0.07069740317288499,"28":-0.04198858138832399,"29":-0.16000931349802336,"30":-0.0004694431872613335,"31":0.03137205205988633,"32":-0.017380916329546785,"33":0.06556308148239715,"34":-0.03958918988705611,"35":0.0676809568047899,"36":0.03599526388747082,"37":-0.03660016640285208,"38":0.1198205023608604,"39":0.009915639933644391,"40":-0.02584952074088314,"41":0.043551853665465885,"42":0.021912549589295973,"43":-0.0686951559084099,"44":-0.005098782374453638,"45":-0.026410935753533527,"46":0.06740649803464024,"47":0.05345253843015116,"48":-0.004825559658217451,"49":0.00700350979389661,"50":-0.0018842794547394006,"51":0.0327949473953824,"52":-0.20470461183137378,"53":-0.16471428939092012,"54":0.004066916612046108,"55":0.07949475131732081,"56":-0.02725024519535207,"57":0.10406961397844539,"58":-0.07563214729121409,"59":-0.008843791823012927,"60":0.03964332860334143,"61":-0.06673665912585859,"62":0.07866621095209701,"63":-0.07966518986766533,"64":0.0380214624252423,"65":-0.00994606220486497,"66":0.0004552864479485243,"67":0.04181615058423651,"68":0.002619926792638113,"69":-0.06426140760250731,"70":0.07581783037086691,"71":0.004988875277227105,"72":-0.013196900647115652,"73":0.04437067648593033,"74":0.009447911565840404,"75":-0.01795166568998559,"76":-0.001232097057185652,"77":0.031919601860818735,"78":-0.0052434305625277886,"79":0.014350267532125661,"80":0.019114034063104076,"81":-0.04754224423152179,"82":-0.05197960983429978,"83":0.002703709121399382,"84":0.018830961891051566,"85":-0.04521469190657043,"86":0.07407360348732941,"87":-0.014510689894728203,"88":0.021218927516134453,"89":-0.006786453800789852,"90":0.06299706926674277,"91":-0.0075559863428266705,"92":-0.05500403166561433,"93":-0.013896887424753347,"94":0.23721919742057862,"95":-0.12560517905868102,"96":-0.021057483835897794,"97":-0.042530945865466595,"98":-0.051973052210213165,"99":-0.008104823905164205,"100":0.02688476652762539,"101":0.035584328968740836,"102":0.01127112317501369,"103":-0.021352625973109964,"104":0.002246802107507641,"105":-0.09873604746856951,"106":-0.004835165506472368,"107":-0.015223202233466534,"108":-0.016438172164624846,"109":0.06640266956264164,"110":-0.04009217304234245,"111":0.018471525258304106,"112":-0.09354203988010965,"113":-0.006330661277570365,"114":-0.010484295038113897,"115":0.013393230164092464,"116":-0.05149804938523419,"117":-0.03527345819978596,"118":0.20826210900202013,"119":-0.05825642733454886,"120":0.007295964358814769,"121":-0.004369533581960822,"122":-0.035419464197579645,"123":0.10328476651929516,"124":-0.07000316678162266,"125":-0.08477859051620955,"126":0.007058947150138297,"127":0.06207533568646784,"128":-0.01040974005505575,"129":0.006389903948771047,"130":0.04248747067720855,"131":-0.010622514857339378,"132":0.00006681004819727132,"133":-0.010729292704982294,"134":0.003970258871765601,"135":0.012822529814216705,"136":-0.074866196142989,"137":-0.004319256454351503,"138":-0.02218865833832054,"139":-0.02313460558500318,"140":-0.13951892445283814,"141":-0.008526434440013036,"142":0.07043609114770781,"143":-0.02039304529693545,"144":-0.004233302658221589,"145":0.057455787231684964,"146":-0.011149155055993227,"147":0.0440711516692416,"148":-0.06484382159051182,"149":-0.037613178289441135,"150":0.014642343345627558,"151":0.01775568121228234,"152":-0.012238900026014368,"153":0.04438558477368341,"154":0.0644637863352599,"155":-0.06897390755517979,"156":0.04508199116359685,"157":-0.007535520089737775,"158":-0.01946977229343295,"159":-0.019752136379704462,"160":0.013271366097584008,"161":-0.02003599675158281,"162":0.041544375523916585,"163":0.0053445762748104385,"164":-0.0365509032706092,"165":-0.01747510486665367,"166":0.0628711317257362,"167":0.05270961381688656,"168":0.015340115172859681,"169":0.05352840556903069,"170":0.033338304814428295,"171":-0.01755171932457084,"172":0.003011355906035898,"173":0.03251760911120382,"174":0.006772581984954998,"175":0.010308135489708714,"176":0.016219791966608107,"177":0.07977747029214048,"178":-0.04291598007335514,"179":-0.0005673573016868513,"180":0.01098218056953001,"181":-0.04008056729925862,"182":-0.07836515563267392,"183":0.023323807121456454,"184":-0.011838507755113664,"185":0.013506681197159707,"186":-0.06613017807300564,"187":0.03693796103400457,"188":0.02996906384627261,"189":0.04130052576656538,"190":0.0937149447659212,"191":0.05277657794030313,"192":0.028116383718143394,"193":-0.008041467745121923,"194":-0.016115863341631405,"195":-0.016175188349722546,"196":0.06894757550359416,"197":0.12050669471159078,"198":-0.030202584297377252,"199":-0.04791829851275061,"200":0.0012789501439614875,"201":0.01956812037679898,"202":0.0039015881675892915,"203":0.04025796086004278,"204":0.016147145607011925,"205":-0.003945656493141913,"206":-0.04307399984804951,"207":0.010381226497999493,"208":0.03179194407100705,"209":0.010813777296347882,"210":0.02079281990176679,"211":0.02356653347240582,"212":0.013649576990099785,"213":0.018569267035062325,"214":0.04249671584822252,"215":-0.07595914537646678,"216":0.006713786774528435,"217":-0.020894745558511275,"218":-0.009557003138196003,"219":-0.020898194761595663,"220":0.11933745601398288,"221":0.15105475026905438,"222":-0.02353689516455091,"223":-0.022400637259367383,"224":0.01910710646222456,"225":0.040681862729466146,"226":-0.04735466838939307,"227":-0.0466320274268028,"228":-0.04774097046344988,"229":0.01798643617113296,"230":-0.1146403983018133,"231":-0.061440092248422465,"232":0.10003428629677125,"233":-0.011575589284838615,"234":0.041877100914914075,"235":-0.02393780991125581,"236":0.04407526521570631,"237":-0.04956646029911577,"238":-0.08574188826099148,"239":-0.033627839742970685,"240":0.00852484108891251,"241":0.015568482363921827,"242":-0.012165180205956094,"243":0.07364682549801234,"244":0.038150796328120185,"245":-0.06952396419891162,"246":-0.05309004617325279,"247":0.0659451811916307,"248":-0.012065156454955291,"249":-0.04398863384558175,"250":0.0004809990471561962,"251":-0.017361980839279176,"252":-0.016348657092553696,"253":0.013179538732482612,"254":-0.08513453512570518,"255":-0.04515275322533724,"256":-0.014736070521050141,"257":-0.020474619203827794,"258":-0.04083437064575625,"259":0.025638520406894464,"260":0.01283110603965241,"261":-0.009425339881115402,"262":0.03193204977141809,"263":0.12582336084677756,"264":0.01913200635397221,"265":-0.06360733400714308,"266":-0.005159151008975257,"267":-0.0023456163515179376,"268":0.00156522586931123,"269":0.02425481012745201,"270":0.01413308644151275,"271":0.016149201958174608,"272":0.0025647620343879655,"273":0.03755128737005933,"274":-0.024499299081793532,"275":0.08117044566484534,"276":0.020342969110220457,"277":0.03765072140488664,"278":0.013079198717667218,"279":0.11748810870220552,"280":0.06710893425379447,"281":0.010998004353993748,"282":0.009269355020899012,"283":0.01578829433662457,"284":0.003090216606162766,"285":-0.015157704113141676,"286":-0.04776169745546508,"287":0.16004654913103178,"288":-0.005077037213095161,"289":-0.007901236707151937,"290":0.008523653644793528,"291":0.0028725106522246276,"292":-0.00025155383364470926,"293":-0.005736987713877971,"294":-0.004203500418414559,"295":0.052815429160625954,"296":0.02903494166160128,"297":-0.01178598060311499,"298":-0.04940745167646787,"299":0.00929676950479976,"300":-0.017729785330256126,"301":-0.04932180340882757,"302":-0.033417743558452305,"303":-0.14253838051610915,"304":0.0942600130831613,"305":0.020481360371676405,"306":0.00012010275384926816,"307":0.08968760781154303,"308":-0.01779913847777257,"309":0.003233615330240259,"310":-0.06172193455936258,"311":0.019363363366840757,"312":-0.010538714115619314,"313":0.09053675593515073,"314":0.01469075441044428,"315":-0.021429798152275678,"316":0.06654348553621839,"317":0.04907703609561004,"318":0.00392368896305845,"319":0.059918540257665936,"320":0.009322474006939804,"321":0.1280234620633688,"322":-0.019571664082681826,"323":-0.00217038357267809,"324":0.004116548227966129,"325":0.038084961750929375,"326":0.022803241170813213,"327":-0.04900123654101669,"328":0.031251443527546933,"329":-0.004001130053856598,"330":0.04449613037590619,"331":-0.0627804889965024,"332":0.02683831148347321,"333":0.009445004652611897,"334":-0.00781550399997349,"335":-0.18732708026904987,"336":-0.013978593695257422,"337":0.06947475249849869,"338":0.0034747829904379756,"339":-0.013976833639044194,"340":-0.02369398680412897,"341":0.059708402914140306,"342":0.01682049974920331,"343":0.017209283330688382,"344":0.02178875107161209,"345":-0.010032061028652934,"346":-0.04542386636615358,"347":-0.012350514386188905,"348":-0.04156288020317259,"349":0.027761453523791318,"350":-0.09717386832060519,"351":-0.054389339922667305,"352":0.052760443416866865,"353":0.0012635670277127103,"354":-0.07059292293105501,"355":-0.06651546541685083,"356":0.007498577062697432,"357":-0.038479843495677554,"358":-0.032086872543499144,"359":-0.059116523410997344,"360":-0.024435071079770245,"361":0.036023147008734636,"362":-0.024168307652792986,"363":0.005444296541962957,"364":-0.0015124984878157818,"365":0.019622988346237758,"366":0.005939844236434063,"367":0.028397411714870043,"368":-0.022916731056347672,"369":-0.00513439330077391,"370":0.027956830808691865,"371":0.06348314015500743,"372":-0.006872772105586262,"373":-0.014842361465927068,"374":-0.06526725991951067,"375":-0.03492016969193244,"376":-0.03563924388265055,"377":-0.02310117073918321,"378":-0.0511058618197372,"379":-0.049436200785398524,"380":-0.11096248010682062,"381":-0.05279892149988631,"382":-0.059631291117222054,"383":-0.06298575235470244,"384":0.007954080924650022,"385":-0.07579541158221445,"386":-0.07176611914069397,"387":-0.02977171521222769,"388":0.03187377017091984,"389":-0.011289141930064235,"390":0.01962984259645152,"391":-0.03449804113040512,"392":0.012722879557888771,"393":0.03883853316724681,"394":0.005520224996341995,"395":0.015596821224877641,"396":-0.01189545553333333,"397":-0.12612236413526723,"398":-0.042151437246144556,"399":-0.016579008535870996,"400":-0.010707193543061938,"401":0.032636785384936834,"402":-0.049578647862396255,"403":-0.012658319916161257,"404":0.006773219328532073,"405":-0.011318988593022543,"406":-0.007849605505371353,"407":0.02919954835401074,"408":-0.0014312005890157397,"409":0.025298253635544735,"410":-0.055725051051452694,"411":0.007119033273386409,"412":-0.10817740107158597,"413":-0.05071419566008895,"414":-0.01726487878827142,"415":-0.016507420674995776,"416":-0.007871842165724464,"417":0.06826691315166936,"418":-0.00900368724731464,"419":-0.012613675761656026,"420":0.018431059135523044,"421":-0.044961995609510384,"422":-0.09782565883895668,"423":0.007796187915699356,"424":-0.009228401699957785,"425":0.009840553071103656,"426":-0.06677809220078498,"427":0.028801593469957545,"428":-0.009741520627446883,"429":0.011577942205870995,"430":-0.11869080736297755,"431":-0.0356822629708031,"432":0.008029993023521724,"433":-0.043905706196316674,"434":-0.04785275988660829,"435":0.0086548260668263,"436":-0.022834339224667526,"437":-0.07972484218467729,"438":-0.00891484713611957,"439":0.036887504653680854,"440":-0.04184393171752421,"441":0.08755216375735846,"442":-0.02193887315653119,"443":-0.067040937864145,"444":-0.07206382458893473,"445":-0.16011253097041528,"446":0.10130738217870493,"447":0.07890452044373121,"448":0.1254993223543587,"449":0.022676994189481797,"450":-0.1181546634590911,"451":-0.07074253930057628,"452":-0.016512559633779962,"453":0.014743417871235747,"454":-0.2116768120016043,"455":0.006794795144907775,"456":-0.008443218622332823,"457":-0.0699430040127039,"458":-0.038835512928469394,"459":-0.02174015182146415,"460":-0.03070063557242598,"461":-0.13977791477265675,"462":-0.014405394630476843,"463":0.014609766029148529,"464":0.00561587839068296,"465":0.005421329474790798,"466":0.014657219962153538,"467":-0.04512091362741557,"468":-0.0415823562919251,"469":-0.11918648953356509,"470":0.11388546058480757,"471":-0.02519574823366112,"472":0.1767641917327975,"473":-0.006145508603915062,"474":-0.08340071383366064,"475":-0.02693279121462377,"476":-0.0693743428814639,"477":-0.03801533214699063,"478":-0.06964307185628674,"479":0.11457287336033237,"480":0.015799280961631083,"481":-0.021591971921624604,"482":-0.07406680419224891,"483":0.008612208088020422,"484":0.026253780962630414,"485":-0.00795538198878691,"486":0.003813793420817434,"487":0.022850262511889582,"488":-0.0033085697473856047,"489":-0.06878587690232375,"490":0.11365093679338224,"491":0.03515920986618754,"492":-0.00787652874898261,"493":-0.019604599535320393,"494":-0.06450980133563466,"495":0.08540325904945069,"496":0.03169900006124543,"497":0.0007237077738992843,"498":-0.013741390913605659,"499":0.028932153734276718,"500":0.01064301081193652,"501":-0.02324396428277776,"502":-0.04793679242868298,"503":-0.03752151304854432,"504":0.015162518706935916,"505":-0.03446081510029367,"506":-0.03909048912809699,"507":0.0051806615833212555,"508":-0.006391058456602542,"509":-0.02922107770915762,"510":0.04991910461971109,"511":0.0333191193836812,"512":-0.06335930733049673,"513":-0.05195084238012171,"514":0.03821046562090943,"515":0.008125917233927029,"516":-0.06656885334175781,"517":0.03891180231363774,"518":-0.047163568994622124,"519":0.06920452657632557,"520":-0.07293594339415171,"521":0.021898937438480835,"522":0.02936461915917417,"523":-0.03938519928583612,"524":-0.00034888418678866157,"525":-0.012082027856523623,"526":-0.01756137705244182,"527":-0.03871008504937267,"528":0.02820807034289151,"529":-0.030004525582225734,"530":-0.025805492516931768,"531":0.07063354777916568,"532":-0.04047975661894713,"533":0.028454144557726442,"534":0.010885525768796287,"535":0.019616089515196465,"536":0.02680963716022245,"537":0.0357438099345629,"538":0.03186091824039981,"539":0.030845942039048845,"540":0.0024272083111714195,"541":0.11133142509774918,"542":-0.09648992841283667,"543":0.044830816203177984,"544":-0.10248460263934231,"545":0.0374487879254619,"546":-0.094064687568097,"547":0.010970682902710936,"548":-0.020844814220615453,"549":0.09936730015370966,"550":-0.03995817432899193,"551":-0.07107291858107326,"552":0.010404046455060604,"553":0.006280857778453796,"554":-0.022892262485040383,"555":0.02481575625428259,"556":-0.07553191189914106,"557":-0.035995364134240364,"558":-0.0284976314260681,"559":-0.018747417955486446,"560":-0.04436098906097396,"561":0.08022811269073686,"562":0.04793755816741448,"563":0.0522847444826274,"564":-0.057261030067185525,"565":0.05171559511374539,"566":-0.11997094417598278,"567":0.09060299517358775,"568":-0.15865170983270516,"569":0.03999505953328109,"570":0.006340454544260231,"571":0.09032734601754298,"572":-0.043896287325428926,"573":0.004826003506632302,"574":-0.1785062088652806,"575":0.03222162532667027,"576":0.008415258790668201,"577":-0.006719044821906223,"578":-0.03192552019991343,"579":-0.009299136233017221,"580":-0.13372640449924925,"581":-0.08748903419426063,"582":-0.0013908472874134,"583":0.000576785323653233,"584":-0.044929366395848915,"585":0.10428892322856156,"586":-0.013422327123644268,"587":0.036055348830813565,"588":-0.0002281714713962057,"589":-0.027963569788612832,"590":-0.10093273897241306,"591":0.0789067709460015,"592":-0.11209255383348825,"593":0.004894194906779193,"594":-0.10170203885262293,"595":-0.017538846931267633,"596":-0.016924230441634897,"597":-0.04730965744261007,"598":-0.06945525250352724,"599":0.08240153868220768}},{"sx":5,"sy":5,"depth":24,"w":{"0":-0.007030900672041298,"1":-0.02861890214616246,"2":-0.010169562565551874,"3":0.017476284148360846,"4":0.08095191808993704,"5":0.0670026034177874,"6":0.009469545097493275,"7":-0.007260506642286259,"8":-0.004721912748578964,"9":-0.023893472188575807,"10":0.018171978409615354,"11":0.003396400752143736,"12":0.012143706060822114,"13":0.016114572329439567,"14":-0.06708060916489376,"15":-0.005818146979016034,"16":0.002857714133711122,"17":0.006435233998096824,"18":-0.01038467961119039,"19":0.00461672924475417,"20":0.05666964932303451,"21":-0.01146524628371669,"22":0.04101765643890392,"23":0.012113160588612658,"24":0.010661775485652548,"25":0.005466917946681026,"26":0.010289824757107198,"27":0.0010627789935479701,"28":0.05697114342528284,"29":-0.013938013136441932,"30":0.022795515091666593,"31":-0.010511104833821259,"32":-0.0050234276535760175,"33":-0.06492257532584697,"34":-0.01612060309075288,"35":-0.02172819394622411,"36":0.00429392793966793,"37":-0.06592382307309125,"38":-0.016367878050567226,"39":0.015007666857663061,"40":0.011947812859035128,"41":0.0037062614117934108,"42":0.04882996875278012,"43":0.018681590232119915,"44":-0.0019010103272895068,"45":0.0029310231164812084,"46":0.04484596904630553,"47":0.0062150868699482305,"48":0.012539128422169374,"49":-0.006497104464828271,"50":-0.009922264699617205,"51":0.002850625072878607,"52":-0.09033516789677078,"53":-0.023855508175451783,"54":0.009742734590798397,"55":0.029786515209105344,"56":-0.01187461781728131,"57":-0.09837744100756324,"58":-0.010106307757574585,"59":0.021002180218741354,"60":0.010976504595127487,"61":-0.00034864425473004473,"62":0.0009169243374682947,"63":0.02912630270565535,"64":0.02767988895106373,"65":-0.011686944835889801,"66":0.019455267239861074,"67":0.00400896552510247,"68":0.014196105923245605,"69":-0.00028416249110364166,"70":-0.02391802204490308,"71":0.005378812779021953,"72":0.007899314938841892,"73":0.014779756369742469,"74":-0.0013590765039548731,"75":-0.02311675043562255,"76":-0.028863473361278407,"77":0.03672041153949728,"78":0.000203873918282192,"79":-0.0037398658573322315,"80":-0.012147680432640421,"81":-0.07869926700741692,"82":0.014239316809025212,"83":0.006311719951234866,"84":-0.003137110927465856,"85":0.06172346667100553,"86":0.0006064455962197795,"87":0.04456971977129451,"88":0.01609758519901362,"89":-0.026882434776126726,"90":0.00667768395985246,"91":0.0008901271185212103,"92":0.013262984485943843,"93":0.021559570391683516,"94":0.03994190321090338,"95":0.046452042958998144,"96":0.00126940816293403,"97":-0.002995746534551447,"98":-0.00521077059277734,"99":0.00004000351220823014,"100":-0.03828748279432337,"101":-0.019450357905949036,"102":0.015190640334703194,"103":-0.05316392488799753,"104":-0.008990749168899434,"105":-0.041495765798929,"106":-0.01898710730007298,"107":0.013954084994417342,"108":0.007270482457314861,"109":0.025105388048879324,"110":0.023632940254793733,"111":0.01147572958878103,"112":0.09219415398163061,"113":0.019586443263816554,"114":0.021035218019195355,"115":-0.0264214674785499,"116":0.007549843440204561,"117":-0.025510937085432842,"118":0.17250137384842257,"119":-0.010262171162464435,"120":0.003972526100016414,"121":0.005249058851875989,"122":0.012113594813195589,"123":0.0016913373696459718,"124":0.021701876649470975,"125":-0.0699579851693041,"126":-0.004118793882141378,"127":0.011014470162523457,"128":0.01464095573477926,"129":-0.021354448910272713,"130":-0.01269401925081271,"131":0.020216115381675694,"132":0.0054076675841000935,"133":0.0054079632970033395,"134":0.06396208431738874,"135":0.017737361652035516,"136":0.04106668556584653,"137":0.02503372424704432,"138":0.021839144103415323,"139":0.035950963586730965,"140":0.0008239164231644129,"141":-0.005710064974954847,"142":-0.0016697938592601875,"143":-0.03917671450438477,"144":-0.010492784835802944,"145":-0.020100656950035548,"146":-0.0013633803913748507,"147":-0.0017367539777591455,"148":-0.021037569507207865,"149":0.005553205483329,"150":-0.003901185655241831,"151":-0.03305597757106755,"152":0.008414911564131296,"153":-0.03164315392323256,"154":0.01024914047862126,"155":-0.012508309973374787,"156":0.025991350277673395,"157":0.034099041043380844,"158":0.035939209610153164,"159":0.037336865389110754,"160":-0.012185551117272986,"161":0.004218630090435866,"162":0.012427397950940665,"163":0.01130569045702025,"164":0.02943830521745003,"165":0.02790437439281966,"166":-0.00033082861979823457,"167":0.023751391311926093,"168":0.013025396330946777,"169":-0.0019491632978792756,"170":0.016123501218261088,"171":0.023338144836868153,"172":0.07311060283154765,"173":-0.05696572737957965,"174":0.014252563136355525,"175":0.029485969542298752,"176":-0.008582309602645067,"177":-0.018523752583561814,"178":0.004688442875372068,"179":-0.015488363901604671,"180":-0.004299621562901806,"181":0.054545497905492485,"182":0.06093200872355014,"183":-0.027095030180733323,"184":-0.020198388446742058,"185":-0.012002508426843342,"186":-0.007269678056923109,"187":0.03775297300472495,"188":0.00005713070890067108,"189":0.03261836374538334,"190":-0.053479237572780045,"191":0.0314919941465707,"192":-0.010857402387328055,"193":0.0025125588305090684,"194":0.029205724716799,"195":0.004970263582267105,"196":0.012682603305864442,"197":0.03517326603667656,"198":-0.001460192956078207,"199":0.0013165073547931525,"200":0.0012746419119605442,"201":-0.009799075652087782,"202":0.015761801621739176,"203":0.030726847329489427,"204":-0.017402434157420873,"205":-0.04015509646991759,"206":0.05997518508867164,"207":-0.021726275097528048,"208":0.06659655741997438,"209":-0.013587678790347944,"210":-0.004107062308736904,"211":-0.00216036638381088,"212":0.020547202363245427,"213":0.014501517717617355,"214":0.05150966398905632,"215":0.03332329739854286,"216":-0.007357824903440963,"217":-0.006589036984757784,"218":0.02315904059973101,"219":-0.025638607618111715,"220":0.028167229762362397,"221":0.16862740512946583,"222":-0.018171318535052116,"223":-0.01813244469044995,"224":-0.016997535145812568,"225":-0.009966882143730673,"226":-0.009012393610230702,"227":0.008657981827810675,"228":0.005367405197406341,"229":-0.005046661534042055,"230":0.07126692892233348,"231":-0.04374638287978582,"232":0.05936817365884454,"233":0.0023035579901043487,"234":0.029255297124106173,"235":0.026370361421438004,"236":0.004302184492635544,"237":0.020642104805068315,"238":0.08385688872400823,"239":0.08048473157967675,"240":-0.000611128937105284,"241":-0.038374786324391244,"242":0.005487860369355539,"243":0.013033756769805416,"244":-0.022858601786266815,"245":-0.013775126630992613,"246":0.005524183189224438,"247":-0.006927253698728812,"248":-0.010469877550115369,"249":-0.015416423981407206,"250":-0.00863016023369214,"251":0.0009511598534722998,"252":0.033354410710044635,"253":-0.10211092135247911,"254":0.015784420808448746,"255":0.09423853714302713,"256":0.0047679539904803975,"257":0.0019580020072434133,"258":0.00954233817395988,"259":-0.009952898020821803,"260":-0.016077092521096664,"261":0.014606006330242963,"262":-0.03178996608623443,"263":0.03361360966985377,"264":-0.013434271502871659,"265":-0.02984636123137717,"266":-0.010668942944412235,"267":-0.017796812605276238,"268":-0.005086840962674902,"269":-0.009378719143714676,"270":-0.009518455620812964,"271":-0.015100100869630418,"272":-0.008532634675125515,"273":-0.006530476917434921,"274":0.0011743056914680465,"275":-0.0007059542472229364,"276":0.001666169396672627,"277":-0.09165041472078732,"278":0.07404049659355533,"279":0.022150784220580394,"280":-0.00012563295862970793,"281":-0.005680771968457031,"282":-0.02550218851474837,"283":-0.061348736039358476,"284":0.002271264389664254,"285":-0.01680212802201353,"286":-0.014617098674402322,"287":-0.02655313330696813,"288":0.0033287055639815532,"289":-0.032640792875983024,"290":-0.03893199078558328,"291":-0.02463528266925828,"292":-0.05055583046370291,"293":-0.09013025654466779,"294":0.004176697325994138,"295":-0.0055659045439457695,"296":0.004383700099523387,"297":-0.028435306537513912,"298":-0.0028590998576123357,"299":0.013383841536528666,"300":-0.004151028938072926,"301":-0.09452664475645683,"302":0.060072047898040125,"303":0.04811581420950716,"304":-0.05611463420602514,"305":-0.0012834952657424454,"306":0.025328178871706727,"307":-0.010452462505529683,"308":-0.003276905032698136,"309":0.0072620238766937725,"310":-0.020070613195614345,"311":0.01163188734407539,"312":-0.01190816152746926,"313":-0.012611287336417764,"314":0.006515450206532858,"315":-0.001296341919110479,"316":0.01681052652581438,"317":-0.07817434214290456,"318":0.0031890344618046513,"319":0.03479617079940709,"320":0.029887560470677636,"321":0.010191299464562277,"322":0.006408718567787985,"323":0.008818569497662306,"324":0.009380777910776322,"325":-0.07848088891793545,"326":0.03945620337001893,"327":0.0133216025013724,"328":0.019040481436242724,"329":-0.004343219416813006,"330":0.013814985615024401,"331":-0.01602643385015693,"332":-0.02089619975794162,"333":-0.011113462512482679,"334":0.01687829084312778,"335":0.005815829345339479,"336":0.010331344917756276,"337":-0.02939686307897962,"338":-0.015762012076511324,"339":0.010507475608289237,"340":-0.020013867080538573,"341":-0.11963074058501023,"342":-0.005027743201747295,"343":-0.02931578858648437,"344":-0.028442286917815446,"345":-0.005141613506050863,"346":-0.005900135465561301,"347":-0.034246859703597955,"348":-0.02304559832169549,"349":-0.03824434795622187,"350":0.08049823750168186,"351":0.11961897867994542,"352":0.021831351442898838,"353":0.005496871639327146,"354":-0.0014362215757779886,"355":-0.034460324486202676,"356":0.001566798967716832,"357":-0.011429502078208007,"358":-0.08641660710706195,"359":0.02293161198633567,"360":-0.03512048713585204,"361":0.008670322467653485,"362":-0.02946523807384686,"363":-0.02024047780230413,"364":-0.0487523966344556,"365":-0.07619572206338325,"366":0.0009733926302907293,"367":0.032282886432295654,"368":-0.0008896208229396258,"369":0.013330406473999891,"370":-0.007662433415803011,"371":0.005626374645343692,"372":0.025868021802491023,"373":-0.02560967849678087,"374":0.001945958619010755,"375":-0.02553371610984973,"376":0.031139112012962343,"377":-0.01692099601282889,"378":0.008937176122257808,"379":0.04175738432711878,"380":0.03802468399660878,"381":-0.013046250663851034,"382":0.0214155536861561,"383":-0.025834895531676186,"384":-0.02357937876445402,"385":-0.023764171360875542,"386":0.005861194489616643,"387":0.039274184864567414,"388":-0.02757064816433171,"389":-0.05350582452975062,"390":0.002598212571920562,"391":0.005189156959452925,"392":-0.022986911042655805,"393":-0.016223737880611405,"394":0.0054747883548195994,"395":0.005264502475504695,"396":-0.007583284857419461,"397":0.018272628554893897,"398":0.04527484404843762,"399":0.05558578285674218,"400":0.0320261772737628,"401":-0.020192213868759513,"402":-0.006555833901529736,"403":0.008349785258867036,"404":-0.03196040730303883,"405":-0.0076774200170210615,"406":0.006387298579908058,"407":0.011802661417415533,"408":-0.02580262365253923,"409":-0.003269698851140644,"410":0.01678573039056813,"411":-0.03319339396244296,"412":-0.007297878788882488,"413":-0.01196504058943839,"414":-0.026678134860359005,"415":0.04080708036498021,"416":-0.020946784623333697,"417":-0.015967162217939115,"418":0.012549661035657501,"419":0.0039001109343835836,"420":0.02458832749434067,"421":-0.0894456111034677,"422":-0.022050981976565773,"423":0.03350216864168868,"424":-0.00106979286726029,"425":-0.025284108161456365,"426":-0.013662759031150969,"427":-0.008155890089546975,"428":0.0070360748951889766,"429":-0.03896157426952496,"430":-0.07048657998204712,"431":-0.020517282511051206,"432":-0.006488267020011153,"433":-0.020916959154364503,"434":0.023894231884562234,"435":-0.01410379349117575,"436":-0.013176816215513198,"437":-0.012149395076881689,"438":-0.00014367227607852795,"439":0.036092642827659574,"440":-0.009516973399297076,"441":-0.005778367518214876,"442":0.04008447507683656,"443":0.0005301780851959613,"444":0.03444391899812044,"445":-0.007410751231137281,"446":-0.012048279655946844,"447":0.0047666547365454144,"448":0.04249453904720961,"449":0.004560122539616546,"450":-0.009679024926140726,"451":-0.026331451335691175,"452":0.0034348607740075253,"453":-0.013015340017773245,"454":0.05086684960807669,"455":0.004062460331120025,"456":-0.02526738002701404,"457":0.010119408535446968,"458":0.01711106262077711,"459":-0.019223234877020334,"460":0.002481533641003193,"461":0.039285138412501065,"462":0.009879306885739542,"463":-0.014670711662687077,"464":-0.006224979901820551,"465":-0.010660799618054348,"466":-0.017124715082147905,"467":0.006007523602536055,"468":0.00995286469674921,"469":0.021702546888366613,"470":-0.05517793025845229,"471":0.013819517460692125,"472":0.013532574311425528,"473":0.008294430979494068,"474":-0.01507793202421734,"475":-0.009474217471850423,"476":-0.05296239477818223,"477":0.0041867604339040285,"478":0.12924624738237114,"479":-0.015403091041243972,"480":-0.008805379332129543,"481":0.0023260549200894744,"482":-0.00022774401831960302,"483":0.019049391800912727,"484":-0.034092626940256776,"485":-0.032688503771275655,"486":-0.00047105212643316604,"487":0.02411992584494568,"488":0.019458829684008604,"489":0.004014745910666747,"490":-0.005087174568664595,"491":0.0017908235673350858,"492":0.01033991511253963,"493":-0.0897493849860266,"494":-0.04369592953957771,"495":-0.03836408228702609,"496":-0.04261933713474517,"497":0.013019017927855502,"498":-0.013159825488340007,"499":0.02733307437598858,"500":0.0011411754971085305,"501":0.014255427324937484,"502":-0.005229867945216328,"503":-0.006744620583708994,"504":-0.005212855910959252,"505":-0.035819389171601816,"506":-0.014279371649182093,"507":0.02098216965033385,"508":-0.054800422659777234,"509":-0.022670684142877137,"510":0.0013981102881132368,"511":0.017691076149145304,"512":0.010973561259519786,"513":-0.010660489571240914,"514":-0.006478279763309878,"515":0.009577335020632804,"516":-0.0039285680543262175,"517":-0.03597883798334439,"518":-0.005595934659330231,"519":-0.04419771680725403,"520":-0.06738395106373735,"521":0.006792455223629943,"522":0.0013179391912083568,"523":0.031913128336007734,"524":-0.0004109895988288964,"525":0.013423177429553684,"526":0.05066040448993208,"527":0.036029339251507884,"528":-0.01181861003279526,"529":-0.004268080729293709,"530":-0.008923805357885332,"531":-0.011621769017169182,"532":-0.04955497734932738,"533":-0.01677439052441628,"534":0.007731355294104952,"535":0.004134555234090792,"536":-0.005745957122298635,"537":-0.0028434605252876566,"538":0.00036793236014304143,"539":-0.02933781234911266,"540":-0.012761590930710663,"541":-0.0996626198455439,"542":0.01493093881653605,"543":-0.03135356551727784,"544":-0.014909389732851793,"545":0.002300963628696357,"546":-0.04016964082098533,"547":-0.02311427411967388,"548":-0.019233095939798828,"549":-0.016678910896112686,"550":-0.01713522661838672,"551":0.0203956333077303,"552":0.005906704099040628,"553":0.008372140376504213,"554":-0.012420101009430501,"555":-0.03439545080654441,"556":-0.03579134874819323,"557":0.010492556487994943,"558":-0.018369043588361594,"559":-0.021194673786112294,"560":0.0027002648077871488,"561":-0.01821327522028047,"562":-0.002555235579644877,"563":-0.013046110387997486,"564":-0.006148938417814437,"565":0.04653735342768341,"566":0.03469527646864963,"567":0.04584547132404773,"568":-0.016624687705758392,"569":-0.012763028902943322,"570":-0.03123696551831051,"571":0.0019212328247196137,"572":-0.01679963895123413,"573":0.008419890792012445,"574":-0.001210011761430994,"575":0.02328411257335697,"576":-0.010683623688549821,"577":-0.003476440323149428,"578":-0.03135906964288371,"579":-0.018750991076755298,"580":0.051435745724644495,"581":0.06674585858686637,"582":-0.009014299773224248,"583":-0.03351591086232685,"584":-0.009747544127074495,"585":-0.023147886101260028,"586":0.03202537411792734,"587":-0.029434100491860023,"588":-0.0021587943475623638,"589":0.08344071827636144,"590":-0.047016891211166215,"591":-0.09184694396019077,"592":0.02025735626383704,"593":0.014947900484193182,"594":-0.034002263735085254,"595":0.007502460499262102,"596":-0.038779336733148,"597":-0.0073182515626309804,"598":0.1600524906189439,"599":-0.035891338233009676}},{"sx":5,"sy":5,"depth":24,"w":{"0":0.008807017694472508,"1":-0.009844603982149635,"2":0.006045808374007612,"3":-0.010085405458882429,"4":-0.005468146133763996,"5":-0.003094170606370105,"6":-0.00916572256908143,"7":0.007525908698089289,"8":-0.009267927440032346,"9":-0.005609874342933321,"10":-0.007134677194302338,"11":-0.009804462414911837,"12":-0.006016565377342039,"13":-0.011308183680369361,"14":-0.003386947572281115,"15":-0.002907923411386894,"16":-0.001927672316003977,"17":0.012694595164289928,"18":-0.005930190501963211,"19":-0.01017049515418025,"20":0.012547388052839628,"21":0.004987149706696682,"22":0.0011537689047300282,"23":0.0019918211791846666,"24":-0.0020821280522455047,"25":-0.025467605979159817,"26":-0.00640889888529065,"27":0.02456190536257497,"28":0.005238216823416229,"29":-0.017877152127024735,"30":0.00640166116374759,"31":0.005097343016406648,"32":-0.017162187423588524,"33":-0.0020401399670465325,"34":0.002376768881783709,"35":-0.004038251178527498,"36":0.0019324492638847868,"37":0.0019432853321752787,"38":-0.007839842887218153,"39":-0.028889564391788962,"40":0.0036510299405066397,"41":0.003854478791271814,"42":0.01015697198704888,"43":0.01272269288007414,"44":0.0014956372193613543,"45":-0.0017097233366274384,"46":-0.006821110425771226,"47":0.014727276651167617,"48":0.009884206823274323,"49":-0.007864764428309327,"50":-0.00030346001687419364,"51":0.00046331872534984225,"52":-0.016841753236822105,"53":-0.02328717154817986,"54":-0.014579725099687867,"55":0.004949830748063967,"56":0.016762304785958318,"57":0.01589422343095356,"58":0.007117577737141485,"59":0.013416890920190525,"60":0.010949963966832992,"61":0.012345861754530674,"62":-0.02882598808889725,"63":-0.034268013240956456,"64":-0.006480826054875216,"65":0.001760904037034558,"66":0.02861562902279727,"67":0.010149370997703336,"68":0.0022161416496911286,"69":0.013921193047686554,"70":0.009153354465405711,"71":0.0020270159853067256,"72":-0.015014840608083205,"73":-0.013543268202548062,"74":-0.015825694600424253,"75":0.006061011592642719,"76":-0.037549194610158605,"77":0.0032412631353275576,"78":0.010858182280186682,"79":-0.005931773786038072,"80":0.0075184963875551715,"81":0.0068525187028295655,"82":-0.01093212759259656,"83":0.012127496968830013,"84":-0.005811082150258581,"85":-0.019654865947842767,"86":-0.013887201338692033,"87":0.013254516889275496,"88":0.0025950409985666494,"89":-0.011609761915192217,"90":0.005547124690393454,"91":0.0031151188954262363,"92":-0.0017450192644534867,"93":-0.00048129978003274497,"94":0.0010063251903387714,"95":-0.01628002447630481,"96":-0.00369361891846576,"97":-0.0032472568240938552,"98":-0.016011037940591517,"99":-0.01954798325481371,"100":-0.006357998243216236,"101":-0.0025662469437992986,"102":0.018762931260158298,"103":0.003629312359792593,"104":0.011670494554985054,"105":0.005507322516385884,"106":0.00824796914477666,"107":0.004711475187882278,"108":-0.0113594066859467,"109":-0.0006302685255702529,"110":-0.021585572624884194,"111":-0.00527413843292994,"112":0.003924587742294008,"113":0.0027101513407820433,"114":-0.009291413783004836,"115":0.007533223539165481,"116":0.0024338555731109116,"117":0.011292481066742265,"118":0.009452484390150942,"119":-0.026310792432760865,"120":0.000059443871162812366,"121":-0.009148174233836754,"122":-0.0019063708641758714,"123":-0.013986835259437714,"124":-0.01167173592051861,"125":0.016939211314316877,"126":0.016462401457542204,"127":-0.007886330439288809,"128":-0.011813331968577343,"129":-0.008694844167096477,"130":-0.007205827104881516,"131":-0.006648144954241746,"132":0.010404655716575253,"133":-0.02216829922309636,"134":-0.011198357823373892,"135":0.0024573627726476644,"136":0.01123331761572829,"137":-0.0026720904381277535,"138":-0.0035148032479367783,"139":-0.006090155241746981,"140":-0.022274183456733074,"141":0.0031757704036831395,"142":0.007987820501306217,"143":0.004573738477912949,"144":0.0051375535292165625,"145":0.004808222926697105,"146":0.011276809898878477,"147":-0.00039384468828810985,"148":-0.0012129645612435082,"149":0.0063903061910541275,"150":-0.007838710006687673,"151":0.013939504724705709,"152":0.0092095583249958,"153":0.01523538753180342,"154":0.004353518204234263,"155":0.008952214161728774,"156":0.010953270834965289,"157":-0.03449407429257356,"158":-0.009808089883998946,"159":-0.005292190091994228,"160":0.004125241633735718,"161":0.026290884737241463,"162":-0.018983299463984256,"163":0.010881171271601212,"164":-0.028421146872859814,"165":-0.014754960828465448,"166":-0.005758262900000288,"167":-0.0031127220697787063,"168":0.015161336515429613,"169":-0.004950291098293294,"170":0.004024830135517006,"171":0.003793792664371949,"172":-0.008016519160637881,"173":0.007371779362482229,"174":0.009882000524267876,"175":-0.014732886120921109,"176":0.009474079745080279,"177":0.009682699964660835,"178":0.020339612726031717,"179":-0.0008670933970366662,"180":0.002924055797763104,"181":-0.026702047032142833,"182":-0.007990291983436213,"183":0.0019809432948867107,"184":-0.02207706506373631,"185":-0.00019753812625734727,"186":0.014049945509307604,"187":-0.013260938990341933,"188":0.0016627536241016164,"189":0.011196119675046343,"190":0.013237118652960523,"191":-0.012125714942223456,"192":-0.027231810212879855,"193":0.011670592010924201,"194":-0.006809371175504384,"195":0.035787262098127166,"196":0.009629595820846886,"197":-0.010929108268994929,"198":0.029093228677480164,"199":0.002556593218350118,"200":0.002395583725250651,"201":0.004673301960744176,"202":0.002387663416348824,"203":-0.001375686145834412,"204":-0.008953532894641023,"205":-0.018236402748911303,"206":0.020996850229502765,"207":-0.003255187653246622,"208":0.00688415850714748,"209":-0.0004895071639449279,"210":0.011872904439498684,"211":-0.0024994769090781084,"212":0.0018209792715790597,"213":-0.0006005849981615491,"214":-0.014746794440119568,"215":0.01855681057360989,"216":0.002827099867289526,"217":0.006821987633825566,"218":-0.003933159104394069,"219":0.0014628679563397304,"220":-0.00772375627236974,"221":-0.008495131046416209,"222":0.010555148613668495,"223":-0.014390381801949867,"224":0.013389785948199657,"225":-0.01863585815126492,"226":0.010753649559804629,"227":0.029848438365921427,"228":-0.020142794698648308,"229":-0.001485938565416437,"230":0.017405161082679452,"231":-0.0029859585724403338,"232":0.01153945400947559,"233":0.007647799971286961,"234":-0.003962592443448986,"235":-0.003926669841425857,"236":0.018048547776406135,"237":0.017281321645811823,"238":-0.011242188183957082,"239":-0.02516074412389282,"240":-0.0030108921118036963,"241":-0.006053087317916045,"242":0.01243336167419437,"243":-0.0031055034095326677,"244":0.003934698488357192,"245":-0.010918183814702598,"246":-0.006655956871948195,"247":0.006281188180129293,"248":0.004295025563176809,"249":0.002357192570865615,"250":-0.009086029795465555,"251":0.0007540499796870755,"252":-0.007844125750929552,"253":-0.02829110850786292,"254":-0.024591135762364977,"255":-0.0012506260721709683,"256":0.009347758724810272,"257":0.0006013102160912699,"258":-0.0025364318204901377,"259":0.0040195057253439494,"260":0.005812302225224592,"261":-0.0012936699780278429,"262":-0.011923773469473818,"263":0.0020070673034844363,"264":-0.007077418722389297,"265":-0.011432969093909931,"266":-0.004602772133423454,"267":-0.011561121183701438,"268":-0.019404742020251744,"269":-0.04389715357297369,"270":0.0029088076538620945,"271":0.006284740858422407,"272":0.0008522467192425768,"273":-0.007360836072094541,"274":0.0020379743830367383,"275":0.0024890119250589723,"276":-0.00404010275417833,"277":-0.0034457708536541295,"278":0.032527428856749904,"279":-0.005409900098563461,"280":0.00040729014401429293,"281":-0.0290756717595587,"282":-0.00011603535239061484,"283":-0.00219879522664401,"284":0.005591144525237104,"285":0.011566159911497814,"286":-0.014159464829558717,"287":-0.026512369613854714,"288":-0.016900139810357834,"289":-0.022163043232104062,"290":0.011153552508209666,"291":0.01974566608030901,"292":0.0027908667270831766,"293":-0.010983411040302688,"294":-0.003148483940578497,"295":0.001785793165430736,"296":-0.015427547618738026,"297":-0.010848537377791307,"298":0.013967233660988683,"299":-0.006744527147936025,"300":0.012732417778775627,"301":0.0015149076306001934,"302":-0.010247958804909875,"303":-0.000040736641588073614,"304":-0.017755510815638403,"305":-0.009734177424049256,"306":-0.010428274903950915,"307":0.016308963047491718,"308":0.0029730286157452087,"309":-0.008893953168517705,"310":-0.0013762705656861275,"311":-0.0019342568781492433,"312":0.014204445839626099,"313":0.005831886315707373,"314":-0.011863121593451187,"315":0.012588279707016403,"316":0.007991947946205063,"317":0.006913644429721082,"318":-0.012943859373857504,"319":-0.00971390304017824,"320":-0.004472555696139186,"321":-0.001241364031413305,"322":0.006281794219772631,"323":-0.024198493314474434,"324":0.010315382466811572,"325":-0.013702301439642347,"326":-0.0003986653322247616,"327":-0.017335028185924396,"328":-0.024575367792998987,"329":-0.006055437394273521,"330":-0.010126590515288282,"331":-0.023487330998745004,"332":0.006541113309549118,"333":0.005822898997989846,"334":-0.0018754851502522244,"335":-0.03133005771217824,"336":-0.013703855299214881,"337":0.008799724865403384,"338":-0.00852306132631475,"339":0.008287846159874017,"340":-0.004418859700056904,"341":0.015954989342364733,"342":-0.013313738719135939,"343":0.004356159392287862,"344":-0.005617099469513322,"345":-0.009216425448777956,"346":-0.005144557449341882,"347":-0.000549215905759968,"348":-0.0021612964395863726,"349":-0.011960857813978005,"350":-0.012102227533637823,"351":-0.014263188915708332,"352":-0.0037960695758092393,"353":-0.012825970158430523,"354":-0.009698013819036516,"355":0.010879745398409153,"356":-0.006482319008959055,"357":-0.0051933484728046595,"358":-0.03620190501715833,"359":-0.0137078112129268,"360":0.008122875007781681,"361":-0.0021198726047673947,"362":0.011210273543727315,"363":0.009364810040462085,"364":0.010592337851028604,"365":-0.0037912062485270597,"366":-0.006708148516675087,"367":0.015550616553330343,"368":-0.010174422918636858,"369":0.0008513263509093762,"370":0.00811264515823755,"371":0.0012554916261492413,"372":0.01156888044718059,"373":-0.01914904628981549,"374":-0.019130669564131602,"375":-0.013393694778746584,"376":-0.002321508816743309,"377":-0.007312501835898439,"378":0.005981040289578044,"379":0.009651132799428778,"380":-0.006894684913390165,"381":0.010412996141285146,"382":0.0030506575951925337,"383":0.0013900074588823364,"384":-0.0012804260248737366,"385":-0.00929062998065245,"386":0.005468134975339647,"387":-0.005600056708789617,"388":0.0017741364318398598,"389":-0.004508042769480537,"390":-0.003935773801068461,"391":0.0044385355314190125,"392":-0.02551021081615184,"393":-0.001929700109702731,"394":0.00525245464688345,"395":0.008699371583805487,"396":-0.016103033888674605,"397":0.009617538813605579,"398":-0.012418106600496167,"399":-0.00958533602050849,"400":0.004318518013029914,"401":0.000902509431916715,"402":-0.008077611951583961,"403":0.007599257710789549,"404":-0.0035824002816879064,"405":0.008864722262660546,"406":-0.018279249087606593,"407":0.01134526205620509,"408":0.002121786025572424,"409":-0.0012903356486512307,"410":-0.0018850889019353292,"411":0.006172863600379394,"412":-0.025998469730816168,"413":0.0074953613682350265,"414":-0.02596465166013841,"415":-0.003965986777701526,"416":-0.012891497491373274,"417":0.018478469831946294,"418":-0.0001797710285699337,"419":-0.008335365411320433,"420":-0.019961137170003876,"421":0.00054539808901968,"422":-0.018675321082806423,"423":0.00927485073451364,"424":-0.010235491308947091,"425":0.005216529844058471,"426":-0.012225976163530312,"427":0.0054917188825729865,"428":-0.01624336363200969,"429":-0.00335165728891947,"430":0.0027302574294393025,"431":0.025979287612431748,"432":0.005241002475388272,"433":0.004295593964853218,"434":0.00010247959827760539,"435":0.0001849635075221991,"436":-0.018373245763848352,"437":0.0013325120871980067,"438":-0.013341530699359372,"439":-0.009802901900808231,"440":-0.010965098240435437,"441":0.012145370370722492,"442":0.008826896131280714,"443":-0.013893256733976837,"444":-0.017305230872796003,"445":-0.0113059768461788,"446":0.007574612456702528,"447":-0.021230972636899156,"448":0.006575585451585265,"449":0.01395300392904218,"450":0.0017632874761849483,"451":0.006600844749780774,"452":-0.028532340752535974,"453":0.004768945628609239,"454":0.008086371195593528,"455":0.027989580729895602,"456":0.001388144702337412,"457":0.0009009247464780383,"458":-0.00619283426863841,"459":-0.009521605735344742,"460":-0.01243105200824896,"461":-0.00842549265531335,"462":0.01244933218445966,"463":0.00023570373872453757,"464":-0.0013177880530294594,"465":-0.005065558697929143,"466":-0.03131474028197315,"467":-0.005111422377659247,"468":-0.02235536485201752,"469":-0.020330112803075836,"470":-0.001217187985234035,"471":-0.008072038885985797,"472":0.0045507766505127984,"473":0.014452235168948151,"474":-0.018580435581083323,"475":-0.005212246450527442,"476":0.00436346334671262,"477":0.02352988059570466,"478":0.00003462617979884886,"479":0.001356448046995502,"480":0.0017599997331343644,"481":-0.01941437964380338,"482":-0.01326202909602036,"483":0.019671900090648602,"484":-0.017320893959711352,"485":-0.010736440454481399,"486":0.006361105667012505,"487":-0.0006078481924451929,"488":-0.014250435680331384,"489":-0.018701167296666096,"490":-0.020325613997628784,"491":-0.00863752991166341,"492":0.013521224556863422,"493":0.005362313050117289,"494":-0.01721107075201974,"495":-0.022021858491920107,"496":0.013023353718827395,"497":0.006520882826195202,"498":-0.0015967322156638906,"499":-0.00009087269658221227,"500":-0.010953973397563347,"501":-0.0006478170650528681,"502":-0.02774259576627355,"503":-0.0177774918187938,"504":0.0025063072243502195,"505":-0.013822629592116113,"506":-0.005603005489824569,"507":0.006050235809750236,"508":-0.021394784361961783,"509":-0.011683408039964876,"510":-0.0024087601563394447,"511":0.006887132579179697,"512":0.009794289016813187,"513":-0.016615199241989,"514":-0.014629612048129735,"515":0.0017858740807966305,"516":-0.013187379762530364,"517":0.01967587242400935,"518":-0.016141908632742064,"519":0.017076762336141593,"520":0.007300461165595488,"521":-0.010337827467964708,"522":-0.007918875143777884,"523":-0.009102936919358226,"524":-0.012748275807283013,"525":-0.002208447843439035,"526":0.006092261886927893,"527":0.032056938530087536,"528":0.017405639003481403,"529":0.022159243718494447,"530":0.006835118930638994,"531":-0.03163554752749821,"532":-0.010354909682541718,"533":-0.021039601089745102,"534":0.005913247459950485,"535":-0.00910795163748629,"536":-0.023352538823381504,"537":0.008670957300458698,"538":-0.003770799862488104,"539":-0.01819257724295009,"540":-0.007789592145170889,"541":-0.006343890301117699,"542":-0.005974626306308821,"543":-0.004719408559087052,"544":0.0033129425474520057,"545":-0.006172837359733791,"546":-0.02064134254893099,"547":-0.020271387064719447,"548":0.004568111392547008,"549":0.006341383984286253,"550":-0.003134087071165322,"551":-0.027527041000419607,"552":-0.006079482583324851,"553":0.0033917246398816347,"554":-0.021299647185975875,"555":-0.009255664049609475,"556":0.016561312334532723,"557":-0.015501155092036005,"558":0.016207517992631735,"559":-0.003281945708129971,"560":0.003926340035577988,"561":0.022574970717646338,"562":-0.0020726287719671265,"563":-0.0036362397177950403,"564":-0.01974351720575541,"565":-0.016113018146885833,"566":-0.0008786286148316874,"567":-0.012508484786750656,"568":-0.00011365217882022396,"569":-0.010772756140491896,"570":0.017685228177557813,"571":-0.01797989580149596,"572":-0.009504036191086349,"573":0.002769743549168423,"574":0.0013870255818692464,"575":-0.009005354925814653,"576":-0.0028008720069391383,"577":0.006929429163444044,"578":-0.028361233083783355,"579":0.0024024926815547337,"580":0.007314367423887863,"581":-0.007521890588770874,"582":-0.011386927393572962,"583":0.0021690579312429095,"584":-0.009059125304038976,"585":-0.003432079489480149,"586":0.002003836642011969,"587":0.013358839027329207,"588":-0.006346973945930135,"589":-0.014301865653515555,"590":0.00906820975456297,"591":0.004526978573360708,"592":-0.012623796962367472,"593":0.005612167470806687,"594":-0.01063025566963222,"595":0.00011283686764369886,"596":-0.000047820271099203964,"597":-0.007450530941301395,"598":0.007097891811719241,"599":0.002204862571173942}},{"sx":5,"sy":5,"depth":24,"w":{"0":-0.019628307244017176,"1":-0.017558934906633804,"2":-0.0018103555771757027,"3":-0.018835271556406002,"4":-0.0027366353213714575,"5":-0.011119656949125917,"6":0.007997724820339046,"7":-0.0021540567645575485,"8":-0.005573620408248154,"9":-0.0042708255190343795,"10":0.00901016249380014,"11":0.008894238849717637,"12":0.020776478790226535,"13":-0.02415408620584508,"14":-0.02664091128243349,"15":-0.020483081036666732,"16":0.02720384177455401,"17":0.0009770909386211158,"18":0.0052612971972572035,"19":-0.0103413679543346,"20":0.0007235343822794565,"21":-0.005181625260089036,"22":-0.016043839130322913,"23":-0.00914841347025369,"24":0.0021873758372762614,"25":-0.008137437154019548,"26":0.005649371001250114,"27":-0.004015579686642324,"28":-0.00447126169744819,"29":-0.012611539840949192,"30":-0.008610927235970251,"31":-0.022637199301749237,"32":0.0037000945593429007,"33":-0.011421856371434001,"34":0.00399065124702097,"35":0.007573493118062887,"36":-0.0012889090850116782,"37":0.0073572786049993085,"38":0.008065436794146338,"39":0.004391809705114349,"40":-0.015453923357473351,"41":-0.017404235879016572,"42":-0.019389698003998573,"43":-0.018977448322755424,"44":0.0033126663758578385,"45":-0.0029885651755280707,"46":-0.01241498499591399,"47":-0.016317355772683697,"48":0.012328619476549606,"49":-0.027201037994782178,"50":0.0014900808502080255,"51":0.0024271881848109706,"52":-0.003238955390860929,"53":0.00917808047209984,"54":0.0006062926072912163,"55":-0.004171257521206407,"56":-0.01941231602501834,"57":0.014767162419783264,"58":0.010882553481613648,"59":-0.006380623795815085,"60":0.01852738280589618,"61":0.0016391735942661609,"62":-0.008563153207178069,"63":0.0006132442316686844,"64":-0.005138586227311177,"65":0.014764076276786555,"66":-0.0016111693467294457,"67":0.00022553048475938657,"68":-0.010238204293772053,"69":0.006001483787820823,"70":0.007968706646037197,"71":-0.008019937011830507,"72":0.008630285033059543,"73":0.0004723980848692248,"74":0.011027748857665411,"75":0.005944931355287191,"76":0.0021118985631121312,"77":-0.01654098207527131,"78":0.00798150541100847,"79":0.0020791708549473,"80":0.007996240073546695,"81":0.0003257499017327902,"82":0.007904210952653125,"83":-0.017271882556376985,"84":-0.025171058075739206,"85":-0.016945085270998177,"86":-0.012093641525095008,"87":-0.014678030190318856,"88":-0.025757510104783495,"89":-0.006417015975805858,"90":-0.014094799158112375,"91":0.004255394704377331,"92":0.006895944240154976,"93":-0.014998636285050958,"94":-0.019762171673669986,"95":0.008379493120091357,"96":-0.020796568876751898,"97":-0.002364926227183225,"98":-0.009451555345791687,"99":0.000171369577776179,"100":-0.002134022172438283,"101":-0.039539477832271186,"102":0.008216629556877122,"103":-0.028189685073347594,"104":0.035676228974352506,"105":-0.016080455087350835,"106":0.0077598232890462695,"107":0.009106894694481735,"108":0.002955349502370039,"109":-0.021357042323508987,"110":0.012879128102796244,"111":0.004268031684458164,"112":-0.020845546873272836,"113":-0.00438606844335155,"114":-0.009019374525254928,"115":0.02077688988976491,"116":-0.014544948654557318,"117":-0.02307922194859761,"118":0.00031577731464367857,"119":-0.027811078455212992,"120":-0.024881013025718456,"121":-0.015505653771331878,"122":-0.013922714865322398,"123":-0.016308263268989393,"124":-0.01992132720226745,"125":-0.011276623660837733,"126":-0.007758098015427978,"127":-0.0031571264671686372,"128":-0.008440344251548468,"129":0.007189845513806526,"130":0.0025948641914572603,"131":0.0032022935384070027,"132":-0.016705313996984356,"133":0.013236745565836353,"134":0.0033147903046919242,"135":-0.007983190290719894,"136":-0.007149329530415831,"137":0.005350584238847746,"138":-0.003365821223826021,"139":-0.01728631299993528,"140":-0.00926430116612426,"141":0.0036426906401817462,"142":-0.001860151085521987,"143":-0.009512550209997543,"144":0.004632047142251716,"145":0.0009648260767703663,"146":0.006130974786789728,"147":0.0007322839422015401,"148":-0.008308322917858234,"149":-0.014406458985045636,"150":0.04173160999054196,"151":-0.00499945513705699,"152":-0.013601289277148636,"153":-0.015983514087495803,"154":-0.01830466264865294,"155":0.002611175441308568,"156":0.008554857135100973,"157":-0.005259610197689123,"158":-0.0049994920173124366,"159":-0.01667496875330306,"160":0.025578551855561255,"161":-0.013075637298587565,"162":-0.015860983632934658,"163":0.012379848649346705,"164":-0.020010357778190196,"165":-0.0015644309602042277,"166":0.00981744632509581,"167":-0.0006590599697173711,"168":-0.0011619734204450214,"169":0.013538976422086535,"170":0.00988399926035988,"171":0.016829817512080698,"172":-0.0017080360912379753,"173":-0.014012056657144056,"174":-0.0007375528030240882,"175":0.00830326089760474,"176":-0.030881887306004507,"177":0.010438309369349445,"178":-0.004528656285531858,"179":0.004500926859893528,"180":-0.006778922889087215,"181":-0.016447351795046406,"182":0.000608068054018168,"183":0.010335502900319475,"184":0.00710948288654042,"185":0.0027619577663027584,"186":0.0004351415035286544,"187":-0.021820909063267866,"188":0.01810306817097259,"189":-0.007056558851130042,"190":0.003501987942547328,"191":-0.004454172473564926,"192":-0.00669030746043956,"193":0.00018362781280624728,"194":0.01494770090798458,"195":-0.02361284829042202,"196":-0.011801051134750615,"197":-0.030044291728069793,"198":0.005216295010612783,"199":0.0012660752663081018,"200":0.001403800612994282,"201":-0.01937089517411353,"202":0.001929198261014198,"203":-0.014626465560769275,"204":-0.004974391863799295,"205":-0.019276337561893016,"206":0.014448457669770917,"207":0.010256863981177077,"208":0.015050500604808838,"209":-0.003599776872630832,"210":0.01477395791602054,"211":0.0270766405357115,"212":0.005157852356522383,"213":0.008264872651080007,"214":-0.0010767609479874424,"215":-0.008264101254072174,"216":-0.016361590414884365,"217":-0.00120445137327659,"218":0.006200068980061229,"219":0.02394610273948809,"220":0.01332097721638977,"221":0.0000770426935966743,"222":-0.0020404146406712057,"223":-0.0017181187806695512,"224":0.014703665685048991,"225":0.0020808930349837857,"226":-0.02554700020668461,"227":0.011134520103426613,"228":0.00668286777753438,"229":-0.022221683624173445,"230":0.005307521529143885,"231":-0.022103635280483414,"232":-0.008976470238335603,"233":0.007916691196892858,"234":0.0063798420861089795,"235":-0.00026286165905095354,"236":0.013626519596113332,"237":-0.0003278658699578155,"238":-0.014746588499900319,"239":0.008723962291006,"240":-0.01476667718347659,"241":0.0009561726679082709,"242":0.004657046985345878,"243":0.009420336662578641,"244":-0.00541979144882696,"245":-0.0007215915855687065,"246":0.019324254397159,"247":0.015727812859752215,"248":-0.004961456294929196,"249":0.01562711958615128,"250":0.021076338327443406,"251":0.007832735431693796,"252":-0.009750255961986427,"253":-0.011151965018728652,"254":-0.003895474042845728,"255":0.001873375270309097,"256":-0.003089465445988111,"257":0.003624326302841935,"258":-0.0028897903095145864,"259":-0.03297327573337781,"260":-0.005021317743764802,"261":0.017070644763291433,"262":-0.010576433496507907,"263":-0.005922906529373795,"264":-0.01156266056165164,"265":0.004145332321368416,"266":0.0024328155734574222,"267":-0.007016357259659325,"268":0.0006644623441899338,"269":-0.005320051706585907,"270":0.011618503148924176,"271":0.012975598876844888,"272":-0.006242188697293224,"273":-0.01633259066917475,"274":-0.005559336266608988,"275":0.005685324094719322,"276":-0.006205906202512496,"277":0.01720299519630386,"278":-0.017058981050550388,"279":-0.014737421533616582,"280":0.006423485459512907,"281":0.018409180685143398,"282":0.0035064175394188884,"283":-0.00999257892272087,"284":-0.016512767822989213,"285":-0.008050110381204689,"286":-0.015474666717266229,"287":-0.010768604537337727,"288":-0.0018015318495482456,"289":0.007771709466049954,"290":0.012170868434211614,"291":-0.013355323367666316,"292":-0.006439205072131542,"293":-0.01310247233424231,"294":-0.0070567898590645365,"295":-0.0002592640515612354,"296":-0.01645056420187758,"297":0.008920859100678734,"298":-0.023928041322342063,"299":-0.0013232628894922732,"300":-0.004829280922617315,"301":0.011038023903487747,"302":-0.029752516261396727,"303":-0.024999615750033385,"304":0.0010566745073500535,"305":0.016823838009540636,"306":0.007293250953586276,"307":-0.021200418741814234,"308":0.014671295931457507,"309":0.010955405181684077,"310":0.020046651476014653,"311":-0.00458094858508492,"312":-0.007515782920427085,"313":-0.013363620486797166,"314":0.01255558154889305,"315":0.0015000572020188207,"316":-0.032298707618321355,"317":-0.02936629004826825,"318":0.0048462212981234655,"319":-0.031267749017285365,"320":-0.01737873661038865,"321":-0.009027004400816096,"322":0.0009519112044387837,"323":0.0018341394855812584,"324":-0.006864375419934045,"325":-0.0021304885963220896,"326":-0.012098497224307019,"327":0.010166298169868818,"328":0.010485825168151683,"329":-0.008613872131821717,"330":-0.01721606053733185,"331":0.003403591979703314,"332":0.008936619762898628,"333":-0.014959558737391961,"334":0.017218705468318517,"335":-0.00747781347956044,"336":-0.0017956033752467892,"337":-0.013310866717325145,"338":-0.00823965671221965,"339":0.024632561228127802,"340":0.0005125206181253822,"341":-0.006187813361204975,"342":-0.030967049356802622,"343":-0.0037874025278222803,"344":-0.00452027441258969,"345":-0.020162093173742006,"346":-0.006511669948231985,"347":-0.007228270685042907,"348":-0.011559701037207439,"349":-0.01496760551578518,"350":-0.018085698188693478,"351":-0.011833667971939878,"352":-0.02048719407287174,"353":0.0008232299665949761,"354":-0.022908929242397118,"355":0.013983617568670587,"356":0.00422721472926439,"357":-0.002687173303887004,"358":0.0241936544645395,"359":-0.0021912014015499953,"360":-0.025296317446570304,"361":0.03381051491672592,"362":0.0021940761414918544,"363":-0.008515414138040335,"364":-0.003841133909952696,"365":-0.02517246605436334,"366":-0.008000868195216546,"367":0.011994287648105844,"368":-0.0006916500499029306,"369":0.01698820892029336,"370":-0.0007390575432266929,"371":0.005139776122958615,"372":-0.0062783666710627874,"373":-0.011533252406945695,"374":-0.025198551296149677,"375":-0.004674823784688413,"376":0.009099706467274286,"377":-0.009105774639045683,"378":0.009879155334067228,"379":-0.0028427807020881125,"380":0.0021982736705982698,"381":0.006058464697555801,"382":-0.0043418953128410735,"383":0.037153194088114926,"384":0.005625746655243689,"385":-0.0036923765621692463,"386":-0.001787272752563464,"387":-0.02653808532595712,"388":0.007761758014065927,"389":-0.018253862921471468,"390":0.0022886384756454227,"391":-0.009193436064255513,"392":0.0077321072118210635,"393":0.007713952565004269,"394":-0.02925172618928903,"395":-0.017021525093679858,"396":-0.004320260785385582,"397":-0.00798098367286313,"398":-0.022785477306921022,"399":-0.016147640598323996,"400":-0.004967022059649034,"401":0.01753067261459358,"402":-0.00005578029547850554,"403":-0.0021535614630480574,"404":0.00264975409641924,"405":-0.012584448245973327,"406":-0.02953896580716381,"407":-0.021392334715183453,"408":-0.002034734575254858,"409":0.006238123411031735,"410":-0.002253918860530946,"411":0.011331287277533198,"412":-0.022542488755957057,"413":-0.009298407366361087,"414":0.01783890477422803,"415":-0.009526445481949995,"416":-0.04345890254261422,"417":0.007232438712524652,"418":0.006465279057142793,"419":-0.015793012494957844,"420":-0.028985530203911623,"421":-0.01509281035828959,"422":-0.003401818664267813,"423":-0.017198661085664278,"424":0.014436146295500652,"425":-0.024340525976752445,"426":-0.019551429328107533,"427":0.008920128385110289,"428":0.017489785858582994,"429":0.014622482410500312,"430":0.01349686373052269,"431":-0.00510713222406198,"432":-0.03322994521531993,"433":-0.022863065434757704,"434":-0.010705159789416947,"435":-0.012454206892035346,"436":0.028221371207242562,"437":-0.00975181805091009,"438":-0.002000308406139062,"439":-0.005425836517770949,"440":-0.008277707323168706,"441":0.004447944451689559,"442":-0.005200000572356636,"443":-0.0029955818778247636,"444":0.009944042105351278,"445":-0.037136995943145644,"446":0.014639957273402395,"447":-0.004799058821410538,"448":-0.006677828023569018,"449":0.014443700546799616,"450":-0.02671987348913696,"451":0.004749497459813877,"452":-0.008967706249111244,"453":0.01252880594063644,"454":0.006296218172420189,"455":-0.0009594314343216337,"456":0.02016302908153842,"457":-0.003127098998281406,"458":-0.0002943406703072913,"459":-0.014397212118207423,"460":0.0018005627738571681,"461":-0.022968560756844267,"462":0.009246940091567065,"463":-0.009537511805458223,"464":-0.024239729077016117,"465":-0.013733662895272027,"466":-0.016503281430972596,"467":0.0033892235419114565,"468":0.03856596630607378,"469":-0.005815427191049914,"470":-0.003019587257918666,"471":-0.010694558383063275,"472":-0.007011667697906325,"473":0.007839174994613216,"474":-0.009660564897950067,"475":-0.010523129141596714,"476":0.010174060892496046,"477":-0.01805566307581095,"478":0.007080075363689385,"479":0.008312548474257431,"480":-0.0086115157744745,"481":-0.007558875656389652,"482":0.002921448641954096,"483":-0.013428871164033395,"484":0.012789301504524168,"485":0.0032157981939747145,"486":-0.0034548560891713084,"487":-0.00839677523972283,"488":0.007103481913760314,"489":0.0008130392478807408,"490":0.00943351597982943,"491":0.007036804002723908,"492":0.025025100992065816,"493":-0.0161955008506861,"494":-0.003228063794535769,"495":-0.010003801565720357,"496":0.005437243192398864,"497":0.00015500367041418054,"498":-0.0035384719695668253,"499":-0.014810888786641814,"500":-0.011393342363187179,"501":-0.006722824592643384,"502":-0.0031411839704687103,"503":0.0008358056115501923,"504":-0.003929787663447153,"505":-0.010540403076920715,"506":0.00841955861847161,"507":-0.015618544161733527,"508":0.007164627585944686,"509":-0.00809520384727373,"510":0.011871617598614348,"511":0.0011629810735169506,"512":-0.015299791190178417,"513":0.0065289931466262505,"514":-0.007272299663797275,"515":-0.011528898045366477,"516":0.025889308392051513,"517":-0.0025763165149336963,"518":-0.03273699230917469,"519":-0.009510534935388365,"520":-0.0000028595810385610197,"521":-0.02235649330805817,"522":0.008283368128100961,"523":0.01803314330065711,"524":0.019756188900792056,"525":-0.0151279322252841,"526":0.004947898578326798,"527":-0.0029939998902911206,"528":-0.013574453723523025,"529":-0.005439551640046387,"530":-0.025894082037771684,"531":-0.011918859614869834,"532":0.006540044837784874,"533":-0.022859251724950173,"534":-0.0028605172812337354,"535":0.021007703018485008,"536":-0.0005992751792032947,"537":-0.006575632293370004,"538":-0.0161338991736983,"539":0.01137196732453111,"540":-0.001441350252820476,"541":-0.019102779858129942,"542":-0.02331203481921591,"543":0.0041113708132585755,"544":0.014285643961689075,"545":0.0018719763617159476,"546":-0.00045260339505859076,"547":0.024698966140222628,"548":0.00010048377837086148,"549":0.016277215341740037,"550":-0.003576435350575401,"551":-0.010583946830124182,"552":-0.005736482796728029,"553":-0.010160623241668209,"554":0.010549589721504821,"555":-0.007243269599968558,"556":-0.0038777623294141417,"557":-0.0018904943442728665,"558":0.012748243473604655,"559":-0.0056965812879557435,"560":-0.0032889221564501745,"561":-0.009827362826888831,"562":-0.02047092874916074,"563":-0.006716776459567302,"564":0.0028707096369870793,"565":-0.0130388082409065,"566":0.0057518181671395935,"567":-0.012728990280731198,"568":-0.004086606712430791,"569":0.00009373211533909639,"570":-0.011650220794057165,"571":-0.005717295016267639,"572":0.019442339351020962,"573":0.01742054772830851,"574":0.017683279091674078,"575":0.01439783042261012,"576":0.011739958528990714,"577":-0.004427138643521428,"578":-0.005248233109445299,"579":0.010524139766762922,"580":-0.013189035728238742,"581":-0.010183272480462042,"582":-0.010358695687483644,"583":0.0013902215527213325,"584":0.018178783038534964,"585":-0.019017181421864156,"586":-0.002112842146699346,"587":-0.006513420575182356,"588":-0.010096724574944671,"589":0.0015225127363192193,"590":0.003947042467750501,"591":0.0056664825803440675,"592":-0.018010340028061827,"593":-0.006946569245633722,"594":-0.011746727078930385,