{"layers":[{"out_depth":3,"out_sx":28,"out_sy":28,"layer_type":"input"},{"sx":3,"sy":3,"stride":1,"in_depth":3,"out_depth":12,"out_sx":28,"out_sy":28,"layer_type":"conv","l1_decay_mul":0,"l2_decay_mul":1,"pad":1,"filters":[{"sx":3,"sy":3,"depth":3,"w":{"0":0.01630436155767922,"1":0.2077412947292356,"2":0.23101599051349664,"3":0.0351625788318115,"4":0.06838306001564132,"5":-0.057945095773769814,"6":-0.055204005872095445,"7":0.10794916290523578,"8":0.04763636884933533,"9":-0.18577238797085077,"10":-0.39353930796270514,"11":-0.3804633890307017,"12":-0.10095747353842241,"13":-0.22697657240870928,"14":-0.10630576701119705,"15":0.0842791962948138,"16":0.08882290524988674,"17":-0.10378859477514098,"18":-0.026829187090279222,"19":0.06410109964060712,"20":0.19302314376040092,"21":-0.022193905804737013,"22":-0.2386798873527928,"23":-0.1625189573494123,"24":-0.20151788477730387,"25":0.12471847103970077,"26":-0.09346470854417528}},{"sx":3,"sy":3,"depth":3,"w":{"0":-0.019694473107222,"1":0.10894951155137912,"2":-0.09163153178956727,"3":-0.01844473670634552,"4":-0.15708157778347423,"5":-0.04630099713120411,"6":-0.03609374143174449,"7":-0.18390204045944328,"8":-0.024403986702298482,"9":-0.08520259986428733,"10":0.19266976208576697,"11":0.03575393711193825,"12":-0.08890621706520814,"13":0.2776935464062099,"14":-0.1428908155059729,"15":-0.09289036770051985,"16":0.16352813394069177,"17":0.27911805093955516,"18":0.02465295698021047,"19":-0.2590973214814847,"20":-0.0640189803748299,"21":0.11047106071698667,"22":0.042857541112804896,"23":0.25379665460963535,"24":0.12031338399555892,"25":0.04754656081027108,"26":0.124862647321005}},{"sx":3,"sy":3,"depth":3,"w":{"0":0.05507091032151281,"1":0.12979590491400575,"2":0.2024389932191262,"3":-0.012125879266005089,"4":0.19728625384339193,"5":-0.22488274666831407,"6":0.21668409025567395,"7":0.1344190806724591,"8":-0.05680367837737717,"9":-0.18553296608946104,"10":-0.2484613052559124,"11":0.040067173531709174,"12":0.0324974804368781,"13":-0.1126058759511375,"14":-0.06269955904880849,"15":0.1628908160889714,"16":0.006025859132002828,"17":0.0930978496704582,"18":-0.011147947045418835,"19":-0.07602379822175556,"20":-0.2548024857954574,"21":-0.19176047143100391,"22":-0.21701882606626724,"23":0.16349751035524684,"24":-0.19161558405038898,"25":0.24859014417427838,"26":0.2837153184521983}},{"sx":3,"sy":3,"depth":3,"w":{"0":-0.07813792291688319,"1":-0.4150176815901565,"2":-0.4963809671512091,"3":0.2520355520384241,"4":0.00778317323445596,"5":-0.27288580831584086,"6":0.10940559787783737,"7":-0.10911484135677446,"8":-0.16067092602038163,"9":0.11948716487823725,"10":-0.1968788181469458,"11":-0.06277953583330385,"12":-0.13578846964401614,"13":-0.1283576199108604,"14":0.14549355826907873,"15":-0.14645582535137486,"16":0.11478696698508906,"17":0.057776022600497454,"18":-0.1570377833731081,"19":0.044737978701099114,"20":-0.04128015788539048,"21":-0.05567069868284176,"22":-0.17692422546670827,"23":0.13944247133309673,"24":0.06354207539334515,"25":0.07339491149865408,"26":0.09475762447443657}},{"sx":3,"sy":3,"depth":3,"w":{"0":-0.0012763203955385384,"1":-0.09397126891260946,"2":-0.0058941879994472614,"3":-0.014558701848747862,"4":-0.2475353520668291,"5":0.33776024055058057,"6":-0.10522532197048863,"7":-0.37257306500637144,"8":0.0331500845373137,"9":0.19011284128660566,"10":-0.08693269012372298,"11":-0.12601686163124806,"12":-0.03528984346022633,"13":-0.09672673836609451,"14":0.12077081857021786,"15":0.16755988842513417,"16":-0.17555127151964522,"17":-0.0265119588567214,"18":0.09289879462782528,"19":-0.056112463005740305,"20":0.03837510149955786,"21":-0.27361625468173645,"22":0.04251895151676264,"23":0.04151518835962416,"24":0.11637920206501479,"25":0.24302233349305358,"26":-0.058081967127258875}},{"sx":3,"sy":3,"depth":3,"w":{"0":0.01154347360312142,"1":0.27247581313323704,"2":-0.05778881386028496,"3":-0.136720379581557,"4":-0.2948143609025365,"5":0.1448932390589312,"6":-0.23168939635744343,"7":0.21939772811374653,"8":-0.18984942337524696,"9":0.18390697454013696,"10":0.046468990905434195,"11":0.16405659570279585,"12":-0.07039649033621638,"13":0.07676632437267056,"14":0.10476612914372513,"15":-0.1626596815271734,"16":0.16698666410462026,"17":-0.04792317814841256,"18":0.09120839199202978,"19":-0.10055759335615407,"20":-0.05487827968204011,"21":-0.3178994341567218,"22":-0.21370144456822762,"23":0.13508017764800798,"24":-0.0975362280958707,"25":0.03593118482307519,"26":-0.018413473181695655}},{"sx":3,"sy":3,"depth":3,"w":{"0":0.09468614537053972,"1":0.08941079528533008,"2":-0.014637355695451678,"3":-0.03420752022149173,"4":0.18599965647797276,"5":-0.08172836909807354,"6":0.05782860130034039,"7":0.1713507050873763,"8":-0.2088975658049432,"9":0.059805133534639864,"10":0.10947649548551183,"11":0.05323013406923942,"12":0.007242912276467143,"13":0.21869536509776555,"14":-0.0561346913841341,"15":-0.06710667630918446,"16":0.31294262490745794,"17":-0.06718554634704643,"18":0.0978211383760858,"19":0.05006754613217407,"20":-0.13835396800682528,"21":-0.1340712656900404,"22":0.1444299245257714,"23":-0.14057263037975407,"24":-0.07032405796067545,"25":-0.13191952116474756,"26":0.17813076286836174}},{"sx":3,"sy":3,"depth":3,"w":{"0":-0.1284306114016407,"1":0.19731827967796572,"2":0.032384482135279405,"3":-0.002668286151523845,"4":-0.08885322616000578,"5":-0.10969405007917854,"6":-0.1448750269255858,"7":0.25542034435984556,"8":0.10330103715219394,"9":-0.00596832320225489,"10":-0.24637685082700203,"11":0.04258381771170916,"12":-0.08578734871282095,"13":0.02810284682055941,"14":-0.05299622441866899,"15":-0.04225228003970831,"16":-0.12467811695922562,"17":0.01998279502373084,"18":-0.13874217690101917,"19":0.10394561680067296,"20":-0.16718899241011,"21":-0.00610390902718299,"22":0.22516363932297268,"23":-0.05902417210179894,"24":-0.015660098455865554,"25":-0.08824540940491356,"26":-0.10848819523916256}},{"sx":3,"sy":3,"depth":3,"w":{"0":-0.16303047403410328,"1":-0.24506324692084808,"2":-0.3820771804628305,"3":-0.03909122795808512,"4":-0.28327825671460216,"5":0.14712753718805302,"6":0.0857656360164017,"7":0.07247057157660872,"8":0.11927008863007799,"9":0.00928107899738623,"10":-0.19152631987909688,"11":-0.23603126868360472,"12":-0.08472810021253574,"13":0.19195101638926582,"14":0.0052875319071833266,"15":0.11409200098696032,"16":0.00987565309245415,"17":-0.16489915819627687,"18":-0.04503556840807454,"19":0.20137583849423893,"20":0.09700193521388036,"21":-0.11316016517293671,"22":0.09609044429580946,"23":0.15562750003468223,"24":-0.026900482053861776,"25":0.04292429851994653,"26":-0.10568544375211092}},{"sx":3,"sy":3,"depth":3,"w":{"0":-0.10423621392914992,"1":-0.16487652668022293,"2":0.31746817504516434,"3":-0.1513583776450623,"4":0.09721230527639042,"5":-0.06729281622801045,"6":-0.03527253094765064,"7":0.0808684173535067,"8":0.03084087985235366,"9":-0.19258044621133155,"10":-0.1713166918893317,"11":0.1390209096904366,"12":-0.08402378796860809,"13":-0.12886507467032018,"14":-0.14497406706660546,"15":-0.352138258403524,"16":-0.12716604920640046,"17":0.1876581577029012,"18":-0.0008580146996837272,"19":-0.1371687948817101,"20":0.21057602027425143,"21":-0.07262489376146014,"22":-0.150198545018522,"23":-0.08287494310957008,"24":-0.08234289257925109,"25":0.16352409057353035,"26":-0.10121112057818762}},{"sx":3,"sy":3,"depth":3,"w":{"0":0.3355138774435633,"1":0.036323486217241234,"2":-0.4773249658077814,"3":0.15034244551283488,"4":0.002000975824309864,"5":-0.400498276280967,"6":0.040377952476637904,"7":0.17344002481647583,"8":-0.07136058864244946,"9":-0.03467730154715717,"10":-0.010765309550025956,"11":0.09471129333047466,"12":-0.06665400058288007,"13":0.18506115542592913,"14":-0.2729688928428721,"15":0.2322176583533417,"16":0.22275112240966363,"17":-0.5096683416063879,"18":-0.1861613263329884,"19":0.2605808553948878,"20":-0.08154774092946535,"21":0.0943304465074877,"22":0.01712573591606844,"23":-0.20714243630208815,"24":-0.059986381761101056,"25":0.22874714132521473,"26":-0.01528091275923811}},{"sx":3,"sy":3,"depth":3,"w":{"0":-0.3282132861828266,"1":0.032370715511720896,"2":-0.2897735702884188,"3":0.05566284451860172,"4":-0.08355445513745564,"5":0.14104849907708872,"6":-0.14470614295326092,"7":0.19672868743311991,"8":0.2718876706706209,"9":-0.16061429939631816,"10":-0.0012154378959328494,"11":-0.37977435709868695,"12":-0.15689833559508815,"13":-0.2521798916431085,"14":-0.35671522469297706,"15":-0.257895292598854,"16":-0.34817941778990663,"17":-0.17442792383626013,"18":0.014403752329885142,"19":-0.13091568175222537,"20":0.06506564522297185,"21":0.012509533386581041,"22":0.14504647155696415,"23":0.07414575112171076,"24":0.3302608206135788,"25":0.17546354305504705,"26":-0.004399912811734753}}],"biases":{"sx":1,"sy":1,"depth":12,"w":{"0":0.1117422445341145,"1":-0.1302884695575722,"2":0.054663193978089095,"3":0.02367119920758718,"4":0.024847869346627537,"5":0.10355981172099535,"6":-0.26745654296399185,"7":0.05591414168459051,"8":0.10552812584414387,"9":0.06574593292561604,"10":0.07947009155304252,"11":0.05942034620960846}}},{"out_depth":12,"out_sx":28,"out_sy":28,"layer_type":"relu"},{"sx":2,"sy":2,"stride":2,"in_depth":12,"out_depth":12,"out_sx":14,"out_sy":14,"layer_type":"pool","pad":0},{"sx":5,"sy":5,"stride":1,"in_depth":12,"out_depth":18,"out_sx":14,"out_sy":14,"layer_type":"conv","l1_decay_mul":0,"l2_decay_mul":1,"pad":2,"filters":[{"sx":5,"sy":5,"depth":12,"w":{"0":0.06501123184953052,"1":-0.036372385144670165,"2":-0.012135282101195357,"3":0.010638793485739984,"4":0.05417009745170615,"5":0.12741444843930486,"6":-0.1550646921800125,"7":0.03400099955191023,"8":-0.09595606471746809,"9":0.09241954424674462,"10":0.18907239242956622,"11":-0.06844316607510209,"12":-0.009066519492044001,"13":0.06806654651562073,"14":0.1570055785813199,"15":-0.062370290043539736,"16":-0.0351788171492328,"17":-0.08987668386269082,"18":0.1469572046716102,"19":-0.0037835061018539353,"20":-0.014805169960441022,"21":0.061085440258407224,"22":0.12251701272954216,"23":-0.1047569135538291,"24":0.013294864415793566,"25":-0.016686264154066387,"26":0.08951645536017179,"27":0.09433657278651664,"28":-0.10924851049491895,"29":0.10535597360628311,"30":0.05820586173581742,"31":0.03132554730175158,"32":0.04680092058911187,"33":-0.040020413959211854,"34":-0.12585812109667757,"35":-0.04361220960183297,"36":0.023914071866080508,"37":-0.08269982414996918,"38":-0.09159327560986362,"39":-0.03788995189466468,"40":-0.20912512340975792,"41":0.008836322146378188,"42":0.02680371903059225,"43":0.02744632202527355,"44":-0.01649761229145862,"45":-0.06867464845381217,"46":-0.010969600855663831,"47":-0.05011018913702919,"48":0.017956512868424392,"49":-0.03833117519217281,"50":0.15477366667960732,"51":-0.015721565024869488,"52":-0.1385059630067138,"53":0.04670704889715145,"54":-0.10587253470330774,"55":-0.026183940766166116,"56":-0.09334193532094819,"57":0.006860305201043098,"58":-0.18357095137074597,"59":0.0852632814393496,"60":-0.1164979086757071,"61":-0.009453188018627108,"62":0.003128166324697812,"63":0.011639719768378149,"64":0.10160867486393456,"65":0.1904014402766589,"66":-0.2599143634073183,"67":0.01645128524538142,"68":0.0265132136325184,"69":0.0394467008853309,"70":0.13000191027389335,"71":0.01796223393257043,"72":-0.053177517381572045,"73":0.11916228980388098,"74":0.15384291224669414,"75":-0.014399390474031036,"76":0.13193563754460685,"77":0.006321684836481292,"78":-0.04477737209689179,"79":-0.02322434266609601,"80":-0.02063739493665025,"81":0.09094326255063115,"82":0.11435995355569946,"83":-0.11911446140719772,"84":-0.1073532144558499,"85":0.060888505540980374,"86":0.11802015529272086,"87":0.011423206161528204,"88":0.1362223291020705,"89":0.15789098436441254,"90":0.05395017785152996,"91":-0.039680509761491414,"92":0.09212002446041868,"93":0.04497065624406569,"94":0.035672244615770336,"95":-0.06901161143884274,"96":0.02116208490504482,"97":-0.023197573400189835,"98":-0.02447372491145858,"99":-0.02036629848722626,"100":0.18347084712799896,"101":0.03257394878380457,"102":-0.13141378090608177,"103":-0.06316309596185712,"104":-0.0024956493843348226,"105":0.04666075635937727,"106":0.049026153311243326,"107":-0.1251882042092415,"108":-0.0018148840043869404,"109":-0.12066012850835459,"110":0.013111674496492209,"111":-0.030244366493384085,"112":-0.033742025148531404,"113":-0.023506234611565535,"114":-0.273912511764761,"115":0.04050766455569383,"116":0.026128202029738798,"117":-0.08816016378989433,"118":-0.17584948990091573,"119":-0.12146255047203834,"120":0.050008356560279466,"121":-0.021573532388802927,"122":-0.22063293759399574,"123":-0.017919840802599892,"124":0.1464383578947475,"125":0.052743772131990406,"126":-0.0457666086391439,"127":0.06315369911044014,"128":0.05575134524616396,"129":0.027847604460762874,"130":0.06692665573681915,"131":-0.08579708366452313,"132":-0.0045294904525125905,"133":-0.02713344487473565,"134":-0.12614158900242858,"135":0.02214150438166516,"136":0.16189454435432812,"137":0.14692182933569653,"138":0.013094622607786908,"139":0.06543355259972178,"140":0.08855247635885548,"141":0.02286082032386674,"142":0.15490353490462214,"143":0.14299863996129789,"144":-0.07029549746612676,"145":-0.046428154406769125,"146":0.03760109683171752,"147":0.0799376283613864,"148":0.07249636647012149,"149":0.10603930007532628,"150":-0.017775142885586716,"151":0.006223443224659576,"152":-0.027206501952828192,"153":-0.04834725348174472,"154":0.16116027983121345,"155":0.025270348513156488,"156":-0.12019403012990428,"157":0.1108628344690881,"158":0.11222653835394364,"159":0.05788619157222419,"160":0.053251879105877926,"161":-0.18650472269621882,"162":-0.09098562687114567,"163":-0.0024783416698315225,"164":0.1098374523185315,"165":-0.0036022481155414754,"166":-0.0681278809026116,"167":0.11654923705555478,"168":-0.046781078177143644,"169":-0.09179353481455703,"170":0.038431633514213484,"171":0.034203833417236845,"172":-0.021928412213810602,"173":-0.051685383441741325,"174":-0.0679014451862312,"175":-0.01286178953696013,"176":0.12400939700717577,"177":-0.06146334940431704,"178":0.05190499202846632,"179":0.03631980086408263,"180":0.03080754901174626,"181":0.007086359402744947,"182":-0.0817231041099438,"183":0.04403408351413944,"184":-0.028868165259228404,"185":0.04789944231838417,"186":0.12449014673125434,"187":-0.0721246243273813,"188":0.06521381075151825,"189":0.01991563469832342,"190":0.03567558345706858,"191":0.044664270507303684,"192":-0.015162670166866982,"193":-0.026579478653636638,"194":-0.054861202461121125,"195":0.04808642778288488,"196":0.16882062262876113,"197":0.061957426422859174,"198":-0.17571613467094857,"199":-0.06880573396160022,"200":0.056406802486465075,"201":0.07087746606726673,"202":0.09214248424121474,"203":-0.052739373757092374,"204":-0.04765919195655127,"205":-0.025708246570803207,"206":0.06490890502440368,"207":0.08698484240956865,"208":0.03305095379456725,"209":-0.04640667089133772,"210":-0.12938169151287335,"211":0.05182885751837107,"212":-0.12119301109842816,"213":0.025000168027221853,"214":0.15225553408720827,"215":-0.00653348959580822,"216":-0.04182798143822282,"217":0.007759763291431366,"218":0.20559123928571052,"219":0.09107034293331093,"220":-0.019303709621289314,"221":-0.0755912246330048,"222":-0.09236231267596519,"223":0.010680209727850217,"224":-0.03836986397462167,"225":-0.0374831460517754,"226":-0.015868712673395947,"227":0.028455740727178963,"228":-0.08539926349529445,"229":0.026828694113766705,"230":-0.09979362967380537,"231":0.04592638790677823,"232":-0.027050292659680897,"233":0.05097420796128139,"234":-0.009877722762597272,"235":-0.03062714254530189,"236":0.06161142900990193,"237":-0.05522964690587921,"238":-0.08891606130103961,"239":0.06013442584768373,"240":-0.08845648963494862,"241":-0.026961317650466044,"242":0.08577611947750842,"243":-0.032857764882479976,"244":0.07750976781053946,"245":-0.02106884808037915,"246":0.09538152808036447,"247":-0.03699817432550514,"248":0.09135922937052253,"249":-0.12138517228645396,"250":0.00574205927554889,"251":-0.008192693092446197,"252":0.05379906318811297,"253":0.13835354759257953,"254":-0.014911757352271354,"255":0.04812079975473525,"256":0.3024704592531245,"257":-0.1632665670707092,"258":0.016282949164635827,"259":-0.035400258672559984,"260":0.14663027065539386,"261":-0.03196856803162643,"262":0.0832180031612023,"263":0.03031361168305986,"264":0.030929992563891628,"265":0.03430421998983646,"266":-0.023913146094025457,"267":-0.013906215109783411,"268":0.18686916354663288,"269":-0.008831476497710329,"270":-0.07675142865488295,"271":-0.04362232387989604,"272":0.02462790838695547,"273":-0.05835774716052417,"274":-0.03549576440918456,"275":-0.0906687493337106,"276":0.019806531207995078,"277":0.04109926475471711,"278":0.02312848645064931,"279":-0.02145003611061918,"280":-0.07450507288204897,"281":-0.14088848746200455,"282":0.08410345633039774,"283":0.04411638313807803,"284":0.014900784281148008,"285":0.04059293393126631,"286":-0.11680123358452145,"287":0.031016217043431316,"288":0.046454927431963465,"289":-0.026924643134603965,"290":-0.1072596819723274,"291":0.014980163363797424,"292":-0.12425893031454513,"293":-0.14046998653609372,"294":-0.015133572250646554,"295":-0.03480653313420848,"296":0.05784491853433195,"297":-0.12106768771577406,"298":-0.09069534795384442,"299":0.12115067422438201}},{"sx":5,"sy":5,"depth":12,"w":{"0":-0.037302561261822,"1":0.024151825060673378,"2":-0.0036009494636043936,"3":-0.00330448500467411,"4":0.011321806898325735,"5":0.015749984103301858,"6":-0.019555929399973696,"7":0.03360277295946617,"8":-0.008741905008914004,"9":-0.0163258371323169,"10":-0.00020662953253952003,"11":0.01623125673393981,"12":0.029676137546790028,"13":0.0008263024468206317,"14":-0.0352509058990922,"15":-0.03974142762005609,"16":-0.020544873095740747,"17":-0.008458853308729173,"18":0.013369171119460555,"19":0.054631027132589126,"20":-0.050078968540113455,"21":-0.06899756560285393,"22":-0.004389036716861831,"23":0.032858569105579154,"24":0.005949255613754219,"25":-0.041228760721718105,"26":-0.034089782846559676,"27":0.007007770488099224,"28":0.016341343350798877,"29":-0.015065242978590918,"30":-0.000010757361748801333,"31":0.017712295951304233,"32":-0.0031571485312351325,"33":0.02244419869073057,"34":0.038324369425033006,"35":0.04493554335789211,"36":0.023294988440793883,"37":-0.008912163625026125,"38":0.04857767834542623,"39":-0.022484644473057924,"40":-0.06029035486531295,"41":-0.036565302669490554,"42":-0.05054748205397679,"43":-0.03162712062606913,"44":0.013133241773933135,"45":-0.02340465527634358,"46":0.020294283285473922,"47":-0.0061056627835609015,"48":0.020686924037936347,"49":-0.027553995629675383,"50":-0.03941224731640359,"51":0.004724790927219655,"52":0.00783464266203495,"53":-0.021895916162583767,"54":0.030944832900068744,"55":-0.0266377785275717,"56":0.025233989747240015,"57":0.009066545424103336,"58":-0.015061403061594555,"59":-0.06316756340889611,"60":-0.0200029230038942,"61":-0.023366452698635687,"62":-0.004096204934159166,"63":-0.016969441780240086,"64":0.019402197914134684,"65":-0.001301915444712283,"66":-0.02755556561267834,"67":-0.0005827896710329696,"68":0.04798826865839431,"69":0.009547906725340257,"70":0.0231759676290136,"71":0.020766334649792984,"72":0.0024214609281187674,"73":-0.02630882340510974,"74":-0.05713586258717924,"75":-0.013464118321995183,"76":0.02479425268907107,"77":0.012705206697972189,"78":-0.011601204053540998,"79":-0.0020540690678787586,"80":-0.006023246784045672,"81":-0.014925952663296762,"82":-0.016964135973631275,"83":-0.025996065690124574,"84":-0.006935297038984977,"85":-0.05048911821788207,"86":-0.004214790198362915,"87":-0.00558600995610901,"88":-0.006066406899433602,"89":-0.00005439126246720987,"90":-0.014307087296253346,"91":0.00961274769487221,"92":0.0048194503016349,"93":-0.026169678035264474,"94":-0.04792010010829166,"95":-0.01178670671878794,"96":-0.01876912216113639,"97":0.01624118554630699,"98":0.03910074599897217,"99":-0.03386792274049,"100":0.0102032994153868,"101":-0.012008263610101858,"102":0.0063623022322906704,"103":0.05948371620198102,"104":-0.02504530882617298,"105":0.0076813413080133565,"106":0.0008342815709292475,"107":-0.0012597412069444993,"108":-0.048795441273024175,"109":0.016470627195520414,"110":0.009736669222436722,"111":0.0011878355252069894,"112":-0.03557874279949844,"113":-0.015147686651599955,"114":-0.0062513914548712945,"115":-0.014757818985227978,"116":-0.03766018809802087,"117":0.02169682109629599,"118":-0.00906875748615899,"119":0.013647447174786583,"120":-0.0009677028139100951,"121":-0.032294257024434385,"122":-0.004565822006707368,"123":-0.008014400486062872,"124":0.04443896442387804,"125":-0.08013508231666448,"126":0.013635824161508159,"127":-0.003324765810495764,"128":0.009030837184010687,"129":0.002889030880158924,"130":-0.02158188977824196,"131":-0.0015125669941358107,"132":0.024324529645458937,"133":0.001914281366333121,"134":-0.016939299675123868,"135":-0.03837196062283955,"136":-0.00569279860207294,"137":-0.017682430648260264,"138":0.020890482193619185,"139":-0.005385807517617816,"140":0.01439830695025803,"141":0.037122235892488774,"142":0.0050099279461379275,"143":0.03970914801544307,"144":-0.027293336470325565,"145":-0.02391514318509365,"146":-0.03493284420480996,"147":-0.030558767290099938,"148":-0.029789101075574413,"149":-0.03858340992865892,"150":0.031146419876637906,"151":-0.03411417359132848,"152":-0.026040787747617537,"153":-0.0048207704509700515,"154":-0.07407176756183947,"155":-0.06076185115628931,"156":0.021413674787779113,"157":0.009220671272099683,"158":-0.025951305674119036,"159":-0.012162928290492422,"160":-0.01973673091620598,"161":0.031309691022697685,"162":-0.03455889861030794,"163":-0.012492503387643105,"164":-0.037698855952926824,"165":-0.02897365930314356,"166":-0.03866205332568139,"167":0.008112686116626208,"168":-0.029215007399524574,"169":-0.04281449931053215,"170":0.022277917690409745,"171":-0.02844892188591774,"172":-0.03773686779693098,"173":0.022186068502180644,"174":-0.01879367016136205,"175":-0.03615853601428165,"176":-0.029833208982935046,"177":0.028869690354717238,"178":0.021434383943646298,"179":-0.025165853518388195,"180":-0.04750487553619106,"181":-0.0009410798222808303,"182":-0.053502040087630466,"183":-0.027094675065019246,"184":-0.04129007886696105,"185":-0.06566378648369903,"186":-0.031321114365875424,"187":0.03222362300375502,"188":0.02311443370393102,"189":-0.010140807055195987,"190":-0.009670626775819572,"191":-0.009897265298376106,"192":0.00588881463172143,"193":-0.008798730158966615,"194":0.018912372080110224,"195":0.022732889829760034,"196":-0.008075759034333687,"197":-0.005723040448362649,"198":-0.0007789267477779282,"199":-0.07163251144469432,"200":-0.03234447895824761,"201":-0.018189535494083784,"202":0.02587354673914858,"203":-0.018063151414761527,"204":-0.0005280607662725066,"205":-0.055593042899015954,"206":-0.027410575876921504,"207":-0.017343066643017206,"208":-0.02784502592352437,"209":0.008120509208912673,"210":-0.027852462394871703,"211":-0.02813131977846797,"212":-0.04047313211274269,"213":0.05573704557286934,"214":-0.037444153774734236,"215":0.017655980770828927,"216":0.03534454156413911,"217":0.04503218682546125,"218":0.004342321352828737,"219":-0.03818472094848321,"220":-0.0014080644260994154,"221":0.004926909355952375,"222":-0.009253725797241838,"223":-0.03322910187538235,"224":-0.011849988798004175,"225":-0.0290065810628793,"226":-0.04673664054041927,"227":-0.023020820837918225,"228":-0.025066136121358322,"229":-0.008957113697472196,"230":0.009215649210391192,"231":-0.056236584685855774,"232":-0.03900738064380913,"233":0.012879850149784733,"234":0.019392917848749136,"235":0.010131919367359193,"236":-0.018227178503689396,"237":0.014870396552385222,"238":-0.013730925779789849,"239":-0.017778144971283275,"240":-0.020119596759736572,"241":-0.037494503938163164,"242":0.03482610692105139,"243":-0.011099578335299518,"244":-0.011851537790864957,"245":0.014372374714156574,"246":-0.034157087462416094,"247":-0.011899236880123239,"248":-0.010890380525623194,"249":0.021407191388651065,"250":-0.030548323363791555,"251":-0.01681565488816549,"252":0.014105711920883382,"253":-0.003915641863913899,"254":0.03486349453822951,"255":-0.01770354585994504,"256":-0.00124362494562309,"257":-0.04194335371589032,"258":0.01056579034426004,"259":0.0005025424110988756,"260":-0.020602902186481375,"261":-0.011730913588374262,"262":-0.05228236777244164,"263":-0.02086108010557188,"264":-0.02759564472008205,"265":0.007351187144529363,"266":0.02210673850262686,"267":-0.026259261718055975,"268":0.012501740595332392,"269":0.02360937662866292,"270":-0.0017711099874956444,"271":0.02571768513199111,"272":-0.020253583405217854,"273":0.05899001130989503,"274":-0.010426571555425599,"275":0.018423659007629118,"276":0.023467762131798423,"277":0.018629081518025246,"278":0.01414306880188088,"279":0.020728960693353244,"280":-0.0096416067639295,"281":-0.05097795995416911,"282":0.007144087855220582,"283":0.003627619563700539,"284":-0.01733453927894302,"285":0.01490645257637979,"286":-0.01895060717394597,"287":0.0004951460731440936,"288":0.0005228439511361459,"289":-0.04980574384998328,"290":-0.01215804489012052,"291":-0.03068541011405015,"292":0.023696189564968294,"293":-0.009921424365155574,"294":0.0031427718426791803,"295":0.005127594429205333,"296":-0.012280816861963586,"297":0.05444994702503531,"298":-0.03416102854828969,"299":-0.04780801349088646}},{"sx":5,"sy":5,"depth":12,"w":{"0":0.02595303608736021,"1":-0.04343072863866267,"2":0.002603354489774102,"3":-0.05193974448536827,"4":0.03493229219304515,"5":0.02879762081746378,"6":-0.09275934209779815,"7":-0.025676903303455696,"8":-0.05864912020050413,"9":-0.035640565469423256,"10":0.06247205123142702,"11":0.009146770499310035,"12":-0.052868287184175876,"13":-0.038445849272892144,"14":0.030887146395347984,"15":-0.10111894795179409,"16":-0.07699219622927586,"17":-0.08691789900336028,"18":-0.021451355174155355,"19":-0.03841398845588825,"20":0.0533603292000456,"21":0.005961358431559053,"22":-0.003574330502413101,"23":-0.008603978744939279,"24":0.03399093625437103,"25":-0.016776767721816355,"26":0.03472029239336398,"27":-0.04214576782196042,"28":-0.013123975254165582,"29":0.03681091166386702,"30":-0.0133351384081669,"31":0.029021895897801502,"32":0.0317066795393104,"33":-0.010723420259587424,"34":0.05157217366615483,"35":-0.0016649677608208957,"36":-0.019042734057088687,"37":-0.01528460246886419,"38":0.0016568109415374486,"39":-0.02646405424599166,"40":-0.09259973997610539,"41":0.047974205593643085,"42":0.009715164341523011,"43":0.009664805625953628,"44":0.000914656626408428,"45":-0.00815363176060933,"46":-0.01811727094536207,"47":0.02498590130623659,"48":-0.03755586351242361,"49":-0.15378387893303344,"50":-0.04720367995331417,"51":0.016352364634456225,"52":-0.02601008231618499,"53":-0.022007851872590026,"54":-0.0478097921312404,"55":-0.01939590254915664,"56":-0.010305018998073992,"57":0.0015618622238322297,"58":0.04526651346663824,"59":0.01356380442945877,"60":-0.08088644362710407,"61":0.17439964912607062,"62":-0.030772785153647064,"63":-0.06413558051972466,"64":-0.005955805301743898,"65":0.04386488269419761,"66":0.026264119399381135,"67":-0.005218262772249309,"68":-0.0663878454278943,"69":0.012245091384768017,"70":-0.03282580714668984,"71":-0.04493391071155964,"72":-0.06707763161529406,"73":-0.0925705800853686,"74":-0.05693059737629972,"75":-0.03565537707091604,"76":-0.03305753792757118,"77":0.03432273612594954,"78":-0.002445303256793938,"79":0.007317242153795051,"80":-0.020881356904113964,"81":-0.005674421227597455,"82":0.06952216026794501,"83":-0.02331600039056883,"84":-0.021989509385532156,"85":-0.1467528459646341,"86":-0.1143634372376519,"87":-0.02198119619251686,"88":-0.00611350027938121,"89":0.02298657606018402,"90":-0.04910137721365669,"91":-0.011816636674028092,"92":0.015194826001617713,"93":0.012509690283921434,"94":-0.1447524210478229,"95":0.028377677675481737,"96":-0.055995909724264305,"97":-0.016052077955288374,"98":-0.028594579449787192,"99":-0.03286850974144327,"100":-0.020102282650391254,"101":-0.01557173590338548,"102":0.017153067050249306,"103":-0.02710141120352189,"104":-0.028843241283638958,"105":-0.007673378277115688,"106":0.026272094133101692,"107":-0.05702589873971886,"108":0.011821574852179441,"109":-0.08094300748968357,"110":-0.07530555925135533,"111":0.018057152721538718,"112":0.03662820985542008,"113":0.04282421661658892,"114":-0.010811904610476568,"115":-0.01628832782841439,"116":-0.009212915156457314,"117":-0.03881602715759764,"118":0.03746147569128641,"119":0.0007140288196564756,"120":0.023957862905356557,"121":-0.0511137701956495,"122":-0.09365961457276722,"123":-0.06693985761006645,"124":-0.00034740613179648874,"125":0.02035701381190767,"126":0.0810158529960569,"127":0.03289197283797327,"128":-0.008759828755762549,"129":0.01657483533983885,"130":-0.02074440879934004,"131":-0.06120462289972021,"132":0.07532368986698926,"133":-0.02726723521013558,"134":0.010305866330680131,"135":-0.04162951489765068,"136":0.00925719899614621,"137":0.004895559295118822,"138":0.07657897107142178,"139":0.037176293547623876,"140":-0.07979059974325184,"141":-0.022465187918243493,"142":0.04106978927592046,"143":-0.05769561811499728,"144":0.05944146108465206,"145":-0.1332720483367583,"146":-0.028473535850973983,"147":-0.026690732804050054,"148":-0.055296225135533617,"149":0.007951469592869445,"150":0.08189198516442375,"151":-0.05410136724230214,"152":0.0006597814863694245,"153":0.02151510512475905,"154":0.08799288580305933,"155":0.016019651042266263,"156":-0.010317154813828762,"157":-0.0787906473028773,"158":0.02658564109879649,"159":-0.07846612529248799,"160":-0.03901512898784098,"161":0.03229996867722363,"162":-0.05030648670583227,"163":0.07628488279568149,"164":0.03275986793824322,"165":-0.014473512323616539,"166":0.1490051451322157,"167":0.010998308869852959,"168":-0.049586225569668754,"169":0.04600306614050136,"170":0.1306399198352104,"171":0.04342586986907943,"172":0.05174399195967427,"173":0.0007226575622039088,"174":-0.055133617715922956,"175":0.031878008001648445,"176":-0.00610487210147286,"177":0.002083379189142235,"178":-0.014401081132557132,"179":0.04826549329566479,"180":0.020184534431899066,"181":-0.005300794439678055,"182":-0.024595975034324646,"183":-0.06263087153508723,"184":-0.0671859805742799,"185":0.026081932622756796,"186":0.0517548041718851,"187":-0.021014471046583025,"188":0.08820326781118393,"189":0.026681880780730693,"190":-0.042027127168850924,"191":-0.014791997015972662,"192":0.034828268382895,"193":-0.04160508078443259,"194":0.11367694774337753,"195":-0.007340827949699499,"196":0.0867345513195828,"197":-0.03501480950245999,"198":0.014053543259941978,"199":0.09528524639569046,"200":0.05009216442925753,"201":0.0002508088234798977,"202":0.09967234330752488,"203":0.010555423182015163,"204":0.029170921406275432,"205":-0.06834110195421716,"206":-0.010563518438377531,"207":0.04489129625302825,"208":-0.03424544662902244,"209":-0.018401044653113173,"210":-0.05078614254037448,"211":0.08030831807913488,"212":0.0152021926712905,"213":-0.04538275418180404,"214":0.16949771611611184,"215":-0.0013930361499915798,"216":-0.05717298905806142,"217":-0.026721725759267623,"218":0.049669770062189325,"219":-0.08289844299513315,"220":-0.05831413382509364,"221":0.04149225498842777,"222":-0.06507683332057457,"223":-0.03272109403828704,"224":-0.04325785436693251,"225":-0.01938115851459566,"226":0.11517948815458454,"227":0.025497698031810297,"228":0.04326225004627715,"229":0.06357660261534247,"230":0.12833338708432118,"231":-0.029665492559379645,"232":-0.12967775784018162,"233":-0.024006019363121994,"234":-0.048864944583483824,"235":-0.06299753159161371,"236":-0.09215709692227152,"237":-0.03399858319101409,"238":-0.017123906748407487,"239":0.12282562344727137,"240":0.11045699255042375,"241":-0.11614988711977073,"242":-0.16188179711727904,"243":-0.05863259436826963,"244":0.09846799402527458,"245":0.04281239320021883,"246":0.09774566941691476,"247":0.012843984058711178,"248":-0.03959245933130544,"249":0.011866634152640236,"250":0.061384897264892845,"251":-0.008155777577840292,"252":0.027564446580267715,"253":-0.0878389889754674,"254":-0.11553836387020021,"255":-0.05462957162424746,"256":0.08646124262226626,"257":-0.049370858910582724,"258":-0.031508700551206664,"259":0.05493312630609993,"260":-0.012076259450695832,"261":-0.016149331594730792,"262":0.0029398597914952317,"263":-0.001781096025195597,"264":0.028129182113545734,"265":-0.03866989628659394,"266":-0.14502860543031498,"267":-0.02403420670028147,"268":0.02423063443666643,"269":-0.022716530783703483,"270":-0.009021913254208152,"271":-0.0269583348681395,"272":-0.03598436438570307,"273":-0.023076038364876393,"274":0.05140812354600687,"275":0.028377313708158186,"276":-0.05826703494779016,"277":0.11498773381622264,"278":0.05875065971528219,"279":-0.01774616147125913,"280":0.034854278765709026,"281":-0.09726796317629527,"282":0.004566249672989214,"283":-0.08699088407558549,"284":0.02732607196398927,"285":-0.024843484482467662,"286":0.08188209452910086,"287":0.11139566272124134,"288":0.009204881816405757,"289":0.02366550358255611,"290":0.03711125325789309,"291":-0.017004074352013412,"292":0.08973013459420554,"293":-0.09718905539377752,"294":0.06738102021055682,"295":-0.017213662390466667,"296":0.07652859151863102,"297":0.03041415654152115,"298":-0.012091238945758422,"299":-0.039035214932233366}},{"sx":5,"sy":5,"depth":12,"w":{"0":-0.030775188404287113,"1":0.019866320943784606,"2":-0.0025526246070603107,"3":-0.02387301432199148,"4":0.016612486208454947,"5":-0.0009242682533676264,"6":-0.02118096086556814,"7":0.014690720173061349,"8":-0.023754290474064743,"9":-0.04595756914844982,"10":-0.00574282182354012,"11":-0.04733560098263833,"12":0.004340220299428011,"13":0.013619659955211024,"14":-0.0004528063651558411,"15":0.003651560577153624,"16":-0.0013084836071983862,"17":-0.04732387200445011,"18":0.02538349749654062,"19":-0.0005906315620204788,"20":-0.00024905319086761143,"21":0.009736839672073519,"22":0.029556633954451163,"23":0.015832174844672444,"24":-0.030534028795537065,"25":-0.009433086847324574,"26":0.0032499402978752264,"27":0.016583137127041896,"28":-0.009885570876996246,"29":-0.0279610838176377,"30":0.004923478445536779,"31":-0.01471289612481067,"32":0.04186045292033291,"33":-0.008345727136059838,"34":0.012371237456092777,"35":-0.024809701013758956,"36":0.004618969139969809,"37":-0.00311232695534187,"38":-0.007007091009706351,"39":0.050907526731328534,"40":0.01774462816557619,"41":-0.010358124773317266,"42":-0.03380911240088932,"43":-0.024883794110442396,"44":-0.025548923110848387,"45":0.01521779859812079,"46":-0.018987234232495275,"47":-0.012625161085513243,"48":-0.023163636922639976,"49":0.004130068725447484,"50":-0.037559120105873485,"51":-0.020789297885303037,"52":-0.003830790990033099,"53":0.017129940806067896,"54":-0.015581498426600207,"55":-0.015075980375131727,"56":0.02284299807443732,"57":0.036091425509709035,"58":0.03943465565443425,"59":0.01704039924682943,"60":-0.004439581877076127,"61":-0.010192575294342358,"62":-0.018762955882035942,"63":0.009294856484260693,"64":-0.05647938504730345,"65":0.004756308641436776,"66":-0.0017657835784405562,"67":-0.03430665478344548,"68":-0.013246536799674354,"69":-0.006977968524296256,"70":-0.0187377054279057,"71":-0.009711617718863676,"72":0.004619232954408775,"73":-0.003158105180275767,"74":-0.023496963181526838,"75":-0.02484776137509067,"76":-0.009837537140643785,"77":-0.036711156177032606,"78":-0.015497020008369215,"79":0.0042872632057938025,"80":-0.018260322024784677,"81":-0.023281191603241252,"82":-0.026140478328961315,"83":-0.038031333162772255,"84":0.0091540381086561,"85":-0.05841271646433974,"86":-0.018743034152604657,"87":0.0047173446788722805,"88":-0.002482238684655516,"89":-0.011567250261088237,"90":0.012666692195170692,"91":-0.00724119257152384,"92":-0.01907564801470644,"93":0.07231210215770255,"94":-0.0745542659459008,"95":-0.022212269690724207,"96":-0.02413270308490445,"97":0.016496029298978924,"98":-0.03230112214415838,"99":0.02714699401185419,"100":-0.0003711745954746493,"101":-0.03196601505705694,"102":0.024897852017169163,"103":-0.02165004922125946,"104":0.017099726863604964,"105":-0.016935417817217482,"106":-0.021703127233012823,"107":-0.017443861875971935,"108":0.020938470115628004,"109":-0.030372293799557852,"110":0.04790498292912399,"111":-0.016551033154927345,"112":-0.03733631017257294,"113":-0.02786674901432378,"114":-0.05831766539802712,"115":0.00012494538661433723,"116":-0.011962732405966427,"117":-0.003636912375436731,"118":-0.005801684341021088,"119":0.02050286436937865,"120":-0.015565465874947481,"121":0.000502165455714692,"122":0.0029870998344880125,"123":-0.009123526828822594,"124":-0.04777383186810321,"125":-0.04059065542846628,"126":-0.0003327894186023716,"127":-0.02065523807882945,"128":-0.025487512035504527,"129":0.021179467074465875,"130":-0.030323788225468773,"131":0.026791666197546606,"132":-0.005438416217063307,"133":-0.030290604388306833,"134":0.022359925204849317,"135":-0.025992118445151983,"136":-0.001406847356928186,"137":-0.03521777978499585,"138":0.00670187841728541,"139":-0.005995137119671882,"140":0.018824545258595046,"141":-0.03740394883212367,"142":-0.014446541387114842,"143":0.005044020377291286,"144":0.0211164951925302,"145":-0.032281250039143006,"146":-0.06084023436130524,"147":-0.03859968905821605,"148":0.014791780133780047,"149":0.00028452031086468053,"150":-0.017491918228009804,"151":-0.019242130146698417,"152":-0.022483712725297946,"153":0.0043127487404753,"154":-0.0730473258600459,"155":-0.01635611137761172,"156":-0.005785858002177102,"157":-0.03194313298170029,"158":-0.0026761869987903444,"159":0.0009680260611348952,"160":0.037518588916781254,"161":-0.007571117245023989,"162":-0.02678167882750704,"163":0.0028512217716779595,"164":0.001529082820426613,"165":-0.00991362090003459,"166":-0.11511774871645158,"167":-0.04633240697498193,"168":0.027596925751866567,"169":0.0054446856436404945,"170":-0.014703559895551974,"171":-0.03110285117222725,"172":-0.04182542504429515,"173":-0.008467572816115232,"174":0.022376348571557497,"175":0.04031432237356347,"176":-0.004617138189281891,"177":-0.013846901116353977,"178":0.01460148929151871,"179":-0.026399686301712574,"180":-0.049163572355671384,"181":0.004389129384180586,"182":0.008369155630508739,"183":0.0026848629222084833,"184":-0.009469250267694908,"185":-0.003759423723091451,"186":-0.04793542113531003,"187":-0.02615601075557956,"188":-0.023920927253876324,"189":-0.009185861733479897,"190":0.020911623106242845,"191":-0.01655746297719124,"192":-0.007188443217117159,"193":-0.03929829486789916,"194":-0.0008168681816946983,"195":-0.02106821507900378,"196":0.019390529300533196,"197":-0.013544804941592289,"198":0.019030612937068585,"199":0.015987867210557262,"200":-0.012305781676257802,"201":-0.013067710286662747,"202":-0.04508690069063091,"203":0.01839431022108818,"204":0.004004746685625862,"205":-0.025512422506134363,"206":-0.013196690325673712,"207":-0.0038126178808267686,"208":-0.05446696002105561,"209":0.05204796749586306,"210":-0.00806109897855762,"211":-0.010909057397467035,"212":0.011581592855740327,"213":-0.01399123964205596,"214":-0.02449305542656301,"215":-0.039905799163128884,"216":0.005006359805700455,"217":-0.021952317361040457,"218":0.007015442724602963,"219":-0.0466957903104612,"220":0.0766023256116392,"221":-0.05336237760659521,"222":-0.020040113713096847,"223":-0.019838798392469607,"224":0.06908421552500452,"225":-0.030878751580194458,"226":-0.03449819797084115,"227":-0.0015772255632562062,"228":0.0003449039910595929,"229":-0.06069199442640739,"230":-0.024990087489737037,"231":-0.052990739252548866,"232":-0.0016838377030481777,"233":0.06550127107145125,"234":-0.001685082243076745,"235":-0.05254196411795077,"236":0.017074000747536233,"237":-0.029285703550477295,"238":-0.027946233002892173,"239":0.03919629074620049,"240":-0.018201803202976954,"241":-0.010027408839144597,"242":0.060715809449506435,"243":-0.010636732375000311,"244":0.017774951942121645,"245":-0.030555481784524358,"246":-0.023934126978110377,"247":-0.04287619471658737,"248":0.006654346638072522,"249":0.028632500232577213,"250":-0.009711393772242977,"251":-0.025793898676418372,"252":0.0005688135207477501,"253":-0.03384862398939703,"254":-0.02573595933760249,"255":-0.008402417979340979,"256":-0.021374570824395357,"257":0.012745597616425335,"258":0.05672899655838199,"259":0.029125061559377823,"260":-0.0021970018282042054,"261":-0.03031580569652122,"262":-0.048095779751255445,"263":0.0262756295666471,"264":0.035619686076215996,"265":0.015686660376917384,"266":-0.014299584292445034,"267":0.01608943233092119,"268":-0.016409284273367596,"269":0.011673536649730901,"270":0.015140138051531938,"271":-0.022940724076495094,"272":-0.008986247610224967,"273":-0.05589378973224431,"274":-0.04477093451749099,"275":-0.004424878281326713,"276":-0.006709039156828045,"277":-0.02962908521062347,"278":-0.012110413134850954,"279":-0.011123151178685864,"280":-0.030337907787789407,"281":0.02082042460423082,"282":-0.019568484967180222,"283":0.03795634559137573,"284":0.03513502908907639,"285":0.008693232128684088,"286":-0.011316459273131397,"287":-0.020759419684250546,"288":-0.022227263578191585,"289":-0.01237007588100627,"290":-0.04605927486171634,"291":-0.023430105939886703,"292":-0.06066591173082597,"293":-0.017090913264854964,"294":0.03900783425436728,"295":-0.0019387910309262265,"296":0.032917307532547624,"297":0.02913963613578934,"298":-0.03645114414643215,"299":-0.0212901402333403}},{"sx":5,"sy":5,"depth":12,"w":{"0":0.005150202158606945,"1":0.019512284568809067,"2":0.00034403533901160185,"3":0.038577891446575314,"4":-0.019724638730308042,"5":-0.014255679026476443,"6":0.02468006650114272,"7":-0.023046692472746787,"8":0.01482900032727978,"9":-0.02409403676825805,"10":-0.06887519861282615,"11":0.0006944413501529813,"12":0.025192303910260946,"13":-0.06514103396994134,"14":-0.07123357048239606,"15":0.020522183049842973,"16":-0.0424328309296755,"17":-0.015933662989693006,"18":0.020496168978869394,"19":-0.017992686552192647,"20":0.015230578480283592,"21":-0.016967879824930355,"22":-0.04355164085012345,"23":-0.032843028010961985,"24":-0.02260734032376896,"25":-0.00629354345394141,"26":-0.031069598305375663,"27":0.013907799129526346,"28":-0.0014596082053210605,"29":0.0709353524859833,"30":-0.024548172077609114,"31":0.004595608961235887,"32":-0.0166021101386085,"33":0.033368972398724564,"34":-0.039382982850799,"35":-0.04198913655149118,"36":0.026646617368462272,"37":-0.008480982543748598,"38":-0.057554996071345,"39":-0.009610304215253126,"40":0.013311552539154703,"41":0.027637738407793027,"42":-0.00034428573167673504,"43":0.03767092273138251,"44":-0.051134945966204326,"45":0.03380480398072182,"46":-0.03402293304527242,"47":0.023058286581836687,"48":-0.009286207434707228,"49":0.011966257345170752,"50":-0.02784196420124051,"51":-0.03555712317035926,"52":-0.023918275138441688,"53":0.02179542010479143,"54":-0.029809409776276743,"55":0.023536688865298496,"56":-0.02178348288534364,"57":-0.039442838673051414,"58":0.016723308817169515,"59":-0.0477998260767097,"60":-0.0011214902231948718,"61":-0.04830021380076368,"62":-0.03698627122908407,"63":-0.02884635212277284,"64":-0.01111321628619158,"65":0.039242043401798446,"66":-0.015031041111973568,"67":-0.01106436872875263,"68":0.031076844779017038,"69":-0.02194385578677484,"70":0.01628248610889848,"71":-0.02526023064808732,"72":-0.002423731369668773,"73":-0.019107311066067726,"74":0.004008579676357943,"75":-0.022433888675522255,"76":0.011206761817758128,"77":-0.03604283094404318,"78":0.013914058096933177,"79":0.006134411951870241,"80":-0.013712736964610216,"81":-0.019331595708853642,"82":-0.014231748796702897,"83":-0.011392653645920523,"84":-0.005556906670931279,"85":-0.016999794485898195,"86":-0.033708594984499844,"87":-0.016629607020502556,"88":-0.033502736761603015,"89":-0.008177860450950437,"90":-0.07414963974831942,"91":-0.016575384067262534,"92":-0.07244266216339726,"93":-0.012444639929418841,"94":-0.047554325218526684,"95":-0.021941533310832283,"96":-0.024949674623078583,"97":0.00005367904869334559,"98":-0.020939892785983856,"99":0.021401890678649716,"100":0.021295193286835476,"101":0.00706437398418303,"102":-0.013663222391796253,"103":0.007456026225284988,"104":-0.03764867415835798,"105":0.013118414985392715,"106":-0.025387837273981684,"107":-0.06699436143553462,"108":-0.003920251355991384,"109":-0.022215920444567945,"110":-0.039067708728426034,"111":-0.004210491403705902,"112":-0.02664421620228537,"113":-0.05983571500286866,"114":0.02193299830581121,"115":-0.02488519812641992,"116":-0.06516780433679895,"117":0.04794855475296445,"118":0.026090549202434653,"119":0.009017854547164661,"120":0.008768672575365672,"121":-0.00835802844526552,"122":-0.05769892097302806,"123":0.018607086615804007,"124":-0.02189493662283559,"125":0.03414338407406558,"126":0.012173864718028556,"127":-0.009672608115093451,"128":0.01869621357757894,"129":0.010350365779538174,"130":-0.023460432826823818,"131":0.018245955467012492,"132":-0.0009874497026377002,"133":0.028799808107435442,"134":-0.018176524828182838,"135":-0.016804490308482387,"136":-0.022932008376263708,"137":-0.0496858021561752,"138":-0.010292036745053582,"139":-0.045890092920625986,"140":0.002452330619380001,"141":0.0025183795221692725,"142":0.0030625534726890636,"143":-0.0037224500040406185,"144":-0.05493507995093376,"145":0.0015159005042829177,"146":0.0211268446339632,"147":0.020533883019562917,"148":-0.02820744337563306,"149":0.022408862158182264,"150":-0.005772150132478238,"151":-0.007738770029009344,"152":-0.007893608741733947,"153":-0.03559879422778112,"154":-0.012063541186441788,"155":0.061498644263001036,"156":-0.02389101506580697,"157":-0.04084784488719721,"158":-0.028673258008989812,"159":0.01588469392891372,"160":-0.043923359645177754,"161":-0.02777435171860805,"162":0.008996420322035787,"163":-0.0297584324084012,"164":-0.018657090393036493,"165":-0.01917776453462116,"166":-0.025037506248657877,"167":0.033979684256230894,"168":0.028858818531056596,"169":-0.0006053994471712624,"170":-0.03889760312205136,"171":0.0085565038348534,"172":0.00952653626183744,"173":-0.0023585054150215084,"174":-0.012520284347834986,"175":-0.008176551824394042,"176":-0.008866515403580747,"177":-0.015097449968328224,"178":-0.006015850547810456,"179":-0.0004873331630518323,"180":0.09607108660384713,"181":-0.003421524958946666,"182":0.025206785720655274,"183":-0.011461564896211123,"184":0.03760729393200601,"185":-0.015322396553935306,"186":0.003952683421830412,"187":-0.013344578095696778,"188":0.0029394807333100793,"189":0.00986189926439617,"190":0.017463388434866167,"191":0.024095163680425198,"192":0.004050054609417559,"193":-0.04330237032077829,"194":-0.01705136721522022,"195":-0.041571838891042545,"196":-0.01097297793940785,"197":-0.006681144331795286,"198":-0.02471350276291567,"199":0.04532499565698625,"200":0.03299370190152169,"201":-0.02266180046990713,"202":-0.06303622630276723,"203":-0.01669333646991308,"204":0.000244343371455578,"205":-0.0018366114970382148,"206":0.04753202570396575,"207":0.0020320989268516063,"208":0.008001073899687895,"209":-0.005815889221598679,"210":0.0035757968771876593,"211":-0.02143415118909252,"212":0.013563481042537242,"213":0.05534265721661523,"214":-0.0004619938704890176,"215":-0.04341769864650752,"216":0.05538981045950634,"217":-0.01982628375827154,"218":0.047805540286922424,"219":0.060988152715122784,"220":0.019330096374610542,"221":-0.03879525311243247,"222":0.03191385127386349,"223":-0.04249055013686563,"224":0.014893078322871879,"225":-0.0028476108020024293,"226":-0.008567403544012732,"227":0.03513499981241677,"228":0.020747002668537115,"229":0.01601146746180486,"230":-0.03368108660638301,"231":-0.017991393998988598,"232":0.015593203121672363,"233":-0.014708006533382645,"234":0.018387723415644014,"235":-0.04425464563491158,"236":0.017873919172076144,"237":0.013007504116783124,"238":-0.042505148017537006,"239":0.034060677986302794,"240":-0.003009230502013881,"241":-0.049609156241053914,"242":-0.01822221704712467,"243":0.005309488221009492,"244":0.005258184541053104,"245":-0.021174267527022294,"246":0.00037939882401806583,"247":-0.06816688777299863,"248":0.027247009057520987,"249":-0.003571124359033973,"250":-0.014401380882042111,"251":-0.04889543876118716,"252":0.005475350682661212,"253":0.01946632920947344,"254":-0.03703322820495983,"255":-0.06716368439194842,"256":-0.005420825127218905,"257":-0.0032745507110596493,"258":-0.028660916740698823,"259":0.00774671659798125,"260":-0.011253897083347888,"261":0.011586912062805502,"262":-0.03535822514982791,"263":-0.01484247403328822,"264":-0.00031186851006395074,"265":-0.016142979198473784,"266":-0.005080130918473443,"267":0.026875469784845927,"268":-0.02016247403072884,"269":0.00038224585842674285,"270":-0.026080499995214466,"271":-0.011919696771266447,"272":-0.08454829559849736,"273":-0.028829834430684095,"274":-0.04054412025806099,"275":0.013937343006071164,"276":0.005655773189039552,"277":-0.04739115136956795,"278":-0.03204129216491289,"279":-0.004532992460796358,"280":0.008518004692516859,"281":0.045264486625037605,"282":-0.017921792830351755,"283":0.016512218836890406,"284":0.00892170679340804,"285":0.041009870579340815,"286":0.008262638106504893,"287":0.04353146050658504,"288":-0.008488232909369358,"289":-0.014557425191874437,"290":-0.03773879074566049,"291":-0.0171707223519828,"292":-0.059881349663287634,"293":-0.043880743902356315,"294":-0.028124715326106345,"295":0.001724875187057588,"296":-0.026028045748140313,"297":-0.012084188785985767,"298":-0.07137497915139394,"299":0.07774744737158594}},{"sx":5,"sy":5,"depth":12,"w":{"0":0.11610193633092401,"1":0.0841050165951533,"2":0.10415751605220891,"3":-0.06771743629513433,"4":-0.055619887445526324,"5":-0.11895551946667825,"6":0.026386851244465277,"7":-0.032886374228380005,"8":-0.2012108368622759,"9":-0.10706607141123162,"10":-0.13023553211058778,"11":0.06175406069555633,"12":0.08482337530281987,"13":0.2745757755178808,"14":0.04554348822385017,"15":-0.00815488096110528,"16":-0.042792082501745383,"17":-0.010855379104490427,"18":0.12878610699164775,"19":-0.013923113091412285,"20":0.1527874255820934,"21":0.09717892193941656,"22":-0.1844352249198572,"23":0.08182434016366258,"24":0.15194983927993652,"25":0.03542210518260966,"26":-0.07931881229453239,"27":0.04613654980033028,"28":-0.017581444809112702,"29":0.08745935851020978,"30":0.14998938443894122,"31":-0.016872830684251116,"32":0.14300405822820736,"33":0.004356837168586522,"34":-0.19175474137755574,"35":0.020678117168429,"36":0.12809531030432908,"37":-0.04622587835317237,"38":-0.08397043617588151,"39":0.05634417037593013,"40":-0.040520643406414245,"41":0.003830180399388096,"42":0.05548701844036481,"43":-0.03084419991975457,"44":0.06899778138829502,"45":-0.03943710755455805,"46":0.018001190477772412,"47":0.07871350776306779,"48":-0.08191631355280893,"49":0.002574485863925441,"50":-0.04518920543816769,"51":0.10397543246230481,"52":0.0981246858545958,"53":0.14867450160534135,"54":0.03365625460709446,"55":0.15164271604089696,"56":-0.1413966346859616,"57":0.024636244368566502,"58":0.12783698826508033,"59":-0.03380860999774392,"60":0.0012088841358862507,"61":-0.19580976432013983,"62":0.03801819319595825,"63":-0.02585686044719522,"64":0.037931371301406315,"65":-0.1014146719936781,"66":-0.003976247910438967,"67":0.07721721069980074,"68":-0.07443233948699833,"69":-0.12111951616636916,"70":0.13941030087529419,"71":-0.0008138591358247079,"72":-0.10819472759616032,"73":-0.14338471075112985,"74":0.19827582142828504,"75":-0.12150595056778306,"76":-0.21503287448121025,"77":-0.12695541295215212,"78":0.06911485003923776,"79":0.08279391638863821,"80":-0.1265033999576167,"81":-0.06039338230904494,"82":-0.07375685782704484,"83":0.0029860803016918762,"84":0.03267548514968262,"85":-0.04713335129719084,"86":0.24037905419966182,"87":-0.06570370284975012,"88":-0.10652269711335759,"89":-0.03937954716396209,"90":0.05727186098435923,"91":0.07257224662755085,"92":0.10308628332921396,"93":-0.006633459393106311,"94":-0.07659701097798333,"95":-0.023652794917426893,"96":0.022474638112424686,"97":0.062118060046297996,"98":0.019931330313740704,"99":-0.10370174353048243,"100":0.1445396613088821,"101":0.025754380359425788,"102":-0.1115083377199531,"103":0.02875873077936434,"104":0.09192631222285418,"105":0.050718516699280965,"106":-0.0028879840963907384,"107":-0.040342822259493545,"108":-0.08978049026347083,"109":-0.053243154315302695,"110":-0.06376134676203311,"111":-0.07619627314021962,"112":0.12852035595868896,"113":-0.020535181632302914,"114":-0.1514790697586135,"115":0.0013277374680301566,"116":0.09392300617979084,"117":0.027015326761538862,"118":0.17194278550456665,"119":-0.06070955169518843,"120":0.06674304836083915,"121":-0.06208713748449717,"122":-0.11178400051706235,"123":0.012910398001419616,"124":0.22124031315655607,"125":0.10090847097844251,"126":-0.23055195932446557,"127":0.0958490692666708,"128":-0.2591929750834309,"129":0.010677415008571785,"130":0.23195636297509403,"131":-0.17910941888316262,"132":-0.08062861656511094,"133":-0.08819382388861524,"134":-0.08284036736973391,"135":-0.10861401423046795,"136":0.08188870357745634,"137":0.07022795940033094,"138":-0.206252359131268,"139":0.04763131840664579,"140":-0.1676074748160005,"141":-0.09093438829550667,"142":0.23287734769261165,"143":-0.3904776113926732,"144":-0.23707100646056634,"145":-0.1065700744959603,"146":0.1131007647119094,"147":-0.09066439355585919,"148":-0.03968500240902333,"149":0.04216607083911948,"150":-0.12801038729955524,"151":-0.034906738939186215,"152":-0.12521520732477448,"153":-0.035984730946829836,"154":0.09173013603988033,"155":-0.07130398931169914,"156":-0.1155674600224999,"157":-0.02613207175880328,"158":-0.03843474242999711,"159":-0.041997222571293284,"160":0.056236285351450296,"161":-0.022087723549721792,"162":-0.002031939573829154,"163":-0.0018502397331147573,"164":0.011634086390621934,"165":-0.04063355040678614,"166":0.02313855015061467,"167":0.029139352331033253,"168":0.008509264849444486,"169":-0.009306775319595048,"170":-0.10612446450675876,"171":0.02557458951295024,"172":0.1531583091332236,"173":0.0004734099628725525,"174":0.05361737783427349,"175":0.011588480166291047,"176":-0.16829759460251859,"177":-0.058003725347941015,"178":0.11735064844076934,"179":-0.06282303549285817,"180":0.10808126465622492,"181":0.2113983540259017,"182":-0.10932297527410503,"183":-0.007839223903727455,"184":0.016006307633350307,"185":0.08619279884187617,"186":0.10662635852097495,"187":0.03195531636709544,"188":0.06465479600165919,"189":-0.06157351038323996,"190":0.031098463401240308,"191":0.1307003707955415,"192":0.009674321378974676,"193":-0.0309662635644212,"194":-0.15507584668860613,"195":-0.07399762632739673,"196":-0.0038499004843619697,"197":0.24113480362230996,"198":-0.06450366790240905,"199":0.0552878202174717,"200":-0.11504392913261925,"201":0.046157149794085146,"202":0.00275193033698143,"203":0.03553062229726286,"204":-0.04456234015574548,"205":-0.032448549164710294,"206":-0.07366474727140424,"207":-0.026518458095313353,"208":-0.05364419009138837,"209":0.13202004986279847,"210":-0.16743207318009903,"211":0.0435813477345109,"212":-0.094507153321738,"213":0.05174157088752883,"214":-0.03999354406815445,"215":-0.03565878295209577,"216":-0.021190914726650266,"217":-0.06859196619122442,"218":0.09890641534585425,"219":-0.07316778499058563,"220":0.019321539561224153,"221":0.06210967755584318,"222":-0.03825745806776346,"223":0.03334092391084271,"224":0.02013441519579362,"225":-0.03132083708933037,"226":-0.00279020985970076,"227":0.018867868823749953,"228":0.043712114320309456,"229":0.121858951953204,"230":0.11227269803425695,"231":0.039124799827589464,"232":-0.04584886563910103,"233":-0.037112551951223885,"234":0.05536583402197768,"235":0.012185067004413607,"236":-0.02440182176304094,"237":-0.017729884869634872,"238":-0.018046974416354316,"239":0.05866045065467318,"240":0.17668185292972077,"241":0.11006598588876382,"242":0.04073030774240664,"243":-0.037040040849756824,"244":-0.15174281532021372,"245":-0.12477648887633914,"246":0.174063969125499,"247":0.05940260801925718,"248":0.08511167363554005,"249":0.010215318073152013,"250":-0.09541763412391126,"251":-0.07918878431946515,"252":0.06617365842218827,"253":0.1495905701028108,"254":-0.11224030788243645,"255":0.004527750573681536,"256":0.057671368219303,"257":0.0677643129863467,"258":0.025165728008129,"259":-0.09567843925058976,"260":0.061833381669180565,"261":-0.014709936199515666,"262":-0.11375253064993138,"263":-0.12614780070060663,"264":0.05411497438390667,"265":-0.03819240888943417,"266":-0.06703479081177087,"267":0.030850926931283017,"268":0.05596591302216343,"269":0.009030579951322075,"270":0.005196892676871222,"271":0.04294897253144688,"272":-0.011176152121959458,"273":0.05179295858166766,"274":-0.07537294509609513,"275":-0.052519802383137706,"276":-0.13712457711474121,"277":-0.13676036351856272,"278":-0.050841398871439125,"279":0.10311692939316923,"280":0.09276991300075643,"281":0.06627136122997057,"282":-0.12364207681804534,"283":0.08442983960669101,"284":-0.03017642726341415,"285":0.045883193537801695,"286":0.119229259916169,"287":0.047164517051554146,"288":-0.05349872282500389,"289":0.02368548756622999,"290":0.06562219640690699,"291":-0.05601041124887571,"292":-0.011698357041439558,"293":0.033897552029043314,"294":0.027383425427468397,"295":-0.10972965642064172,"296":-0.0485913633591568,"297":0.04790403605916522,"298":0.04975834783759823,"299":-0.005582512006368271}},{"sx":5,"sy":5,"depth":12,"w":{"0":0.015576273890428618,"1":-0.013092122949942147,"2":-0.04395818199322523,"3":-0.04040391278513249,"4":0.011913554312233687,"5":-0.0066461350259336945,"6":-0.00038592824925157794,"7":-0.05209603378015962,"8":0.0033254183955005677,"9":0.006154452741355678,"10":-0.007147951709896306,"11":-0.032785551935273605,"12":0.020187571678263377,"13":-0.022236931935979243,"14":-0.02031162111928464,"15":0.003925269665175032,"16":0.008512337853369824,"17":0.01915278495139052,"18":-0.025989187572826603,"19":0.005664359888113728,"20":-0.021184268898321784,"21":0.014088803733745218,"22":0.021475621337981046,"23":-0.007353477873767461,"24":0.046392661349212605,"25":-0.03076993286331174,"26":-0.06758516071946345,"27":-0.009783596402633602,"28":-0.009609203895451007,"29":-0.006588080843747112,"30":0.012887123796051472,"31":-0.002650800534105021,"32":-0.05856347767507709,"33":0.07905794052794136,"34":-0.039468682009690025,"35":-0.0016950127347162564,"36":0.023846702480676545,"37":0.012262370353563918,"38":-0.02686498438499537,"39":-0.0422561503522691,"40":0.02705619162215181,"41":-0.008047673613211626,"42":-0.009704351419838352,"43":-0.03957517017643775,"44":0.02245871105294674,"45":-0.027778139006661248,"46":-0.018223885493094623,"47":-0.010115817674013929,"48":0.006968081974848825,"49":0.004631509812202829,"50":-0.03895481183428818,"51":-0.010966384267286147,"52":-0.011322699937390207,"53":0.038262243696435355,"54":-0.019833643510215097,"55":0.004344720898690715,"56":0.035658076878470314,"57":0.02395091678743345,"58":-0.04768600889251052,"59":-0.010586849715182518,"60":-0.03819602347441546,"61":0.030407386207897787,"62":-0.045461237334575744,"63":0.034362308693527854,"64":-0.01712852525889846,"65":0.00779219169678648,"66":-0.002211664386454793,"67":-0.030420935590654615,"68":0.0011006140517655838,"69":-0.007280227985643022,"70":-0.03631708208155567,"71":0.045047957315977855,"72":0.010882352161584794,"73":0.008459716501825514,"74":-0.031424916405952914,"75":-0.005755819020667225,"76":0.018646760281014505,"77":-0.01574580783414154,"78":-0.0037332514866856696,"79":-0.04600644962427753,"80":-0.0429952932913474,"81":-0.005120957693027976,"82":0.00647935453388936,"83":-0.029997354813935714,"84":0.011178956421554132,"85":-0.033084889702106685,"86":-0.012955884177917558,"87":-0.009133636939569036,"88":-0.0057148010652166075,"89":-0.045140709231718305,"90":-0.0702962876035069,"91":0.024775390840547695,"92":-0.031615708407618286,"93":0.02876356470070492,"94":-0.05544374534735412,"95":-0.01593188852030823,"96":-0.040440176648999696,"97":-0.007078648232425886,"98":0.06934197647754282,"99":-0.03618612662703805,"100":-0.008116169738903724,"101":-0.0042014931527086935,"102":-0.04610816911465335,"103":-0.05838936025825128,"104":-0.032225884129964494,"105":0.012224183140213209,"106":-0.03364202441335558,"107":0.024320831605260905,"108":-0.007903037706618715,"109":-0.00009526587801065739,"110":0.002437600458955744,"111":-0.03179817133548618,"112":-0.03899953552310694,"113":-0.01886877940574723,"114":-0.0012921988111775672,"115":-0.00240322788491268,"116":0.011504873855724075,"117":0.034537023556058,"118":0.0005709229604238165,"119":0.0589164410365163,"120":0.013098361003735239,"121":-0.03879356609179516,"122":-0.02117880025039136,"123":0.011401945448399628,"124":-0.006751666641816754,"125":-0.013471255604916122,"126":-0.02664262774234717,"127":0.002238908259242247,"128":-0.005904581299546749,"129":0.012296540894058785,"130":-0.02885078947913708,"131":-0.009735425400712795,"132":0.010086527653789942,"133":0.007186395154179893,"134":-0.042932467956176217,"135":0.005778590076008865,"136":0.036770892731376965,"137":0.019686824161182327,"138":-0.059941344323355586,"139":-0.014904435796226474,"140":0.0019809878780313378,"141":0.017216141167506235,"142":-0.002629997148181004,"143":-0.017953741741820503,"144":-0.0014239113256592439,"145":-0.04058330150725495,"146":-0.05919593900952948,"147":0.025123607632980917,"148":-0.046812162595585724,"149":0.02828398289621787,"150":-0.03460249944694492,"151":0.00884385252460504,"152":0.030333670924340257,"153":-0.021382434682759195,"154":0.00266130601948902,"155":0.029636103184226634,"156":-0.007486491202031418,"157":-0.041111245526384003,"158":0.005595699152082479,"159":-0.006729472788686028,"160":0.021657227516223624,"161":-0.016473921788204494,"162":-0.006935849168100908,"163":0.027480025608327744,"164":-0.050302977426933786,"165":-0.026476667404339183,"166":-0.006353003895390328,"167":-0.007056961696275507,"168":-0.02536582552267986,"169":-0.010630396505238011,"170":-0.024238841546659517,"171":0.009069723644628144,"172":-0.08908017879678934,"173":0.0009236060889019008,"174":-0.010316044993387433,"175":-0.016706688780165853,"176":-0.0044140273778622615,"177":-0.02527124474504665,"178":0.01947396133800338,"179":-0.005419238782002344,"180":0.004586641174898087,"181":-0.08899212940516674,"182":0.010731749689657434,"183":-0.018668156507318345,"184":0.02423971315710376,"185":0.03888070733651251,"186":0.04990928801153614,"187":0.031401056437821366,"188":0.007526007551227346,"189":-0.0011573597491147615,"190":-0.00021176636124059682,"191":-0.007660256637309182,"192":-0.011834602769273778,"193":-0.05407580493562811,"194":0.005318961690791222,"195":0.015376714625332008,"196":-0.013049893394531836,"197":0.02783170409928613,"198":-0.011727450571177342,"199":0.02482719436786474,"200":0.03401014757010233,"201":-0.016888113277213603,"202":-0.004793726936337378,"203":-0.01462096227878674,"204":0.030486118375050785,"205":-0.0373449440444146,"206":-0.05224584856000626,"207":0.0030342261999634426,"208":0.012632687792396298,"209":-0.0005323928286582374,"210":-0.014633161475812968,"211":-0.0029991645507443077,"212":-0.026931559744679787,"213":-0.00004720634848886783,"214":-0.010785513542886394,"215":-0.00019344769835039853,"216":0.03092289864926577,"217":0.06001051808906337,"218":-0.002418410958226652,"219":-0.014865457465028197,"220":-0.024197219208197823,"221":0.029562023055816854,"222":-0.029395258231261552,"223":-0.03415818672350388,"224":-0.02974296654789297,"225":-0.01777671873221185,"226":0.03257334966790064,"227":-0.018065777704586068,"228":-0.0028401821798406087,"229":-0.005150267414890917,"230":0.010308259819408073,"231":0.010697198431487285,"232":-0.02151245324163706,"233":0.0043120406965853515,"234":-0.026609880307948558,"235":0.014717559051022129,"236":-0.03592913498242409,"237":0.020078904872229023,"238":0.029141484254863376,"239":0.04417209435719405,"240":0.009347987731441774,"241":-0.0174621472176316,"242":0.023585673648172056,"243":-0.007154235550253193,"244":0.009383047503543449,"245":-0.03387187543743225,"246":0.021664896547515803,"247":-0.0002423088019203586,"248":0.016214826595571438,"249":-0.005684314211172963,"250":-0.04356349609054284,"251":0.03044899190653123,"252":0.012891113682035936,"253":0.06950234354436913,"254":-0.008084586551493472,"255":0.008008882933495292,"256":-0.011167288072898317,"257":-0.05850755702487934,"258":-0.011410720973309252,"259":0.023744539803088518,"260":-0.011855431278255977,"261":0.00004061742593723354,"262":0.0348364313276227,"263":0.01451312300148359,"264":0.019584598591424696,"265":-0.009406714493288119,"266":-0.02869466744075527,"267":-0.007155324548850015,"268":0.022298532051002646,"269":0.03271943742227629,"270":0.012771170588921538,"271":0.002720021827474167,"272":-0.007212175913468021,"273":0.00024707025823999943,"274":-0.037169599837880055,"275":-0.001509237318423091,"276":-0.02894318439911102,"277":0.012157615784382727,"278":-0.02263076263526196,"279":-0.04657931617764236,"280":-0.018455356467761246,"281":0.006910182202374276,"282":-0.03860522368193392,"283":-0.0024558489248052997,"284":-0.01404789790732387,"285":0.017024335729345853,"286":0.012122375036048322,"287":-0.023158678722350362,"288":-0.008364883288404642,"289":-0.021513909529547893,"290":-0.021833211027607612,"291":-0.0162546147338469,"292":-0.016096264666341786,"293":0.02129390926074221,"294":-0.00606051755775631,"295":0.0016698789883530117,"296":0.037338350720313065,"297":-0.0013347240072009263,"298":0.015601044988079493,"299":0.008062249256235797}},{"sx":5,"sy":5,"depth":12,"w":{"0":-0.027606576239297617,"1":0.08318769438983552,"2":-0.09408105552514177,"3":-0.0313125247849,"4":-0.04251211512450514,"5":0.05361191948942731,"6":0.09245761582281889,"7":-0.019500164865411576,"8":-0.001627938198195851,"9":0.011979753392624552,"10":-0.04151560714253375,"11":0.03695659852243085,"12":0.025207278408814787,"13":0.07912760217693202,"14":-0.10315922596011623,"15":0.02457301365240796,"16":-0.040608143654042014,"17":-0.05855213483686097,"18":-0.04698200343190633,"19":-0.04772462787214928,"20":-0.013941396052451534,"21":-0.0032406460746262204,"22":0.014567003865567113,"23":-0.02981560304957704,"24":0.009746622361939475,"25":0.03570525476496483,"26":-0.10073765275387835,"27":0.006282715073967215,"28":0.02894603098460253,"29":-0.009565338838146684,"30":-0.11622077527818798,"31":0.04336032970085432,"32":-0.03079610053785052,"33":-0.0072900700608311535,"34":-0.03632054178229106,"35":-0.0011005495886054185,"36":0.05231634632836524,"37":-0.005961804968390162,"38":0.11451887857357684,"39":0.019034824854663995,"40":0.1851394853432733,"41":-0.022695009811697288,"42":-0.07637866528389844,"43":-0.002151338670051131,"44":0.0023024588089433605,"45":-0.03741237614865356,"46":-0.05019097481058542,"47":0.05016692389976148,"48":0.01288374086917241,"49":0.006008879917998332,"50":0.029160812421156267,"51":-0.020803594024281717,"52":0.10607963885550259,"53":-0.007380540446483971,"54":-0.030100512364143087,"55":0.020522719870761874,"56":0.005793912239102459,"57":0.008258650731905516,"58":0.0045954245004734395,"59":0.06791772322596382,"60":-0.0036541191885594466,"61":0.017688746198657145,"62":-0.0035343399505825364,"63":-0.0597413608774111,"64":-0.0810967882156067,"65":-0.0179816505672036,"66":0.01825362787894302,"67":-0.006789417372458677,"68":0.012699672097089389,"69":-0.019739192303529607,"70":-0.0402719128129086,"71":-0.03662891682407151,"72":0.021196209360054123,"73":0.0036240862345514146,"74":-0.06731347433773764,"75":-0.007088979559881778,"76":0.028144085794650775,"77":0.024643344515172118,"78":-0.07042798793562793,"79":-0.038971780269518516,"80":-0.0004413181333656856,"81":0.07260594156209921,"82":-0.04952917002405298,"83":0.05532714910480635,"84":0.018994711206423598,"85":-0.0320789554075479,"86":-0.0808284483022345,"87":-0.003634743314176405,"88":-0.0007075233732596239,"89":0.04182466140983141,"90":-0.09540556051852166,"91":-0.03909091594567139,"92":0.037738506068229115,"93":-0.027430061956754976,"94":-0.0077353408026409835,"95":0.07821206560665873,"96":-0.022028855986484474,"97":-0.04311311664259161,"98":0.0033509144050872645,"99":-0.039235310659781655,"100":0.06592022892044133,"101":-0.020816953350384856,"102":-0.04307576593043837,"103":-0.07113538870472326,"104":-0.05974303456177866,"105":0.014249207773061195,"106":-0.011345039185160269,"107":0.02441453751836023,"108":-0.043297353851073375,"109":0.042150220527497194,"110":0.013121639940684283,"111":0.05616141174513673,"112":-0.018043297673429947,"113":-0.016181657805095596,"114":0.13578240862284205,"115":-0.043379076632143354,"116":-0.01076209604453872,"117":0.03357487271855245,"118":0.051324152336796665,"119":0.06118729249432574,"120":0.007276113746071386,"121":-0.06370800371581359,"122":-0.0483726835828956,"123":-0.0006611450985436341,"124":0.02036538643172605,"125":0.013208133846853216,"126":-0.1161953844973123,"127":-0.02333987997555695,"128":0.021343249599733997,"129":0.04344216672444711,"130":0.1194029420565115,"131":-0.013591833522561578,"132":-0.011312060482495513,"133":-0.053574283091531456,"134":-0.15403437703203396,"135":0.03802462675343615,"136":0.017570933600634414,"137":-0.054728943614159066,"138":-0.09036855372131379,"139":0.008539534177157297,"140":-0.0399975530452905,"141":-0.0025927793759262414,"142":0.029421815329708192,"143":-0.026638450320542385,"144":-0.02022694511350484,"145":-0.07556321644248966,"146":-0.08469836234158756,"147":0.05891023632280373,"148":-0.1220722066244007,"149":0.015654502205937063,"150":0.009342563758352417,"151":-0.025381127454727575,"152":-0.06002989746686329,"153":-0.006631121514177715,"154":0.043932699911782884,"155":0.004292303662659803,"156":0.042604553706807546,"157":-0.09958357741971566,"158":-0.006535533478478213,"159":-0.06833208111952803,"160":0.016485803185322258,"161":-0.0017924731188635975,"162":-0.04838707513512203,"163":-0.04696837154742383,"164":0.01390687554459513,"165":0.02777986603082473,"166":0.010926094465527732,"167":-0.016028427437857404,"168":-0.0037979166318505508,"169":-0.09201111894581153,"170":-0.032385827858931376,"171":-0.0006897134430176317,"172":-0.11481621183108978,"173":-0.004857266469801312,"174":0.054806246832939616,"175":-0.054100412215914155,"176":-0.033314464894882344,"177":-0.009445874217517438,"178":0.04788001166163138,"179":0.025487628148281184,"180":-0.02736183082824835,"181":-0.061138414971874236,"182":-0.01421247421407337,"183":0.04433117023028303,"184":0.01080352342325059,"185":0.0033998714029783075,"186":0.0057419239245684395,"187":-0.013917933944109824,"188":0.020408863899924794,"189":0.008205736762483774,"190":0.1257921193520132,"191":0.06488693441211753,"192":0.005695901030700783,"193":-0.04750232946642322,"194":-0.042328102375372684,"195":0.060026349542118274,"196":0.024179077637742567,"197":-0.008783234765408331,"198":-0.0053580929698930704,"199":-0.06719072194713478,"200":-0.02976933074057195,"201":-0.01980770724831011,"202":0.045519856206538985,"203":0.013824655929560118,"204":-0.018773387019542634,"205":-0.15825461421980205,"206":-0.021713819853384348,"207":0.048872356749442764,"208":0.016338922355282986,"209":-0.0134870068871801,"210":-0.015009649007977252,"211":-0.07481107443855631,"212":-0.01246016271153379,"213":0.02097466473816488,"214":0.011913151614298874,"215":0.011368795294996506,"216":-0.00031507757756942353,"217":-0.13865724372071492,"218":-0.03606795230721856,"219":0.06731014712725693,"220":0.0764145216075418,"221":0.003989564165843767,"222":0.02058220522687889,"223":0.011398874356615655,"224":-0.005863189149820275,"225":0.016991387797760236,"226":0.13099907704240105,"227":0.0392387315917349,"228":0.018084604277902698,"229":-0.18081850510360772,"230":0.04310827291049513,"231":-0.028387641239710864,"232":0.08941837629075079,"233":0.05320771068266264,"234":-0.14298699758272854,"235":-0.012215104790598865,"236":0.032411536168005364,"237":0.008577453749597404,"238":0.10079003886447982,"239":-0.0049748836951442315,"240":-0.07166211207350873,"241":-0.03711520960979448,"242":-0.17053006277181135,"243":-0.03751776979093035,"244":-0.05452829119443481,"245":0.0065533021038633845,"246":0.019040795876190782,"247":-0.04979703380041112,"248":-0.0716511761644279,"249":-0.0024180346213965786,"250":0.11636733170643794,"251":-0.018877407107924342,"252":-0.024468327407072228,"253":-0.07017551137960941,"254":-0.09503217292468924,"255":-0.026476269975256775,"256":-0.0681414333201343,"257":-0.052725707784249815,"258":-0.04490836816903823,"259":-0.037855868786394097,"260":-0.05689717670296441,"261":0.02087579448175825,"262":0.033176011463771304,"263":-0.0260102667767467,"264":0.03072418053205319,"265":-0.04411440420858487,"266":0.0026904951501235505,"267":0.023132285355781015,"268":0.019727509067469597,"269":-0.038924588013839446,"270":0.08193704289239746,"271":-0.03064268148925723,"272":-0.0018822138827113294,"273":-0.036654468003494,"274":0.004874496905855852,"275":0.014463346217687599,"276":0.05183853452484818,"277":0.019526398808048677,"278":-0.000053637381368503646,"279":0.10687029892571884,"280":0.06400216482437546,"281":-0.035244127777331796,"282":0.049524307454355876,"283":-0.02645179576789125,"284":0.005928108739837111,"285":0.024923906918330005,"286":-0.07950188416895573,"287":-0.015193540090814887,"288":-0.00890495534461265,"289":0.02447438625084382,"290":-0.12211455063110167,"291":0.00990785866271755,"292":-0.03605624454223163,"293":-0.09541012741918801,"294":0.04754763238878266,"295":-0.04441256488491536,"296":-0.0031750688567950833,"297":-0.002376829158182372,"298":0.08357792603866689,"299":0.018880593136515484}},{"sx":5,"sy":5,"depth":12,"w":{"0":-0.0130347742469676,"1":0.0000923634771345348,"2":-0.0052157494814094275,"3":0.03458328980138053,"4":0.0015176600981962776,"5":0.011374089230631192,"6":-0.03939876213594716,"7":-0.003408084852115485,"8":-0.015574448800228265,"9":-0.024612189217218663,"10":-0.002245766222300132,"11":0.023367063243671514,"12":-0.003784596134046578,"13":-0.01137659703371553,"14":-0.036259358013829804,"15":0.005132243846392539,"16":0.004960996456561012,"17":-0.029393193088645013,"18":0.004120566385817242,"19":-0.02464101047111087,"20":0.013945063695695507,"21":-0.006257780474353129,"22":0.043973941743179076,"23":-0.03500469200042293,"24":0.028454790061961034,"25":0.006924774087005889,"26":-0.0355278749347534,"27":-0.03701941234501388,"28":-0.05426781453324167,"29":0.04044715861288952,"30":0.029728780401327558,"31":0.007862658428612172,"32":0.028970915928886593,"33":-0.029779131473312966,"34":-0.04079628275078958,"35":0.02888695349000984,"36":-0.0046125023197238196,"37":-0.011058744426453705,"38":0.013642570804377977,"39":-0.027251784323124664,"40":-0.002303417721456371,"41":0.008543822985149963,"42":0.002648824469054753,"43":0.021630572681403757,"44":0.000893326003551702,"45":-0.012179105210505931,"46":0.030361991230542458,"47":-0.002209654521832319,"48":0.04977543190700747,"49":-0.06391380602384654,"50":-0.005786798142258116,"51":-0.036514172865481115,"52":0.011413729657462368,"53":-0.04388732586371683,"54":-0.028711299554545728,"55":-0.026320539392801438,"56":-0.023130445364611597,"57":-0.02583636901177693,"58":0.02377242383887678,"59":0.02697425355704189,"60":-0.013200217062275761,"61":0.012247549867114575,"62":-0.03429871600667548,"63":0.028333674665398458,"64":-0.022584399335776533,"65":0.011246586563733818,"66":-0.02528450482266544,"67":0.0055521165664449935,"68":-0.02703113018447638,"69":0.005939850231513715,"70":0.011499556292726474,"71":0.023816298047789196,"72":-0.009916657949027581,"73":0.0022320790183284317,"74":-0.022110280869942465,"75":0.022021345102582912,"76":-0.018950968636191577,"77":-0.03550524574531078,"78":-0.02138871416622569,"79":0.025071060236953914,"80":0.0015416288311743368,"81":0.010467571167677488,"82":0.0677855881594336,"83":-0.029428750373198066,"84":-0.013169535252599224,"85":0.024579858675548284,"86":-0.036630153962195884,"87":-0.050742235843251514,"88":-0.010295751474318318,"89":-0.012571429919588198,"90":-0.021696806904177825,"91":0.004186051098845306,"92":0.05026743078284561,"93":-0.008786103525574171,"94":-0.029141057597155344,"95":0.01925457740867939,"96":0.02318402322130677,"97":-0.03976949065728624,"98":-0.020568531110599433,"99":-0.020128698691079246,"100":0.0006093944008684227,"101":0.05333235479771222,"102":-0.042749042268717806,"103":-0.04006239741625386,"104":-0.05468304198103486,"105":0.001952464671779474,"106":0.0007678631499848501,"107":-0.045493144211113015,"108":-0.00484148345831029,"109":0.027456324546539335,"110":-0.028909890938418507,"111":-0.03565848795039663,"112":0.012708013358811669,"113":0.04075356708357315,"114":-0.04685020353588331,"115":0.0039061763089573345,"116":-0.012509621425331456,"117":0.00553374428829698,"118":0.006806911260563083,"119":-0.001322960498893005,"120":0.05098333394479464,"121":-0.026957480094149583,"122":0.010432582084615324,"123":-0.01331526515987123,"124":0.014689017992431221,"125":0.0256739321084739,"126":-0.029191060012708787,"127":-0.0033531016344007115,"128":-0.017517233484599572,"129":0.013862583902127882,"130":0.04375476713514227,"131":-0.0023484745151038503,"132":-0.010376894262196215,"133":-0.031201207778607375,"134":-0.016392374337660214,"135":0.010299966381447423,"136":0.016604470740182658,"137":-0.01867794878040303,"138":0.0010747535073862473,"139":-0.04429652917131614,"140":0.02133778515359281,"141":-0.0018612416285516504,"142":-0.041270696447177506,"143":-0.03496429923838237,"144":0.016818203793268923,"145":-0.020790104528260318,"146":0.004437697591491273,"147":0.008361325885483398,"148":-0.010066629939456475,"149":-0.004973888571106357,"150":-0.0005433874350314853,"151":-0.037391721936541084,"152":-0.018759300773951777,"153":0.02054082448131299,"154":-0.006737501270348254,"155":-0.0264128089645017,"156":-0.004177696337196199,"157":-0.008123852522124683,"158":-0.0026855999349272614,"159":-0.022902712494089636,"160":0.016297598987876763,"161":0.030561066755382383,"162":-0.05746615964967766,"163":-0.0495625989091855,"164":-0.049605647829418786,"165":-0.057092418777275646,"166":-0.013015325753839372,"167":-0.03945381094624009,"168":0.00012082194276791068,"169":-0.02214591245885689,"170":0.0011814526086352554,"171":-0.06215465148595132,"172":-0.011636815278894793,"173":-0.011542801893314192,"174":-0.029467888025761113,"175":-0.028862195185042374,"176":-0.02907597570205561,"177":0.0013080818055013492,"178":0.006770167485581701,"179":0.013402358734067898,"180":0.022381088134796546,"181":0.008224929162036335,"182":-0.018904826433592335,"183":-0.007404056091412925,"184":-0.03475649536791014,"185":0.06009863334584168,"186":-0.029100960039965634,"187":0.008102198946307714,"188":0.0126487772134934,"189":-0.03268516330881987,"190":-0.010596946479185654,"191":0.024140783846422945,"192":0.027595763852675495,"193":-0.022547342373082355,"194":-0.008604962607516519,"195":0.020084722670618078,"196":-0.06326844573414545,"197":-0.029866988193177225,"198":-0.05575634322473945,"199":-0.04323660495459387,"200":0.027192883025841424,"201":0.03227005753039804,"202":0.018899483364872887,"203":-0.0008489768545373758,"204":-0.00966723774712676,"205":0.010912311164308266,"206":-0.01105895301105983,"207":-0.0000840183880413965,"208":-0.012080559620262528,"209":0.01742160463233152,"210":-0.018879025253291357,"211":-0.025446730995973315,"212":-0.018643241821656005,"213":0.0143728221451517,"214":-0.01586839781462619,"215":0.0021166469225033274,"216":0.006723557783485534,"217":0.02164967016251299,"218":-0.049496786254007864,"219":-0.01045781278786283,"220":0.006601357448735804,"221":-0.020773931615346748,"222":-0.017562318287919793,"223":-0.021654902638691888,"224":-0.026328767631084767,"225":0.015351412559697866,"226":0.015523898384993788,"227":-0.017083861883529575,"228":-0.018836039679987815,"229":-0.043070350165732824,"230":-0.050400975667428544,"231":0.036226155395310045,"232":0.017343520101763335,"233":-0.007391662223593324,"234":0.017575888856625987,"235":0.021578433255887812,"236":-0.008211689056941685,"237":0.01681488274606286,"238":0.005392767799401363,"239":-0.023337023090111667,"240":-0.01929763267039291,"241":-0.008171970405114052,"242":-0.013166152057951049,"243":-0.012792464650882523,"244":-0.025725627563905493,"245":-0.012676152051013455,"246":-0.020318810862201407,"247":-0.009704644215177635,"248":-0.0023715236715201714,"249":0.009328600643577363,"250":0.019779230078938486,"251":0.017133334648365237,"252":0.009719360128242387,"253":0.03112551921743724,"254":-0.03532118660330435,"255":-0.0100050796449122,"256":-0.005334521871138219,"257":-0.0019137711490256786,"258":-0.03600382360595824,"259":0.005753780188333016,"260":-0.057831194672273926,"261":0.015874164060380665,"262":-0.027459981582520623,"263":0.051721834598596944,"264":-0.009421244473246305,"265":-0.03550321219712717,"266":-0.012137081319532467,"267":-0.0136600714045854,"268":-0.014265339803168244,"269":-0.010449961024164787,"270":-0.01935450045538114,"271":-0.014826140700507067,"272":0.00014679375445156303,"273":0.03450263935289686,"274":-0.009202398211630831,"275":-0.025387351684712147,"276":-0.03218719740674925,"277":0.007742353012855056,"278":0.04620850299006722,"279":0.06109940229159435,"280":-0.018454499683536157,"281":-0.04055991300469122,"282":0.008590583532795732,"283":0.04107760382724024,"284":0.00855389517860675,"285":-0.02509992437256515,"286":-0.026331975549345767,"287":0.009171994902227651,"288":0.027159503139898303,"289":-0.003678123667560727,"290":0.009859785771095959,"291":0.006865088157530271,"292":0.0224084648474456,"293":-0.017151994832258623,"294":-0.02525194142913755,"295":-0.023075239661889006,"296":0.019207112523822737,"297":-0.008452562043738933,"298":-0.026439169985410318,"299":0.011377059395655078}},{"sx":5,"sy":5,"depth":12,"w":{"0":0.02382146800380585,"1":0.004291100143780285,"2":0.027830076414218658,"3":0.000890218213149844,"4":-0.04110307453813932,"5":-0.0040790326544809415,"6":0.0009638674782649606,"7":-0.01790708976154227,"8":-0.05295102649975303,"9":0.010651938643396362,"10":-0.049893792007917166,"11":-0.028781635525704317,"12":0.0015806464041181786,"13":-0.03289793892902337,"14":-0.014033326339857728,"15":0.012941431320732178,"16":-0.004139233747856397,"17":-0.016915651889591078,"18":0.003933243716980543,"19":0.015661328001184575,"20":0.0049238096736233476,"21":0.010609953728442069,"22":-0.012236089321394741,"23":-0.01754541004617954,"24":0.047769802544548046,"25":-0.0029572908358658084,"26":-0.019933705478603025,"27":-0.03149312317438338,"28":0.04457933410687695,"29":0.003143712988276081,"30":-0.0033815773769203237,"31":-0.027485330675817835,"32":-0.025373951839777753,"33":-0.002398605282123383,"34":-0.044177762378655436,"35":-0.01522168384300926,"36":-0.027434978468045972,"37":-0.00935109841401793,"38":-0.04526005826463195,"39":-0.07421581718657376,"40":0.02520554730434049,"41":0.0029326026141796952,"42":0.00602570881326383,"43":-0.025895115090171544,"44":0.01303763837981655,"45":0.015547722856942867,"46":-0.02762602372836198,"47":-0.023569637456469478,"48":0.014598974731838308,"49":-0.010828575829956893,"50":-0.032340272529011296,"51":-0.06620392602288908,"52":-0.01850153217763576,"53":-0.004135683794661391,"54":0.030371163658690584,"55":0.02078176338321983,"56":0.03309921462886325,"57":0.0268886331792137,"58":0.0006577162855653035,"59":-0.014657079277938202,"60":-0.01679139541981994,"61":-0.004996914365263938,"62":-0.025252130927758822,"63":0.010344288906956907,"64":-0.041861357858116725,"65":0.012526950543484967,"66":-0.02285387031444056,"67":0.04342185943236679,"68":0.014773860420919034,"69":-0.03581529445952309,"70":-0.03733313100402016,"71":0.012462442678560984,"72":-0.008931769281965282,"73":-0.047821073608289674,"74":-0.012401979203915848,"75":-0.0077273310954722885,"76":-0.013104995548760804,"77":-0.025711309700528064,"78":0.009815757361299192,"79":0.01043977922155125,"80":-0.09052955182396484,"81":0.011687492172192072,"82":-0.025586548685885172,"83":-0.01224035207922239,"84":0.021148155373876203,"85":-0.03358374475381515,"86":0.0002963468477729224,"87":-0.004952931602736912,"88":0.0023717132459387474,"89":-0.0010096213737230833,"90":0.006217212668624294,"91":0.018188839567754005,"92":-0.016413549554057556,"93":0.007966523437639178,"94":-0.011298726908484064,"95":0.0056704124315099455,"96":0.017934427796228045,"97":-0.03544163707767446,"98":0.013382947630868936,"99":-0.018679779878502677,"100":-0.05431278575173322,"101":-0.04882907959524069,"102":-0.0032397894762314586,"103":-0.03855849919602813,"104":-0.0014539789077380252,"105":-0.0387728285764137,"106":-0.0264429594536191,"107":-0.011473731001095371,"108":-0.030504209368192228,"109":0.01844761129321185,"110":-0.009193503256379548,"111":-0.0021052997299498737,"112":-0.010517204879426045,"113":-0.06638843545944463,"114":0.02145274482230435,"115":-0.026475342781388942,"116":0.03715291749043256,"117":-0.004891546218215518,"118":-0.0160568804343135,"119":0.028841379221762987,"120":0.02650687413806585,"121":-0.04573483984042401,"122":-0.0030175424114097676,"123":-0.034825558092860476,"124":0.0397403604668374,"125":-0.02900170166276855,"126":-0.004611115915752579,"127":-0.037012479173392836,"128":0.042962328323683005,"129":-0.03011583007909917,"130":-0.027307187288995144,"131":-0.018523014717787476,"132":-0.01798671778383228,"133":0.0035240787904916083,"134":0.010593520427960289,"135":0.0006617451071498145,"136":0.003815944936403722,"137":0.0038033468053362716,"138":-0.05915856754240454,"139":0.021310766971051512,"140":-0.0168232892564441,"141":-0.03140448418134661,"142":-0.06898528792092644,"143":0.02720394670730364,"144":0.012743380998267191,"145":0.0012944771495613724,"146":-0.004776300701733319,"147":-0.02785274543334743,"148":-0.03639282787239144,"149":0.004701986811304783,"150":-0.04472310111541303,"151":-0.013470448606031502,"152":-0.03321232079063374,"153":-0.01310451759618677,"154":-0.0360568589259189,"155":-0.016503997702225298,"156":-0.0438428705127546,"157":0.0024767034402668514,"158":-0.04864895595742481,"159":0.0005641763620525315,"160":-0.038485089254516144,"161":-0.005356079880714165,"162":-0.020218487165402376,"163":-0.011802410215763387,"164":0.011672079726532586,"165":-0.02589319918016144,"166":-0.004493136946629807,"167":-0.0107731212841936,"168":-0.025201616703159468,"169":-0.03345994625625479,"170":-0.042584964925675844,"171":-0.0243083489276799,"172":-0.04688606572402018,"173":-0.012148592308688606,"174":0.01466593764431084,"175":-0.040489719249499206,"176":0.010088577491864625,"177":-0.015768625787116547,"178":-0.02818017896821216,"179":0.011148447799673335,"180":-0.021130126922242948,"181":-0.011008959982539918,"182":-0.00302844659311227,"183":0.00014170539398323547,"184":-0.04044816312307862,"185":-0.004588742171675518,"186":-0.01483799331900117,"187":-0.009868717267618376,"188":-0.01388784153524004,"189":-0.0027241051119909266,"190":0.025179287622236864,"191":0.018155061205273947,"192":0.014416454967971625,"193":0.00999680630038714,"194":0.044237221534236024,"195":0.01225771136046284,"196":0.0010760611760740413,"197":0.009405485860004125,"198":-0.007281627268727673,"199":0.033086331963996615,"200":-0.024270924350278736,"201":-0.0033685618614516114,"202":-0.04833565272506019,"203":0.000130836214369158,"204":-0.0026461299771771527,"205":-0.01595206921374219,"206":0.022507939718235045,"207":0.036168056470784894,"208":-0.027725180193793098,"209":-0.014690336054410329,"210":-0.0422010289825988,"211":0.0022552349605160305,"212":-0.00289260468402228,"213":-0.012808122860289197,"214":-0.004818682514880712,"215":0.015716946733256968,"216":-0.0801093271143975,"217":0.031034417205031792,"218":-0.05520258241905008,"219":-0.0030819133924393843,"220":0.015874272199169443,"221":0.060022009219380994,"222":-0.014973964839372406,"223":0.021387905776650944,"224":-0.06323833011509114,"225":-0.01843377693908702,"226":0.005153983707501445,"227":0.004840364978805687,"228":0.022450878184578145,"229":-0.015331051131971191,"230":0.017262373719125354,"231":-0.040303511792288194,"232":-0.012235799047795015,"233":0.0025029662477621547,"234":0.038361053772032236,"235":0.0087287675385109,"236":0.023055276310705076,"237":-0.028752818342520362,"238":-0.02264191231738329,"239":0.025039517635704424,"240":-0.026061945530663756,"241":-0.0074161112251069465,"242":0.012175461003249297,"243":-0.06423610252773179,"244":-0.02048175138156881,"245":-0.00864077145069803,"246":-0.020169765623682015,"247":-0.0224844350872515,"248":-0.01309122947132622,"249":0.03264626104563209,"250":0.02694051746618547,"251":-0.01875668830226785,"252":-0.031887160207179834,"253":0.04472780929866281,"254":-0.07267479306973211,"255":-0.04598597083339998,"256":-0.0030830497439292984,"257":0.029852956611666294,"258":-0.02531881162728332,"259":0.024107026868135296,"260":-0.0020990029940024637,"261":-0.012837702667148749,"262":-0.007729287105554546,"263":0.025074026098998923,"264":-0.006833524314654638,"265":-0.0036420624746084118,"266":-0.023883033104464543,"267":0.00475354290858291,"268":-0.0030600183011927086,"269":-0.02833427560782936,"270":-0.034939450574103074,"271":-0.01967474683657526,"272":-0.042109771093434646,"273":0.037647110463342986,"274":0.012208786163780263,"275":0.016563217820616743,"276":-0.02289701162834414,"277":-0.011506515703537041,"278":0.01552092762762719,"279":0.007826242906884636,"280":-0.013139682445205109,"281":-0.05438711520225605,"282":0.0005046855926756289,"283":-0.04339847492922134,"284":0.00967226163112876,"285":0.028592714124007875,"286":0.0037000219160004803,"287":-0.024383391755613406,"288":0.013849301306632604,"289":-0.006324215752714341,"290":0.014054990961225844,"291":-0.013290121834126726,"292":0.017719707197209368,"293":0.0009563505774789734,"294":-0.04407787349332079,"295":-0.009392250917984688,"296":-0.006478488228035097,"297":0.030366893593484198,"298":-0.009011301884919873,"299":-0.029794601063977792}},{"sx":5,"sy":5,"depth":12,"w":{"0":-0.05301822899656145,"1":-0.0651115253245845,"2":0.04982121305029533,"3":-0.034886650910458464,"4":0.03126197490423039,"5":0.10265206773347788,"6":-0.03266810549356883,"7":-0.006792110762014323,"8":0.02852433008559058,"9":0.003133088150420432,"10":-0.06496493037314893,"11":-0.022701955838693885,"12":0.0004776521784681281,"13":-0.038093379364537,"14":0.09122369467354205,"15":0.045193838276380044,"16":0.042978997016898605,"17":-0.02856900978634364,"18":-0.02460104644575239,"19":-0.005847882578192956,"20":-0.01030423269064363,"21":0.00461932918729846,"22":0.042114267203758514,"23":0.030737572413497363,"24":0.055776260050050985,"25":0.0574834117504802,"26":0.043041842026593974,"27":-0.01629687176533533,"28":0.08235530890629858,"29":0.023060588155625145,"30":-0.021331164275397493,"31":-0.022725817206671012,"32":0.012365074369171199,"33":-0.020336805466154205,"34":-0.08907941237447659,"35":0.01108902976202673,"36":0.011808061423317587,"37":-0.09960887112641967,"38":0.06908568708088512,"39":0.029616846800988493,"40":0.003758136387959697,"41":0.08550165692596594,"42":0.06478851182861799,"43":-0.004178066318962562,"44":0.020994207896757374,"45":0.01917782697406222,"46":0.024098524637222223,"47":-0.050690519937522396,"48":-0.025627950524450716,"49":-0.03417068768666519,"50":-0.0031004310514818278,"51":-0.002370729022508049,"52":-0.028734931863637635,"53":-0.025737942450523174,"54":0.1655744096595271,"55":0.00867555200926547,"56":0.004391707768815661,"57":-0.05269934406064019,"58":-0.047112229034858434,"59":-0.03686852746673644,"60":0.173116881559112,"61":-0.014983184694928821,"62":0.06927144976610732,"63":-0.038448752759320505,"64":0.048292703625302594,"65":-0.003289421391247499,"66":-0.06436093430316933,"67":0.0037968334202779777,"68":0.05214335163536069,"69":-0.037423609199961384,"70":0.017701850359581273,"71":0.05934019142255836,"72":0.11557914043441135,"73":-0.10702487311011517,"74":-0.030297714240157005,"75":-0.01858973721546948,"76":0.06924441767589898,"77":-0.006329791589803667,"78":-0.04913197139717931,"79":0.007231095433260245,"80":0.08967702755264781,"81":0.011588369758389942,"82":0.010081429096931544,"83":0.00009544092990905482,"84":0.15403052871179196,"85":-0.0400376449111329,"86":-0.055083824767314715,"87":-0.00451133001051436,"88":0.00012901442753858523,"89":0.022410548511571725,"90":0.014227780621659636,"91":-0.011180720935138892,"92":0.01469010201823689,"93":-0.01570859785328609,"94":0.002428639878642336,"95":0.13351729399446757,"96":0.06725343444807,"97":-0.09828464583302172,"98":0.05676366044334937,"99":-0.03691173643201925,"100":-0.12538609441495094,"101":-0.07611717878204714,"102":0.0005681550635476412,"103":0.009087094671812986,"104":-0.014048624185709756,"105":-0.0005867728655667482,"106":0.028930140283814205,"107":0.1738831532812507,"108":0.12137740992793787,"109":-0.04051384566352558,"110":0.15205661547005303,"111":-0.011814325019256812,"112":-0.014836982735416861,"113":-0.018784730046135623,"114":-0.07047000650098696,"115":0.019023585960229444,"116":-0.004846266135217766,"117":0.03808644078910308,"118":0.06457706230250264,"119":0.13037653430421203,"120":-0.04793761497950067,"121":0.020692602449429304,"122":-0.017475507458637747,"123":-0.06048448960514169,"124":0.09535226197137603,"125":0.08608044466622976,"126":0.056691348757554896,"127":-0.010787213981694854,"128":0.05251251997286658,"129":0.03469701860477442,"130":0.08253683848025115,"131":0.05577625808728397,"132":-0.02824679133752111,"133":-0.047607276700756096,"134":-0.08279234109806029,"135":-0.013680782868524852,"136":0.08409562097633262,"137":0.027292898889082803,"138":0.0716889669713546,"139":-0.025602704087915183,"140":0.017802356145544398,"141":-0.0022040237887528077,"142":0.020682032215929645,"143":0.021337253649114468,"144":0.014644991643825624,"145":-0.01404615421748141,"146":0.0337957128457078,"147":0.05313600370272612,"148":0.1291465485141581,"149":0.034405996606678584,"150":-0.045391174739464066,"151":-0.02387310145396594,"152":0.06359983235344412,"153":-0.03472404144938951,"154":0.005069308083542532,"155":0.06499320705209251,"156":0.009487295395328098,"157":0.08010021929967431,"158":-0.062010798161835794,"159":-0.003907207928018744,"160":0.12600695108697738,"161":0.007159821410171199,"162":0.027571072288291847,"163":-0.011451505003134016,"164":0.03215464025210709,"165":0.0076299110986558704,"166":0.06844807948726069,"167":0.0055523035807075755,"168":0.047245634231461935,"169":0.050244040773811845,"170":-0.0874689766281282,"171":0.018442267823089897,"172":0.02384163395401097,"173":-0.036555067841593764,"174":-0.07404443359010755,"175":0.02002168788468428,"176":0.06129853614976321,"177":-0.017106189102272493,"178":0.044503206491327246,"179":0.005677686850849113,"180":-0.015946412303416244,"181":-0.05907120910211259,"182":0.013356537761231798,"183":-0.0035916234618182854,"184":-0.012981656533716626,"185":-0.04276955841474013,"186":-0.03400066077099964,"187":0.007248521923704855,"188":-0.020459381257530305,"189":0.028106127918405582,"190":-0.03610399305797508,"191":-0.0042127224243768135,"192":-0.028910765991943112,"193":-0.04693305727175057,"194":-0.020309598502549778,"195":0.028833050631342925,"196":0.0054659406592287175,"197":-0.047877366088011845,"198":0.027861243853707092,"199":-0.031663110021077204,"200":-0.0013330964665747521,"201":-0.023276777476188424,"202":-0.05513634023411306,"203":0.07533501420698212,"204":0.0037665750530299176,"205":-0.02754594969519185,"206":-0.11698202665699631,"207":-0.027897826467320228,"208":0.025388722179473716,"209":-0.024148127634182212,"210":-0.05620829559340842,"211":0.0064528684178957255,"212":0.011039788641897894,"213":0.0117227836248196,"214":-0.09859919765809388,"215":-0.014060428165406372,"216":0.0037894996790066274,"217":-0.007342238594068638,"218":-0.057022213159327595,"219":-0.005812989582523001,"220":0.007907826014904099,"221":-0.047530203936975775,"222":-0.020370035503855327,"223":0.029511218787139356,"224":-0.027602234295498733,"225":-0.016682051455259053,"226":-0.012315315380105642,"227":-0.048586018291872764,"228":-0.030888607868663327,"229":-0.07544360966780787,"230":-0.07152557748681745,"231":0.013020047722411882,"232":-0.0019415917310395192,"233":-0.0240211046584317,"234":-0.07309205117668205,"235":0.05418089882313015,"236":-0.047193806111955755,"237":0.019687115527155512,"238":0.058125159337868895,"239":0.011182961253909449,"240":-0.0003652281400944837,"241":0.027425410965418093,"242":-0.06947768969088297,"243":0.04911853375338473,"244":0.03982441630035363,"245":-0.021203638558672314,"246":0.023622881677288137,"247":0.04238951601965024,"248":0.01715735807320612,"249":0.03345934093032152,"250":-0.05365337443108373,"251":-0.04751609175205631,"252":0.03279220476027113,"253":-0.014012789113156742,"254":-0.042898105026309453,"255":-0.026949415451588344,"256":0.009517683776970801,"257":-0.030394611149400595,"258":-0.06893763383986132,"259":-0.01615784440488638,"260":0.0020155553375233674,"261":0.0017153939655348384,"262":-0.015715742544020025,"263":0.021817973449200632,"264":-0.06946474799276989,"265":-0.04916724607264482,"266":-0.0743815742409366,"267":0.009111499614722544,"268":-0.030307041791565372,"269":-0.0068804186619322175,"270":-0.030692573043131645,"271":0.007868969218698329,"272":-0.06846093479209076,"273":0.01890659308458566,"274":-0.0001249901646075954,"275":-0.03161267978206502,"276":-0.05213260074543913,"277":-0.10928672471223694,"278":-0.08120402915719216,"279":-0.03852086548076022,"280":-0.05187066045946591,"281":0.04473821600126421,"282":-0.016886708953865355,"283":0.016017204645806832,"284":-0.014325296190751909,"285":0.032597392226632896,"286":0.03472067934934959,"287":-0.01415363831609737,"288":-0.029868098856423695,"289":-0.0358499383789583,"290":-0.06516617971743212,"291":-0.0023032859975146212,"292":0.0041016583510510895,"293":0.010175300579404209,"294":-0.031788710765528215,"295":-0.013281521796277935,"296":-0.032484560383518095,"297":0.0009971258494643476,"298":-0.0018299209429583972,"299":-0.03445083692937312}},{"sx":5,"sy":5,"depth":12,"w":{"0":-0.035750556324499555,"1":-0.018404967045933796,"2":-0.04184491571772196,"3":-0.05934662758560349,"4":0.023785312943071683,"5":0.022129309626117703,"6":-0.004311461769518172,"7":-0.016094681582185553,"8":0.015187657644066306,"9":-0.026227271290526002,"10":0.00853839525784916,"11":0.07939601066518052,"12":-0.035409742118422946,"13":-0.009025906755932978,"14":-0.015759896641862444,"15":0.03412638412020058,"16":-0.017604840588142268,"17":0.015392242590201267,"18":0.003898767723816315,"19":-0.06154719359757389,"20":0.0077746577890893875,"21":-0.024277643111640306,"22":-0.025494501200905347,"23":-0.009782019027975838,"24":-0.028315635664636487,"25":0.0033041546830107783,"26":-0.030161828193255122,"27":0.05194140333507101,"28":0.031168597547065545,"29":-0.012522407508337491,"30":0.002037416075115442,"31":-0.03295589922982118,"32":0.07691254182132817,"33":0.023050556707610994,"34":0.013492156716130244,"35":0.05108872038635005,"36":0.030952129918865277,"37":-0.017496885527162286,"38":-0.04128804709756804,"39":-0.02239671415782939,"40":0.010524285853697943,"41":-0.00041901780215586906,"42":-0.008381184835612683,"43":0.011973836833845387,"44":0.0022761869478218687,"45":0.010210659535461582,"46":0.006547362412837512,"47":0.0066552443129940875,"48":0.04943951797772798,"49":-0.007973158801617143,"50":-0.057684546690445315,"51":-0.036868794191268005,"52":-0.03419152548816739,"53":-0.011266717019916328,"54":-0.03296790084391495,"55":-0.02945978701713111,"56":-0.04258852172098137,"57":-0.06618349777354324,"58":-0.024024037941087668,"59":-0.03567588553872714,"60":-0.001796045802031352,"61":-0.006753319756277994,"62":0.013931757853274654,"63":0.003737804865493029,"64":-0.011687438064426332,"65":-0.04405766643276438,"66":0.017846558177860627,"67":0.02306292768781751,"68":-0.018424467457800926,"69":0.007276510447770986,"70":0.011285731811648188,