{"layers":[{"out_depth":3,"out_sx":28,"out_sy":28,"layer_type":"input"},{"sx":3,"sy":3,"stride":1,"in_depth":3,"out_depth":12,"out_sx":28,"out_sy":28,"layer_type":"conv","l1_decay_mul":0,"l2_decay_mul":1,"pad":1,"filters":[{"sx":3,"sy":3,"depth":3,"w":{"0":0.030521942523424127,"1":0.15565017318450614,"2":0.20060101791063858,"3":0.027002578396572725,"4":0.04500173975218356,"5":-0.041468770244503586,"6":-0.03857259077461473,"7":0.10341384765028022,"8":0.03161271442357577,"9":-0.18402082725055263,"10":-0.3162582732392046,"11":-0.3575720819101275,"12":-0.10847457541086994,"13":-0.1781135169204138,"14":-0.14868203986376227,"15":0.03384785107804639,"16":0.05501154154592613,"17":-0.11221241787094842,"18":-0.009586381528674155,"19":0.028823559493299192,"20":0.17334691096075736,"21":-0.014522081953258163,"22":-0.17764061372966966,"23":-0.1264305968089464,"24":-0.17479185681418657,"25":0.06880073795920459,"26":-0.09950254809542206}},{"sx":3,"sy":3,"depth":3,"w":{"0":0.017021914347874752,"1":0.09901718104177311,"2":-0.06269044434875,"3":-0.02143829038809455,"4":-0.18363727734501273,"5":-0.019583170862190132,"6":-0.05415299395411354,"7":-0.12393792152792835,"8":-0.002057869071232814,"9":-0.07099273452774024,"10":0.1804506303258044,"11":0.008145256394379422,"12":-0.06312969834131135,"13":0.20802230307053893,"14":-0.1314903252038027,"15":-0.09962345486575741,"16":0.15352306019488238,"17":0.1817508146455128,"18":0.017937889991853268,"19":-0.1852206004493624,"20":-0.0322014666566274,"21":0.08602652072856862,"22":0.026749766483672173,"23":0.19300321776185403,"24":0.09700089525133336,"25":0.09466199213192773,"26":0.12296054163028106}},{"sx":3,"sy":3,"depth":3,"w":{"0":0.004146907406373118,"1":0.09372945091180869,"2":0.15319984416801527,"3":-0.0157867918500304,"4":0.1764137543016783,"5":-0.1799482233314682,"6":0.15573347796361312,"7":0.16580189739304813,"8":-0.06957563395782902,"9":-0.14430094609702765,"10":-0.21408404550215515,"11":0.020062319830180697,"12":0.020658984673242172,"13":-0.07545529674193341,"14":-0.05988301347907193,"15":0.146153096183333,"16":0.035593089080734136,"17":0.0643770814571202,"18":0.02210125319570315,"19":-0.061378041072961534,"20":-0.1455361812008732,"21":-0.13933164133980316,"22":-0.167529917674627,"23":0.13258217850932175,"24":-0.14334338205022773,"25":0.15833981577411438,"26":0.23532751758922754}},{"sx":3,"sy":3,"depth":3,"w":{"0":-0.0698513333572462,"1":-0.20252527169899973,"2":-0.3622965921897644,"3":0.2142813900832997,"4":-0.017220235828033427,"5":-0.19976012131057905,"6":0.06392528113229272,"7":-0.11274881846707364,"8":-0.1424465787938656,"9":0.04931038606015727,"10":-0.12624072273784737,"11":-0.03557749317749154,"12":-0.12529548709273422,"13":-0.12829946016014185,"14":0.1213878986998484,"15":-0.11917762297022799,"16":0.09553506801299648,"17":0.08726606966811042,"18":-0.14145754376128233,"19":0.043049173015482035,"20":-0.02514490575520814,"21":-0.08781937806422278,"22":-0.1676779462421948,"23":0.10539296106503326,"24":0.01367974251773117,"25":0.042229221947119464,"26":0.08552973206096827}},{"sx":3,"sy":3,"depth":3,"w":{"0":0.01384958459415733,"1":-0.1575528500136804,"2":0.010234558057894999,"3":0.008666241694102074,"4":-0.2810289612838226,"5":0.2827575709016355,"6":-0.05731163941294071,"7":-0.31164118225099274,"8":0.02488745048908844,"9":0.14569265171247603,"10":-0.08486335358441441,"11":-0.09165330102402097,"12":-0.005628366613546239,"13":-0.09086998841653786,"14":0.13171157801008657,"15":0.14305699128545613,"16":-0.11684944998373895,"17":-0.026857978471400624,"18":0.0378123170802742,"19":-0.06199738880233152,"20":-0.007759654689621194,"21":-0.2073103764444628,"22":0.02391939153724929,"23":0.04709689330977322,"24":0.12393327177238968,"25":0.2588545531623244,"26":-0.04031592468553103}},{"sx":3,"sy":3,"depth":3,"w":{"0":0.05247162881648512,"1":0.23577945087750235,"2":-0.03550291534512731,"3":-0.08359737597240602,"4":-0.17539523833335485,"5":0.11494480353899392,"6":-0.18674029784827395,"7":0.14512660047066822,"8":-0.1373573894726214,"9":0.1653238275838013,"10":0.03740080076782899,"11":0.11657931741318114,"12":-0.053016729323970085,"13":0.06662896698299671,"14":0.06704318333800621,"15":-0.09891938418277564,"16":0.1259066411488042,"17":-0.003429515153164025,"18":0.038979819951943454,"19":-0.08937432892434029,"20":-0.07917205247588521,"21":-0.2879248486131899,"22":-0.178117985661107,"23":0.06214334979364976,"24":-0.11551313787742841,"25":-0.036809573011650915,"26":-0.12438674944651203}},{"sx":3,"sy":3,"depth":3,"w":{"0":0.09898834986232441,"1":0.042121788821217206,"2":0.03666515055208991,"3":-0.01116460554079636,"4":0.12459797560134225,"5":-0.03285297926672164,"6":0.0397326348997771,"7":0.13462065909090112,"8":-0.15578375480739595,"9":0.04926043231273121,"10":0.09690776560506253,"11":0.04595797056942294,"12":0.008181450444643303,"13":0.1809881487301398,"14":-0.06699577786442511,"15":-0.029026067151337792,"16":0.25452667872707213,"17":-0.07248432080455072,"18":0.08566504547808466,"19":0.02730862425079864,"20":-0.11042633019309649,"21":-0.08072935317116674,"22":0.12948038573335985,"23":-0.12127383468095844,"24":-0.0241408151266981,"25":-0.07881552236240863,"26":0.12102071306827111}},{"sx":3,"sy":3,"depth":3,"w":{"0":-0.09512400106322642,"1":0.15412473574454924,"2":-0.0006871777644154613,"3":-0.036592059744270364,"4":-0.054004884352018674,"5":-0.09295408331023275,"6":-0.1317750899297566,"7":0.19567549049314478,"8":0.015324050426179592,"9":-0.05645062564393489,"10":-0.17797996358070092,"11":-0.033084500024688705,"12":-0.08633804027936895,"13":-0.005343300155587798,"14":-0.04867096403211415,"15":-0.0467591743084997,"16":-0.1095537266514404,"17":-0.02548408343326666,"18":-0.11500077263656415,"19":0.061653307817684265,"20":-0.12228822212937523,"21":-0.03660500352651549,"22":0.1513813754752599,"23":-0.02786763043973605,"24":-0.023549690172843925,"25":-0.04977876406161129,"26":-0.06951455730739327}},{"sx":3,"sy":3,"depth":3,"w":{"0":-0.10209389993355235,"1":-0.19071787169916476,"2":-0.23476387788626124,"3":-0.10393832459963707,"4":-0.2507708252907773,"5":0.06382226839689571,"6":0.05163104755094655,"7":0.07677155760858355,"8":0.08944629636088786,"9":-0.026401388238922453,"10":-0.1702874625218548,"11":-0.1973966685291377,"12":-0.11856537368457323,"13":0.048081676518806626,"14":-0.0743997769936768,"15":0.10785605515042211,"16":0.006641400456910181,"17":-0.13963151185850692,"18":0.00762264380034293,"19":0.1821395191736628,"20":0.11702797046844622,"21":-0.0925180485349147,"22":0.07167210797256926,"23":0.11434605664906834,"24":-0.02148257688290087,"25":0.04593891957119217,"26":-0.08922111966069401}},{"sx":3,"sy":3,"depth":3,"w":{"0":-0.11316904810610541,"1":-0.12945856047796905,"2":0.2488540371728143,"3":-0.0929186109096553,"4":0.08428155449900293,"5":-0.015403766582013968,"6":-0.013426760022634515,"7":0.06626644218943001,"8":0.05147993134236179,"9":-0.16785890044241858,"10":-0.18056544355544416,"11":0.12743162814357636,"12":-0.08738971894752702,"13":-0.1453308934147583,"14":-0.08060528042046532,"15":-0.2546395360271195,"16":-0.09969166906388938,"17":0.17698554476632478,"18":0.0014022633822033763,"19":-0.1431840101206926,"20":0.18588577656202535,"21":-0.08540605748835112,"22":-0.17416572550804615,"23":-0.05116737044918278,"24":-0.09699424821188589,"25":0.06950388425577862,"26":-0.07175909221558413}},{"sx":3,"sy":3,"depth":3,"w":{"0":0.2155417109565172,"1":0.055545075230250124,"2":-0.3747903061678386,"3":0.09889143397464159,"4":0.025944264594554015,"5":-0.3180523465115373,"6":0.037302359986622284,"7":0.13797762879456146,"8":-0.0628835640439292,"9":-0.047233290333893695,"10":0.006280753257711354,"11":-0.0007096326935677725,"12":-0.044165025600612355,"13":0.14611174464407173,"14":-0.2569624336127524,"15":0.19874444452799375,"16":0.17415565867379612,"17":-0.38247543304428555,"18":-0.15768477171387238,"19":0.24785154836454393,"20":-0.06420263703465583,"21":0.05995857772365084,"22":0.025295256557931346,"23":-0.18513899323522004,"24":-0.014428931141358856,"25":0.1731713864582065,"26":-0.02295857788945252}},{"sx":3,"sy":3,"depth":3,"w":{"0":-0.20485370781460827,"1":0.03270457154895164,"2":-0.175931689686297,"3":0.09368548161364273,"4":-0.06906593692872388,"5":0.12238824532650673,"6":-0.07646976132062758,"7":0.17228908927406628,"8":0.21804252463244733,"9":-0.16375876585710344,"10":-0.09377541278090369,"11":-0.2727650074324281,"12":-0.029074309519956407,"13":-0.20226498433177595,"14":-0.24493755827859717,"15":-0.1446105973835219,"16":-0.24716043401318044,"17":-0.1272401839042958,"18":-0.017678249455183107,"19":-0.13004913944296062,"20":0.01963204280652479,"21":0.02857089674987644,"22":0.09886957960846653,"23":0.06171589234726024,"24":0.27934077460487733,"25":0.12308337231744795,"26":0.014100119478470582}}],"biases":{"sx":1,"sy":1,"depth":12,"w":{"0":0.12790044088866395,"1":-0.24495164560495103,"2":0.07240881925483605,"3":-0.01965522079086004,"4":-0.010959535698034472,"5":0.10354907402065687,"6":-0.3699990164791213,"7":0.0428462369426778,"8":0.12477404476468346,"9":0.04077459176767254,"10":0.11079497474807277,"11":0.08911509666716506}}},{"out_depth":12,"out_sx":28,"out_sy":28,"layer_type":"relu"},{"sx":2,"sy":2,"stride":2,"in_depth":12,"out_depth":12,"out_sx":14,"out_sy":14,"layer_type":"pool","pad":0},{"sx":5,"sy":5,"stride":1,"in_depth":12,"out_depth":18,"out_sx":14,"out_sy":14,"layer_type":"conv","l1_decay_mul":0,"l2_decay_mul":1,"pad":2,"filters":[{"sx":5,"sy":5,"depth":12,"w":{"0":0.04073803879423064,"1":-0.05426200667628339,"2":0.0032744950258552156,"3":-0.016926316727362514,"4":0.060832954748508784,"5":0.046020522902000094,"6":-0.17597900879371134,"7":0.03438640451878997,"8":-0.0812888958907369,"9":0.06139192114887713,"10":0.24150761715468833,"11":0.015266724748557734,"12":-0.007140917497162856,"13":0.06628700397140674,"14":0.16638641856383363,"15":-0.04844052439348912,"16":-0.05169609785038042,"17":-0.03470098436691746,"18":0.09385520064248437,"19":-0.015866996010884708,"20":-0.03730755450503046,"21":0.023439450526256473,"22":0.11764884095497095,"23":-0.0727251762050747,"24":-0.03799537057696063,"25":-0.06343648869856557,"26":0.10178109687462486,"27":0.14584624525432247,"28":-0.12397588275434888,"29":0.15245067687201705,"30":0.06678596834432352,"31":0.01859121906110055,"32":-0.007468113399700684,"33":-0.016342224916888234,"34":-0.029091437793629858,"35":-0.056466775550240406,"36":-0.04737953591760722,"37":-0.08326337893079963,"38":-0.10829414440663383,"39":0.01145213502957266,"40":-0.24718051257177848,"41":-0.001684446651553703,"42":-0.012215394254248274,"43":0.02305987015100762,"44":-0.0032647236062481036,"45":-0.07794746001023559,"46":0.0699069667445027,"47":-0.020034395732791536,"48":0.008863479732354802,"49":-0.07194585318369669,"50":0.08651523014243336,"51":-0.05217101709981809,"52":-0.2042310406960445,"53":0.09324653812239236,"54":-0.1160838854446619,"55":-0.025080892160042795,"56":-0.10688515849076069,"57":0.01309002355217508,"58":-0.14331738615578685,"59":0.04547574552352394,"60":-0.09324171923894271,"61":-0.07947897243671606,"62":-0.027353822375697934,"63":-0.07222060953802675,"64":0.11916427465242473,"65":0.20832323306150036,"66":-0.2189206683292663,"67":0.06255969346933625,"68":-0.009531386605188014,"69":0.011708962414866715,"70":0.1401110164247124,"71":-0.06975277387131662,"72":-0.031943743604255136,"73":0.11283412789715964,"74":0.17104524270995036,"75":-0.014727311697436693,"76":0.12797786030542463,"77":0.010366379914210978,"78":0.0005761248765913863,"79":-0.04376634896107395,"80":-0.03256966643984297,"81":0.09604094909001017,"82":0.12023904323769231,"83":-0.15705135338801499,"84":-0.14440905871240037,"85":0.04487348318989815,"86":0.0834438804047404,"87":0.03274727580362301,"88":0.14519583901716432,"89":0.17833994207200915,"90":0.09223945422760532,"91":-0.021276789553382885,"92":0.0541189165234357,"93":0.05461444055077131,"94":0.058754410937065606,"95":-0.13168016026855622,"96":-0.013804435404806534,"97":-0.0041913496479262565,"98":-0.12789930183015208,"99":0.028698881902514076,"100":0.14313535433948152,"101":0.0566350215061584,"102":-0.12815022029392598,"103":-0.009370008691279038,"104":-0.05104941839354613,"105":0.06400290298711299,"106":0.10250457875927706,"107":-0.057469371749908904,"108":0.012197738683391616,"109":-0.10173537285680075,"110":0.040331572715044874,"111":-0.04152452821598417,"112":-0.057084168407200875,"113":-0.033971410675729584,"114":-0.26372910261625154,"115":0.02703038967306833,"116":0.0029870086030403587,"117":-0.05913111607708675,"118":-0.12855119396944592,"119":-0.10447510766228191,"120":0.0661243269273375,"121":0.06457875337706837,"122":-0.23029287250549066,"123":-0.10027129086770727,"124":0.14906061361686843,"125":-0.011528012802198203,"126":-0.06829302153481925,"127":0.05541149214132639,"128":0.04651324203102838,"129":0.031211208923851486,"130":0.06630196489034716,"131":-0.030769611894923353,"132":-0.07365704471466294,"133":-0.01082328571107917,"134":-0.046675620028913616,"135":-0.03360809476832944,"136":0.1856340711202289,"137":0.13474940569669916,"138":-0.012124982751832462,"139":0.05895064566103645,"140":0.03520504428685475,"141":0.05023327642847086,"142":0.12915741631053934,"143":0.08150417257216705,"144":-0.12011400469839963,"145":-0.0450378095286893,"146":0.08286625803747456,"147":0.01055396863327971,"148":0.10633298153600015,"149":0.0957688161061675,"150":-0.014350963046638568,"151":0.019067776082471462,"152":-0.0832233695344508,"153":0.0711050017660938,"154":0.15993940842660115,"155":-0.027352791639973558,"156":-0.18682881253762787,"157":0.1335042462615123,"158":0.10182756783849099,"159":0.1387560361176723,"160":0.08350721162369683,"161":-0.08018141431548712,"162":-0.06434349835959587,"163":0.005783909791012369,"164":0.05000209273618445,"165":0.01274724153403055,"166":-0.02858685937920487,"167":0.05546748731519147,"168":-0.041778463697576436,"169":-0.09099272622442127,"170":0.035587960109246974,"171":0.044744667667665376,"172":0.06495554084772368,"173":0.004129969312311362,"174":-0.12811340278554495,"175":0.0009886612895862526,"176":0.1581360310503923,"177":-0.04027166505003209,"178":0.06841617220965827,"179":-0.01602418836352416,"180":0.02808743233003986,"181":0.009319310281517569,"182":-0.018780905199458454,"183":-0.002831870266443116,"184":-0.036460659346923587,"185":0.0093047617171601,"186":0.12775579981574536,"187":-0.10981211613056356,"188":0.017014555164314268,"189":0.004347540709793333,"190":-0.004939091449847319,"191":0.005196382713896139,"192":-0.03500532212150054,"193":-0.060421647881761346,"194":-0.11300413688660288,"195":0.0015195592327080093,"196":0.16619263765532963,"197":0.02966167975575321,"198":-0.1735037959677452,"199":-0.016004511630609123,"200":-0.005277774543800332,"201":-0.01964914926075759,"202":0.044670667134187096,"203":-0.010150138661941028,"204":-0.10518497123397838,"205":0.011191323020638948,"206":0.08031171457028781,"207":0.05672334556591263,"208":0.08068466343615542,"209":-0.01131189521532758,"210":-0.11430900871190859,"211":0.07030506794156138,"212":-0.0944740902754328,"213":-0.009050854073919102,"214":0.14323900990115257,"215":0.12259781552939499,"216":-0.10538975502838108,"217":0.017735082232942474,"218":0.11090794112325097,"219":0.021456685095525858,"220":-0.026743221243546552,"221":-0.11895323924500957,"222":-0.09173216249288617,"223":0.03522255911739586,"224":-0.03151791187517432,"225":-0.048533790308311,"226":-0.03843637701180834,"227":0.047144008887568485,"228":-0.10175586327114411,"229":-0.013177823394076254,"230":-0.09971678033563595,"231":0.001728472715744601,"232":-0.03078677800839962,"233":0.00520970411556444,"234":-0.023220672649902328,"235":-0.017977570141530865,"236":0.058983304247844266,"237":-0.06874278555186772,"238":-0.04584608331786326,"239":0.10207689590243169,"240":-0.11578534150051453,"241":0.019951763261668795,"242":0.08929269557318978,"243":-0.05833055774490386,"244":0.06127705570493078,"245":-0.07419782544650913,"246":0.044473044193734275,"247":-0.033120905648962445,"248":-0.041725164861081694,"249":-0.10178346062609142,"250":0.007108967981643847,"251":-0.058155120212944715,"252":-0.0021980675929123158,"253":0.10680394775490978,"254":-0.059611266512837144,"255":0.037435150812783376,"256":0.21934165749205567,"257":-0.14749143250283897,"258":-0.0019565388009658543,"259":-0.04976182571309195,"260":0.033659056832256964,"261":-0.04004277337830027,"262":0.022164405735569076,"263":0.01699470041519165,"264":-0.008873801394694358,"265":0.02991425770148229,"266":-0.04964056178133169,"267":-0.011738093316619715,"268":0.16092107347821755,"269":0.027265679262194448,"270":-0.0423525706496007,"271":-0.0487722162926228,"272":-0.005215236394067872,"273":0.027341075823207227,"274":-0.014875354578673013,"275":-0.08151012551775678,"276":0.003024847792419089,"277":0.045534046057280356,"278":0.04027275811822988,"279":-0.07354054652598027,"280":-0.019880722708025045,"281":-0.08593055235959159,"282":0.10965221641820064,"283":-0.008289070175410005,"284":-0.020657256888963887,"285":0.10684474440603993,"286":-0.14784471441453584,"287":-0.050569875779581,"288":-0.02838488614626749,"289":0.029549608032349708,"290":-0.050723282828820326,"291":-0.07225073481456545,"292":-0.11233287531821236,"293":-0.10697688341740115,"294":-0.018378617140089933,"295":-0.042976995734056826,"296":-0.008411885661392922,"297":-0.07910668594930563,"298":-0.05195181501719623,"299":0.05244505436143555}},{"sx":5,"sy":5,"depth":12,"w":{"0":-0.019353931687960985,"1":0.012530849262556588,"2":-0.001868304147259483,"3":-0.001714487554237133,"4":0.0058741670764761176,"5":0.00817166720011861,"6":-0.01014633067578214,"7":0.017434346338328528,"8":-0.004535619715969756,"9":-0.008470440791188832,"10":-0.00010720695096963175,"11":0.008421369024879909,"12":0.015397064419948262,"13":0.0004287158994828413,"14":-0.018289457924843978,"15":-0.020619304663141744,"16":-0.01065943079767397,"17":-0.004388762152231643,"18":0.00693641443771789,"19":0.028344572913468938,"20":-0.025982798595747883,"21":-0.035798457991905,"22":-0.002277192608082533,"23":0.01704822618815567,"24":0.0030866911765026536,"25":-0.02139098741885137,"26":-0.017687024861509224,"27":0.0036358873675942757,"28":0.008478485983879368,"29":-0.007816398486623029,"30":-0.000005581312309970692,"31":0.009189786282759018,"32":-0.00163804400868005,"33":0.011644870311078566,"34":0.01988408309668156,"35":0.023314201685194134,"36":0.012086291118315513,"37":-0.0046239561066410625,"38":0.025203874389811164,"39":-0.011665855060698229,"40":-0.031280838918888124,"41":-0.018971414993173338,"42":-0.026225880524925988,"43":-0.016409305723911218,"44":0.006814005673247574,"45":-0.012143190279444976,"46":0.010529415648435212,"47":-0.0031678409307468753,"48":0.010733132016528667,"49":-0.01429601965743105,"50":-0.02044851389438132,"51":0.002451394159650637,"52":0.004064898862336015,"53":-0.01136040130314164,"54":0.016055309923128737,"55":-0.013820652749399727,"56":0.013092315840520967,"57":0.004704055024553563,"58":-0.007814406197388579,"59":-0.032773639837812285,"60":-0.010378247289070178,"61":-0.012123369386340344,"62":-0.002125260780211172,"63":-0.00880436639755593,"64":0.010066569164121787,"65":-0.0006754812999503511,"66":-0.014296834221974801,"67":-0.0003023725743370851,"68":0.024898067108823262,"69":0.004953802854832932,"70":0.012024538772555843,"71":0.010774333143345452,"72":0.0012563424008443368,"73":-0.013642744804556366,"74":-0.02964069392967447,"75":-0.006982330678784785,"76":0.012866135995956984,"77":0.00659172931886719,"78":-0.006016189481220257,"79":-0.0010657260805950026,"80":-0.0031250899434132604,"81":-0.007744129581878357,"82":-0.008801613551231848,"83":-0.013487708683334633,"84":-0.0035982854942775665,"85":-0.026192986620086307,"86":-0.002186997068162119,"87":-0.002896353458627638,"88":-0.0031471908625470605,"89":-0.00002825770939912961,"90":-0.007421783428591543,"91":0.00498744471888034,"92":0.0025005069016057146,"93":-0.013577857431484564,"94":-0.024862698774345538,"95":-0.006115374089094362,"96":-0.009738189435993251,"97":0.00843030503119188,"98":0.02029310195078591,"99":-0.01757060786604624,"100":0.005294753239423855,"101":-0.006229727046310444,"102":0.0033032647618879713,"103":0.030862325307712764,"104":-0.012994421284918626,"105":0.003985284495440245,"106":0.0004328557605984311,"107":-0.0006535997645038402,"108":-0.02531696789224241,"109":0.008550420130490548,"110":0.00505742707925802,"111":0.0006177171603234268,"112":-0.018458133845618122,"113":-0.007858296854534609,"114":-0.0032400214620991676,"115":-0.007656895686693013,"116":-0.019539481557134142,"117":0.011257057867005081,"118":-0.004705202723168735,"119":0.0070807942224290895,"120":-0.0005020795761816506,"121":-0.01675544046234823,"122":-0.002368915275544719,"123":-0.004158163789139677,"124":0.023056558390702114,"125":-0.041577008608843107,"126":0.007074763778476161,"127":-0.0017250099772840165,"128":0.004685528284943871,"129":0.001498934775261557,"130":-0.011197472941516679,"131":-0.0007847750202293471,"132":0.01262040731550923,"133":0.0004584831474506364,"134":-0.009060319566618182,"135":-0.019940720195251418,"136":-0.003035203099856811,"137":-0.009174291072367514,"138":0.010331690212197861,"139":-0.002794353717886096,"140":0.007470307861094885,"141":0.019260372297833808,"142":0.0025991982505910974,"143":0.02051684656898542,"144":-0.014160787837196704,"145":-0.012750182212130236,"146":-0.018126796790887984,"147":-0.01585524770435363,"148":-0.015456131112937414,"149":-0.02018239872351124,"150":0.015804415065767817,"151":-0.01769967967105381,"152":-0.013510912120753546,"153":-0.002501329168978494,"154":-0.03843113937019758,"155":-0.031525468422000824,"156":0.01111019685847631,"157":0.004575856560439719,"158":-0.01355505483679403,"159":-0.006511363661138285,"160":-0.010341789660057409,"161":0.0161569119537148,"162":-0.017955789860159686,"163":-0.006481567188164063,"164":-0.01955954385306061,"165":-0.015294829025309925,"166":-0.020059306902869296,"167":0.004209157965276048,"168":-0.01515781307596417,"169":-0.022476413732768347,"170":0.011461325148365687,"171":-0.01494141967676665,"172":-0.019652528237171417,"173":0.011503971547384691,"174":-0.009767876284078405,"175":-0.018760369590495925,"176":-0.015478558819885276,"177":0.014729242691459407,"178":0.011120941525077019,"179":-0.013056964275529057,"180":-0.02464726509522101,"181":-0.00048826659541828245,"182":-0.027758813184331876,"183":-0.014057707366472392,"184":-0.02142280151298104,"185":-0.03406877157550534,"186":-0.016250538495667075,"187":0.016718792951684203,"188":0.011992612723986782,"189":-0.005261421208393852,"190":-0.0050174745007678405,"191":-0.005135062846821276,"192":0.0030553321867306878,"193":-0.004863886139202444,"194":0.0095383897675657,"195":0.011770430573932476,"196":-0.004189998845801099,"197":-0.0029693210795046494,"198":-0.0008672841108142557,"199":-0.03716556417049098,"200":-0.01678149743656004,"201":-0.009437395594195904,"202":0.013424141375144671,"203":-0.009432515553899843,"204":-0.0002739772189698528,"205":-0.02898701969462746,"206":-0.014229259969396937,"207":-0.008998216627290374,"208":-0.014479464837780029,"209":0.004042280673572022,"210":-0.014738518385085685,"211":-0.014595556519295547,"212":-0.02099893968816661,"213":0.02876622471235602,"214":-0.01942739505700188,"215":0.009160567909571392,"216":0.018338039529012085,"217":0.023189721861320935,"218":0.0021780567407426567,"219":-0.019811628364730913,"220":-0.000904813664787684,"221":0.002476200890726345,"222":-0.0048121729008271585,"223":-0.0172404721271842,"224":-0.006148207143890792,"225":-0.01538415073566331,"226":-0.0242486767103198,"227":-0.011944042948809823,"228":-0.013005227246618576,"229":-0.004804802152101279,"230":0.004612540423298146,"231":-0.029177594835031746,"232":-0.02040333906947572,"233":0.006682327359733149,"234":0.010051125217194444,"235":0.005256809951220155,"236":-0.009456926162921682,"237":0.007352653672090914,"238":-0.007124105972713439,"239":-0.009223951160214053,"240":-0.010438781896450254,"241":-0.019453518561424864,"242":0.01806905669425099,"243":-0.005758866778548683,"244":-0.006149010817981697,"245":0.007456913116107353,"246":-0.017721944955307888,"247":-0.0061737588482415244,"248":-0.0056503273115562185,"249":0.011106833034128114,"250":-0.015849586288567787,"251":-0.008724576139121056,"252":0.007318558716054244,"253":-0.002283448182743309,"254":0.017865405121404738,"255":-0.009185246443721878,"256":-0.0006452380593007489,"257":-0.021761742383603847,"258":0.005073435563724954,"259":0.00026073736394160334,"260":-0.010689550639050801,"261":-0.006086426574555915,"262":-0.02712600262365101,"263":-0.010891591442568814,"264":-0.014317628727250594,"265":0.003653858042536434,"266":0.011449255879910901,"267":-0.01362426439890924,"268":0.006422786112836815,"269":0.012009112793688534,"270":-0.00110154125240138,"271":0.013343274678701672,"272":-0.010508299063527543,"273":0.030338075557199497,"274":-0.005409686271914206,"275":0.009558867427068308,"276":0.012175932421761076,"277":0.00949437181622632,"278":0.007276154229091022,"279":0.010754942168785359,"280":-0.00519651507509052,"281":-0.026519599665264376,"282":0.003706613790394536,"283":0.0018821415696174974,"284":-0.008993792319248984,"285":0.007375962452528029,"286":-0.009832267388578253,"287":0.0002568998735754964,"288":0.00027127054465703285,"289":-0.02606050382408679,"290":-0.00654107659242392,"291":-0.0159207119032955,"292":0.012141476762628658,"293":-0.005148444367203578,"294":0.0016263099673561583,"295":0.0026603833334523843,"296":-0.006371736484378057,"297":0.027880617139516266,"298":-0.017723989734653327,"299":-0.02480454414191069}},{"sx":5,"sy":5,"depth":12,"w":{"0":0.02163307289865957,"1":-0.04731508274651418,"2":-0.01383560875758128,"3":-0.05531001753061348,"4":-0.0038418998166057476,"5":0.06862857710495147,"6":-0.07743860641170577,"7":-0.014194666337401893,"8":-0.06473171042215502,"9":-0.024163058723287004,"10":0.04127935931379503,"11":0.004010152056708509,"12":-0.0587427226973696,"13":-0.008298342385040123,"14":0.06601981223170954,"15":-0.10156369354549692,"16":-0.11737573260569797,"17":-0.0799662839148601,"18":-0.09063007500250343,"19":-0.005926590257085784,"20":-0.018944561997006455,"21":-0.011205087776400103,"22":0.010537674265434598,"23":-0.03856305552720381,"24":0.007060537473316078,"25":-0.011071505354895421,"26":0.07516237314272971,"27":-0.046161942870786454,"28":-0.09011068879028246,"29":0.028539590921269217,"30":-0.030706228279071542,"31":0.01917070573132632,"32":-0.0003110593347143521,"33":-0.01798030943734225,"34":0.05024054466305449,"35":-0.029269419300403346,"36":-0.009561486383735367,"37":-0.022120388927874633,"38":-0.004433427924477725,"39":-0.05299521112489568,"40":-0.105767054471919,"41":0.04704268107868621,"42":-0.007043821536199387,"43":0.08741484309393222,"44":-0.05454304572664054,"45":-0.0127013180003349,"46":0.027091841582133406,"47":0.027738014107283673,"48":-0.0010819992172325045,"49":-0.17564068834950566,"50":-0.017763343281257882,"51":0.010231420118837894,"52":-0.023996260918310346,"53":-0.00569164219455173,"54":-0.06895402330717665,"55":0.061948339664197334,"56":-0.019166836845032068,"57":-0.010293251781494976,"58":0.10000801255502718,"59":0.03265301595048127,"60":-0.06816585860795502,"61":0.13929128094792764,"62":-0.08228126828339583,"63":-0.034634096408474604,"64":-0.013684050627732309,"65":0.08496478753031413,"66":0.02015247894325032,"67":-0.003812057702253868,"68":-0.040132456975773924,"69":0.005188639636493492,"70":-0.021234457377348706,"71":-0.06200885345310012,"72":-0.05935852391150575,"73":-0.028718241160637963,"74":-0.09490570526116279,"75":-0.037871280121017606,"76":-0.05251818156683872,"77":0.03706799984462097,"78":0.011299006498086349,"79":0.027154445697318296,"80":-0.023390198750350186,"81":-0.005229794892844557,"82":0.04126812237383834,"83":-0.014447217547807683,"84":-0.03075794079777602,"85":-0.0861539605171325,"86":-0.16365846799031375,"87":-0.015044565568174769,"88":-0.0019492354227504506,"89":0.0424172120748534,"90":-0.0017056057975243487,"91":-0.011815722630213433,"92":0.018728137956176765,"93":0.009831219051298263,"94":-0.11771696510821261,"95":-0.01534247036114941,"96":-0.01984396514004011,"97":0.00512280691716028,"98":-0.051759938937896315,"99":-0.03175758416622825,"100":-0.004181724625643376,"101":-0.008358460263687877,"102":0.054712990677994955,"103":0.01099906428552392,"104":0.002132431200229442,"105":-0.003087624114801213,"106":0.0463609936632081,"107":-0.07905035065359324,"108":0.020875717573687794,"109":-0.08470840858704777,"110":-0.08597221382471433,"111":0.008435708157875536,"112":0.030208729491863453,"113":0.0638425303937146,"114":-0.012947616592559236,"115":0.047984936169031434,"116":0.038196253031849974,"117":-0.024785819599875154,"118":0.10641775521931539,"119":-0.0014497291937391082,"120":0.07061813770227603,"121":-0.013830592809354872,"122":-0.10638687433599689,"123":-0.04629935859153905,"124":-0.025720760770162197,"125":0.08138017308694523,"126":0.049245568247443805,"127":0.05922020625358773,"128":-0.008326422246510793,"129":0.017715360894699567,"130":-0.039329326498004656,"131":-0.03394856719646585,"132":0.06366320581584554,"133":0.0013627687997809104,"134":-0.015799408968122652,"135":-0.07765595732825242,"136":0.016813833850278653,"137":-0.03928448074226898,"138":0.04852049890993814,"139":0.08136412900631666,"140":-0.05226040857588647,"141":-0.00607018840862745,"142":-0.015014645848963665,"143":-0.02078818680693645,"144":-0.006221144172698527,"145":-0.09275317646308089,"146":-0.040119217923596844,"147":-0.026944546033661657,"148":-0.06689180267767057,"149":0.017775331846668643,"150":0.06690752963036332,"151":-0.043832596553820775,"152":-0.05004865468753696,"153":0.012371729365188567,"154":0.045051977159099525,"155":-0.019856537400585704,"156":-0.024937790947842105,"157":-0.04975958364800134,"158":0.05883958726981276,"159":-0.045453563724624085,"160":-0.06621976485755036,"161":0.052380053594679184,"162":-0.022658701742463525,"163":0.08833233038445627,"164":0.012885884049437165,"165":-0.02099184009064354,"166":0.09841058330053912,"167":-0.0027998616907659083,"168":-0.08855440421340048,"169":0.12300024038049118,"170":0.16276653511785524,"171":0.08253377787339164,"172":0.02796412209121625,"173":0.08796016055810757,"174":-0.04585239758237556,"175":0.08055793864490035,"176":0.0074406587604123504,"177":-0.0030665614234455523,"178":0.02090487553936782,"179":0.06234174752523851,"180":0.03071357567650553,"181":-0.06995690850074489,"182":0.0615008796961396,"183":-0.02202050003772476,"184":-0.06207229122460821,"185":0.10101623859099039,"186":0.0631878573270323,"187":0.04739952696654324,"188":0.09557847950786447,"189":0.035621625146029796,"190":0.011813834585484321,"191":0.0062229599158859835,"192":0.05255313465337216,"193":-0.10731485137105524,"194":0.09920153523927167,"195":-0.016051952907997147,"196":0.01302663893685839,"197":-0.045183654468681916,"198":0.023472640806841593,"199":0.09240870668748764,"200":0.06912459678462997,"201":0.02886384337832068,"202":0.11397100954229432,"203":0.007935006100454865,"204":0.03482581871159816,"205":-0.11290147276005645,"206":-0.08589131242500843,"207":0.004092536778139334,"208":-0.07252587636789602,"209":0.00535728789397103,"210":-0.04997316116204843,"211":0.08562583329709367,"212":-0.007260828821491945,"213":0.006109064280040452,"214":0.1363801457317429,"215":-0.020705987763327615,"216":-0.02151027059087868,"217":0.00440409220789272,"218":0.06887381453082281,"219":-0.047001412765538875,"220":-0.08266934274535993,"221":0.086485028529718,"222":-0.028417748629671547,"223":0.011732973915118083,"224":-0.028990799137317242,"225":0.015144472224982117,"226":0.07523011083833396,"227":0.07479581780398287,"228":0.04403843050908671,"229":0.07093577131727201,"230":0.12952140348413735,"231":-0.021484528625090347,"232":-0.16052489309877188,"233":0.004798195118900387,"234":-0.042572757749594514,"235":-0.00728914621941547,"236":-0.06595329327053051,"237":-0.028715342838813027,"238":-0.04853702500638281,"239":0.16816655384542673,"240":0.15422093562732406,"241":-0.0789975938077805,"242":-0.14431712525135862,"243":-0.030637216324657893,"244":0.09843033101289365,"245":0.14913106876026605,"246":0.05688999065511442,"247":0.08297292681009875,"248":-0.02283101273200702,"249":0.013469411532387439,"250":0.11400946650842823,"251":-0.11630072936055076,"252":0.06728897936375731,"253":-0.014507411459231446,"254":-0.12326770001240316,"255":-0.05921292313504016,"256":0.05432706788743015,"257":-0.022467177486354788,"258":-0.0595882208991827,"259":0.14252810232898278,"260":0.010393850694330426,"261":-0.016574255548406133,"262":0.040701322993216806,"263":-0.0022913659711666636,"264":0.028946409303070606,"265":-0.03505413965864492,"266":-0.1803243178494535,"267":-0.008943258512419146,"268":-0.030732356250964002,"269":0.03149631708901549,"270":-0.04472520586969244,"271":0.0317253399734188,"272":-0.03867734253515861,"273":-0.03134920203334156,"274":0.04346306682503903,"275":0.036249206999779,"276":-0.09648913992448113,"277":0.1052371466992104,"278":0.07918504160970191,"279":-0.015514488787431042,"280":0.0007857319335333239,"281":-0.05658071930370764,"282":-0.028844190829762324,"283":-0.0529251769704887,"284":0.005105076511419838,"285":0.0074413267193517195,"286":0.05569134854523574,"287":0.09673836192488194,"288":-0.028211463098472757,"289":-0.006288859085979886,"290":0.03486407171313185,"291":-0.011053376175046427,"292":0.02483221546595765,"293":-0.08946219174702631,"294":-0.0012772565939105534,"295":0.006672364984863948,"296":0.06880094774167447,"297":0.0329029296854533,"298":-0.08097323975213641,"299":-0.05897824290486416}},{"sx":5,"sy":5,"depth":12,"w":{"0":-0.015967292160470836,"1":0.007504131015306889,"2":-0.0041455830715679655,"3":-0.012386192064548163,"4":0.008623419522579025,"5":-0.0004794558119874775,"6":-0.01386074436924485,"7":0.007622082371390496,"8":-0.01232459275836268,"9":-0.02384421475441894,"10":-0.005796301977272515,"11":-0.02455943962916921,"12":0.0022518648671440143,"13":0.003899059388187765,"14":-0.0033409922720925573,"15":0.0018457791592934303,"16":-0.0006748137448979204,"17":-0.024553353849604456,"18":0.009240338563948493,"19":-0.00030644123389544806,"20":-0.00012916166291452758,"21":0.005051828170523837,"22":0.015335061589981698,"23":0.008214310759698171,"24":-0.015842169744281136,"25":-0.007797183131699399,"26":0.0016864036868554835,"27":0.008603937429278343,"28":-0.005193724499044174,"29":-0.01717858387114296,"30":-0.0008631543860037182,"31":-0.007633588065387953,"32":0.021720155243078673,"33":-0.00433006816063106,"34":0.006418649992227824,"35":-0.012872179343538423,"36":0.0023964899500831887,"37":-0.0016641973419268964,"38":-0.003635534829378341,"39":0.026412684858576247,"40":0.008783009015717958,"41":-0.0053741735805584705,"42":-0.017594258264741976,"43":-0.01291062154920482,"44":-0.01325571477614647,"45":0.007895549915872305,"46":-0.009851270844777165,"47":-0.006550394848653999,"48":-0.012018141151567853,"49":0.0021428305523909443,"50":-0.019487043790103128,"51":-0.010786247308924163,"52":-0.0024132734741391447,"53":0.00888763915621961,"54":-0.00823413677807604,"55":-0.007821969440254452,"56":0.011851782002089315,"57":0.01872555020872055,"58":0.02046014015888243,"59":0.008841181723756131,"60":-0.0023034172839375222,"61":-0.008142143676021488,"62":-0.012571014271174078,"63":0.00482251114422185,"64":-0.029303418440524184,"65":0.0024678221279535624,"66":-0.0037673538310529064,"67":-0.01779954594616223,"68":-0.006872787271995322,"69":-0.0036202163120959913,"70":-0.012432696096431781,"71":-0.0050387420996797615,"72":0.0023966268266529347,"73":-0.004835855960600426,"74":-0.015120138155347592,"75":-0.012958102745944047,"76":-0.005104073696339017,"77":-0.019047089121908632,"78":-0.012044837150702311,"79":0.0022243887921075396,"80":-0.00947412223261293,"81":-0.012079132814904527,"82":-0.013562635236707548,"83":-0.019732045177197188,"84":0.004749449425965138,"85":-0.031369734145605115,"86":-0.009723833289752883,"87":0.002447530773949267,"88":-0.001374661036838982,"89":-0.008766050640473052,"90":0.0032203083653568865,"91":-0.0037569952728691257,"92":-0.009897143145316048,"93":0.03751816066338948,"94":-0.03868147716143931,"95":-0.011524537071996703,"96":-0.012520928082876769,"97":0.008551837070817263,"98":-0.016759002337288983,"99":0.014084852347647165,"100":-0.0007231106947926742,"101":-0.0165851365367916,"102":0.012917915304842317,"103":-0.011232836550862145,"104":0.008871963058959686,"105":-0.008786713522425032,"106":-0.011260375362645222,"107":-0.00905051287684742,"108":0.010863643312247512,"109":-0.015758255719109066,"110":0.02485485542945472,"111":-0.008587280715580153,"112":-0.01991594248366947,"113":-0.01445828754033626,"114":-0.030373152228310416,"115":0.0000648262316234147,"116":-0.006206702646946705,"117":-0.0018869630198716837,"118":-0.0030101258084918206,"119":0.010637635135585867,"120":-0.008075932398213977,"121":-0.002567681002877203,"122":-0.0012315599481836352,"123":-0.004733619059215873,"124":-0.02478662646546074,"125":-0.021059882050568312,"126":-0.0030248217985063856,"127":-0.010716692183250028,"128":-0.013223852466507873,"129":0.010988910302757624,"130":-0.01573308925504868,"131":0.013900495297213163,"132":-0.0028216490290608716,"133":-0.01890051252687759,"134":0.00870123717384611,"135":-0.013537759423587255,"136":-0.0007299238098366905,"137":-0.018272270903763047,"138":-0.00045760210413323777,"139":-0.0031104961781159134,"140":0.00976686186103675,"141":-0.019406535263814313,"142":-0.007495393495822775,"143":0.0026170220648314424,"144":0.010956009228758999,"145":-0.01804590198029346,"146":-0.031566136460470254,"147":-0.02002692898169231,"148":0.0075097823879477785,"149":-0.002574800908826586,"150":-0.01249230854474239,"151":-0.009983520158063607,"152":-0.011665371635917412,"153":0.0022376116186487833,"154":-0.037899621583755275,"155":-0.008486148172365055,"156":-0.0030019145256628124,"157":-0.016573264480060877,"158":-0.00138850359306923,"159":0.0005022472886521495,"160":0.018851643023034936,"161":-0.0039281722477293715,"162":-0.01390699568877776,"163":0.0014793180283748553,"164":0.0007933440343369832,"165":-0.005143548730536135,"166":-0.05972729419344279,"167":-0.02403894556704801,"168":0.014318293373345036,"169":0.002824901840858867,"170":-0.007628744088536155,"171":-0.016137295576187954,"172":-0.022304523062469054,"173":-0.004393286151242692,"174":0.01147537544958617,"175":0.02091654339306257,"176":-0.002395539985970035,"177":-0.007184278214645694,"178":0.007575786129869177,"179":-0.013697121803545598,"180":-0.02550785760924072,"181":-0.0005367104424274487,"182":0.001516837626992358,"183":0.0013930049791251087,"184":-0.004912262666828903,"185":-0.0019504586099779251,"186":-0.027819817412104736,"187":-0.013570694027138999,"188":-0.01241105104383414,"189":-0.004762079662552708,"190":0.0108497141028692,"191":-0.008590583317703855,"192":-0.0037296269821331233,"193":-0.023663614587790333,"194":-0.0036208565013591404,"195":-0.010996165364797906,"196":0.010060515062840617,"197":-0.00702753968166943,"198":0.005845540548312503,"199":0.008295089647563153,"200":-0.0063846891399078195,"201":-0.00678000554336665,"202":-0.02339273139958654,"203":0.00954377306989525,"204":0.002077808890231785,"205":-0.01608209813305927,"206":-0.006845916664491358,"207":-0.001978125455706044,"208":-0.02831925034978022,"209":0.024762040825396677,"210":-0.007860721531114211,"211":-0.005660017555054312,"212":0.006008953524629225,"213":-0.00725916631539196,"214":-0.0127078927898917,"215":-0.02070458663543537,"216":0.002597482381306825,"217":-0.011389664305604395,"218":0.00363986800420799,"219":-0.024227482118468504,"220":0.03922971139789062,"221":-0.027686351186274497,"222":-0.01062985549785104,"223":-0.010293093444126808,"224":0.035843415137532364,"225":-0.0160210245199858,"226":-0.017898925550150453,"227":-0.000818322248276922,"228":0.0001789487920933296,"229":-0.03148922419813879,"230":-0.012965770437977834,"231":-0.02749353162952098,"232":-0.0013900626029168916,"233":0.03398445264166778,"234":-0.001225394647861786,"235":-0.027260690692651926,"236":0.008858615410002386,"237":-0.015194492997511267,"238":-0.014499526737681715,"239":0.020336467735379185,"240":-0.009443760511472084,"241":-0.008009287732481411,"242":0.02875474535124063,"243":-0.005518725383626134,"244":0.009226215731839212,"245":-0.015853206785784064,"246":-0.015322808792839869,"247":-0.022245736367624898,"248":0.0034525181987570897,"249":0.014859994938348761,"250":-0.007431992933189438,"251":-0.01338281701226218,"252":0.00029512126214275663,"253":-0.020893928826500856,"254":-0.01679293481913633,"255":-0.004461000222899161,"256":-0.011089908293550721,"257":0.006400878320433257,"258":0.025184081090302894,"259":0.015111146063209652,"260":-0.0011398848042973682,"261":-0.01572894762736659,"262":-0.024953847791948716,"263":0.013632756668210783,"264":0.01848079459139321,"265":0.0048904431605995774,"266":-0.010225836271261788,"267":0.008347785342835463,"268":-0.00851373621682741,"269":0.0032525465401673555,"270":0.003590873756054575,"271":-0.011902485822526003,"272":-0.0046623935860585115,"273":-0.028999740288247217,"274":-0.023228796604480174,"275":-0.0022957885212469315,"276":-0.003480894638374512,"277":-0.015854310780794346,"278":-0.0062833248048136505,"279":-0.0057710972309641265,"280":-0.015895175291513443,"281":0.01080239698796513,"282":-0.011465201470094544,"283":0.019693138885347104,"284":0.01822933680204249,"285":0.004510366447375974,"286":-0.005871392533142402,"287":-0.01077074540657327,"288":-0.011532316448639264,"289":-0.006825570394099647,"290":-0.023897234647233062,"291":-0.012156395013570347,"292":-0.03164717998451873,"293":-0.008867390241910618,"294":0.018842825462550037,"295":-0.0010059156231856069,"296":0.01707870183017657,"297":0.01511870788595791,"298":-0.018912185380422424,"299":-0.01104610261811272}},{"sx":5,"sy":5,"depth":12,"w":{"0":-0.0005644861074777082,"1":0.0044766757857203875,"2":-0.0015995616318118912,"3":0.02001562033025811,"4":-0.01720644644320083,"5":-0.00418949787602889,"6":0.011534602791804509,"7":-0.011957466146151858,"8":0.007680647988387073,"9":-0.01579720030240024,"10":-0.03873117682819225,"11":-0.0028701611316360965,"12":0.00988344281677421,"13":-0.040933942078887044,"14":-0.03961155330024306,"15":0.009156117123806908,"16":-0.029571162723730383,"17":-0.0076003804663350725,"18":0.009554254451231455,"19":-0.009335263326727194,"20":0.00790218069108402,"21":-0.012090436574904623,"22":-0.024878459632808877,"23":-0.019912721921152406,"24":-0.01591536850339618,"25":-0.010416010288572017,"26":-0.025321742852945653,"27":0.007937754540546403,"28":-0.005876630601444614,"29":0.03899818399671027,"30":-0.032822154469886074,"31":0.002354232723583152,"32":-0.002375237048681618,"33":0.012975322336253472,"34":-0.025535164679431937,"35":-0.023796378136296245,"36":0.013638852149224303,"37":-0.023700814003905862,"38":-0.018627791783521593,"39":-0.008501226777986825,"40":0.0027030626555461464,"41":0.010503250777848848,"42":-0.019295844882476095,"43":0.01989618805610734,"44":-0.026528874692806587,"45":0.008488402695749114,"46":-0.020835425723666423,"47":0.008466722610114913,"48":-0.002689738431408951,"49":-0.01353043943613961,"50":-0.02248442107834943,"51":-0.02108886253124889,"52":-0.00816989112665109,"53":0.003662753561862185,"54":-0.031129510208957028,"55":0.0065012942660330865,"56":-0.011241795284762575,"57":-0.03032749313867567,"58":0.01570232303927598,"59":-0.028099275734586256,"60":-0.0038331532844285018,"61":-0.03204295224212838,"62":-0.013295006062601415,"63":-0.014966541486031331,"64":-0.011361916153616772,"65":0.019445328851950217,"66":-0.013603666565095946,"67":-0.005740604408185937,"68":0.01611516640869777,"69":-0.014602458733103207,"70":0.005754808449908742,"71":-0.013118656368564916,"72":-0.0045354601226805106,"73":-0.016468301011631357,"74":0.0014252900076669602,"75":-0.01209629300857573,"76":0.0005105927121290859,"77":-0.019924626911608543,"78":0.0006253713066356366,"79":0.0031827570491838987,"80":-0.007114668988428441,"81":-0.013340576334281618,"82":-0.008345203970921198,"83":-0.005924991365238889,"84":0.007183069818238731,"85":-0.018212825428984093,"86":-0.01860916863580541,"87":-0.01556948692211229,"88":-0.0226420474987971,"89":-0.0010481008208978258,"90":-0.046213616745020766,"91":-0.008298577274389068,"92":-0.030081692776340804,"93":-0.008395810054194798,"94":-0.01831088235188975,"95":0.0056611650162929905,"96":-0.0007734168015341678,"97":-0.009959796633767294,"98":0.0027950676227448228,"99":0.006747058759987658,"100":0.009730318466947802,"101":-0.0022285905359824554,"102":-0.007438319836968734,"103":0.0040534425716603545,"104":-0.021343853923318255,"105":-0.0005700786539858482,"106":-0.015004118289843271,"107":-0.03080342880246647,"108":0.00009830772226272735,"109":-0.02421158617109757,"110":-0.01903135673495085,"111":0.002071386300605412,"112":-0.010917375692093048,"113":-0.030494517906533694,"114":0.008332562393114685,"115":-0.014904414566724106,"116":-0.036273814157200525,"117":0.01727445079350422,"118":0.011598039611366915,"119":0.009738163702573039,"120":0.0058229862137028545,"121":-0.011973404006089103,"122":-0.044178849916271225,"123":0.008757256080977964,"124":-0.007868881144313914,"125":0.021484048795987965,"126":0.0004903267111160579,"127":-0.00501792079519475,"128":0.016089861282726072,"129":0.0083071479591818,"130":-0.008792020092013481,"131":0.02176236648792046,"132":0.0036429977443919823,"133":0.00937201968914761,"134":-0.020390894512727728,"135":-0.010673369261787392,"136":-0.008449430222285469,"137":-0.022282735488278322,"138":-0.011764445598635051,"139":-0.023809456651474183,"140":0.0037654062424276324,"141":-0.0019357382953762256,"142":0.0031137616098961414,"143":0.013896838899216382,"144":-0.02166596356794065,"145":0.005305781999996985,"146":0.011931535231559294,"147":0.019571595006398212,"148":-0.00299350946374063,"149":0.015599724974008397,"150":-0.005573863966551599,"151":-0.005177054494848764,"152":0.027991230683459517,"153":-0.02164708829325329,"154":0.009221292230426238,"155":0.09042189729463043,"156":0.006484529482445435,"157":-0.0193167947479886,"158":-0.03451237487695382,"159":0.021934923586275343,"160":-0.016153518770048,"161":-0.012354423891644326,"162":0.0027385901405427306,"163":-0.015725101302642923,"164":0.018998818654482847,"165":-0.013109422646494092,"166":0.0026163917175636717,"167":0.06502400128302509,"168":0.03898284079208483,"169":0.0005538794569375633,"170":-0.035989647066043524,"171":0.022788182253038358,"172":0.0038994340940479823,"173":0.014744221660257661,"174":-0.01265129147936243,"175":-0.006308257995298212,"176":0.023580950579083354,"177":-0.01663988539172381,"178":0.0028274307862903277,"179":0.053881061074656705,"180":0.04062166130617394,"181":-0.01982761155189591,"182":-0.0012369238956971946,"183":-0.010261477246581838,"184":0.016063996499121214,"185":-0.018566733042616624,"186":-0.005083601742040905,"187":-0.008893560710571163,"188":-0.0014175108001710766,"189":0.005431374060291333,"190":0.00994978066125857,"191":0.012828624761115355,"192":-0.0031394557453554594,"193":-0.046960293111772015,"194":-0.01727063307468949,"195":-0.023855754237477975,"196":-0.013108720716644722,"197":-0.004700147654538045,"198":-0.02099294002357507,"199":0.022162286224135044,"200":0.011458303546595843,"201":-0.011998333336420666,"202":-0.027714002966546327,"203":-0.012964369963222805,"204":0.0038895361709646277,"205":-0.01248247852217433,"206":0.03283339240916522,"207":0.010683344631826363,"208":0.019481577601061787,"209":0.0015702999265914367,"210":0.00979956089539717,"211":-0.009066220540010425,"212":0.008351549433861218,"213":0.031079375998402173,"214":0.0012813052008096167,"215":-0.018306731411659373,"216":0.027699344697559268,"217":-0.013193674704749973,"218":0.015833099370222196,"219":0.03872405746252627,"220":0.02913989267138931,"221":-0.030886517833204324,"222":0.02475107421617775,"223":-0.02166099776696317,"224":0.00340397844508264,"225":-0.0023606583945521187,"226":0.011362253907501707,"227":0.014428756253342103,"228":0.0024512623680155846,"229":0.009727745055000783,"230":-0.04072770569362987,"231":-0.002186864531001886,"232":0.027194359437894878,"233":-0.016411159200001833,"234":0.016524481830183475,"235":-0.028591163671912924,"236":0.006308662216666622,"237":0.0005798530200327923,"238":-0.02881203785572145,"239":0.017312835697631528,"240":-0.00019053448260867578,"241":-0.03324102848088172,"242":-0.028982753006777967,"243":0.006916826509420074,"244":0.007659148739161762,"245":-0.00871003922366056,"246":-0.0071902243156307,"247":-0.03797965608654895,"248":0.01285547384300824,"249":-0.004701714868884105,"250":-0.005399361404535885,"251":-0.021331691582780508,"252":-0.006477291202228257,"253":-0.006436232393597091,"254":-0.03751703486298394,"255":-0.02927579176935487,"256":-0.004654606024010954,"257":-0.0035508377010966033,"258":-0.02630833772986416,"259":-0.0013663720453020464,"260":-0.00666034962355267,"261":0.003730251806857282,"262":-0.016838779738729798,"263":-0.004089826613701781,"264":-0.011806625905402764,"265":-0.014502696683719285,"266":-0.005045853702364784,"267":0.026415665412102503,"268":-0.009670421780821005,"269":0.003979421447410831,"270":-0.01945674237196913,"271":-0.0056034448756104305,"272":-0.04141724982449071,"273":-0.013481020235199866,"274":-0.016700237917638854,"275":0.012706020552715523,"276":-0.0075234044770675764,"277":-0.04430628392851048,"278":-0.01730449756287155,"279":-0.0068831603706797015,"280":-0.0017912491137831946,"281":0.01606930501004171,"282":-0.007995714006897414,"283":0.010118919564024657,"284":0.0089757265126232,"285":0.01918997055731105,"286":0.012612486837457955,"287":0.015569317875314315,"288":-0.021874348739853992,"289":-0.01228013296319002,"290":-0.022848983538288195,"291":-0.01239590392313869,"292":-0.039306059525547256,"293":-0.03711108144114626,"294":-0.019578601641301905,"295":-0.004760829715258579,"296":-0.018728947196494247,"297":-0.013292035127185103,"298":-0.03274149809274123,"299":0.036348211672176264}},{"sx":5,"sy":5,"depth":12,"w":{"0":0.1364912468636122,"1":0.08018992325102953,"2":0.09281071885060242,"3":-0.0502096435008837,"4":-0.049865182854062974,"5":-0.15772249373683184,"6":0.05293455084206754,"7":-0.06277665989784544,"8":-0.050789596508865976,"9":-0.08943883588432242,"10":-0.06350561545797857,"11":0.08839886777365505,"12":0.08154365172899962,"13":0.2524686862223178,"14":-0.0049025918264427775,"15":0.04168191917786974,"16":-0.003898173826095356,"17":0.009437875008155596,"18":0.16658794816516373,"19":-0.00713739073230304,"20":0.16245402686403707,"21":0.07272953397829313,"22":-0.20521940027672098,"23":0.06553911955906679,"24":0.04011286105064184,"25":0.022893226549264064,"26":-0.07450783920039425,"27":0.020368350276061504,"28":-0.0657461928161804,"29":0.1375203530325889,"30":0.15489411062331482,"31":0.00425775953781189,"32":0.14448759976364217,"33":-0.03378996602689725,"34":-0.1780676258453242,"35":-0.013753948330182859,"36":0.018870074094104423,"37":-0.0774989576665214,"38":-0.13182946461046605,"39":0.07384991702215975,"40":-0.07172736124836034,"41":-0.08831248402996802,"42":0.03770426423026395,"43":0.04368924195650187,"44":0.06852125466164849,"45":-0.04587631165164767,"46":-0.024033455411413846,"47":0.021756531322385544,"48":-0.0839780716929964,"49":-0.0049226127829652125,"50":-0.01413234814802269,"51":0.08917304234497916,"52":0.06954789779479452,"53":0.1201201680308624,"54":0.00605226713988732,"55":0.17660304401596402,"56":-0.12849346121095118,"57":0.013644124789599074,"58":0.052720103499728305,"59":-0.011868903519058588,"60":-0.07034319422727592,"61":-0.20614963021234833,"62":0.045919570886756716,"63":0.02705088112842617,"64":0.09512432204651362,"65":-0.15234763301121923,"66":-0.021331170489779464,"67":0.048255541014029645,"68":-0.10442298094216979,"69":-0.10618628244357016,"70":0.14849448736344534,"71":-0.0897262257059284,"72":-0.1478611197971221,"73":-0.10639789955539894,"74":0.2250125374738856,"75":-0.06680653617608805,"76":-0.18275446817910543,"77":-0.11700632099804563,"78":0.0609898681936885,"79":0.07683126148305568,"80":-0.00752008939709517,"81":-0.08374081315496822,"82":-0.06791925950381787,"83":0.008750245969950577,"84":-0.013241420244318396,"85":-0.057458460816857786,"86":0.2325887993006676,"87":0.01661809351222413,"88":-0.1380878510235139,"89":-0.022460578732540107,"90":0.015437448829909271,"91":-0.03525649400819684,"92":0.09968875784084887,"93":-0.020317354881925504,"94":-0.06016766774870335,"95":0.008886350203171465,"96":0.05069053744372458,"97":0.07772845355355375,"98":0.04453304922080695,"99":-0.08740108608120069,"100":0.20347326825249176,"101":0.030507990955895667,"102":-0.15898689474814143,"103":-0.017995057762633403,"104":0.027705292384215357,"105":0.05534045290623569,"106":-0.0027887197367729988,"107":-0.02138792186139684,"108":-0.05536367999768902,"109":-0.03861518511488635,"110":-0.03891468339867285,"111":-0.07378683774434294,"112":0.17866344338278045,"113":-0.006321857699460417,"114":-0.11923458682671617,"115":0.012404469541742255,"116":0.04673764338516211,"117":0.018937858740609367,"118":0.15708349809204522,"119":-0.02302215874779592,"120":0.006006983329994039,"121":-0.041332594907557224,"122":-0.06820916797929628,"123":-0.033978144984436964,"124":0.19529696981313194,"125":0.08310080484637253,"126":-0.20022459855262656,"127":0.07764995420001534,"128":-0.2910214255522889,"129":0.034368505034341,"130":0.28046031278046224,"131":-0.21173144952830697,"132":-0.14661839067796698,"133":-0.07264571174601468,"134":-0.0943011457973094,"135":-0.011291847353786164,"136":0.08565026667446475,"137":0.021707478371831193,"138":-0.18857341101130742,"139":0.0943882484185672,"140":-0.21367159720320475,"141":-0.06284865694659858,"142":0.22096965343412664,"143":-0.3511880043682364,"144":-0.1985884667118754,"145":-0.10016037589447033,"146":0.11036275344675396,"147":0.07244077202905208,"148":-0.045780598384888176,"149":0.0056235363313415715,"150":-0.1450566757751115,"151":-0.041557690844579574,"152":-0.13547855774164258,"153":-0.06001327659562582,"154":0.07745401769866798,"155":-0.04839140617309985,"156":-0.08931678269694177,"157":-0.01632556618365078,"158":-0.037475373060456715,"159":-0.026270757564850745,"160":0.08902339597364797,"161":0.05459231342689608,"162":-0.030916100834582926,"163":0.0048212967508982855,"164":0.02055530050536824,"165":-0.04837165049419133,"166":-0.0029232911475174294,"167":0.09204765544878953,"168":0.021907056039608547,"169":-0.011383550049265383,"170":-0.08261758931291932,"171":0.05929231068351358,"172":0.10722613423134622,"173":-0.0507760213865242,"174":0.06535829662360441,"175":0.03484992458102308,"176":-0.09801716755519568,"177":-0.07911794208076607,"178":0.10539073698435888,"179":0.012096094124531002,"180":0.11620848286729979,"181":0.19366763927381583,"182":-0.1152797211822598,"183":0.04859968738034263,"184":-0.05331346617582264,"185":0.08070133264044717,"186":0.10221127576532626,"187":-0.04946468983488797,"188":0.07786084210822151,"189":-0.03986774317932455,"190":0.06730637137829514,"191":0.08397266317804235,"192":0.05556474857122379,"193":-0.01933185529720341,"194":-0.1596658092999874,"195":-0.05167027679902912,"196":-0.0036692021860654503,"197":0.1724443361420122,"198":-0.08975757946290294,"199":0.10496184116412101,"200":-0.10281895741138733,"201":-0.00850408902967818,"202":0.06880709126623566,"203":0.024441193021128762,"204":-0.06250264114580491,"205":-0.04555824140143304,"206":-0.006498109151386771,"207":-0.007262846227338391,"208":-0.0636687504269171,"209":0.15366158656884185,"210":-0.12580868823595923,"211":0.05752262058142967,"212":-0.09488316328900578,"213":0.05911791674698886,"214":-0.015590629986719253,"215":-0.026528862459448813,"216":-0.03742468865455658,"217":0.012449635008109415,"218":0.04333738503679273,"219":-0.05525871280909813,"220":0.028702007765943185,"221":0.10607373120648134,"222":-0.038473932776079994,"223":0.0558806640295933,"224":0.06396672956251592,"225":-0.010204661897054513,"226":0.030841639599056007,"227":0.1017072539058549,"228":0.01273699363911678,"229":0.13096831033342024,"230":0.10034731158271352,"231":0.06113549807427397,"232":-0.06460767792708252,"233":-0.02330760464283378,"234":0.033409655343667924,"235":0.062323414127575416,"236":0.012426453972404815,"237":-0.006457128921941363,"238":-0.027185674203573224,"239":0.1065089867337826,"240":0.17091129096927246,"241":0.07722800844221234,"242":0.05341938718044161,"243":0.004681967444899282,"244":-0.12424315154298532,"245":-0.045588808214285494,"246":0.18179519263607297,"247":-0.01051703592887361,"248":0.13090844554028083,"249":0.007543203363736697,"250":-0.1493190308973083,"251":-0.044885985337522014,"252":0.09043318047829663,"253":0.12225303160418244,"254":-0.13644159391689265,"255":0.030229661083367314,"256":0.04289872935296988,"257":0.03610092394644696,"258":0.050841372535217054,"259":-0.08828893258229539,"260":0.0426957269695451,"261":-0.03862668286936999,"262":-0.07147925097907777,"263":-0.08085051784261356,"264":0.11174860570440202,"265":-0.07362338425642632,"266":-0.043815821731529744,"267":-0.08313784769696642,"268":0.0436386770272717,"269":0.04460531638575473,"270":0.023460776113293974,"271":0.03276607830690341,"272":0.028355586475733437,"273":0.08636615913023295,"274":-0.04895749286623677,"275":-0.016236730770620808,"276":-0.08555759442395824,"277":-0.13432351513494944,"278":-0.05562720597156413,"279":0.027276935655102193,"280":0.12798794055926196,"281":0.062206463590061586,"282":-0.09059870104073219,"283":0.1110201399161424,"284":0.028258240981866984,"285":0.0006251417357282206,"286":0.1282776915473884,"287":0.0102888592356185,"288":-0.0027902030138784784,"289":0.0016525699938315537,"290":0.03153343534022466,"291":-0.08530008759226483,"292":-0.018675933690619255,"293":-0.012058784898971681,"294":0.03664083402176676,"295":-0.05054950805838595,"296":0.02642072557090268,"297":0.010607537190463645,"298":0.019757594480570958,"299":0.027650759556137928}},{"sx":5,"sy":5,"depth":12,"w":{"0":0.008081539994928631,"1":-0.0069461691872175985,"2":-0.02280710185713034,"3":-0.020963026171941696,"4":0.005466389508162064,"5":-0.003448165623875616,"6":-0.0002101749250160975,"7":-0.027029325740314667,"8":0.0017253485622275911,"9":0.0031934030840611366,"10":-0.0037086185071746516,"11":-0.01701034221239321,"12":0.010474049767746836,"13":-0.011635827184785912,"14":-0.01054008784768885,"15":0.002036573317311093,"16":0.003690697087219212,"17":0.009937251528495882,"18":-0.013484140064777548,"19":0.002938876864988161,"20":-0.010991172701336554,"21":0.007310049851394585,"22":0.011142336992031507,"23":-0.0038152529901698306,"24":0.02407020773791916,"25":-0.016032111173322424,"26":-0.0351336076075844,"27":-0.005076087270660077,"28":-0.005309598633114492,"29":-0.0034173250370295176,"30":0.006615109798404243,"31":-0.001375332167661761,"32":-0.030384871936682947,"33":0.04101842340852791,"34":-0.020477794275206317,"35":-0.0008794345363433765,"36":0.012372540519928643,"37":0.006359861769347676,"38":-0.013947987609895266,"39":-0.021924034696869217,"40":0.014033137731901721,"41":-0.00426173864588428,"42":-0.005433136605124082,"43":-0.02053304422686121,"44":0.011652399854827564,"45":-0.014412192677039682,"46":-0.009455217628710133,"47":-0.005248455804415002,"48":0.0036152955168460197,"49":0.002403223841890968,"50":-0.020211145426599873,"51":-0.0056897608296331195,"52":-0.00587462869103837,"53":0.01985188943004846,"54":-0.010290002327310411,"55":0.0022541999424770063,"56":0.018500713105663816,"57":0.01242661173309305,"58":-0.024741243698573733,"59":-0.005492844437180612,"60":-0.019817492528143493,"61":0.015704494780619253,"62":-0.023609733608673217,"63":0.017828422405740608,"64":-0.00959868487838636,"65":0.004042965255833845,"66":-0.001160181609984004,"67":-0.015783492857539116,"68":0.0005710387824721201,"69":-0.0037770038710615334,"70":-0.01884262908296436,"71":0.023372526153923563,"72":0.005646161902965657,"73":0.004292882855105055,"74":-0.016306021257897645,"75":-0.0029863292045404864,"76":0.008920794371772548,"77":-0.008169415903618037,"78":-0.0019369472706671819,"79":-0.02386982698396966,"80":-0.022307529059714126,"81":-0.002656677353965373,"82":0.003361725864153588,"83":-0.015563723674348579,"84":0.005800051029886283,"85":-0.017175824111281143,"86":-0.0067238451340424915,"87":-0.004738864554057959,"88":-0.003488215602887749,"89":-0.023419842942475122,"90":-0.0364722812400771,"91":0.012854377972100732,"92":-0.016403384648014163,"93":0.014923825654538184,"94":-0.028766240817901845,"95":-0.008266045857800148,"96":-0.02098184118948584,"97":-0.003675547694180542,"98":0.03596672874878813,"99":-0.018774684608466756,"100":-0.004279805783282689,"101":-0.0021813020431945074,"102":-0.02419878314439769,"103":-0.030294533459011994,"104":-0.016719966106575782,"105":0.006342498824961926,"106":-0.01760722267573589,"107":0.012618536032804963,"108":-0.004100197886358855,"109":-0.000049233004557593514,"110":0.0012648988042869588,"111":-0.016498053081584724,"112":-0.02023435847941806,"113":-0.00978981215273901,"114":-0.0006702705234061161,"115":-0.001246860589898779,"116":0.0059691489025804866,"117":0.01791923021327162,"118":0.0002962216282062777,"119":0.03056812463620102,"120":0.006795908255250899,"121":-0.02034026026577698,"122":-0.011140878950046219,"123":0.005829088351078336,"124":-0.004139609072180223,"125":-0.0069893187058898765,"126":-0.013837376774170528,"127":0.001161627406423354,"128":-0.0030635125100550737,"129":0.006380060131258495,"130":-0.014968843687000634,"131":-0.005051094394869531,"132":0.005233259071771428,"133":0.003635596630572908,"134":-0.022276081999568275,"135":0.0029981436600231954,"136":0.01827978742978621,"137":0.010214289519806366,"138":-0.031099759497710718,"139":-0.0077329658450928694,"140":0.0010278088891824055,"141":0.008932565677634662,"142":-0.0013645386109646153,"143":-0.009315057180452752,"144":-0.00073872106077562,"145":-0.021056562996476652,"146":-0.03071646473304039,"147":0.013035045566660124,"148":-0.02497734644099327,"149":0.014675543459406769,"150":-0.01795303158293955,"151":0.004588513811902749,"152":0.0157382167602952,"153":-0.011093826181056716,"154":0.0013807827973110482,"155":0.015376337818153233,"156":-0.0038842425274849585,"157":-0.02133488937382217,"158":0.002822494607760103,"159":-0.0034980883005605663,"160":0.011014815358599708,"161":-0.008548741198675547,"162":-0.003832908406495987,"163":0.014257641307742128,"164":-0.026099022590893438,"165":-0.013737021813119796,"166":-0.0034899859752758684,"167":-0.0036613805700625494,"168":-0.013160717057646334,"169":-0.005515296139408632,"170":-0.012575968210665044,"171":0.004705704001482494,"172":-0.04621804421924448,"173":0.0004792005841141799,"174":-0.005352232736328603,"175":-0.00866804054105679,"176":-0.0022901586760771713,"177":-0.013111644734453727,"178":0.010103802650407565,"179":-0.002811699079305406,"180":0.002379763363982606,"181":-0.046173554890672,"182":0.005328453127650055,"183":-0.009685721662981631,"184":0.01216128706670192,"185":0.020163439473470445,"186":0.02587847839935118,"187":0.016292015491829008,"188":0.0039047676904434034,"189":-0.0006004063916266806,"190":-0.00010987212538070087,"191":-0.003974421021260926,"192":-0.006140209014722327,"193":-0.02810922933499746,"194":0.002559141163348821,"195":0.007978009614393024,"196":-0.007332957736778022,"197":0.014440124925779542,"198":-0.006084760729480581,"199":0.012881255560788816,"200":0.017645707170468837,"201":-0.008762095514108682,"202":-0.002487160679851369,"203":-0.007585889427137084,"204":0.015817323708662963,"205":-0.01942820264619544,"206":-0.027112468495273177,"207":0.0015743007289213543,"208":0.006096492992439636,"209":-0.00027667993269741675,"210":-0.0077355688844487625,"211":-0.0015560761474434958,"212":-0.013973051743349786,"213":-0.000024441728051502022,"214":-0.005595918489451726,"215":-0.00010033393729781627,"216":0.016034834654294155,"217":0.03104073295508929,"218":-0.0012709085387120115,"219":-0.007753453721029488,"220":-0.012558758949755814,"221":0.015327133265368302,"222":-0.015601069700879624,"223":-0.017722515292123316,"224":-0.015431728634647143,"225":-0.00922358299765029,"226":0.01654067084857957,"227":-0.009373054072538401,"228":-0.001473589526248077,"229":-0.0026717668320197993,"230":0.005348411577985503,"231":0.0055501422194544426,"232":-0.011161368766167004,"233":0.0022372442596082114,"234":-0.013806135208963094,"235":0.007636007361873094,"236":-0.018641342040869643,"237":0.010417670648385561,"238":0.015119666757657668,"239":0.0229182195154551,"240":0.004731701260925994,"241":-0.009344850106399606,"242":0.012102386107941308,"243":-0.004040302609058377,"244":0.004550408493262523,"245":-0.01757402009974972,"246":0.011105759837743279,"247":-0.00012571865951454872,"248":0.008270922149618382,"249":-0.0029491985683931642,"250":-0.022602333432362016,"251":0.015668989169394697,"252":0.006688380772681606,"253":0.035622785794827735,"254":-0.0042151544548816346,"255":0.0038834606451684586,"256":-0.006221142313293644,"257":-0.030355836087331965,"258":-0.005929909260744812,"259":0.01231953479012493,"260":-0.00615247481374481,"261":0.00002115441371270301,"262":0.01807441337360138,"263":0.007527182114420711,"264":0.010161205299785196,"265":-0.005243844701864763,"266":-0.01495856393721862,"267":-0.0039442344280347895,"268":0.011149463867489167,"269":0.016976084007479537,"270":0.0063850338589520605,"271":0.0014112467037549839,"272":-0.0037419402447116203,"273":0.0001282983182447684,"274":-0.019284946443230987,"275":-0.0007858915187631673,"276":-0.015016781533572329,"277":0.0059449548591353285,"278":-0.011741569408072439,"279":-0.024205196136837845,"280":-0.009709667888571319,"281":0.0035829854069203905,"282":-0.020445909602597914,"283":-0.0012741841499371315,"284":-0.007292973018599907,"285":0.00883296149582703,"286":0.00628953107619967,"287":-0.012016694021676462,"288":-0.004340007072363749,"289":-0.011161919542125177,"290":-0.011327733310431472,"291":-0.008433452155584779,"292":-0.008351329280009732,"293":0.011048058548859705,"294":-0.0031442737450359396,"295":0.0008663942304348459,"296":0.019372500566659137,"297":-0.0006924370180033104,"298":0.008094392145437416,"299":0.0041829894793223785}},{"sx":5,"sy":5,"depth":12,"w":{"0":-0.058951529268753335,"1":0.04113492552739288,"2":-0.17019347933269105,"3":-0.036768839818394135,"4":-0.09445627313030033,"5":0.014216787495213545,"6":0.10034115770126269,"7":-0.02319485255135066,"8":-0.041624130980184255,"9":0.01386219688439841,"10":-0.04915475870970827,"11":-0.002466412925548135,"12":-0.018929938735101758,"13":0.06712061969879901,"14":-0.15769050566542386,"15":-0.0251250815536079,"16":-0.028150313222911914,"17":-0.04795051977052979,"18":-0.06272452718487082,"19":-0.03400859016424438,"20":-0.02601945017444912,"21":0.016207172760655475,"22":-0.018162910274957533,"23":-0.02236757490099182,"24":0.0021381663988919272,"25":0.024008447982338983,"26":-0.1251007185898704,"27":-0.026828041317183395,"28":-0.02761604191441718,"29":0.030501238253416635,"30":-0.12824978603026327,"31":0.017593133463195215,"32":-0.04254811191775256,"33":0.014549039569479429,"34":-0.04558338373628074,"35":0.034731448446612606,"36":0.05274626579949689,"37":0.04796162063121572,"38":0.16343887983630698,"39":0.020887657502046603,"40":0.13204169350735662,"41":0.03769441145342355,"42":-0.011502285522896958,"43":-0.007804308202187169,"44":-0.00015741410992854875,"45":0.00024547020753346466,"46":-0.05169963370251711,"47":0.061116205800417656,"48":0.039284767813619455,"49":0.07377881667617353,"50":0.0915292472601429,"51":-0.015295389822340025,"52":0.009730624987871521,"53":-0.012006474836707788,"54":0.0393220309709266,"55":0.02679339723385605,"56":0.0020645687785263147,"57":0.024026249170672618,"58":0.003970585422245153,"59":0.06082297015549587,"60":-0.02465619645522184,"61":-0.02120290854822785,"62":0.037752151613583,"63":-0.0526630483454355,"64":-0.06832713068664005,"65":-0.016615159138780394,"66":0.031682846586710424,"67":-0.009819815327026908,"68":-0.00911791001114203,"69":-0.011486770981458944,"70":-0.034844081358546115,"71":-0.020748166694443057,"72":-0.03179919240739326,"73":-0.06290783641535677,"74":-0.046688511591846935,"75":-0.019348676679515914,"76":0.06597622410720233,"77":-0.01083776458207785,"78":-0.07231518512980631,"79":-0.01437258173566416,"80":-0.025767468875010784,"81":0.07103689728845886,"82":-0.0584447363043,"83":0.037129512236801145,"84":0.012568135955405142,"85":-0.09141207957384355,"86":-0.09920780042045114,"87":0.02681120216559452,"88":0.042137442235942256,"89":0.022861430618483947,"90":-0.11216489132836403,"91":-0.01245055772930578,"92":0.037503351498904644,"93":0.007907874435750296,"94":-0.022826263967764573,"95":0.11278555732438818,"96":0.005114648742806866,"97":-0.02280750898752456,"98":0.08816423656260385,"99":0.017362755342461223,"100":0.06805609005351806,"101":0.00204325539179636,"102":0.008723511001476834,"103":-0.03492407020339783,"104":-0.019351318640388467,"105":0.007987175894319028,"106":-0.02912336195405497,"107":0.04611844747164695,"108":0.007993910401784118,"109":0.07139300311201206,"110":0.060029993687075185,"111":0.03303734295391493,"112":-0.1462591123631543,"113":0.002453107920964821,"114":0.13141255316888628,"115":-0.013680712307610258,"116":-0.00961927019073498,"117":0.01485456127974722,"118":-0.013494513769285088,"119":0.05284578814717641,"120":-0.01281412671894127,"121":-0.06984858406292943,"122":-0.024859428710657046,"123":0.013497120972244144,"124":-0.0013421177676376874,"125":0.0031468641999096315,"126":-0.08920161729770167,"127":-0.030555389671764126,"128":-0.007755711373528895,"129":0.05382878828301658,"130":0.09979316891156087,"131":-0.012935514321572568,"132":-0.019555074466430098,"133":-0.028088282424120824,"134":-0.08456823854584344,"135":0.00708939676727445,"136":0.03973840046011738,"137":-0.03850197426197586,"138":-0.10859820363765858,"139":0.004949025836092237,"140":-0.03724529951896253,"141":-0.004114930295473561,"142":0.03235301325637384,"143":0.007403367862195143,"144":-0.02204423534889106,"145":-0.029413402539917064,"146":-0.15384372416372463,"147":0.03887099926139228,"148":-0.05723313543190633,"149":0.052426809838346196,"150":-0.06365763389951573,"151":-0.007636704878618157,"152":-0.00460866079685026,"153":0.007347113227575239,"154":0.04599876435729091,"155":0.03687908099431345,"156":0.006668044647704553,"157":-0.085037644067293,"158":0.023964385954797617,"159":-0.0749250102914904,"160":0.017381075257458398,"161":0.0800146157877054,"162":-0.04004231797519973,"163":-0.03251721094203729,"164":0.008928864794975134,"165":0.025938847370828834,"166":0.033151117448643,"167":0.035972456975804035,"168":-0.026477744006588224,"169":-0.1226346292311571,"170":0.031884229272864724,"171":-0.059497323128057625,"172":-0.11358726565801004,"173":0.06658791901843975,"174":0.023754942283572025,"175":-0.042038380327523786,"176":-0.005259918278173352,"177":0.013486109877633034,"178":0.07400581042502423,"179":0.008921098917836394,"180":-0.013221831153640439,"181":-0.013679210933259805,"182":-0.04455276133618774,"183":0.018950295921688225,"184":-0.030857468239700873,"185":-0.029437935639224935,"186":-0.009857785741210975,"187":-0.013440694308245446,"188":-0.007829558445568261,"189":0.015406572664126504,"190":0.1127844831670324,"191":0.0223985612268545,"192":-0.026581928998214734,"193":-0.050165468887939754,"194":-0.04139537636472147,"195":0.007483372414305945,"196":0.03164427194042725,"197":-0.049206149219262925,"198":-0.03362321389721943,"199":-0.044903452690323704,"200":-0.04982858651636864,"201":0.0021987723063038385,"202":0.028839753542586968,"203":0.0017404015650062587,"204":-0.033170701525476194,"205":-0.14965283465504553,"206":-0.003359508813003948,"207":-0.045938450434925455,"208":0.03390021064363746,"209":-0.048339643875316564,"210":-0.06071729374109377,"211":-0.053971622556271644,"212":-0.017909938131415438,"213":0.003278275244077002,"214":0.015127213967363131,"215":-0.023609414816579292,"216":-0.025186172239681875,"217":-0.060428422570878576,"218":-0.02128661099693522,"219":0.02524304313577798,"220":0.11131592455845964,"221":-0.011711201056427438,"222":-0.06352679810729484,"223":0.0028665011394523833,"224":-0.012738723010374759,"225":0.02700328140174103,"226":0.10592470316816256,"227":0.003193203806717207,"228":-0.03157178869534381,"229":-0.14903712203534183,"230":0.053908623255794035,"231":-0.044021569762685404,"232":0.09835980031186427,"233":0.017927183706537297,"234":-0.1545528515719017,"235":-0.005966374551628774,"236":0.027779981532529332,"237":0.03361242940427438,"238":0.1325861574165357,"239":-0.04922519192201816,"240":-0.05953224165800023,"241":-0.06230351237937589,"242":-0.06384950485415047,"243":-0.04792096206637037,"244":-0.07330620403355104,"245":0.006946270492017856,"246":-0.020084409314892297,"247":-0.02964748337610719,"248":-0.036816526884375575,"249":0.011725881150991055,"250":0.06668833099992744,"251":-0.019024736854770852,"252":-0.03037417806229841,"253":-0.03451755598153211,"254":-0.07062130864298817,"255":-0.04581111855768435,"256":-0.0410212807101633,"257":-0.04699888164157915,"258":-0.0473257628479279,"259":-0.026598009587136907,"260":-0.04759574228428635,"261":0.004455764834233783,"262":-0.004598450104621106,"263":-0.023124176568383732,"264":0.014205215227272855,"265":-0.05045507034283584,"266":0.0016389926652355718,"267":0.01830243659229668,"268":0.023922844128090634,"269":-0.045075723449667815,"270":0.03472315098104757,"271":-0.0239437435082047,"272":-0.009505358872215023,"273":-0.029128832915788598,"274":0.0010258602185216938,"275":-0.028416948759084692,"276":0.01973208171861835,"277":0.004144343989628124,"278":-0.049594509968584964,"279":0.04273440054688761,"280":0.06179406418216664,"281":-0.05134241993636964,"282":0.04256482710240964,"283":-0.01696151532534862,"284":-0.01918017096102127,"285":-0.000018203499320627985,"286":-0.04302662798866174,"287":-0.04104942383092963,"288":-0.02361316526199294,"289":-0.005135448793141733,"290":-0.15988656606610077,"291":-0.035484621535503705,"292":-0.017459726080247765,"293":-0.06967551572104146,"294":0.0016320891231284406,"295":-0.01763913052148029,"296":0.01247578466625654,"297":-0.008245030253137784,"298":0.06870740412386604,"299":-0.012944498903517617}},{"sx":5,"sy":5,"depth":12,"w":{"0":-0.00676291712260833,"1":0.00004792139533659268,"2":-0.0027061210793331084,"3":0.017943074385990014,"4":0.0007874173601699723,"5":0.005901293060683958,"6":-0.020441515617036377,"7":-0.0017682389402500147,"8":-0.008080593053048367,"9":-0.012769703007092034,"10":-0.0011651743937807848,"11":0.01212368615941207,"12":-0.0019635867496640737,"13":-0.005902592385044094,"14":-0.018812678261691296,"15":0.0026627956907753925,"16":0.002573946186089809,"17":-0.01525026249721971,"18":0.0021379031959167074,"19":-0.012784656526640579,"20":0.007235208572699381,"21":-0.003246765146556471,"22":0.022815297582870656,"23":-0.018161713158352084,"24":0.014430061258438197,"25":0.0035928959192842555,"26":-0.0186768720642787,"27":-0.019207024990298006,"28":-0.028156124970957576,"29":0.02082366575586187,"30":0.014840615475124188,"31":0.004079434465626468,"32":0.015031213425508793,"33":-0.015450501477376605,"34":-0.021166600224400405,"35":0.014573279258048868,"36":-0.002500499432622346,"37":-0.0059448924697208215,"38":0.006807553568458734,"39":-0.014139221389816324,"40":-0.0012441044763881908,"41":0.004177062165273499,"42":0.0010311303388370675,"43":0.01122273141038038,"44":0.0004634901695108067,"45":-0.006318965646511642,"46":0.015752873315087852,"47":-0.0011981919810962322,"48":0.02582529436504727,"49":-0.03343103064522651,"50":-0.0031375610806616285,"51":-0.01894493286226641,"52":0.005677812795686409,"53":-0.022770348151030326,"54":-0.014929456864046484,"55":-0.013656057495444532,"56":-0.012000920158558427,"57":-0.013404852720741729,"58":0.012333905550010455,"59":0.013915505492759927,"60":-0.006848754899876046,"61":0.006354476183307455,"62":-0.01779542699043194,"63":0.014700545742811849,"64":-0.011717611513501654,"65":0.005835140006088458,"66":-0.01311852381290691,"67":0.002880640928744339,"68":-0.014024737948987315,"69":0.003081811320557861,"70":0.005966400902385584,"71":0.012356765589273897,"72":-0.005145124462516445,"73":0.0011580861252760818,"74":-0.01147162152227216,"75":0.011425478506143245,"76":-0.00983245487755334,"77":-0.018421418726878025,"78":-0.011097244982728047,"79":0.013007782057699813,"80":0.0007998533803327959,"81":0.005430958368728135,"82":0.035169649856202086,"83":-0.01526871091559011,"84":-0.006832836055403025,"85":0.01220313993395684,"86":-0.019037034985242965,"87":-0.02632693034631571,"88":-0.005414291388480852,"89":-0.006522516354649391,"90":-0.011501018283691497,"91":0.0021718762530692987,"92":0.026080594969388433,"93":-0.00455855152126656,"94":-0.015119445415699696,"95":0.009773937860684437,"96":0.012028718308986837,"97":-0.02099055633419986,"98":-0.010671700668431096,"99":-0.010554127755834896,"100":-0.000036361637579578624,"101":0.027670779286742605,"102":-0.02217976589164865,"103":-0.020785835520651004,"104":-0.02837156310109402,"105":0.0010130100410395194,"106":0.0003983435503239385,"107":-0.023603505109661103,"108":-0.0025119389465276505,"109":0.013931097529655174,"110":-0.01499950774891145,"111":-0.018586066635429756,"112":0.006194693472567488,"113":0.021144439597263913,"114":-0.024307605387632613,"115":0.0020266669865037805,"116":-0.006490448651548298,"117":0.0028711090166702842,"118":0.003531576671110486,"119":-0.0006864056587144925,"120":0.026452016223390187,"121":-0.01398652553030536,"122":0.005412804629388774,"123":-0.0069084460020995015,"124":0.007621199217948932,"125":0.013320574015869183,"126":-0.015145387311918196,"127":-0.001739711647907589,"128":-0.009088580738031236,"129":0.007192414976793009,"130":0.022701582284710028,"131":-0.0012184744380153202,"132":-0.0053839120293561514,"133":-0.01618832519924511,"134":-0.008504962834604673,"135":0.005343999015471295,"136":0.008615006264306004,"137":-0.009690802264825396,"138":0.0005576220947388903,"139":-0.022982657777526276,"140":0.011070822545432875,"141":-0.0009656802120128721,"142":-0.02141273698654625,"143":-0.018140755974782624,"144":0.008725898408991923,"145":-0.011124623228564025,"146":0.00203131273286162,"147":0.004338165730869731,"148":-0.005344562558972561,"149":-0.0025806336578249023,"150":-0.0006284958242401346,"151":-0.019400191503668607,"152":-0.009732994589095026,"153":0.010657330187424126,"154":-0.003495659605572789,"155":-0.013711176928466403,"156":-0.0021675414975053818,"157":-0.004460316508651556,"158":-0.0013933856142912184,"159":-0.011882778828086476,"160":0.008039462857442977,"161":0.01585620480861883,"162":-0.029815542785168188,"163":-0.025714887164515688,"164":-0.025737222517219778,"165":-0.029621632831670082,"166":-0.006752902104806149,"167":-0.02047007862414612,"168":0.0000626868383003164,"169":-0.011663479277458064,"170":0.0006129801632091126,"171":-0.03224813159963962,"172":-0.006486088605882207,"173":-0.005988826527037106,"174":-0.015289033551977969,"175":-0.01497476138395039,"176":-0.015085678526998492,"177":0.0006786806332240129,"178":0.0035124918394838383,"179":0.006953633384732493,"180":0.011612126248819833,"181":0.004267393758188186,"182":-0.009808514667816107,"183":-0.0038414947655888436,"184":-0.018032939641572654,"185":0.031181366789540237,"186":-0.015098640460365733,"187":0.004203716838151624,"188":0.006562647758698459,"189":-0.01695825692511766,"190":-0.005498072425876919,"191":0.01252512067719552,"192":0.014317690537592822,"193":-0.011698385016405629,"194":-0.004464568994746208,"195":0.010420687986077684,"196":-0.03282598106126988,"197":-0.015496084708338215,"198":-0.02892842744866181,"199":-0.022432730367409094,"200":0.014108661244732555,"201":0.016742884880671362,"202":0.009805752861753338,"203":-0.00044048021064629764,"204":-0.005015716186399044,"205":0.005443606358923418,"206":-0.006033111841580258,"207":-0.000043577686792386565,"208":-0.006387764529000392,"209":0.009038965247084835,"210":-0.009861453549470751,"211":-0.013202693773199648,"212":-0.009779418439055011,"213":0.007457145259655151,"214":-0.008233097425317464,"215":0.0010330959773984147,"216":0.0034884274323422585,"217":0.010986907170665744,"218":-0.02576990140679976,"219":-0.005425951456789067,"220":0.0030153302868768813,"221":-0.010778269922787886,"222":-0.009111981614626652,"223":-0.01123535468115326,"224":-0.013660326963858578,"225":0.00796487372091533,"226":0.00805421140723973,"227":-0.008863731727646491,"228":-0.009772825586820971,"229":-0.022504265959132973,"230":-0.026149868746511144,"231":0.01879538559128081,"232":0.008484695291589803,"233":-0.003835064425976852,"234":0.009118991922130509,"235":0.01119567957143015,"236":-0.004260524307919659,"237":0.008724175523586963,"238":0.0027977896911683046,"239":-0.012108100230181966,"240":-0.010012316895223012,"241":-0.004239916820176174,"242":-0.006831080731019582,"243":-0.0066371980008710675,"244":-0.013347395466491403,"245":-0.006576850824581929,"246":-0.010542138387012656,"247":-0.0050351239911808655,"248":-0.0012304331275959962,"249":0.004840018846964627,"250":0.010262198659385435,"251":0.008889400005602429,"252":0.005042759144544995,"253":0.016149056586257936,"254":-0.0183259221220199,"255":-0.005191000816712942,"256":-0.002767744814750418,"257":-0.0009929343943205075,"258":-0.018680097839530875,"259":0.0029852713838339666,"260":-0.030004936759017962,"261":0.008236096298943863,"262":-0.014247230924885737,"263":0.026835177532697322,"264":-0.00488808587633977,"265":-0.018550293340815326,"266":-0.006563674010657804,"267":-0.007172861368493637,"268":-0.007497215084715278,"269":-0.0054218212306731345,"270":-0.010041948214998483,"271":-0.007692343488810942,"272":-0.000018472686670299267,"273":0.017901229900664818,"274":-0.004774530077084261,"275":-0.01323355174326685,"276":-0.016699894067952904,"277":0.0037730096281145898,"278":0.023811875196442824,"279":0.031700543308548226,"280":-0.009892421366881758,"281":-0.02104396453807988,"282":0.004457061511583447,"283":0.02131256169918647,"284":0.004438071734761832,"285":-0.013022757825851468,"286":-0.013662132623859395,"287":0.004758764229458376,"288":0.014091342540317343,"289":-0.002128576387722859,"290":0.005110374904231251,"291":0.003561793389160611,"292":0.011182894466465384,"293":-0.00889908159078314,"294":-0.013101684713246946,"295":-0.011972277422961041,"296":0.009965349937862123,"297":-0.004385498014094766,"298":-0.013717778974378005,"299":0.0059028331685833345}},{"sx":5,"sy":5,"depth":12,"w":{"0":0.012359447951347642,"1":0.002226379535724437,"2":0.014439260455511018,"3":0.00046187773430334,"4":-0.021325776834622962,"5":-0.0021163511741016613,"6":0.00050008966392187,"7":-0.009290852428586254,"8":-0.02747292720237291,"9":0.0055266149512520945,"10":-0.02588672224500931,"11":-0.014932964089307043,"12":0.0008200971055011468,"13":-0.017068652691001645,"14":-0.007281002431907586,"15":0.00671448740206243,"16":-0.00214758570087319,"17":-0.008776458236995646,"18":0.0020407105467339154,"19":0.008125669175162446,"20":0.0025546523567043003,"21":0.005504831643396811,"22":-0.006348530202147737,"23":-0.009103199777760989,"24":0.024784718906831517,"25":-0.001534350534250402,"26":-0.010342334707983666,"27":-0.016339782950152794,"28":0.023129387310934352,"29":0.0016310731581072068,"30":-0.0017544858936290163,"31":-0.014260393770585002,"32":-0.01316493328786469,"33":-0.0012444840566401077,"34":-0.022921037226093097,"35":-0.007897565722873397,"36":-0.01423426920549423,"37":-0.004851691512254907,"38":-0.023482571875630066,"39":-0.038505877578725124,"40":0.013077558861955564,"41":0.0015215413828236052,"42":0.0031263578897332564,"43":-0.01343533182368924,"44":0.00676440313937552,"45":0.008066726675603339,"46":-0.014333390466692218,"47":-0.012228789062372123,"48":0.007574481484433972,"49":-0.005618260777323036,"50":-0.01677931498737705,"51":-0.03434901570398123,"52":-0.009599270872878074,"53":-0.0021457438554532784,"54":0.01575766936073908,"55":0.01078233813395906,"56":0.017173081878035238,"57":0.013950805308046701,"58":0.0003412472395011952,"59":-0.007604628245882743,"60":-0.008711989440588697,"61":-0.0025925817417063253,"62":-0.013101728147790209,"63":0.005366995027578235,"64":-0.021719201926383585,"65":0.006499439631189966,"66":-0.01185742291743585,"67":0.022528847159120777,"68":0.007665218569626267,"69":-0.01858228333094004,"70":-0.019369792387134873,"71":0.006465970593982213,"72":-0.0046341282377807425,"73":-0.024811320207998824,"74":-0.006434599934217546,"75":-0.0040092217008284555,"76":-0.0067993504996119525,"77":-0.013339966871922088,"78":0.005092773551062306,"79":0.005416538891660607,"80":-0.046970039191608706,"81":0.0060638979573785865,"82":-0.013275236299185087,"83":-0.006350741876654481,"84":0.010972435685392383,"85":-0.017424473810008372,"86":0.00015375557205684988,"87":-0.0025697618775375624,"88":0.0012305314857307698,"89":-0.0005238284565636616,"90":0.0032257170867466154,"91":0.009437034522189247,"92":-0.008515949200287556,"93":0.00413332342716402,"94":-0.005862192334486792,"95":0.002942017145640006,"96":0.009305036399816008,"97":-0.018388416228995924,"98":0.006943562195181659,"99":-0.009691752292629047,"100":-0.028179457657374174,"101":-0.02533431054370602,"102":-0.0016809211503399733,"103":-0.020005558176240584,"104":-0.0007543773804115229,"105":-0.020116760089709244,"106":-0.013719573495808077,"107":-0.005952990851751545,"108":-0.01582669833587222,"109":0.009571294747960405,"110":-0.004769925386516766,"111":-0.0010923064198587824,"112":-0.005456710151819566,"113":-0.03444474594124983,"114":0.011130467819873256,"115":-0.013736375149431487,"116":0.01927629103185517,"117":-0.0025379128972496667,"118":-0.008330896229545191,"119":0.014963961301655814,"120":0.013752734769323718,"121":-0.023728905904277918,"122":-0.0015656112530161254,"123":-0.018068771942133924,"124":0.02061875098506184,"125":-0.015047142441692562,"126":-0.0023924154104305283,"127":-0.01920342650180483,"128":0.02229042563004898,"129":-0.01562519297060615,"130":-0.014167966472746188,"131":-0.009610416799604919,"132":-0.009332166355876203,"133":0.0018284208334747173,"134":0.005496305446693898,"135":0.00034333753933766116,"136":0.001979851653698647,"137":0.0019733152830102856,"138":-0.030693626302980833,"139":0.011056804523266092,"140":-0.008728537128316777,"141":-0.016293793801989916,"142":-0.03579208788191907,"143":0.014114401486904325,"144":0.006611731658721153,"145":0.000671622040657918,"146":-0.0024781193126472644,"147":-0.014451021970882322,"148":-0.01888192876675868,"149":0.0024395625511349534,"150":-0.023203978887783316,"151":-0.006988960898066607,"152":-0.01723176548729083,"153":-0.006799102520354538,"154":-0.018707615802097798,"155":-0.008562877004210361,"156":-0.02274728309011191,"157":0.0012850042345064325,"158":-0.02524085581919787,"159":0.00029271530957573184,"160":-0.019967470416415382,"161":-0.002778929933720984,"162":-0.010490089852016977,"163":-0.0061235216370744356,"164":0.006055901417455326,"165":-0.013434337779575372,"166":-0.0023312036107289145,"167":-0.005589488932873468,"168":-0.013075519522452263,"169":-0.017360242626280605,"170":-0.022094635711441712,"171":-0.012612059563601983,"172":-0.02432620395513646,"173":-0.006303133555130115,"174":0.0076092242900107614,"175":-0.021007545700759012,"176":0.005234322602658289,"177":-0.008181339186782242,"178":-0.01462090645208479,"179":0.005784222042179931,"180":-0.010963081865988484,"181":-0.0057118506662685265,"182":-0.0015712687408829234,"183":0.00007352193579583046,"184":-0.020985984864037854,"185":-0.0023808070945476392,"186":-0.00769849306033654,"187":-0.005120251085422415,"188":-0.007205519599779814,"189":-0.0014133652609505843,"190":0.013063934379441663,"191":0.00941950907359437,"192":0.007479783562321223,"193":0.005186708355533828,"194":0.02295188680846893,"195":0.006359748506007712,"196":0.0005582998534922396,"197":0.004879909706355745,"198":-0.0037779742711135066,"199":0.017166397880811868,"200":-0.012592642325480907,"201":-0.0017477329686677438,"202":-0.02507830265503509,"203":0.00006788260829358834,"204":-0.0013729089120824817,"205":-0.00827651633888266,"206":0.011677941485023383,"207":0.018765309151177086,"208":-0.014384836463798284,"209":-0.007621883076598113,"210":-0.021895435716314388,"211":0.0011700982955622325,"212":-0.0015007889952792684,"213":-0.006645322102172873,"214":-0.0025001085457855214,"215":0.008154526205473515,"216":-0.04156364586884813,"217":0.016101789533658557,"218":-0.0286411166792282,"219":-0.001599009269855492,"220":0.008236152405299277,"221":0.031141611393072168,"222":-0.007769040053017228,"223":0.011096826953993428,"224":-0.03281035619064123,"225":-0.009564116979582146,"226":0.0026740750552005097,"227":0.0025113582002696064,"228":0.011648335876532263,"229":-0.00795430946827467,"230":0.008956350190142268,"231":-0.0209109344685117,"232":-0.006348379597597936,"233":0.0012986303385839238,"234":0.01990311627623821,"235":0.004528803516329142,"236":0.011961919706975752,"237":-0.01491801268178833,"238":-0.011747451364354447,"239":0.012991416603714358,"240":-0.013521889551630563,"241":-0.0038477494612398164,"242":0.006317074015553575,"243":-0.03332803697469256,"244":-0.010626680946115605,"245":-0.004483147930913951,"246":-0.010464811336059294,"247":-0.011665746423691725,"248":-0.006792208155676552,"249":0.016938073009614935,"250":0.013977724771802987,"251":-0.009731655192840664,"252":-0.016544223759579084,"253":0.023206421665276936,"254":-0.037706337960616156,"255":-0.02385920183902674,"256":-0.0015995988505265956,"257":0.015488804611183416,"258":-0.013136324530988203,"259":0.01250760632349656,"260":-0.0010890394431895328,"261":-0.006660669186711399,"262":-0.0040102365503246525,"263":0.01300932085529115,"264":-0.003545482086489797,"265":-0.0018896350794877655,"266":-0.012391390174945496,"267":0.002466311738074483,"268":-0.0015876492965500014,"269":-0.014700857418889348,"270":-0.01812786352266628,"271":-0.010207977503062009,"272":-0.021848087789131714,"273":0.01953269640244773,"274":0.006334364326418271,"275":0.008593602565324132,"276":-0.011879806207323904,"277":-0.005970000753213047,"278":0.00805282433163234,"279":0.0040605407624674785,"280":-0.006817347328822498,"281":-0.028218022492108502,"282":0.00026184932484764366,"283":-0.022516714424489076,"284":0.0050183227234339165,"285":0.01483494476355509,"286":0.001919706555308457,"287":-0.01265099452453993,"288":0.0071855235210565105,"289":-0.003281234196273541,"290":0.0072922428290218486,"291":-0.006895400780309779,"292":0.009193631507915384,"293":0.0004961896211519382,"294":-0.02286921122273889,"295":-0.0048730429348775774,"296":-0.0033612763930246743,"297":0.01575545389489266,"298":-0.004675392658026484,"299":-0.0154585276209259}},{"sx":5,"sy":5,"depth":12,"w":{"0":-0.04599367857288281,"1":-0.0718467238184095,"2":0.005283235255174184,"3":-0.040070367687819436,"4":-0.0130956045214986,"5":0.10374589871692702,"6":-0.09688288066407408,"7":-0.00758104848653394,"8":0.011960850940386207,"9":0.05964936356352434,"10":-0.0682386480323794,"11":-0.010364937287316404,"12":-0.018682660741849988,"13":-0.0596808109981456,"14":0.044426851848568004,"15":-0.010438184560568092,"16":-0.008890409108699485,"17":-0.006081480651009651,"18":-0.040320137405464786,"19":0.0027352019914282655,"20":0.0069621869043365505,"21":0.05976098082638917,"22":-0.006830796907265336,"23":0.014588513066439638,"24":0.008009322338201877,"25":0.02017489705508119,"26":0.057288839789158726,"27":0.006595203108484232,"28":0.06265415045429737,"29":0.07273715105331117,"30":-0.0173587729673888,"31":-0.018238950552412272,"32":0.014575507862144607,"33":0.042567289004146226,"34":-0.04776115208509792,"35":0.010015545772114743,"36":0.01511999260258293,"37":-0.08875089413330697,"38":0.11393781748190682,"39":0.00391440772212872,"40":-0.03405672539407544,"41":0.06435292658139215,"42":0.056037189583832164,"43":0.034062381722823436,"44":-0.0218801200208764,"45":0.04237149904410235,"46":-0.010510264841562516,"47":-0.06206594837581922,"48":0.015408755515818799,"49":0.0070586915483558405,"50":0.03781017750833224,"51":0.007319142819546483,"52":-0.07714670659905713,"53":-0.030090906717534952,"54":0.18617022713415238,"55":0.006357363662883909,"56":-0.023169993486284905,"57":-0.027137338000625937,"58":-0.043724832857560944,"59":-0.0303960997933417,"60":0.11015297989145537,"61":-0.008319111129422001,"62":0.03850880030679642,"63":-0.06679113259961465,"64":0.03248282751243883,"65":0.04680735037826874,"66":-0.06543381176801098,"67":0.0061118473421602326,"68":0.016875711407284923,"69":0.029201294324957976,"70":0.019135490768186804,"71":0.057449793837364656,"72":0.09546543099226376,"73":-0.11545182626669744,"74":-0.017293247158880372,"75":-0.04651528535856178,"76":0.08653854875768695,"77":0.03918498283400173,"78":-0.04924193223943799,"79":0.00099525000817563,"80":0.0655076391973975,"81":0.05869596547329648,"82":0.00667014273011106,"83":-0.004673775218798038,"84":0.13397468194515486,"85":-0.03351325797636857,"86":-0.04393948563151428,"87":0.05095021101505737,"88":0.06139184126963702,"89":0.05335682312669976,"90":-0.019408327624286684,"91":0.00992472010967959,"92":-0.043261028119251185,"93":0.020094906062327982,"94":0.006808521374707676,"95":0.11476276620557904,"96":0.05854390226608199,"97":-0.11264299599474524,"98":0.04131826844822089,"99":-0.008209417095201376,"100":-0.0666814533664564,"101":-0.05587883364547516,"102":-0.022616679680642647,"103":0.02424087743190223,"104":0.033795287519555524,"105":0.03484411788318437,"106":0.05392327150871739,"107":0.14378827330679536,"108":0.13408477093814425,"109":-0.05560578604714067,"110":0.12862204720627538,"111":0.020346262163178655,"112":0.0032204922436448293,"113":-0.06311875573499466,"114":-0.023023257483751166,"115":0.03950890105540807,"116":0.061569443314137724,"117":0.09985290786370672,"118":0.050694822717183244,"119":0.10868014333796246,"120":-0.038165673654611904,"121":0.006279525283342338,"122":-0.02400417769289826,"123":-0.03732407510601703,"124":0.0965668855541637,"125":0.08606297983709855,"126":0.027938522091609654,"127":-0.019726639356520775,"128":0.029399508614649215,"129":0.0473992432576879,"130":0.05282879487958043,"131":0.028411464370992276,"132":-0.010275384154475266,"133":-0.07837060090542788,"134":-0.06907359252284431,"135":-0.01807138530476008,"136":0.03660599879530849,"137":0.03345329461343283,"138":0.006580576271553302,"139":-0.012817730146239102,"140":0.0208061400856793,"141":0.045248684929285084,"142":-0.0023655798951167204,"143":0.011739558871611514,"144":0.014402132778830049,"145":0.011722738942195029,"146":0.07752594941113745,"147":0.03537468832359916,"148":0.13556414383406795,"149":0.03824312185060889,"150":-0.02584753441989065,"151":-0.019013659070324276,"152":0.051379327268428726,"153":0.011519923835774474,"154":0.02675125240773751,"155":0.03669003193724697,"156":-0.006573682119962734,"157":0.08291852787763614,"158":-0.047785800752578884,"159":0.021868377810363417,"160":0.08831838490946987,"161":0.0027230065995468636,"162":0.006606194127985517,"163":-0.009897462721763922,"164":0.05252841735407188,"165":0.02169431760924031,"166":0.07721326051974453,"167":0.06079521967839858,"168":0.04046300397262991,"169":0.059443741680162504,"170":-0.07616208727562852,"171":0.022847313049655215,"172":0.0834492309120661,"173":0.020009275112572136,"174":-0.07845032421520205,"175":0.01837251020098044,"176":0.1188012153464518,"177":0.08348824044916203,"178":0.04681387378996589,"179":0.09019526424085393,"180":0.0073800634546886896,"181":-0.0694211234328259,"182":0.018888057704063668,"183":-0.009969513413506298,"184":-0.03499666945402265,"185":-0.04815131095229702,"186":-0.03694365699363053,"187":0.009383165913816488,"188":-0.00899738877747811,"189":0.017732625171520237,"190":-0.02219526346427416,"191":0.029783805944890423,"192":0.009694858265405337,"193":-0.06459549110173718,"194":-0.006682273727901605,"195":0.02602714025164725,"196":-0.019081321925456248,"197":-0.043545389577669465,"198":-0.016208508906877427,"199":-0.005582365703722293,"200":-0.006329008609799642,"201":0.012946603607529354,"202":-0.03769429542445904,"203":0.058496420072384994,"204":0.017675130644641858,"205":-0.00916614512010372,"206":-0.04788305844873528,"207":-0.011318576325527971,"208":-0.0030702841128727263,"209":-0.01796783211668048,"210":-0.07075274939150623,"211":0.002618472240324824,"212":0.026734202412417824,"213":0.02428132672164438,"214":-0.07628507709905302,"215":0.06235235435271829,"216":0.011917020737522337,"217":0.06767607376874342,"218":0.00577481014436423,"219":0.012293466035160048,"220":-0.0007190348048746297,"221":-0.027861875119736007,"222":-0.022072896639989754,"223":0.024736616252784362,"224":-0.008260833429438988,"225":0.024727520246908295,"226":-0.03354777046586762,"227":-0.019163997577473703,"228":0.0007017355735564909,"229":0.007964209236579861,"230":-0.016267815104741987,"231":0.014631695723153405,"232":0.059560112840691605,"233":-0.018643966087846894,"234":-0.07380544012748523,"235":0.018075370152481895,"236":-0.017169353660865493,"237":0.03673337085195964,"238":0.013639720793752981,"239":0.007760458513849192,"240":-0.005832797377241399,"241":0.041616545989446106,"242":-0.07349250145426525,"243":0.03145975372388671,"244":0.008420606497261066,"245":-0.0036045977206197875,"246":-0.00020770967232199532,"247":0.024495025232431526,"248":0.010422924771784838,"249":-0.0013488186548498216,"250":-0.022801507592868604,"251":-0.028370576543091577,"252":0.006327410204727213,"253":0.004827252939728933,"254":-0.06519230367055504,"255":-0.011104245148968982,"256":0.0025742458105021656,"257":-0.027342757497153904,"258":-0.0793403908017082,"259":-0.004936262943029094,"260":0.02748997274744961,"261":0.022500212812657683,"262":-0.010212855018938817,"263":0.010575982695671305,"264":-0.039709934442844375,"265":-0.06936814475859157,"266":-0.06619567633805169,"267":-0.044330893684479365,"268":-0.06697152153085927,"269":0.006971547674611823,"270":-0.05126691741060354,"271":0.004700646660703352,"272":-0.023023144937451553,"273":0.059777069226043346,"274":-0.00752206971117889,"275":0.006587656105554615,"276":-0.030207133548510255,"277":-0.1016284790519564,"278":-0.049985850951278284,"279":-0.020547481894541156,"280":-0.04135346804538892,"281":0.06521020431081756,"282":-0.043270234013032226,"283":0.005809978090435249,"284":-0.002388915978563882,"285":0.066800713795534,"286":-0.01084988493734156,"287":0.014378666691501554,"288":-0.014047597489405652,"289":-0.019572278103046282,"290":-0.0019765798178033784,"291":0.014468885922770305,"292":0.02350299896235073,"293":0.0249134821970986,"294":-0.03621471554732506,"295":-0.00996222456767119,"296":-0.020891104109679755,"297":0.024261018975567636,"298":-0.031334429451315836,"299":-0.020133963149662346}},{"sx":5,"sy":5,"depth":12,"w":{"0":-0.01862909192418194,"1":-0.01976067536168651,"2":-0.03137822151732935,"3":-0.02416641777288221,"4":0.01588602802478017,"5":0.01775564971028663,"6":-0.010028862787404082,"7":-0.008350508846180287,"8":0.01606012651231009,"9":-0.013436329755096565,"10":0.008201839185807363,"11":0.04975369792062007,"12":-0.018372038812411576,"13":-0.010225671374375548,"14":-0.01750519637745235,"15":0.023783110564256606,"16":-0.014904101395644588,"17":0.011710927769791962,"18":-0.00017852897097467245,"19":-0.03193293277542916,"20":0.013594402209724745,"21":-0.014157044696648038,"22":-0.01411663755751093,"23":0.003438194814054453,"24":-0.014725932532224428,"25":0.0024551371762252874,"26":-0.016944889226387257,"27":0.041887381913520344,"28":0.014689383951164132,"29":-0.002628943898421117,"30":-0.008900301900244921,"31":-0.01709399754883694,"32":0.05065895462598064,"33":0.013158890582589964,"34":0.006052297125828118,"35":0.03932381261063974,"36":0.016161764293748108,"37":-0.021130344149328597,"38":-0.018853605750604335,"39":-0.011618750074542444,"40":-0.010421400723884904,"41":0.001472836892563501,"42":-0.004068280972153543,"43":0.005583364109499463,"44":-0.0012889281181916823,"45":0.0030644482648317347,"46":0.0008676758286413309,"47":0.0006082518020045691,"48":0.029707192932059118,"49":-0.020062597256601995,"50":-0.025506163524766024,