{"layers":[{"out_depth":3,"out_sx":28,"out_sy":28,"layer_type":"input"},{"sx":3,"sy":3,"stride":1,"in_depth":3,"out_depth":12,"out_sx":28,"out_sy":28,"layer_type":"conv","l1_decay_mul":0,"l2_decay_mul":1,"pad":1,"filters":[{"sx":3,"sy":3,"depth":3,"w":{"0":-1.3439130828072253e-25,"1":-1.2500983179966302e-25,"2":-1.1196413048085365e-25,"3":-1.3843479217345788e-25,"4":-8.781113590541841e-26,"5":-6.08548801492937e-26,"6":-1.3136215616785833e-25,"7":-9.014326828136064e-26,"8":-7.300155667948959e-26,"9":-1.2618993633764484e-25,"10":-8.099407757496064e-26,"11":-2.814039941913932e-26,"12":-1.3030179784923868e-25,"13":-6.103435414612924e-26,"14":8.054496945925752e-27,"15":-1.0609406984598167e-25,"16":-7.32758038161038e-26,"17":-1.0199404479922941e-26,"18":-8.719771848793303e-26,"19":-8.999741135898907e-26,"20":-6.994177126749842e-26,"21":-7.856087864351415e-26,"22":-8.880208268549549e-26,"23":-5.969719717293115e-26,"24":-1.117416274402184e-25,"25":-1.0262191689743028e-25,"26":-1.0384650688316275e-25}},{"sx":3,"sy":3,"depth":3,"w":{"0":-9.214870839717118e-73,"1":-3.555401860814937e-72,"2":-5.311126056292823e-72,"3":-1.2464338274315018e-72,"4":-4.699874037665423e-72,"5":-7.121641300791019e-72,"6":-9.505682597195213e-73,"7":-3.941760954511806e-72,"8":-4.9955297078247e-72,"9":-5.432469047965812e-72,"10":-6.665473535955076e-72,"11":-7.86358377950066e-72,"12":-7.657959293011802e-72,"13":-6.044659545520835e-72,"14":-1.4936099318255431e-71,"15":-1.1712359254189259e-71,"16":-5.67297792520231e-72,"17":-7.310429030425392e-72,"18":-6.641050575639523e-72,"19":-9.732149876295348e-72,"20":-4.279653348455174e-72,"21":-8.06592398177595e-72,"22":-6.368606389604523e-72,"23":7.240776353095733e-72,"24":-2.4328850633612355e-72,"25":2.276522497107832e-72,"26":3.596521428439791e-72}},{"sx":3,"sy":3,"depth":3,"w":{"0":-0.0000013739925672273897,"1":-0.0000027533016973156054,"2":-0.0000025664284051746634,"3":-0.0000030391749001767365,"4":-0.0000037872837465600915,"5":-0.000006057056708434286,"6":0.0000019914712543452295,"7":0.0000057132134800350845,"8":0.000002284748890765678,"9":-0.0000036089274274579534,"10":-0.0000021110021038555527,"11":-0.0000033426708550201145,"12":-0.0000039433409509240356,"13":-0.0000024225794786744955,"14":-0.0000038082606075396705,"15":-0.0000030597838393876042,"16":-0.0000011224955872261822,"17":-0.0000050830017732511765,"18":-0.0000010004030061711717,"19":-0.0000018527967608619333,"20":-0.0000018101278285368344,"21":-0.000004060964386614065,"22":-0.00000193216332463276,"23":-0.000004220154751817777,"24":-0.0000026853244755726293,"25":-0.0000037996648506184607,"26":-0.000005059433965588039}},{"sx":3,"sy":3,"depth":3,"w":{"0":-9.372697646100985e-77,"1":-3.174746893075195e-76,"2":-2.8843852787487144e-76,"3":-4.1517244898550946e-77,"4":-3.788648493973832e-76,"5":-4.025474554110745e-76,"6":-8.641264315565018e-77,"7":-3.197232884134427e-76,"8":-4.103941949205675e-76,"9":-8.784096993622774e-78,"10":-2.2792818086896423e-76,"11":-1.0149120394275775e-76,"12":-1.983562831690842e-76,"13":-2.3477105449779497e-76,"14":1.1702371684827655e-76,"15":-1.4841545079051277e-76,"16":-4.095021713035931e-77,"17":1.8696357795779976e-76,"18":-2.35882763880967e-76,"19":1.7593182378277893e-77,"20":-1.1574045535424757e-76,"21":-3.059247979959807e-76,"22":-6.862296619674141e-76,"23":-1.2076154297962334e-76,"24":-1.6675636261352727e-76,"25":-4.619102879781521e-76,"26":-1.2461842377049136e-76}},{"sx":3,"sy":3,"depth":3,"w":{"0":-4.870915450427269e-76,"1":-2.0115823350188464e-75,"2":-2.1773137505542903e-75,"3":-4.444758975815956e-76,"4":-3.0785032544516806e-75,"5":2.365325191299788e-75,"6":-1.1496952964600731e-75,"7":-3.4189940263976703e-75,"8":-1.5162783980821858e-75,"9":-3.615767262447659e-76,"10":-3.4671727649732957e-75,"11":-2.2915529592973283e-75,"12":-1.1040637209183044e-75,"13":-3.0430444128233943e-75,"14":6.752399690514013e-76,"15":5.760677964117278e-76,"16":-2.311957086783072e-75,"17":-1.5641915305034707e-75,"18":-7.35599071365448e-77,"19":-8.411466416361433e-76,"20":-2.5119450090281745e-75,"21":-4.395242483596267e-75,"22":-1.3291561522258477e-75,"23":-2.0892230861939644e-75,"24":-3.512722389912272e-76,"25":2.6710253278426317e-75,"26":-3.313754119475634e-75}},{"sx":3,"sy":3,"depth":3,"w":{"0":4.5252281336908804e-55,"1":-4.547826971450501e-54,"2":1.3456358429449814e-54,"3":-2.9030658956881444e-53,"4":-3.276641295694211e-54,"5":-2.273002512587883e-53,"6":-5.697339722689401e-53,"7":-1.0177592549881053e-53,"8":-5.261902399121002e-53,"9":-1.5324723917882931e-53,"10":1.7619719256153722e-53,"11":-5.103954550065137e-54,"12":-4.414292416115468e-53,"13":1.5758128900603743e-53,"14":-2.749401024323068e-53,"15":-5.683797055762537e-53,"16":-1.7268782427636623e-53,"17":-7.035419433092877e-53,"18":-4.216628402788657e-53,"19":-1.9053566957390576e-53,"20":-7.217475053941384e-53,"21":-5.28969803554409e-53,"22":-2.0228001068285294e-53,"23":-6.794224035818447e-53,"24":-3.131992046745759e-53,"25":-2.419089841828916e-53,"26":-6.428788185846274e-53}},{"sx":3,"sy":3,"depth":3,"w":{"0":-0.03585552032014355,"1":-0.19025164020943722,"2":0.09898506125874608,"3":0.06686682120161588,"4":0.12149746522969204,"5":-0.009834354008734664,"6":-0.005387853379765125,"7":0.043156386513649656,"8":-0.039028869656904455,"9":-0.03485939242002686,"10":0.10098442006801082,"11":-0.06024085287749323,"12":0.15740257186008494,"13":0.3538400557759369,"14":0.13611796921575361,"15":-0.05245805797350998,"16":0.19512523688189481,"17":-0.1382561422388846,"18":0.026277867439480324,"19":-0.0749094050967297,"20":0.1328888761513942,"21":-0.06470284554888163,"22":0.03135219979655205,"23":-0.12613233235057664,"24":-0.01017317777774399,"25":0.03745382089632516,"26":0.0751952796329597}},{"sx":3,"sy":3,"depth":3,"w":{"0":8.011226987811321e-54,"1":2.224484116166568e-53,"2":-1.9540517364072905e-55,"3":-4.029515292530863e-53,"4":4.596788341225057e-54,"5":-4.385808238577046e-53,"6":-5.659725261664442e-53,"7":1.8266214348184905e-53,"8":-4.573983963560491e-53,"9":-9.744789914925394e-53,"10":-4.447118236410399e-53,"11":-1.1002148160433174e-52,"12":-1.4370007198808019e-52,"13":-5.065144577381662e-53,"14":-1.8596131196252655e-52,"15":-7.750621440180375e-53,"16":1.9271376677977822e-53,"17":-1.1649462560926376e-52,"18":-1.2659335531402381e-52,"19":-5.951982792928364e-53,"20":-1.4656939162254348e-52,"21":-1.2499906044091449e-52,"22":-8.972914346318563e-53,"23":-1.485259375660768e-52,"24":-4.258576580825306e-53,"25":-3.040232026481554e-53,"26":-9.68267364163768e-53}},{"sx":3,"sy":3,"depth":3,"w":{"0":-5.254962492111347e-54,"1":-1.3131795436903064e-54,"2":-1.1510490714505713e-54,"3":-5.377971515067463e-54,"4":-1.316881647522164e-54,"5":-1.0541387344042899e-54,"6":-4.034820556281311e-54,"7":-3.1412699749766755e-54,"8":-3.2178089003347045e-54,"9":-3.793650429000095e-54,"10":-3.8134846450236665e-54,"11":-3.4609288374288954e-54,"12":-4.0233605929190833e-54,"13":-3.972634542178892e-54,"14":-3.498367032552966e-54,"15":-4.181136564903825e-54,"16":-4.121960274388046e-54,"17":-3.5975976456911414e-54,"18":-3.209810469232869e-55,"19":-2.6218104005881465e-55,"20":-1.4884326535598329e-55,"21":-3.963202896188805e-54,"22":-4.637481602757914e-55,"23":-3.2821717855756494e-55,"24":-2.5757343006694355e-54,"25":-1.173473932087133e-54,"26":-8.602524644052538e-55}},{"sx":3,"sy":3,"depth":3,"w":{"0":-5.197380700055369e-64,"1":-6.898535345733978e-64,"2":-3.9577655253449044e-64,"3":-4.8188045305558514e-64,"4":-8.082014116072215e-64,"5":-3.8030558637579005e-64,"6":-5.444418393221806e-64,"7":-1.0108767535440751e-63,"8":-3.5673683591029176e-64,"9":-6.07955947106934e-64,"10":-7.327477431121157e-64,"11":-4.406470702920127e-64,"12":-5.344610184039345e-64,"13":-7.706676011783625e-64,"14":-4.299540262714435e-64,"15":-6.16868988067465e-64,"16":-9.520866524957212e-64,"17":-3.8407690513293826e-64,"18":-7.12393268162128e-64,"19":-7.918086688864753e-64,"20":-5.7535952790619e-64,"21":-6.327433885667168e-64,"22":-7.962287319705465e-64,"23":-5.125933253984964e-64,"24":-6.703021512877523e-64,"25":-8.35335234327048e-64,"26":-3.322412807863196e-64}},{"sx":3,"sy":3,"depth":3,"w":{"0":-5.739936099558029e-39,"1":-3.3808559887463036e-39,"2":-6.864978041686384e-39,"3":-4.8581489502949463e-39,"4":-2.1175626429321994e-39,"5":-5.803227758738685e-39,"6":-4.7880888201001415e-39,"7":-2.1603266421166268e-39,"8":-5.51343538106717e-39,"9":-5.6065788975489226e-39,"10":-3.5357460327243464e-39,"11":-6.977311826219233e-39,"12":-5.2255685728165045e-39,"13":-2.2218813613131724e-39,"14":-6.048025761422914e-39,"15":-5.2229198643899824e-39,"16":-2.3365212131375135e-39,"17":-5.841424644707307e-39,"18":-5.603715662972845e-39,"19":-5.187557155613315e-39,"20":-5.1591866107543764e-39,"21":-5.412333295930361e-39,"22":-3.804900432201848e-39,"23":-4.52803241771848e-39,"24":-5.611254930244381e-39,"25":-3.7468464218690114e-39,"26":-5.427467264762235e-39}},{"sx":3,"sy":3,"depth":3,"w":{"0":-0.07449289616816221,"1":-0.09344222107013217,"2":-0.006056227451749572,"3":-0.005872208361647277,"4":0.03767790850136975,"5":0.00973853854668897,"6":0.07121056982179794,"7":0.2368081321378701,"8":0.05570380170135904,"9":-0.10565622301401968,"10":-0.1316470754411159,"11":-0.1252229758081563,"12":-0.059190535502878706,"13":-0.16843645433625506,"14":-0.15379488237441633,"15":0.06660467934125053,"16":0.08090159915406983,"17":0.013315560028425844,"18":-0.18910855202157698,"19":-0.28394377728317205,"20":-0.04207320819373784,"21":0.00477868905022421,"22":-0.068933580727979,"23":0.05579150974682618,"24":0.226821146090522,"25":0.35177924438770397,"26":0.0976357955676821}}],"biases":{"sx":1,"sy":1,"depth":12,"w":{"0":-0.008002834252570062,"1":-0.6338261595567202,"2":-2.1314963818791655,"3":-0.05537205616655249,"4":-0.12851156196555735,"5":-0.015430561115270025,"6":-5.297596856624575,"7":-0.011876227320261447,"8":-0.003159608998818995,"9":-0.006470397994681005,"10":-0.000318945173505723,"11":-0.15974780419844414}}},{"out_depth":12,"out_sx":28,"out_sy":28,"layer_type":"relu"},{"sx":2,"sy":2,"stride":2,"in_depth":12,"out_depth":12,"out_sx":14,"out_sy":14,"layer_type":"pool","pad":0},{"sx":5,"sy":5,"stride":1,"in_depth":12,"out_depth":18,"out_sx":14,"out_sy":14,"layer_type":"conv","l1_decay_mul":0,"l2_decay_mul":1,"pad":2,"filters":[{"sx":5,"sy":5,"depth":12,"w":{"0":2.176450841949108e-25,"1":-4.052155672662421e-73,"2":-9.350083349725245e-8,"3":1.0109878499538934e-76,"4":8.68612421838423e-76,"5":-2.0620461978299454e-54,"6":-0.00004684084800978967,"7":6.555442844495263e-54,"8":7.343603474901232e-55,"9":5.008023117634708e-64,"10":-5.499412407759975e-39,"11":-0.00004005623596794282,"12":1.3278931767687128e-25,"13":-5.334005466652115e-73,"14":-5.937669208450783e-7,"15":8.403098418159619e-78,"16":-1.110511716786728e-75,"17":-1.209717298058e-53,"18":-0.00006608323052013838,"19":5.657099787441568e-54,"20":6.2370284840093334e-55,"21":2.639890967818854e-63,"22":-6.136434483300935e-39,"23":-0.000014470986028906101,"24":7.579063997579848e-26,"25":-1.412479077771333e-72,"26":-8.243371878095652e-7,"27":1.080235719634327e-76,"28":-1.9175063570770045e-75,"29":-1.2209245181559456e-53,"30":-0.00004588928272755699,"31":-9.017370952261392e-54,"32":-7.44721864411352e-55,"33":1.7089824376158108e-63,"34":-7.333656601923753e-39,"35":-0.00006600531360325894,"36":6.21873754961635e-26,"37":-5.987669682059242e-73,"38":3.0619421026837957e-7,"39":-1.2723341414627902e-76,"40":-1.8826580073912215e-75,"41":-1.1073326332987518e-53,"42":-0.000005697257803592089,"43":1.0532130587966405e-53,"44":-1.2687261424872597e-54,"45":6.367966136643007e-64,"46":-7.067049494452445e-39,"47":-0.000012521183415557696,"48":-5.554567982690937e-26,"49":-6.1844950589315e-73,"50":-1.9768821693286342e-8,"51":-1.106722762768452e-76,"52":-2.6308502532974612e-75,"53":-1.9177900952172554e-54,"54":-0.0000019337805316369224,"55":1.9040828208735752e-53,"56":-5.647547755891755e-55,"57":1.2490073057281403e-63,"58":-6.732070188775133e-39,"59":-0.000003857140706120859,"60":1.1755291648015707e-25,"61":-1.2848157433998827e-72,"62":-0.0000011148228581295118,"63":-7.684555358330206e-77,"64":2.8172158948032e-75,"65":-1.609353522436854e-53,"66":-0.000025772780621613018,"67":-2.067471509851544e-53,"68":9.754295813181361e-55,"69":6.145671775652686e-64,"70":-5.874072410178181e-39,"71":-0.00005062172613201079,"72":1.8713300841339154e-25,"73":8.672218740639224e-73,"74":-0.0000011240717099298757,"75":-5.2811020407954645e-77,"76":1.1010107984986259e-75,"77":2.398317882259552e-53,"78":-0.00003565331682718914,"79":8.331125107806364e-54,"80":1.045241288376456e-54,"81":3.0102081245935727e-64,"82":-6.602266077322043e-39,"83":-0.000020153364002101696,"84":6.941518911667466e-26,"85":1.5625328211605363e-72,"86":-5.879807147123727e-7,"87":-3.349037033338091e-78,"88":2.788649394903759e-76,"89":2.0432716685218488e-53,"90":-0.00002623851017198954,"91":1.3323386502308999e-53,"92":1.0955423600903918e-54,"93":2.8172093919957746e-64,"94":-8.277077907911567e-39,"95":-0.000025301609930354548,"96":4.576648420257092e-26,"97":-1.4272338308911544e-73,"98":-3.7980017319435525e-7,"99":-1.4763882195777267e-76,"100":1.2465377140534053e-75,"101":3.9423576751010453e-54,"102":-0.00003500860280119345,"103":-1.4960438856182351e-53,"104":2.7718713171500283e-54,"105":6.471471217961434e-64,"106":-8.327651525388113e-39,"107":-0.000016988889921069603,"108":-6.520326467133643e-26,"109":-9.07406331669097e-74,"110":-3.358765339582555e-8,"111":-2.9630136449661724e-76,"112":-1.5799484856383038e-75,"113":4.099721044156998e-55,"114":-0.00001061209527855163,"115":-1.219359942835369e-53,"116":1.1665762138670647e-54,"117":2.7424304409360863e-64,"118":-7.89229949121339e-39,"119":-0.00004148098189884498,"120":2.926077268027861e-26,"121":-6.13300113566867e-73,"122":-0.0000010914072275883985,"123":1.5176608687896762e-76,"124":1.8839285641464435e-75,"125":8.306154999656514e-54,"126":-0.000027087286118248634,"127":5.227352206818818e-55,"128":1.6164929006904386e-54,"129":6.2172323740167085e-65,"130":-5.893995716626868e-39,"131":-0.0000035114160599819406,"132":1.7918600945751268e-26,"133":-1.1712881593449316e-72,"134":-9.589696756127325e-7,"135":-7.672835078027541e-77,"136":2.843697362979675e-75,"137":6.33129931105052e-55,"138":-0.000026022462812139665,"139":2.4627342693630843e-53,"140":-1.566145780155266e-54,"141":3.29642914832737e-67,"142":-6.237654726358675e-39,"143":-0.0000052616059606776824,"144":2.416140837923944e-26,"145":-6.4196105272447e-73,"146":1.039199671663632e-7,"147":-3.618422238236186e-77,"148":2.1621650091813422e-75,"149":2.0003118835690443e-53,"150":-0.0000170917282993696,"151":3.6479453422329924e-53,"152":-2.0883977020329455e-54,"153":5.485527483000278e-64,"154":-8.134307022740031e-39,"155":-0.0000220585225846964,"156":3.0425058831550816e-26,"157":-6.65601621376242e-73,"158":-7.789435171869569e-8,"159":2.585245603568799e-77,"160":2.2879528405874947e-75,"161":-7.449770986640127e-54,"162":-0.000034855836534057313,"163":9.555398499488476e-56,"164":-4.032999419962114e-54,"165":-1.0852331348792325e-65,"166":-8.72647641713326e-39,"167":-0.000008070208126699125,"168":1.10099545690201e-25,"169":-7.47746726485301e-73,"170":-9.965200200226064e-8,"171":1.2613640641148029e-76,"172":1.0379375958842644e-75,"173":-2.2754008064153053e-53,"174":-0.000019885298281662936,"175":-2.871625022715896e-53,"176":1.616552427119889e-54,"177":-5.650509102204103e-64,"178":-1.0903548612752669e-38,"179":-0.00002261504300042259,"180":1.4730556162588234e-26,"181":-6.267280894524956e-73,"182":7.115674404179292e-7,"183":3.119091643746073e-76,"184":1.1606875045661433e-75,"185":-1.063239504197671e-53,"186":-0.000048898364380102465,"187":2.191763275844254e-54,"188":-3.2777781768776316e-56,"189":-7.884126973410054e-64,"190":-4.927117274168496e-39,"191":-0.000004644718270803168,"192":4.28444374740906e-26,"193":-1.5816019403026991e-72,"194":8.208743938172906e-7,"195":3.0830375216101886e-77,"196":2.6451534619013243e-75,"197":-1.0573872602874358e-54,"198":-0.00004779255985354844,"199":2.649346288978479e-53,"200":-2.661436278814162e-55,"201":1.2437144254234282e-63,"202":-5.00132972188304e-39,"203":-0.000027583883476046542,"204":9.022147300373656e-26,"205":-2.4547575503672427e-72,"206":3.967496807737212e-7,"207":9.690302406177069e-77,"208":2.47005269218288e-75,"209":1.9677071564505618e-53,"210":-0.000026876304075010703,"211":2.364400685793552e-53,"212":-1.671040061491271e-54,"213":1.2316554373035342e-63,"214":-5.8595433521733445e-39,"215":-0.0000011542369875421431,"216":1.2488791052021262e-25,"217":-9.276127619897373e-73,"218":-1.6210424925426008e-7,"219":1.4531734874482413e-77,"220":2.3933597059795957e-76,"221":-4.588029211854402e-54,"222":-0.000011168210957451456,"223":-1.181009722376235e-53,"224":-2.914570052250421e-54,"225":4.3343449375575776e-64,"226":-6.169229951617016e-39,"227":-0.000016058787254746308,"228":-1.2567725091295694e-26,"229":-6.815810460708291e-73,"230":-2.8320096838598525e-7,"231":4.39132523025297e-77,"232":-1.0218480535061378e-75,"233":-1.2771365426863916e-53,"234":-0.00002225013413020369,"235":-2.0474560725147707e-53,"236":-1.9145250712669618e-55,"237":-6.48950124871975e-64,"238":-8.75616011262842e-39,"239":-0.0000030585020900787527,"240":4.310013212648542e-26,"241":-7.119283234566799e-74,"242":7.311640237802997e-7,"243":5.467391107355722e-77,"244":-3.0592061852613406e-76,"245":-2.5545178235247346e-53,"246":-0.00005216031467927007,"247":-2.302990591365101e-53,"248":2.839219904199375e-54,"249":-7.229230809691034e-64,"250":-7.895691289052774e-39,"251":-0.0000158675696585624,"252":4.3048940101851363e-26,"253":-5.915919013450854e-73,"254":8.00347419199565e-7,"255":3.592062548960562e-76,"256":2.5295230148671916e-76,"257":-1.6078598055730614e-53,"258":-0.00006232089468704568,"259":-1.267962513537963e-53,"260":1.465515669179712e-54,"261":1.2605941176317673e-63,"262":-7.884549360465376e-39,"263":-0.00003193425252458278,"264":5.979002428068753e-26,"265":-5.762948324853562e-73,"266":5.272610907388482e-7,"267":5.027581544576962e-77,"268":1.3724439191788376e-75,"269":-6.1699893997263066e-55,"270":-0.000015352138565042488,"271":5.209088814345704e-54,"272":5.026122427414508e-56,"273":1.446690432558826e-63,"274":-8.635271065205045e-39,"275":-0.00001465714407424906,"276":8.711946254513979e-26,"277":6.732814796175775e-73,"278":-1.884999294078401e-7,"279":-1.691055561365905e-76,"280":1.7564424631444275e-75,"281":2.976809331520657e-54,"282":-0.0000342965558214029,"283":-4.1671921971373755e-54,"284":-1.6426698731182134e-54,"285":2.2596757555211282e-63,"286":-8.790803051080627e-39,"287":-0.000016810932594651264,"288":-1.9903378209181927e-26,"289":1.1590903501011779e-73,"290":-3.3282580782962254e-7,"291":-2.1023019415703378e-76,"292":-1.098666332170311e-76,"293":-8.034975467450497e-54,"294":-0.00001753127717070386,"295":-2.3665011185150872e-53,"296":-1.4416214975449285e-54,"297":1.2144402865453953e-63,"298":-1.0988114007379823e-38,"299":-0.000006559971822900139}},{"sx":5,"sy":5,"depth":12,"w":{"0":-2.520881286437365e-48,"1":5.894794764951828e-74,"2":-2.774940391712522e-48,"3":-2.0604064413283434e-79,"4":-6.9056735090973085e-78,"5":-4.061302612983141e-60,"6":-3.241070418818728e-47,"7":-1.961362864017842e-71,"8":3.325040575443023e-62,"9":3.9732444527552266e-67,"10":-1.491221601948444e-61,"11":-3.56037638835258e-48,"12":-1.848096599141173e-48,"13":-1.0679394974189652e-73,"14":-2.6114755345622326e-48,"15":-2.478286387578139e-78,"16":-1.0953894114433807e-76,"17":3.666496824646957e-59,"18":-4.3515352342391195e-48,"19":-2.6089646361999747e-71,"20":3.175725524523078e-62,"21":1.894020484478825e-67,"22":-1.4815908367121631e-61,"23":-5.430779930757968e-49,"24":-1.732678829788685e-48,"25":-1.2764515882692541e-73,"26":-3.077184489479987e-48,"27":4.36852039348667e-79,"28":-1.0539981406027091e-76,"29":4.074927924878769e-59,"30":-3.230583416063127e-48,"31":-3.4135151403778827e-71,"32":2.0565172750000097e-62,"33":9.90468207923888e-67,"34":-1.4782014080193723e-61,"35":-1.9055687883339818e-49,"36":-1.8707026475270175e-48,"37":1.278365039295915e-73,"38":-2.986643570079429e-48,"39":-1.4016530610859901e-78,"40":-1.1505195716542556e-76,"41":-1.0869901978107938e-56,"42":-2.882670052575418e-48,"43":-3.245784395426757e-71,"44":1.7060340912128052e-62,"45":-6.572148694433553e-70,"46":-1.4357850441263389e-61,"47":-2.365682907827013e-48,"48":-2.005628126586871e-48,"49":1.7151226948975372e-73,"50":-3.077591366070044e-46,"51":2.9453512433706254e-79,"52":-1.1839443052456407e-76,"53":-4.653957160769322e-58,"54":-3.598123385355785e-48,"55":-2.7006805543792186e-71,"56":2.129365697841869e-62,"57":-5.027674007555165e-70,"58":-1.2455339776256381e-61,"59":-9.826890411317751e-47,"60":-2.4996002025761004e-48,"61":-1.2087194225774085e-73,"62":-4.033567322577052e-48,"63":-1.0436529321983564e-78,"64":-4.412945726845631e-78,"65":1.7504924971239877e-60,"66":-4.72558158117402e-48,"67":-1.970770899740001e-71,"68":4.035366995417752e-62,"69":3.393723857145498e-67,"70":-1.4920832064810803e-61,"71":-4.878563484008454e-48,"72":-1.8202782173491487e-48,"73":-1.2348784155659141e-73,"74":-3.565403978329231e-48,"75":-8.215519287372211e-79,"76":-1.0203062096356558e-76,"77":4.741040921459626e-59,"78":-4.637402370112439e-48,"79":-2.548572031505698e-71,"80":3.90550789305384e-62,"81":-1.1396301696889676e-69,"82":-1.3782995463166976e-56,"83":-3.147862048997324e-48,"84":-1.7188285624813665e-48,"85":-1.3202239613199305e-73,"86":-2.75275748683271e-48,"87":-3.4268494365905154e-79,"88":-1.0232545381951682e-76,"89":6.2202962541634605e-59,"90":-3.2263493129455886e-48,"91":-3.3973432795269178e-71,"92":2.2376764949134593e-62,"93":9.987001145219178e-67,"94":-1.6096427044907052e-56,"95":-2.461850131398722e-48,"96":-1.923959214812462e-48,"97":7.612015739580235e-74,"98":-2.2516927441858028e-48,"99":-2.1111093628952201e-78,"100":-1.0378639014011862e-76,"101":-7.550153451379976e-57,"102":-2.4485538286284352e-48,"103":-3.313049858680605e-71,"104":1.4292297484014498e-62,"105":-5.893334927378312e-70,"106":-1.3186595718534572e-61,"107":-2.441471696072188e-48,"108":-2.094752095710397e-48,"109":-1.0280493800759201e-73,"110":-3.4514246088915063e-46,"111":7.422236621590152e-80,"112":-1.1153009289565045e-76,"113":-2.874780595215853e-58,"114":-2.7322665404612826e-48,"115":-2.59956810126167e-71,"116":2.6797941309789415e-62,"117":-2.2402493207724352e-70,"118":-4.396800751857202e-57,"119":-6.617559512381472e-47,"120":-2.359830897373091e-48,"121":-6.590230356991018e-74,"122":-3.407353508948165e-48,"123":-4.9872716123474675e-79,"124":-1.8207575321290017e-77,"125":-8.590527053015182e-60,"126":-4.083016866826579e-48,"127":-1.5717777615097228e-71,"128":3.473766341513886e-62,"129":-8.617856050938884e-70,"130":1.3488321808505275e-55,"131":-4.257249958485686e-48,"132":-1.7738404225187155e-48,"133":-1.540050114273138e-73,"134":-2.792418353070268e-48,"135":-2.395326569066292e-78,"136":-1.0104297645486311e-76,"137":4.4726925872920425e-59,"138":-3.584337994963761e-48,"139":-2.30211109124218e-71,"140":3.1416074300017463e-62,"141":-1.1642608243758443e-69,"142":6.497845249846921e-56,"143":-2.533610141541433e-48,"144":-1.73868812538554e-48,"145":-1.7224091409206388e-73,"146":-2.4377712500845795e-48,"147":-1.9050087623600476e-78,"148":-9.950477032054358e-77,"149":6.381695441034187e-59,"150":-2.913537934652667e-48,"151":-3.49372286216795e-71,"152":1.189655475493617e-62,"153":8.820176914732491e-67,"154":2.0038877541994131e-56,"155":-1.9130725617392228e-48,"156":-1.9383585275751154e-48,"157":-1.458137332905592e-73,"158":-1.7871387640495803e-48,"159":-7.82338073199775e-79,"160":-1.0088710093219364e-76,"161":-2.4008961750367292e-58,"162":-2.806381584255059e-48,"163":-3.4334095420018393e-71,"164":4.1236204549940704e-63,"165":-8.06237683686476e-70,"166":7.134667972708394e-57,"167":-2.3867193997359734e-48,"168":-2.0801407624053807e-48,"169":4.10689348461092e-74,"170":-2.9979848953805895e-46,"171":-1.795207578595198e-78,"172":-1.1081039357884386e-76,"173":-4.7216195194090114e-58,"174":-3.026127142849625e-48,"175":-2.7833890901073577e-71,"176":1.7747673142404545e-62,"177":-3.7782293301961356e-70,"178":-1.0724232272409415e-61,"179":-2.7780719122548377e-48,"180":-2.3015006950026056e-48,"181":2.3733016098215608e-73,"182":-4.075598641524113e-48,"183":-1.6890342056464718e-78,"184":-4.789456523023437e-77,"185":-1.220805405192714e-59,"186":-4.7433287420363736e-48,"187":-1.3683915213052873e-71,"188":2.8446895976725797e-62,"189":1.0889498844143791e-67,"190":1.9444954136131654e-56,"191":-3.376739932588644e-48,"192":-1.7821443135509065e-48,"193":2.6708299143615837e-73,"194":-4.187046246642175e-48,"195":1.4142177907234838e-78,"196":-1.0841044937322051e-76,"197":3.979518775827067e-59,"198":-4.4809472455370986e-48,"199":-2.149116663798387e-71,"200":3.4391186013555426e-62,"201":-1.0428375024792309e-69,"202":1.4916174558627238e-56,"203":-2.1064250851342252e-48,"204":-1.73705079910972e-48,"205":-5.870987663964406e-74,"206":-3.0385219044832535e-48,"207":-1.0811361537761873e-78,"208":-1.0826861331855465e-76,"209":6.417233397731055e-59,"210":-4.0823850809215427e-48,"211":-3.445559591777953e-71,"212":1.6727931935740784e-62,"213":6.521481736636151e-67,"214":-1.383003328225594e-61,"215":-2.2817235725089892e-48,"216":-1.8797782606497907e-48,"217":2.7913632650368234e-73,"218":-2.7282384367536588e-48,"219":-2.3803594947534506e-78,"220":-1.0643694785193435e-76,"221":-2.7364296903082862e-58,"222":-4.2416611365327454e-48,"223":-3.4189088111682287e-71,"224":5.5650994588368e-63,"225":-1.045868186259645e-69,"226":-1.2085147348842856e-61,"227":-2.3745610203706814e-48,"228":-1.9824997603426158e-48,"229":3.240093676192923e-73,"230":-1.3769098351602104e-46,"231":-3.5056894011332874e-78,"232":-1.1527605920995982e-76,"233":-5.295816974162806e-58,"234":-4.625475220383814e-48,"235":-2.7475515812790056e-71,"236":1.646652315134862e-62,"237":-7.479793440730154e-70,"238":-1.2442733620284172e-61,"239":4.491697045571897e-49,"240":-2.367080006069946e-48,"241":2.5600764252584677e-73,"242":-3.3727959242475094e-48,"243":-6.91928116083753e-79,"244":-1.9494607205649106e-77,"245":-9.939048712758661e-60,"246":-3.3203095579637175e-46,"247":-1.2958205377641906e-71,"248":3.3867689600260785e-62,"249":1.0634160758631667e-67,"250":5.35418317022791e-56,"251":-2.8199524297286654e-48,"252":-1.919955632663509e-48,"253":3.557732945946394e-73,"254":-4.091017546324964e-48,"255":-1.103607789080316e-78,"256":-8.58743648600896e-77,"257":3.4411110294918923e-59,"258":-2.303950330348276e-48,"259":-2.051237895804189e-71,"260":3.554666913166671e-62,"261":-5.423487760206239e-70,"262":3.50308500232409e-56,"263":-2.202721066959324e-48,"264":-1.7880520348911756e-48,"265":-3.849799666589955e-74,"266":-3.330010069696836e-48,"267":-1.636956012569848e-78,"268":-9.928481086606762e-77,"269":4.718855861886955e-59,"270":-2.2327115618330907e-48,"271":-3.1984767200635218e-71,"272":2.7230310935443744e-62,"273":5.81092503312577e-67,"274":-1.4866967501140545e-61,"275":-2.5066614304037383e-48,"276":-1.8223677046555414e-48,"277":3.11303695600847e-73,"278":-3.201792181507757e-48,"279":1.2922068107616533e-78,"280":-1.0010586365483484e-76,"281":-5.670813572863008e-58,"282":-2.972722112223029e-48,"283":-3.2242819433434193e-71,"284":1.7986366376852595e-62,"285":-9.162127759518486e-70,"286":-1.4705531906237076e-61,"287":-2.4822395253487142e-48,"288":-1.7966876557648756e-48,"289":3.260650779460977e-73,"290":1.730927369453416e-48,"291":-1.9128742889628614e-78,"292":-1.0302957007364136e-76,"293":-8.943825829933942e-58,"294":-3.906513196108864e-48,"295":-2.5892233765766775e-71,"296":2.312801873105045e-62,"297":-7.952367860539304e-70,"298":-1.4408477891245018e-61,"299":-2.9476837820716945e-48}},{"sx":5,"sy":5,"depth":12,"w":{"0":-9.328481550108451e-26,"1":-2.0417972787230471e-72,"2":-9.88286351368418e-7,"3":-9.815140511226476e-77,"4":2.4378356907473285e-77,"5":1.654727599876536e-53,"6":-0.1591792070699216,"7":2.0632717837200266e-53,"8":-2.50108633287561e-54,"9":-5.335623379579952e-64,"10":-1.1201266999541797e-38,"11":0.09530108947861275,"12":4.092964098733219e-26,"13":-7.630875665014943e-73,"14":6.405785204851119e-8,"15":-9.768422752207601e-77,"16":-3.5042927434845045e-76,"17":-1.2837312945482999e-54,"18":0.02105440394086689,"19":8.914617491684906e-55,"20":-6.021826008717102e-55,"21":-6.451254765253563e-64,"22":-1.0934683743960783e-38,"23":0.09006868918954097,"24":5.1150682795379896e-26,"25":-1.8969751125921333e-72,"26":-2.683074627650746e-7,"27":-2.7448949398832384e-77,"28":-1.7817783099604352e-76,"29":2.3630478561021822e-54,"30":0.13765056261346453,"31":-4.496536885565567e-54,"32":1.4437316542499115e-54,"33":-7.135792573457476e-64,"34":-1.1893879412324033e-38,"35":-0.23547170101319245,"36":7.283451173009054e-26,"37":-1.1865352119123021e-72,"38":-2.3477928592455384e-7,"39":-5.779375397555593e-77,"40":-1.5977024427213872e-76,"41":9.576168227500918e-54,"42":0.11117691573449465,"43":1.6344100805455012e-53,"44":6.3076839986901314e-55,"45":-4.204668082623057e-64,"46":-1.1933999608085554e-38,"47":-0.17892224869269296,"48":-2.6375028570314444e-26,"49":-1.150479984159442e-72,"50":-2.5486463010779046e-7,"51":-3.2178502317465857e-77,"52":1.1749983675582954e-76,"53":1.7475229223486483e-53,"54":-0.3343241643895343,"55":2.4355606569845253e-53,"56":-2.389189156240864e-54,"57":-2.5800079631732324e-64,"58":-5.894374778645516e-39,"59":0.13696903308352396,"60":-7.838067368338237e-26,"61":-8.041888399720512e-73,"62":-2.481757429858396e-7,"63":-2.242331196211179e-77,"64":-8.247136228790997e-76,"65":1.8671971067480182e-53,"66":0.17744396141243338,"67":8.452956412810204e-54,"68":-4.4220051914986797e-54,"69":-4.679858685278926e-64,"70":9.002231319781137e-39,"71":0.013257586210392787,"72":-1.3875566065387677e-25,"73":2.1921116112572585e-73,"74":-9.277266437849502e-8,"75":-5.582851968649303e-77,"76":1.5529149843585634e-76,"77":1.2178762575922802e-53,"78":0.2438167965719657,"79":1.0410785737857248e-53,"80":-3.699022042513784e-54,"81":-5.7653169734355706e-64,"82":1.0055282669624377e-38,"83":-0.035199831928085575,"84":-1.1866929082269965e-25,"85":2.315323080365692e-73,"86":-2.6091762003430384e-8,"87":1.1675952187904344e-77,"88":-1.0407897836873379e-75,"89":1.8263417305001799e-53,"90":0.0005172173845099182,"91":3.2401948966186937e-53,"92":-3.50083496689403e-54,"93":-5.3074533123622836e-64,"94":8.6792450920013e-39,"95":-0.1055878594627996,"96":5.720269882830359e-26,"97":1.0733011239828316e-72,"98":-6.541682461705235e-8,"99":3.7806382426461924e-78,"100":-3.211829426694944e-76,"101":1.2523927110326592e-53,"102":-0.048464287312331135,"103":-1.0194095524478486e-53,"104":-2.778068115424275e-54,"105":-1.3427280506442053e-64,"106":-6.107043807361127e-41,"107":-0.24191638647310296,"108":-1.0664049215258481e-26,"109":-2.705769606493662e-73,"110":-2.6541540581870204e-7,"111":-4.997876762106647e-77,"112":-6.844544996646218e-77,"113":7.585921617186905e-54,"114":-0.2670380755909616,"115":2.131164563201937e-53,"116":-2.222556699883924e-54,"117":1.394506719839972e-64,"118":3.256624283440541e-40,"119":-0.0015738539949737983,"120":-2.3850606311432056e-25,"121":-2.1371826715885827e-72,"122":-7.662882922997933e-7,"123":-2.058052586017078e-76,"124":-3.721948863870962e-76,"125":1.5202683463564541e-53,"126":0.1695320970272998,"127":2.877203118746749e-53,"128":-4.6589288111657327e-54,"129":-6.080779766661356e-64,"130":9.074246547486391e-39,"131":0.025242957304806527,"132":-3.1424489272016126e-25,"133":-2.294092571266824e-72,"134":-4.465490966010422e-7,"135":-3.244191253271159e-76,"136":-9.269653098544571e-76,"137":3.4371930327951958e-53,"138":0.03462830698168661,"139":3.3903753647892593e-53,"140":-3.9689321336225e-54,"141":-6.946680040022668e-64,"142":9.616848225829203e-39,"143":-0.1659571372673304,"144":-2.933501584267948e-25,"145":-1.8561028763554305e-72,"146":-0.0000019169468400648157,"147":-2.8080914464066834e-76,"148":-4.560475578340456e-76,"149":3.250176802926193e-53,"150":-0.35045583490399457,"151":-2.1204312338383785e-53,"152":-4.0701921286618576e-54,"153":-6.745390386498886e-64,"154":9.951803216981767e-39,"155":-0.11193942476872477,"156":-4.855816382988464e-26,"157":-1.2491990165095507e-72,"158":-0.0000016796254370866663,"159":-3.932640965519393e-76,"160":-7.840152957488821e-76,"161":3.5927479497651435e-53,"162":-0.0031757549758602596,"163":-2.5433993275959904e-53,"164":-2.7877506298237232e-55,"165":-2.8776586481970284e-64,"166":4.6654420290011994e-39,"167":-0.00998199712623829,"168":-1.2545201778964445e-25,"169":-1.7883171427619567e-73,"170":-3.7890351013775155e-7,"171":-3.7851386182711956e-76,"172":-3.1470450713249883e-76,"173":2.4014016164363172e-53,"174":0.15674324670984585,"175":5.922485172600326e-53,"176":3.2085200291887933e-55,"177":-1.5863567631299234e-64,"178":3.652958724387929e-39,"179":0.07132445120619292,"180":-3.517996651883787e-26,"181":-9.356866450948419e-73,"182":-8.540643316906732e-7,"183":-2.81539653567932e-76,"184":-1.0319208948427548e-75,"185":1.452404061410072e-54,"186":-0.3049209802901622,"187":2.4054698183856438e-54,"188":-9.203500005573716e-55,"189":-2.191834229447493e-64,"190":6.263491429876992e-39,"191":-0.11631291065121216,"192":-1.4122746814957623e-26,"193":-1.8544748047994886e-72,"194":8.99445943397257e-7,"195":-3.0898539956316016e-76,"196":-9.95304963077776e-76,"197":-1.129044511709234e-53,"198":-0.18439371319697587,"199":3.278014564923699e-54,"200":-4.563708980253677e-54,"201":-3.203658370001017e-64,"202":8.918369285407784e-39,"203":-0.20628514212984295,"204":4.540259813244287e-26,"205":-6.985508219050686e-73,"206":-0.0000028951681030339117,"207":-9.369010172248238e-77,"208":-6.83719216252982e-76,"209":-1.5868897698941482e-53,"210":-0.19854045453635613,"211":5.464261276107424e-53,"212":-4.092791584426047e-54,"213":-4.5086066484817585e-64,"214":1.1495646835809235e-38,"215":-0.005403279456007949,"216":-1.3302866750173492e-25,"217":1.1760143355370292e-72,"218":-0.000001489051992733083,"219":-3.425723287318367e-76,"220":-4.7404347784300763e-76,"221":-1.6206979337345605e-53,"222":0.061103547266574416,"223":-3.899997746536006e-53,"224":-2.5123041855493945e-54,"225":-5.594167189025312e-64,"226":3.638325700056779e-39,"227":0.10694180341636865,"228":-1.3253848799613315e-25,"229":-6.045785995605471e-73,"230":-1.320179030014369e-7,"231":-4.702689324269994e-76,"232":2.937080628678409e-76,"233":-9.983012919852868e-54,"234":0.11148342609167693,"235":-5.233784003216545e-53,"236":-2.573353275769984e-54,"237":-2.9450578748050015e-64,"238":3.9021041595772067e-39,"239":-0.002794292798995262,"240":-9.34015872355822e-26,"241":9.071726846187464e-73,"242":-0.0000012553495191609562,"243":-2.9373656507670975e-76,"244":1.735217861450943e-76,"245":-1.135674449821546e-53,"246":0.08368020567868303,"247":-2.7498596693847208e-53,"248":-1.0505439081915215e-54,"249":-1.2840638226039374e-64,"250":4.1487681686193324e-39,"251":-0.0049429072787285306,"252":-6.493316740568989e-26,"253":7.499424032135569e-73,"254":-2.6734739661464866e-7,"255":-1.8985750559531674e-76,"256":-8.994393423304804e-77,"257":-1.9116389897912263e-54,"258":0.043465997198947004,"259":-1.3927703317288504e-53,"260":-8.139196552015057e-55,"261":-2.810167936781889e-64,"262":2.38077720984915e-39,"263":0.11559681893059638,"264":-9.894727146873603e-26,"265":6.463637452668677e-73,"266":4.677622128653665e-7,"267":-2.5714328351690248e-76,"268":-4.688020608360728e-76,"269":-1.8346288023781328e-53,"270":-0.0016620032123312862,"271":-2.8948630339078433e-53,"272":-1.0800453481288529e-54,"273":-3.255748830146671e-64,"274":8.941468359977818e-39,"275":0.05520390272403773,"276":-9.993811026249059e-26,"277":1.9721457560557924e-72,"278":-9.042947441471216e-7,"279":-1.3987822053305334e-76,"280":-5.338126698666807e-76,"281":-3.261856448880778e-53,"282":0.19695256911759687,"283":-4.687325464013017e-53,"284":-1.9187541917927406e-54,"285":-3.0982654656860745e-64,"286":1.4791043558574086e-39,"287":0.09784390459167913,"288":-9.958179493254934e-26,"289":-2.7036213976777505e-73,"290":8.886915764475071e-7,"291":-2.0660995985129862e-76,"292":1.2607611074339881e-76,"293":-3.083950234558885e-54,"294":0.10000506695012407,"295":-3.665089696387746e-53,"296":-1.9416505320571202e-54,"297":-5.29753271521019e-65,"298":2.693191636595089e-39,"299":-0.03721788121515416}},{"sx":5,"sy":5,"depth":12,"w":{"0":-1.6420560698306557e-61,"1":2.91854718417031e-76,"2":-2.527330737439347e-61,"3":-1.5683892331254087e-78,"4":2.1267583458998405e-79,"5":1.116794037688918e-79,"6":-3.760326447128654e-60,"7":9.157484502166613e-79,"8":-5.667771601755158e-69,"9":2.3568941480768957e-67,"10":-5.101565894951392e-62,"11":-1.213332712736597e-61,"12":-1.5727555998606377e-61,"13":2.423122792593317e-76,"14":-2.0025125776173204e-61,"15":2.456308292549591e-79,"16":-3.0328802019010857e-78,"17":-2.7081993889860026e-78,"18":-3.7775271290755976e-60,"19":-3.6819047854327895e-80,"20":-6.462864095904071e-69,"21":1.1235460952414424e-67,"22":-4.493517645702349e-62,"23":-3.3866202814289524e-60,"24":-1.5564428929123548e-61,"25":2.6555636560684355e-75,"26":-3.4991683495279875e-60,"27":9.719614377746006e-79,"28":-3.399762679009783e-77,"29":-9.228368074854067e-74,"30":-3.817395133494921e-60,"31":1.2015428315647486e-76,"32":-1.3638668628050335e-68,"33":5.877761100486701e-67,"34":-4.36148041830856e-62,"35":-3.4563683504771846e-60,"36":-1.5636379719980016e-61,"37":3.222181210223828e-75,"38":-8.193634942405111e-61,"39":3.2892324231546006e-78,"40":-3.2434467927896475e-77,"41":-9.742474059163644e-74,"42":-3.823351348192351e-60,"43":1.6421935805307172e-76,"44":-1.2561959083991028e-68,"45":-3.155906934091924e-70,"46":-3.7206731525384114e-62,"47":-7.453543814795206e-63,"48":-1.6026218124998747e-61,"49":3.3286325499496577e-75,"50":-2.7343392132666882e-61,"51":-1.2973144537969034e-78,"52":-1.3428678472919394e-76,"53":-9.57078353076596e-74,"54":-3.852764565117366e-60,"55":2.0841022471297967e-76,"56":-1.317546690787894e-68,"57":-4.337090302129789e-71,"58":-3.8962423085227895e-62,"59":-3.5256380374092927e-62,"60":-1.5481083350739835e-61,"61":2.257279095610967e-76,"62":-3.759279102569073e-60,"63":5.557309035793231e-79,"64":-1.0611556126689723e-77,"65":-3.2111966467056264e-79,"66":-3.7874711802988125e-60,"67":-2.1386860884163479e-78,"68":7.605031761891539e-70,"69":2.014931871197915e-67,"70":-3.1021866886291615e-62,"71":-3.410863209549681e-61,"72":-1.5056375289808908e-61,"73":1.537918071831727e-76,"74":-3.6597386728705006e-60,"75":-1.5813024805947993e-78,"76":-1.3376484239569848e-76,"77":-3.021960370120274e-78,"78":-3.822789469002945e-60,"79":2.6728472975971206e-79,"80":-8.198744669896789e-69,"81":-6.813312292411157e-70,"82":-3.307063251068428e-62,"83":-4.2477589864609035e-60,"84":-1.4737244820245581e-61,"85":-8.750443911220587e-77,"86":-3.696826027148973e-60,"87":3.0889974567734753e-79,"88":-1.662716972775526e-76,"89":-9.136181477057524e-74,"90":-3.844829449209747e-60,"91":1.3008975488042036e-76,"92":-6.714553078785459e-69,"93":5.925842709269503e-67,"94":-2.901161190078778e-62,"95":-4.724597231938792e-60,"96":-1.4764699877750118e-61,"97":-2.7701401355501455e-76,"98":-3.7084714445244633e-60,"99":1.6851787632937748e-78,"100":-1.617478770880671e-76,"101":-9.781072935467095e-74,"102":-3.829103816414816e-60,"103":1.6586325384157755e-76,"104":-7.753211860185591e-69,"105":-5.986907994133433e-70,"106":-1.4929748304746805e-62,"107":-5.5925903270966366e-61,"108":-1.5313229526511434e-61,"109":-1.135675077924962e-76,"110":-3.726117323404048e-60,"111":-1.0321631356595018e-78,"112":-1.6304843570099707e-76,"113":-9.51082192242825e-74,"114":-4.343629917984302e-60,"115":2.0838145062553862e-76,"116":1.5437918994431336e-69,"117":-3.809163796868234e-70,"118":-1.335183841071894e-62,"119":-7.00733421027648e-61,"120":-1.556771486963319e-61,"121":2.1433547810664597e-76,"122":-1.2163156759252542e-60,"123":-5.910181078266034e-79,"124":-1.4694761436617208e-78,"125":-3.516772585118418e-78,"126":-3.7602580057463925e-60,"127":-1.2876287625649415e-78,"128":-8.811009685257573e-69,"129":-1.868444029511203e-70,"130":-2.8709061589118724e-62,"131":-3.273775844642432e-60,"132":-1.515099940417448e-61,"133":1.1901715085534214e-76,"134":-2.3513969721560133e-60,"135":-1.6652836696016573e-78,"136":-1.451953880820852e-76,"137":-3.1466889843570143e-78,"138":-3.783657651939022e-60,"139":-3.7370842378028906e-79,"140":-1.216843927549098e-68,"141":-5.117531991795411e-70,"142":-2.821765679192774e-62,"143":-2.4671849231737998e-60,"144":-1.4694543378442632e-61,"145":-1.7141415795109295e-76,"146":-2.707157589019815e-60,"147":-2.4172543201087526e-78,"148":-1.5575994206270956e-76,"149":-9.044871864400562e-74,"150":-3.7993412960298116e-60,"151":1.304237799903948e-76,"152":-1.2396657259346206e-68,"153":5.23518456543199e-67,"154":-2.30369090217317e-62,"155":-1.9996470096259105e-60,"156":-1.5026105834925358e-61,"157":-1.6731192736036206e-76,"158":-8.314016088815616e-62,"159":3.8239341071713476e-80,"160":-1.52890793590052e-76,"161":-9.77938543125077e-74,"162":-4.174299797561152e-60,"163":1.656678046101864e-76,"164":-1.2116130290075685e-68,"165":-5.857063135698757e-70,"166":-3.8111570674849364e-63,"167":-2.529153733961977e-60,"168":-1.5324852593603667e-61,"169":-1.600821628442944e-76,"170":-2.695025836111425e-60,"171":-1.9426016944895454e-78,"172":-1.5060709643831026e-76,"173":-9.480640570281672e-74,"174":-4.019040677397775e-60,"175":2.1378920605166995e-76,"176":-1.2080188081365045e-68,"177":-4.630066530243556e-70,"178":-6.030498928704862e-63,"179":-2.6181799223472725e-60,"180":-1.5939220123332285e-61,"181":7.065771967557279e-77,"182":-1.4486247359351283e-61,"183":1.539003970714857e-79,"184":-1.4199480464779334e-78,"185":-2.216635381421917e-78,"186":-3.79858353147144e-60,"187":-1.6305195297734366e-78,"188":-7.83361547216748e-69,"189":6.4952926263731524e-68,"190":-3.558279170886886e-62,"191":-6.848402566492316e-62,"192":-1.5370922061447169e-61,"193":-1.6661370141734085e-77,"194":-3.528304893862043e-60,"195":-1.3734378598210484e-78,"196":-8.78273960692622e-78,"197":-1.7482967935984406e-78,"198":-3.7143430714305174e-60,"199":9.966546461635743e-79,"200":-5.179915158086987e-68,"201":-1.1633644596219719e-70,"202":-3.186813308010762e-62,"203":-3.660897842895647e-60,"204":-1.4831400362460726e-61,"205":-4.099567033575174e-76,"206":-3.578300241914509e-60,"207":-2.6158925144695742e-79,"208":-1.3484017857848836e-76,"209":-8.912192050345385e-74,"210":-3.710387132812375e-60,"211":1.3125574569798643e-76,"212":-8.950911480908894e-69,"213":3.873688840683145e-67,"214":-3.8584394260957485e-62,"215":-3.8404031498976576e-60,"216":-1.5423448033137642e-61,"217":-2.082767768796543e-76,"218":-2.0725025797520362e-61,"219":-2.939727419029101e-78,"220":-2.7780199860742414e-77,"221":-9.754021530600302e-74,"222":-4.1151239613224446e-60,"223":1.6760940283466758e-76,"224":-7.653651285839191e-69,"225":-4.46063449853574e-70,"226":-1.5896496283896683e-62,"227":-1.7920571159875648e-61,"228":-1.5508783877986653e-61,"229":-1.2420407820601038e-76,"230":-2.846877140713735e-60,"231":-3.320493359265049e-78,"232":-1.2316025766697797e-76,"233":-9.517451191520417e-74,"234":-4.051000486371515e-60,"235":2.1190130381374025e-76,"236":-1.152520696018608e-68,"237":-4.26842102490015e-70,"238":-7.735810190560062e-63,"239":-1.787537701443648e-61,"240":-1.6363913806941238e-61,"241":3.7165297819831724e-76,"242":5.139626528361436e-63,"243":-6.699363387923725e-79,"244":3.313345727362338e-79,"245":-2.1031276057240027e-78,"246":-3.7453056167855387e-60,"247":-2.6728262693038696e-78,"248":-1.1825044266309956e-68,"249":6.320759936175288e-68,"250":-1.3961329666918701e-62,"251":-1.119819181797944e-61,"252":-1.5892978205134253e-61,"253":-2.7403217341198678e-76,"254":-3.052558183683457e-60,"255":-5.353626913463363e-79,"256":-1.090959862692378e-76,"257":2.150515199910543e-78,"258":-3.753999904589313e-60,"259":1.8156972298297626e-78,"260":-1.1670497258250826e-68,"261":-2.1150112588638275e-78,"262":-1.3776561079730032e-62,"263":-3.590220263839034e-60,"264":-1.5360058835373101e-61,"265":-4.7288763336213455e-76,"266":-3.4274333656250857e-60,"267":9.79434180494791e-79,"268":-1.519251704214651e-76,"269":-8.917175009946723e-74,"270":-4.1914554286357734e-60,"271":1.2833773701979798e-76,"272":-1.2124929030876495e-68,"273":3.453929314696241e-67,"274":-2.5368755604235873e-62,"275":-3.9209130158211457e-60,"276":-1.5658958086948472e-61,"277":-1.1701877341848225e-74,"278":-2.528537772873772e-61,"279":-7.168403624991369e-79,"280":-1.5058817614975423e-76,"281":-9.775175247046834e-74,"282":-4.079960959171767e-60,"283":1.7236582918313517e-76,"284":-1.172561806457966e-68,"285":-4.318083780625637e-79,"286":-2.171576638769515e-62,"287":-3.2521817673810466e-60,"288":-1.5924747471050554e-61,"289":-2.713392332760953e-75,"290":-1.9424783170836904e-60,"291":-1.4736389249572623e-78,"292":-1.3077945711135806e-76,"293":-9.625180925394815e-74,"294":-3.942530367764019e-60,"295":2.1248629076106778e-76,"296":-7.734896718169558e-69,"297":-8.419904618649674e-71,"298":-4.008365913479622e-62,"299":-3.1466152940686704e-60}},{"sx":5,"sy":5,"depth":12,"w":{"0":-1.952954979248224e-61,"1":-1.095096217556031e-74,"2":-1.5862576212781124e-49,"3":1.520070984145567e-78,"4":-1.5547745539113945e-76,"5":-2.0195046238236627e-76,"6":-1.0677093045772966e-49,"7":-1.4366901235792064e-78,"8":-3.323919616127795e-68,"9":-5.605692459802806e-78,"10":-1.7721853667663966e-51,"11":-1.0451608231649791e-49,"12":-1.966115308599464e-61,"13":-1.7256191818832835e-74,"14":-1.1619647626501361e-49,"15":7.491020325461692e-79,"16":-1.613222236047368e-76,"17":-3.0099649695424616e-76,"18":-8.808439451919394e-50,"19":-2.5907930632907554e-75,"20":-2.943082266838457e-68,"21":-7.344599040878743e-77,"22":1.8334512943338749e-51,"23":-1.3126795028334442e-49,"24":-1.8498208660109368e-61,"25":-9.73499349123939e-75,"26":-9.945945642866217e-50,"27":6.166781217397605e-79,"28":-3.619323881382655e-77,"29":-3.412458909092527e-67,"30":-2.7224798959885224e-51,"31":-1.5816933215489416e-75,"32":-3.0851924935798198e-68,"33":-6.529539452911681e-77,"34":3.8547439552044794e-52,"35":-1.6454471511249425e-49,"36":-1.7812810054454595e-61,"37":-3.5626966296207405e-75,"38":-6.387942665478771e-50,"39":-1.149363686065899e-78,"40":-4.600309161244782e-77,"41":-2.9272319545635948e-67,"42":-2.119080309735083e-49,"43":-2.2100325643671385e-75,"44":-2.277428942860265e-68,"45":-9.307128748536725e-77,"46":8.068153930242737e-53,"47":-4.371986756241447e-50,"48":-1.756855327994192e-61,"49":-3.2570583904117864e-75,"50":-4.633881989226721e-50,"51":-2.1575319659419198e-78,"52":-1.3050386679913054e-76,"53":-2.8781413554762556e-67,"54":-2.3578025367806135e-49,"55":-2.806660376057517e-75,"56":-1.3718464443211065e-68,"57":-9.348403173865222e-77,"58":-1.122914146646478e-61,"59":-1.7704212350587845e-49,"60":-1.4020957175169754e-61,"61":-2.112884430521112e-74,"62":-1.1733837612245001e-49,"63":-1.9529689831814378e-78,"64":-1.655837901059488e-76,"65":-2.007818923721155e-76,"66":-3.648331580888066e-50,"67":-4.0811377410943465e-76,"68":1.7326444451131269e-68,"69":-1.5728067013220367e-77,"70":4.359695781832293e-52,"71":-1.0014933774656803e-49,"72":-1.4031473392050603e-61,"73":-2.159730733300284e-74,"74":-1.0897178198428685e-49,"75":-1.274904091317969e-78,"76":-1.7369551083002333e-76,"77":-3.1105778654344965e-76,"78":-9.149032275820793e-51,"79":-6.619772737670098e-76,"80":-5.910371692158699e-69,"81":-1.0485307722477967e-76,"82":-6.771202740296382e-52,"83":-1.4146911141303245e-49,"84":-1.4657981412469493e-61,"85":-8.278410517584621e-76,"86":-8.157265514976137e-50,"87":-1.0900928096927904e-78,"88":-5.456917389588609e-77,"89":-8.221369232627644e-68,"90":1.1833603846764997e-51,"91":-2.3274446545988867e-75,"92":-1.4435846702017798e-69,"93":-8.237933941287846e-77,"94":4.588181528637775e-51,"95":-8.346920457883827e-50,"96":-1.5509091564165818e-61,"97":-1.1209521452725922e-75,"98":-4.362651796972371e-50,"99":1.1636815580940973e-78,"100":-3.169928974841848e-77,"101":-1.130494461933091e-67,"102":-2.3796004458070777e-49,"103":-2.769840139020208e-75,"104":6.314537343699854e-61,"105":-7.858241324059809e-77,"106":-6.3453643884914365e-52,"107":-1.9575889578839123e-49,"108":-1.4829408408309932e-61,"109":-7.420479699287566e-75,"110":-3.673560998618538e-50,"111":1.2669689819199853e-78,"112":-1.0938891305413501e-76,"113":-1.2635642667703044e-67,"114":-3.3566334938378393e-49,"115":-3.202346881288305e-75,"116":-1.2576209029773825e-68,"117":-6.894590130794961e-77,"118":1.2530702381945406e-51,"119":-1.975214615391171e-49,"120":-1.9554244818165982e-61,"121":-3.2149662174820984e-75,"122":-1.3290468043888597e-49,"123":2.2301166338606007e-79,"124":-2.8212143195704257e-77,"125":-4.606428082852183e-57,"126":-1.2345705608154163e-49,"127":-3.328640051552788e-73,"128":-3.105336739680828e-68,"129":-9.628488104222103e-79,"130":-1.4816746538531843e-52,"131":-1.4755054009011138e-49,"132":-1.9359629563704087e-61,"133":-5.547881813493109e-75,"134":-1.4092671330595565e-49,"135":-8.931659636251869e-79,"136":-1.3352983413076998e-76,"137":-3.374459950665396e-70,"138":-1.3740875139283037e-50,"139":-1.7250250564237614e-65,"140":-2.773157706699796e-68,"141":-8.810149147993375e-78,"142":-6.347519362949426e-52,"143":-1.579615801959408e-49,"144":1.2113769062077234e-59,"145":-1.3758779824953756e-74,"146":-1.5947651752562914e-49,"147":4.652742850426746e-78,"148":-9.870180092609786e-77,"149":-1.7776751979030476e-68,"150":-5.670736632015688e-51,"151":-4.5210251152258377e-66,"152":2.2701638479607056e-66,"153":-1.1004260116706477e-77,"154":3.937920875808589e-51,"155":-1.2125789729166746e-49,"156":-1.6458655123584854e-61,"157":-7.151174674887265e-75,"158":-1.1103017940767795e-49,"159":4.212155450327843e-78,"160":-1.6008097849727057e-76,"161":-2.4565509713921544e-67,"162":-2.9531269166881417e-49,"163":-2.7329643951635195e-73,"164":2.224564415137857e-66,"165":-1.4268019710127977e-77,"166":-8.571928261161404e-52,"167":-1.9965162424435886e-49,"168":-1.6860226586971464e-61,"169":-1.1887366088255318e-74,"170":-1.2672732097818359e-49,"171":3.687562095525121e-78,"172":-1.7320332534721153e-76,"173":-2.5780945592410532e-67,"174":-2.3396556594883216e-49,"175":-3.1530638898529724e-73,"176":1.6374910853143073e-66,"177":-1.955037286105108e-77,"178":-2.1342180127838356e-52,"179":-2.198925280896941e-49,"180":-1.9909890619390892e-61,"181":-1.2230454048720123e-74,"182":-1.4845376016959627e-49,"183":-1.51788756465723e-78,"184":-1.0623039579964499e-76,"185":-1.9888111198217943e-78,"186":-1.3652249654852575e-49,"187":-1.0690659259718134e-78,"188":-1.3135182586469876e-69,"189":7.372147800240979e-79,"190":6.702933238684622e-52,"191":-1.0812790707124695e-49,"192":-1.953335873918847e-61,"193":-2.203314931078294e-74,"194":-1.14029301642216e-49,"195":-2.9039052659753977e-78,"196":-1.2755723658910874e-76,"197":-4.6753011515130134e-57,"198":-1.6515913056664992e-50,"199":2.6627999770367547e-78,"200":-5.568766373368486e-69,"201":-9.469401494128812e-78,"202":-8.11494778623169e-52,"203":-1.3510669946848982e-49,"204":1.2822916928498378e-59,"205":-5.414691281491819e-75,"206":3.3592413416110744e-51,"207":2.871209712154544e-78,"208":-1.1860002130296552e-76,"209":1.1390871992607327e-66,"210":-6.882820157062564e-51,"211":-1.7807506437280235e-75,"212":-2.2319484715346836e-69,"213":1.5538098679397642e-78,"214":-2.105675604158031e-52,"215":-9.625243448123153e-50,"216":-1.7082505949230762e-61,"217":-1.2762294508510578e-75,"218":-9.04472706486503e-50,"219":6.099108928956483e-78,"220":-9.978960431773283e-77,"221":-3.113582211770486e-78,"222":-2.685548337686327e-49,"223":-2.2671017545410366e-75,"224":7.574658055102977e-73,"225":-7.784734066743878e-77,"226":-1.6010009762040972e-52,"227":-1.5999325901977243e-49,"228":-1.718083888322692e-61,"229":-2.5975017900876244e-76,"230":-6.121636081806166e-50,"231":7.704005244631878e-79,"232":-1.439244714683187e-76,"233":-2.3211757845993745e-78,"234":-1.71450616747302e-49,"235":-2.9047231454598927e-75,"236":-1.2297091550469049e-68,"237":-7.819388867589097e-77,"238":-1.1185704258558213e-51,"239":-1.1109228430702315e-49,"240":-1.9473871354505113e-61,"241":-3.534560352316538e-75,"242":-1.1978050815972725e-49,"243":1.799902301288806e-79,"244":-2.3924573363579663e-77,"245":-4.2722317987176935e-57,"246":-1.3661796725949844e-49,"247":-1.9007744784922036e-75,"248":5.3761921698457705e-68,"249":-7.911908718639578e-77,"250":1.3015822710674665e-51,"251":-1.0274409895847031e-49,"252":-1.8960350283309204e-61,"253":-1.055892542871403e-74,"254":-1.2500822128729105e-49,"255":-3.4376586386643294e-78,"256":-1.2809674814413852e-76,"257":-4.24362138391778e-57,"258":-1.4022612761713497e-50,"259":-1.641698464577507e-79,"260":5.8398705935065115e-68,"261":-8.328713775619073e-77,"262":6.418893079529535e-53,"263":-1.6358540899194343e-49,"264":7.125006646929884e-60,"265":-5.248975861123776e-75,"266":-4.896627228552625e-50,"267":5.415256552099576e-78,"268":-1.2158279308326534e-76,"269":1.7917124785820783e-66,"270":-3.272076728053513e-51,"271":-5.605012006175094e-72,"272":4.692398482251615e-68,"273":-1.3180705432742504e-77,"274":-6.624431406893124e-53,"275":-1.2521026474225486e-49,"276":-1.743585461767161e-61,"277":-6.240240396115681e-75,"278":-3.0583860317437984e-50,"279":-8.639555720870677e-79,"280":-1.4643384094777543e-76,"281":3.1905632782505527e-78,"282":-2.517026585147882e-49,"283":-2.2973275122775853e-75,"284":3.6536920603088075e-68,"285":-1.6000343653097996e-77,"286":-4.526988257653429e-53,"287":-1.0650912316730377e-49,"288":-1.715142535473096e-61,"289":-5.995292704743952e-75,"290":-8.874888332085798e-50,"291":-1.2098233529230385e-78,"292":-1.5335280849374184e-76,"293":-5.549126692462316e-78,"294":-1.5975473745566132e-49,"295":-2.8821930726082073e-75,"296":2.957750790268576e-68,"297":-2.5084710216184364e-77,"298":-8.626911280065602e-54,"299":-2.645532918700057e-49}},{"sx":5,"sy":5,"depth":12,"w":{"0":1.179509253926888e-25,"1":2.1810443190468255e-72,"2":7.377064293785163e-7,"3":3.188917236293572e-76,"4":6.062531168865058e-76,"5":1.4702957237511633e-53,"6":0.12449089095667645,"7":1.9950142349148456e-53,"8":1.215881497632142e-54,"9":-2.4071657198366363e-64,"10":1.2461214061796937e-38,"11":-0.017941615561630504,"12":2.1336457860190897e-25,"13":2.500199350566643e-72,"14":-8.614473829889246e-7,"15":-1.5421373333091742e-77,"16":-5.2096160388398466e-76,"17":1.8445364008815143e-53,"18":0.08510447530226259,"19":6.925096947422945e-53,"20":9.459919618629214e-55,"21":-8.786053222027386e-64,"22":1.3831049548596035e-38,"23":-0.007686610397835455,"24":2.3865026625686934e-25,"25":3.619059279084814e-73,"26":-0.0000015329930077586325,"27":-1.2501593951702823e-76,"28":-1.5443755372720542e-75,"29":3.303074794466178e-53,"30":0.13790067844038084,"31":8.509006950991227e-53,"32":-8.422724506091217e-55,"33":4.935278526225653e-65,"34":1.3665636996301304e-38,"35":0.017635076085456534,"36":9.558721647835661e-26,"37":1.0492481071969695e-72,"38":-0.0000018085256016023352,"39":-7.848844887683344e-77,"40":-2.0206310139279158e-75,"41":2.4829254825282713e-53,"42":0.1504317311031373,"43":6.601826375951192e-53,"44":2.5894638770307983e-54,"45":3.484494096708288e-64,"46":1.5506492749753702e-38,"47":-0.0943215678847245,"48":6.503225649804993e-26,"49":-5.017533120958401e-73,"50":-6.965427500833462e-7,"51":-1.4468405300675048e-76,"52":1.2575883794142874e-75,"53":1.8039212757649136e-53,"54":-0.2362559514855042,"55":5.064426288768935e-53,"56":-1.7445358923553695e-54,"57":-3.801424524901326e-64,"58":1.4926938248308525e-38,"59":-0.026349359223476962,"60":9.229512783877639e-26,"61":-2.6057713376146745e-72,"62":3.876758394855557e-7,"63":-6.272095090635895e-77,"64":1.7531160355876118e-75,"65":2.018900092629427e-54,"66":-0.036207334600942546,"67":1.104680252010368e-53,"68":7.17556819145335e-55,"69":3.286128722534066e-64,"70":1.1925414912810372e-38,"71":-0.005056985470775648,"72":4.10101343631425e-26,"73":-2.60983013199892e-72,"74":-0.0000025119476043528108,"75":-3.968350725552335e-76,"76":9.649066499723697e-77,"77":1.5729885340506528e-53,"78":0.008673520239210784,"79":4.1852564562346e-53,"80":6.57939548657635e-55,"81":-7.621943221920011e-64,"82":1.0805866129850857e-38,"83":-0.0227309874018718,"84":2.7963169408487395e-26,"85":-3.111036046789755e-72,"86":-0.0000024440406310882315,"87":-3.653164055633082e-76,"88":-5.978149512639984e-76,"89":5.074300550774471e-53,"90":-0.20082491723481263,"91":1.0529629495461424e-52,"92":2.682417502524335e-54,"93":1.0493122001198429e-63,"94":1.0694104051530816e-38,"95":0.10420477350247886,"96":7.366805032779506e-28,"97":-6.976604795961697e-74,"98":-0.0000016067418926491037,"99":-3.0232622517238925e-76,"100":2.4164271673545533e-75,"101":2.942670660716623e-53,"102":-0.13291943279170212,"103":6.162530941546614e-53,"104":-3.5463346314716887e-56,"105":7.354184424293409e-64,"106":1.1511799332661864e-38,"107":-0.02757679247116439,"108":7.206873555861672e-26,"109":-3.1476822429855125e-72,"110":-0.0000020825611766531932,"111":-3.9485890085277196e-76,"112":1.7813773622233003e-75,"113":3.554833082210583e-53,"114":-0.07504289907518792,"115":5.59376272963764e-53,"116":2.1900801394488226e-54,"117":2.0086265401921565e-64,"118":1.321416260988142e-38,"119":-0.04614117279819399,"120":1.2874613763187875e-25,"121":1.1830461764755555e-72,"122":-5.983627238551476e-7,"123":-3.643578741660068e-77,"124":-8.038975837115268e-76,"125":2.9424425715981555e-53,"126":-0.1926888073921843,"127":1.0403716795501691e-53,"128":-3.3713081928622953e-54,"129":4.4339762798373754e-64,"130":1.2050637206502447e-38,"131":-0.13041632593475294,"132":-1.4247179158349989e-26,"133":-2.740867827873835e-72,"134":-8.741045061844592e-7,"135":-8.960408148601326e-77,"136":1.6328929352344902e-75,"137":5.992269589263006e-53,"138":-0.1230784122734649,"139":7.653609279289078e-53,"140":-3.236910074886537e-54,"141":-2.7094202580028247e-64,"142":9.792962926568715e-39,"143":-0.15022660931996443,"144":8.732931189389357e-26,"145":-2.161916480485384e-72,"146":-0.00000186644225627719,"147":-1.6567518741076033e-76,"148":-1.4717505659951388e-75,"149":7.896065675199865e-53,"150":-0.23263546427546988,"151":1.7525684208470876e-52,"152":-4.338882548591788e-55,"153":-5.8455071122092705e-65,"154":4.254985397140507e-39,"155":-0.06239737195516904,"156":2.3788676826340537e-26,"157":1.320294482240533e-72,"158":-7.459846501052043e-7,"159":7.422032839208369e-77,"160":2.261337617816981e-75,"161":5.290280146470522e-53,"162":0.026409694496038336,"163":8.93844761748146e-53,"164":-1.7994532184922514e-54,"165":7.237343186621104e-64,"166":7.805385934888543e-39,"167":-0.08068441000103657,"168":-3.42391708136156e-26,"169":-9.671098510920491e-74,"170":-0.0000019343104536492202,"171":4.106065711257674e-77,"172":-5.842247327155333e-76,"173":2.145206794258402e-53,"174":0.031237614159585356,"175":3.6762885428968667e-53,"176":-1.6561037567954165e-54,"177":2.2070744587853488e-64,"178":1.232384140412756e-38,"179":-0.2936663052222733,"180":-1.4401303721113208e-25,"181":9.762414316847848e-72,"182":-1.4190213079094165e-7,"183":7.643078504813225e-76,"184":1.0299365032454944e-75,"185":-3.2354781729742992e-55,"186":0.10938843595286007,"187":-1.0421717260896897e-53,"188":-1.5686589757348925e-54,"189":2.0554548157859187e-64,"190":1.0571822716987372e-38,"191":0.0057042004632774585,"192":-2.0983583282877688e-26,"193":1.5720680426705146e-72,"194":5.011907171067057e-7,"195":4.890938334972928e-78,"196":1.7895470119195418e-75,"197":2.4304360252318797e-54,"198":0.17297723008680607,"199":1.5668519799501585e-53,"200":-1.7864881833352154e-54,"201":-1.067311947534868e-63,"202":7.67069804714638e-39,"203":0.07492795018475591,"204":1.8368759729652642e-25,"205":2.447684540118642e-72,"206":0.0000010990161028563193,"207":-1.1874560711759847e-76,"208":3.069946369462321e-76,"209":1.643657592103771e-53,"210":-0.09195040019298002,"211":2.8110583248450485e-53,"212":-3.7561757815147713e-54,"213":-1.1601629180627398e-63,"214":2.4452595967244534e-39,"215":0.08066160375966305,"216":1.0128262752186325e-25,"217":1.3811025400935253e-72,"218":0.000002428904671881382,"219":-6.379147961573879e-78,"220":-2.1162070804069284e-77,"221":1.6185801551338067e-53,"222":0.08446801304119923,"223":5.351536379327693e-53,"224":-3.182255681616253e-54,"225":2.2955109317726947e-64,"226":1.0459727653622213e-38,"227":0.13092466344254075,"228":2.1060712729511337e-27,"229":2.8012622182397575e-72,"230":-0.000001555373985628802,"231":1.9500404482541883e-76,"232":-1.5938286451967e-75,"233":3.516737492806378e-54,"234":0.2280207087238379,"235":8.160734440146287e-55,"236":-3.4138386302536976e-54,"237":-1.7385536142112978e-65,"238":1.2251530642086256e-38,"239":0.017077137034684064,"240":3.125342089595248e-26,"241":7.77900851180921e-73,"242":0.0000020903637002502474,"243":-1.510329311897281e-76,"244":-1.7437838889930283e-75,"245":-2.5006923818824225e-53,"246":0.20840576044060471,"247":-2.640868894357919e-53,"248":1.4437895694445714e-54,"249":-9.681664923088646e-64,"250":-1.123495924716451e-39,"251":-0.016654326150741985,"252":-4.0208807506002e-26,"253":-5.445462513391332e-73,"254":0.0000010678171412037942,"255":-2.553361055869966e-77,"256":6.341542168933639e-76,"257":4.9726315011340896e-54,"258":0.13311348673640352,"259":-8.825507553312727e-54,"260":1.3030384784093855e-54,"261":-1.0749339272367552e-63,"262":-1.802757215423304e-39,"263":0.042908960993856306,"264":2.1411307710928623e-25,"265":-1.321334552495721e-72,"266":0.0000019863027155384315,"267":-2.0990058344345442e-76,"268":7.938852429663963e-76,"269":2.242845405148633e-53,"270":-0.10645646428057841,"271":9.427499173268645e-54,"272":3.690063558517814e-55,"273":-1.0574460685661576e-63,"274":5.2562138987187055e-39,"275":-0.145454980493227,"276":1.8493071795615262e-25,"277":1.4699384718853632e-72,"278":9.055009293914617e-7,"279":-3.9351925433892823e-76,"280":1.9383664158005457e-75,"281":1.7117841877212946e-53,"282":-0.039584260543811124,"283":7.102753685213369e-53,"284":1.6685731769097207e-54,"285":5.3751884985767304e-64,"286":7.948309528111918e-39,"287":-0.024410261621815806,"288":1.3562117421414428e-25,"289":-1.0699591760773482e-72,"290":-0.0000011761656417197964,"291":-5.043332164564494e-76,"292":-8.708197306294486e-76,"293":1.1976607230652465e-53,"294":-0.13132793028484518,"295":2.3889090118291636e-53,"296":-2.045686861048162e-55,"297":-4.029662485615184e-64,"298":9.331048722106261e-39,"299":0.008252301923100364}},{"sx":5,"sy":5,"depth":12,"w":{"0":9.695576998486222e-56,"1":9.960209794655668e-74,"2":-5.653540184741052e-44,"3":-2.5279212727205127e-78,"4":-1.256061330330365e-76,"5":-1.0289808119346054e-79,"6":-9.34544361727429e-44,"7":-3.114800937732306e-65,"8":-2.476147312899223e-65,"9":-2.337738440674536e-77,"10":4.704825349131755e-56,"11":-1.0843900675648281e-44,"12":-2.064130628661276e-51,"13":-7.91199174526891e-74,"14":-5.998574505392231e-44,"15":2.437783890497708e-79,"16":-1.5238827283325594e-76,"17":-3.8991778692717456e-79,"18":-9.882824263878153e-44,"19":-3.899208293407156e-65,"20":-2.5189283842712115e-65,"21":-2.5100657775350756e-77,"22":5.851418293167123e-56,"23":-3.08121661166057e-45,"24":-2.5643412275286423e-51,"25":-7.080949593755846e-74,"26":-3.0226647508609097e-44,"27":-6.098926896690672e-79,"28":-1.5483389273338254e-76,"29":-9.316507461178921e-75,"30":-6.711307533011466e-44,"31":6.314523715668474e-63,"32":-2.889744869364088e-65,"33":6.488183438310436e-77,"34":1.1960682463746234e-56,"35":-1.024769776045633e-43,"36":-9.347935046701695e-50,"37":-6.406041150146087e-74,"38":-4.590013656151479e-44,"39":-2.634173806916591e-78,"40":-1.4553368351895958e-76,"41":-2.231185159082717e-75,"42":-6.170301075241287e-44,"43":-4.028995869679924e-65,"44":-2.5247195351305245e-65,"45":9.53404174966435e-77,"46":1.6692427026160904e-62,"47":-8.809494925784933e-44,"48":-1.5522023926579162e-49,"49":4.8790158591677634e-74,"50":-4.1352843698369394e-44,"51":-6.836250330498032e-79,"52":-1.3914051216786512e-76,"53":-2.3408693998153633e-75,"54":-6.299708499049255e-44,"55":-3.850174905420675e-65,"56":-2.488822358626398e-65,"57":1.1333513456065904e-76,"58":1.6274152688396515e-66,"59":-6.555884130663686e-44,"60":7.497451244905584e-57,"61":-3.154544285002578e-73,"62":-7.233520687144773e-44,"63":2.1402468061461326e-78,"64":-1.403377642712191e-76,"65":7.544431036133166e-79,"66":-1.0362393596577159e-43,"67":-3.971028944932548e-65,"68":-2.507509432424509e-65,"69":-2.5352816887781923e-77,"70":-3.857651526112476e-57,"71":-1.8867650526730258e-44,"72":-3.207862986679495e-51,"73":-7.422074785786667e-74,"74":-7.441142048712086e-44,"75":-3.6082294369690985e-79,"76":-1.5056481122678226e-76,"77":-2.527994052905441e-78,"78":-1.063832237274543e-43,"79":-3.91206522802538e-65,"80":-2.5327506028130888e-65,"81":-2.7119638630214864e-77,"82":-7.652909316370922e-57,"83":-5.872866871318673e-45,"84":-3.7747440094206123e-51,"85":-7.699955003893723e-74,"86":-4.123692921618798e-44,"87":-5.693744346303201e-79,"88":-1.549140099627953e-76,"89":7.155090757713201e-76,"90":-6.007298428639055e-44,"91":4.676370244963353e-63,"92":-2.546388566788959e-65,"93":6.831385948722925e-77,"94":5.303576128159407e-54,"95":-1.1418057827362486e-43,"96":-1.2109410483536244e-49,"97":-8.833237520732335e-74,"98":-6.115465177112282e-44,"99":-2.2557792446406642e-78,"100":-1.4725469274760533e-76,"101":-2.0153023193931985e-75,"102":-5.091728350136476e-44,"103":-3.95408305366117e-65,"104":-2.5462626475379097e-65,"105":1.0527912406023583e-76,"106":6.663474922543863e-61,"107":-9.750907936221592e-44,"108":-1.566143358609618e-49,"109":-2.575747303639004e-73,"110":-6.780629470316626e-44,"111":-1.982241858875019e-78,"112":-1.3764287098495789e-76,"113":-2.3337312988691253e-75,"114":-4.847862326054692e-44,"115":-3.639917685933417e-65,"116":-2.522701367555264e-65,"117":1.1463646819246059e-76,"118":6.48584437048354e-60,"119":-8.106351424056867e-44,"120":1.5378266519562011e-55,"121":-2.761373594348598e-74,"122":-7.549708818474326e-44,"123":7.003652415398993e-79,"124":-1.3813919653161744e-76,"125":4.581117237116352e-65,"126":-1.0611996758480756e-43,"127":4.92911493447459e-64,"128":-2.5402539241620867e-65,"129":-2.392901015735775e-77,"130":2.706166872629446e-56,"131":-1.7743619929292897e-44,"132":-2.954677385931355e-51,"133":-1.5324440565153147e-73,"134":-7.372621468180941e-44,"135":3.602271026909105e-79,"136":-1.4452283141866664e-76,"137":5.388809542918605e-64,"138":-1.063250979638144e-43,"139":3.0605439760273225e-64,"140":-2.4778678618173386e-65,"141":-2.410811621097786e-77,"142":3.328534956040889e-56,"143":-6.85609406676319e-45,"144":-3.6894547050137865e-51,"145":-1.7129107228885702e-73,"146":-3.8898798346711143e-44,"147":1.566161341974487e-78,"148":-1.5584755411521275e-76,"149":-7.284446092376854e-76,"150":-8.768136718017872e-44,"151":3.529934876184385e-63,"152":-2.5041145041311255e-65,"153":6.3724751656211324e-77,"154":-1.1839463473488107e-51,"155":-9.623995260436395e-44,"156":-1.2069400420251524e-49,"157":-1.5964033447593037e-73,"158":-5.207386096143634e-44,"159":-4.202954749214408e-79,"160":-1.421834292506e-76,"161":-1.7224318085574472e-75,"162":-5.551707217772487e-44,"163":-4.193433454077567e-65,"164":-2.5336864810722807e-65,"165":1.0216352947894594e-76,"166":2.0298685613392947e-62,"167":-1.2092228227001552e-44,"168":-1.3598796699454605e-49,"169":-1.506347274083193e-73,"170":-5.351751772562015e-44,"171":5.653887074758107e-79,"172":-1.3911778115456387e-76,"173":-1.6135230609637132e-75,"174":-4.3183132458182546e-44,"175":-3.752780401848144e-65,"176":-2.4948250873006675e-65,"177":1.089357167966514e-76,"178":1.019100781065945e-71,"179":-1.2729740461703622e-43,"180":-3.987589206967452e-55,"181":-1.5816720934478445e-73,"182":-8.692675568639103e-44,"183":-1.1637399163651447e-78,"184":-1.0075979894703621e-76,"185":-5.0584202206475336e-57,"186":-1.0780540519192616e-43,"187":-2.103960574054416e-64,"188":-2.500106120924011e-65,"189":-2.6471339493155336e-77,"190":-1.53581762360145e-57,"191":-1.8607757337412302e-44,"192":-2.84300061412552e-51,"193":-2.4989202584928674e-73,"194":-8.473010639858246e-44,"195":9.585582326790544e-79,"196":-1.4014493194576775e-76,"197":-5.055897625855439e-57,"198":-1.0855470042456092e-43,"199":-3.5678466050616238e-65,"200":-2.5425369032676605e-65,"201":-2.463412264679984e-77,"202":5.279448671204602e-54,"203":-5.496795023949289e-45,"204":-3.660850483665594e-51,"205":-2.3714189705819406e-73,"206":-4.542036018182419e-44,"207":1.8915230710856244e-79,"208":-1.5247015039697373e-76,"209":-6.714808487599294e-75,"210":-1.3583408005211307e-43,"211":4.5341985657804637e-63,"212":-2.5234256330783895e-65,"213":8.068100229640178e-77,"214":1.7954760494023746e-62,"215":-9.77999905026036e-44,"216":-1.1784466082088871e-49,"217":-2.1285732880330147e-73,"218":-5.854957291812335e-44,"219":-9.315839888010658e-79,"220":-1.509103502065318e-76,"221":-1.2204396951235087e-75,"222":-4.515885948482117e-44,"223":-3.840333149570851e-65,"224":-2.5231111011138525e-65,"225":1.003460720742793e-76,"226":-4.798563901737857e-62,"227":-1.7876349064620044e-44,"228":-1.1421951195132645e-49,"229":-8.466279606434739e-74,"230":-5.473644528284524e-44,"231":6.668172266698993e-79,"232":-1.4312553807534184e-76,"233":-1.8130769899759927e-75,"234":-4.073481327921374e-44,"235":-3.5051617247316966e-65,"236":-2.497548351422294e-65,"237":1.053031410700529e-76,"238":1.5782573058613806e-63,"239":-1.245146952845266e-43,"240":-1.919837072937084e-61,"241":-9.05041086173082e-74,"242":-6.689666687643625e-44,"243":-4.854425500087573e-79,"244":-1.2727965542841243e-76,"245":-5.030445145398103e-57,"246":-9.396401980610562e-44,"247":-3.5132923647534345e-64,"248":-2.561965462147509e-65,"249":-2.161768181502075e-77,"250":5.469776688649827e-62,"251":-1.593589984630363e-44,"252":-2.6291734002905577e-51,"253":-4.300922660044644e-74,"254":-6.893763718918271e-44,"255":4.665979803656138e-79,"256":-1.479688927877759e-76,"257":-5.0182687774842737e-57,"258":-9.40685235746408e-44,"259":-2.3265606365217627e-64,"260":-2.5371058803920703e-65,"261":-2.1872743174794314e-77,"262":5.431316417808072e-62,"263":-4.2057310263256276e-45,"264":-3.571579366027772e-51,"265":-8.535727055148621e-75,"266":-4.2262099823928534e-44,"267":-4.738999534027885e-79,"268":-1.5020189740559852e-76,"269":-1.4414795019923638e-74,"270":-1.3293328234334902e-43,"271":4.651287414736849e-63,"272":-2.5046636906785076e-65,"273":8.587539868637076e-77,"274":5.1414614274505026e-62,"275":-1.0579179520236322e-43,"276":-1.301748947259222e-49,"277":-1.494435016877747e-73,"278":-5.414335756908097e-44,"279":-2.908255482215367e-78,"280":-1.5132896936125044e-76,"281":-1.7056328534595827e-75,"282":-8.603995162939021e-44,"283":-3.817913563134898e-65,"284":-2.5352612644494567e-65,"285":1.0064205863963492e-76,"286":2.960276174555839e-62,"287":-1.9546161955325164e-44,"288":-1.1984241684920216e-49,"289":-3.1611967893898066e-73,"290":-5.214450278523519e-44,"291":-1.0133282929912002e-78,"292":-1.4510930465278876e-76,"293":-1.9857969285936625e-75,"294":-8.598377854621805e-44,"295":-3.6615115026152064e-65,"296":-2.5128622677658085e-65,"297":1.0012692306205295e-76,"298":2.5673735333394553e-63,"299":-1.184659477048561e-43}},{"sx":5,"sy":5,"depth":12,"w":{"0":1.0885495128060045e-25,"1":1.0891613099234602e-72,"2":8.094593889875197e-7,"3":2.066887993710454e-77,"4":-1.6479264326480835e-75,"5":-1.8733607183960174e-53,"6":0.1836667275510679,"7":-2.0817765739426463e-53,"8":-4.151216935129358e-54,"9":4.50786537180373e-65,"10":-4.566137663441487e-39,"11":0.05852887879195115,"12":1.2186558623813256e-25,"13":2.519300602121525e-73,"14":-0.0000011813568019338116,"15":1.0551888354058935e-78,"16":2.6985770488164907e-76,"17":1.1573176919374124e-53,"18":0.11045014357688406,"19":1.0890570213599245e-53,"20":-9.422089751990968e-55,"21":-1.9800286224682197e-64,"22":-4.265562968351586e-39,"23":-0.11795170306218515,"24":8.716738030055785e-26,"25":-9.024343162790812e-73,"26":-4.673045225273697e-7,"27":-5.939547313123789e-77,"28":7.611232212369543e-76,"29":-2.4581224849271253e-54,"30":-0.16370461887315785,"31":-1.4539701079014925e-53,"32":3.512683488922991e-55,"33":-1.6889140069443628e-64,"34":-5.933722442300478e-39,"35":-0.10043604614535988,"36":6.537889362202428e-26,"37":-3.35772588847122e-73,"38":-0.000001006678746210525,"39":8.316044448165036e-78,"40":1.3710031777850688e-76,"41":1.6718341567039942e-53,"42":-0.23733430640405295,"43":1.456209054282316e-53,"44":5.889387458566783e-55,"45":1.8025663198622585e-65,"46":-4.1335873237170744e-39,"47":0.117031412182963,"48":7.392980328277953e-26,"49":2.2834513019854323e-72,"50":2.3495762430269235e-7,"51":-7.864147441465529e-77,"52":-6.838618860914811e-76,"53":6.278820165306281e-54,"54":-0.07293705175903738,"55":-2.070268166571017e-54,"56":-1.9125494582707716e-54,"57":1.5480717343572967e-64,"58":-3.7321931866826624e-39,"59":0.10270858174541488,"60":6.130806199013222e-26,"61":8.187450564476504e-76,"62":0.0000011369126459603635,"63":4.120983707502391e-77,"64":-1.4022842280720036e-75,"65":-1.0962700543230416e-53,"66":0.17607350675420982,"67":8.052721752592346e-55,"68":-2.1496944471031795e-54,"69":-4.671338074259166e-64,"70":-7.484184617116317e-39,"71":0.14474919749490078,"72":1.9915448144577577e-26,"73":-2.2119276444117133e-72,"74":-4.457268376286087e-8,"75":-1.5346668781681612e-76,"76":1.8986769658838362e-76,"77":5.0455240790902337e-54,"78":-0.06438787548375291,"79":4.164785381743343e-53,"80":-2.6018243916144846e-54,"81":-2.2613884122400902e-64,"82":-6.899827192454308e-39,"83":-0.04347012671424634,"84":4.533993331409648e-26,"85":-1.9138195312217461e-72,"86":-1.196860151632718e-7,"87":-2.1458384461305588e-76,"88":1.6634795800586468e-75,"89":4.238736973494035e-55,"90":-0.10031823858357401,"91":3.5732307225859855e-53,"92":-1.5992029843190638e-54,"93":4.1856878787263815e-64,"94":-7.072933660397877e-39,"95":-0.04074983603531025,"96":-4.4355189315337624e-27,"97":-4.227476314718226e-73,"98":-6.498291138510993e-7,"99":-2.1314397363144388e-77,"100":-1.1567012488474232e-76,"101":2.693746921227418e-53,"102":-0.05436124687888245,"103":4.640568838598736e-53,"104":-1.9724195872635747e-54,"105":5.3492477443640763e-64,"106":-5.581930736932322e-39,"107":0.14102714518348614,"108":-2.6334464143757146e-27,"109":2.1321478887932987e-73,"110":0.000002301370538693749,"111":3.467289481990671e-77,"112":-1.1162464268372262e-75,"113":8.855086858509996e-54,"114":0.10526510644968928,"115":2.5136002672036764e-53,"116":-1.6121648256947055e-54,"117":8.841214247493307e-65,"118":-7.242361911275032e-39,"119":0.3612965800941497,"120":5.078763304705605e-26,"121":-3.5022784633918704e-74,"122":2.0807310311208987e-7,"123":6.198542078470172e-77,"124":-8.39578974362905e-76,"125":2.9305886991087184e-54,"126":-0.018693558187739972,"127":-5.829761154935693e-54,"128":4.488156377938922e-55,"129":-1.320050655826999e-63,"130":-8.499141550167185e-39,"131":-0.04138578351642351,"132":2.117872009683749e-26,"133":-6.311041780955511e-73,"134":9.592177247249535e-7,"135":1.2795350715391044e-78,"136":3.1809874781992075e-76,"137":2.731844154214673e-53,"138":-0.03814842778919611,"139":2.361585779171184e-53,"140":3.3605041545408654e-55,"141":-7.659141049141054e-64,"142":-9.849332203385245e-39,"143":-0.16489172418105807,"144":4.0568332996625494e-26,"145":7.406615619577048e-73,"146":4.520130140599135e-7,"147":-7.13010118245873e-77,"148":3.8237760168698066e-76,"149":2.124681826596341e-53,"150":-0.045355226140903426,"151":1.9765307259531753e-53,"152":-8.644838877356601e-55,"153":2.4511445828576905e-64,"154":-8.892272928953298e-39,"155":-0.07853134396986541,"156":4.2712677714743694e-26,"157":1.5105943360466378e-72,"158":4.1898979840621866e-7,"159":-9.545234217061225e-77,"160":-3.680035361666832e-76,"161":2.008089938156513e-53,"162":-0.1631319021523925,"163":1.668287991833959e-53,"164":-9.10353238721709e-55,"165":5.766793034173092e-64,"166":-5.997920062479078e-39,"167":-0.15038125631318225,"168":-4.950038672300702e-26,"169":-7.506986339740502e-73,"170":-7.29709797887581e-7,"171":-4.692742955679281e-77,"172":-1.0355613914932828e-75,"173":-1.09674577227135e-53,"174":-0.09629992504460991,"175":3.3960836513504235e-53,"176":1.6636082559950437e-54,"177":2.2199034534934888e-64,"178":-8.076038186588382e-39,"179":0.1447512564104719,"180":3.591281671864611e-26,"181":-3.1798283127554235e-73,"182":-2.9646314535920584e-7,"183":-9.420747213802042e-78,"184":-1.5020123059309073e-75,"185":6.838614033548693e-54,"186":-0.06781174165498813,"187":1.0452068317949865e-53,"188":8.307287815991086e-55,"189":-6.064284670065588e-64,"190":-8.455998824203301e-39,"191":-0.06134167460833712,"192":3.190427414948925e-26,"193":1.518075060395891e-73,"194":-1.1278845846054229e-7,"195":-3.6455729893243344e-77,"196":-1.3209083660694529e-76,"197":1.4689129853462058e-53,"198":0.08903274063776792,"199":3.601822098031943e-53,"200":9.276143535255836e-55,"201":-6.774994091044626e-64,"202":-9.330674221727586e-39,"203":-0.030876718846977572,"204":2.9290810940778333e-26,"205":-6.80371615730689e-73,"206":2.2323242665366452e-7,"207":-6.5012575521859684e-77,"208":5.492183082437061e-76,"209":-5.942948600519324e-54,"210":0.16552439660134188,"211":1.4579378279572749e-53,"212":7.095484212783597e-55,"213":-7.116339588857923e-65,"214":-9.733521727739869e-39,"215":-0.01035282964219493,"216":6.420847831830146e-26,"217":2.023723171986359e-72,"218":-0.0000012263896448042404,"219":-2.4361265158360707e-77,"220":-5.533480451883604e-76,"221":-2.346514655060512e-53,"222":0.005517956846489531,"223":1.2025289417524001e-53,"224":8.886079383995611e-55,"225":-3.067150933746132e-64,"226":-5.980891575426465e-39,"227":-0.22131231882372168,"228":1.1145510556582038e-25,"229":2.0189997247095247e-72,"230":-1.936563346867458e-7,"231":-5.4647918568710125e-77,"232":-1.1943852676150258e-75,"233":-1.2640763208222976e-53,"234":-0.14405664647143865,"235":-1.0246874964593827e-54,"236":-2.9804349720699875e-54,"237":-2.1794154842060945e-64,"238":-7.118035848576973e-39,"239":0.1101451564736677,"240":-1.9084448750984325e-26,"241":4.661340716142964e-73,"242":5.38117184878766e-7,"243":-6.8373507473743954e-77,"244":-4.317239402385534e-76,"245":1.223725434834922e-53,"246":-0.09657835455505696,"247":3.0150664601723913e-53,"248":-2.9586017800768456e-54,"249":-1.6423197196400338e-63,"250":-1.142466331133417e-38,"251":-0.13476743074067715,"252":-1.9076904293419072e-27,"253":2.2879619499653353e-73,"254":-5.653098030447076e-7,"255":-3.684596791770152e-77,"256":-3.153106174459206e-76,"257":2.9160459754572055e-53,"258":-0.08928431795345448,"259":6.256725900935901e-53,"260":-2.5719080462466678e-54,"261":-1.6583182519448298e-63,"262":-1.0436951519615608e-38,"263":-0.04566121233688649,"264":9.207397379607003e-27,"265":1.8458320646119761e-72,"266":-5.459149935521314e-7,"267":-3.0837048539844023e-78,"268":1.804616804060941e-77,"269":5.2178268241827795e-54,"270":-0.024263708141467805,"271":3.0973196510627e-53,"272":-1.5633948842518338e-54,"273":-4.402438215228551e-65,"274":-1.0514633326493025e-38,"275":0.06978023246185014,"276":3.466414323908002e-26,"277":3.138308074683938e-72,"278":-1.1348717368742048e-7,"279":1.810954142504281e-77,"280":-3.869926502837966e-76,"281":-2.490360320073708e-54,"282":0.2013494888597207,"283":2.2670630730012148e-53,"284":-1.2236451570288668e-54,"285":-1.9939387348074424e-64,"286":-1.026095033763401e-38,"287":-0.05131940008305857,"288":5.501662002945422e-26,"289":3.4677534052719783e-72,"290":0.000001444335630199192,"291":1.737954858315818e-78,"292":-2.035252251739044e-75,"293":3.09892594594007e-54,"294":0.2235370255769731,"295":2.1768172778000204e-53,"296":3.4895036437894197e-54,"297":2.0343639219757386e-64,"298":-1.0706294576052114e-38,"299":-0.09524222708387425}},{"sx":5,"sy":5,"depth":12,"w":{"0":-1.0764278361571328e-45,"1":-2.0222346654883214e-76,"2":-4.209924423105506e-31,"3":2.1558612560898788e-78,"4":-1.0094224494134881e-76,"5":-9.483927261689788e-74,"6":-4.0243728808539746e-29,"7":-2.12453992383748e-79,"8":3.8677009196371825e-62,"9":-1.6071545523483232e-77,"10":-4.512797161682191e-55,"11":-1.266904251608215e-31,"12":-1.0301121441948618e-45,"13":-1.9895068945660978e-76,"14":-5.503449834311699e-31,"15":3.1993505196108303e-79,"16":-1.3356937731914844e-76,"17":-1.6977245308129474e-73,"18":-8.644308800635412e-31,"19":-1.5360770869614841e-78,"20":3.6889166193897585e-62,"21":-1.036272290196295e-77,"22":-4.117993507829764e-55,"23":-2.2620873055363033e-31,"24":-1.1957544541626583e-40,"25":-2.449506590529559e-75,"26":-1.265911501528358e-31,"27":-2.3077261560392345e-78,"28":-1.4829202273458685e-76,"29":-1.887736958791119e-73,"30":-7.781674095451085e-31,"31":4.901442441760757e-79,"32":3.150073372916897e-62,"33":2.487059958535736e-76,"34":-4.051060075655758e-54,"35":-2.210325693387258e-31,"36":-1.077715896846928e-45,"37":-3.136808576772145e-75,"38":-9.790575057015943e-32,"39":-1.6988281976891073e-78,"40":-1.4328964459698323e-76,"41":-1.1165783255390424e-73,"42":-1.2735937755812685e-31,"43":1.3484117102879493e-78,"44":2.6325778175591624e-62,"45":-7.594406622551896e-79,"46":-5.6016189647294976e-55,"47":-1.598168615407496e-31,"48":-1.0785162391469358e-45,"49":-3.372272233517503e-75,"50":-5.321441637168539e-32,"51":-2.2762345922745335e-78,"52":-1.325841820934545e-76,"53":-2.0325784874025247e-73,"54":-2.276909026183447e-31,"55":-1.640775954624061e-78,"56":3.116442256570042e-62,"57":-1.6105929550526832e-78,"58":-7.30537151732322e-55,"59":7.766675297515374e-33,"60":-1.162018752891315e-45,"61":-5.0309942344047456e-76,"62":-4.0197324523368095e-31,"63":1.7662664430860814e-78,"64":-1.484092725251755e-76,"65":-9.589421598884937e-74,"66":-4.441706066326212e-31,"67":3.461091439653354e-79,"68":3.7524998289236143e-62,"69":-1.9301948234091654e-77,"70":-1.422399141690006e-54,"71":-1.3652520978406224e-31,"72":-6.497485833186174e-45,"73":-1.4881427925619992e-76,"74":-5.327956951563582e-31,"75":1.3727714886610468e-78,"76":-1.5845057372666527e-76,"77":-1.9301430186192544e-73,"78":-9.168688136671276e-31,"79":1.5628856300831766e-78,"80":4.055212173030739e-62,"81":-1.9171127585339776e-77,"82":-5.30683832950617e-55,"83":-2.177450806136369e-31,"84":-9.456773248444295e-41,"85":-1.6352417729634853e-76,"86":-8.149783748909197e-32,"87":-3.1631818999653993e-78,"88":-1.4097107303806042e-76,"89":-2.3265690438591415e-73,"90":-7.625734222330027e-31,"91":2.609510346281961e-79,"92":4.123574872029998e-62,"93":2.0371556835777067e-76,"94":-3.731222158733965e-54,"95":-2.3370485640235887e-31,"96":-1.0706829381918752e-45,"97":-1.4738337690215522e-76,"98":-1.1207486527349878e-31,"99":-1.2680789634785034e-78,"100":-1.4263047694488078e-76,"101":-2.321784725377692e-73,"102":-1.4060540063151593e-31,"103":-2.497419121986653e-78,"104":3.6553893932368734e-62,"105":3.670070503542133e-79,"106":-5.918057883931351e-55,"107":-1.9307201720992547e-31,"108":-1.0750320734123334e-45,"109":-1.8173913598861706e-76,"110":-2.9939110594370804e-32,"111":-2.233116773448915e-78,"112":-1.4423965184110878e-76,"113":-2.3560505372764833e-73,"114":-2.3014026849046563e-31,"115":2.435041343757714e-79,"116":4.363418101521095e-62,"117":3.4081974191539326e-79,"118":-8.016847423632709e-55,"119":1.7665497480222867e-33,"120":-1.9907980725603284e-44,"121":-3.569649154896243e-76,"122":-5.3505758475259935e-31,"123":-8.300501603272623e-79,"124":-1.4627553094947195e-76,"125":-9.709387045898399e-74,"126":-4.337674432059457e-31,"127":-6.910028090159592e-66,"128":3.509793160366387e-62,"129":-1.8625980528487075e-77,"130":-1.8763049825665774e-54,"131":-2.6954621204383598e-31,"132":1.318418087047436e-44,"133":-2.580198293925009e-76,"134":-6.1050090929964285e-31,"135":6.420817617235956e-79,"136":-1.521132990050563e-76,"137":-1.2559929962369083e-65,"138":-8.068427202678785e-31,"139":-8.009735953568258e-66,"140":3.362141197052008e-62,"141":-1.97670958913735e-77,"142":-1.9147659418809875e-48,"143":-2.6594369841813877e-31,"144":-9.539112543817267e-41,"145":-6.098643782802554e-76,"146":-8.635192092522422e-32,"147":5.2123253350520404e-79,"148":-1.3779339746444612e-76,"149":-2.4526850394108476e-73,"150":-5.670699488836196e-31,"151":-2.3309339277219365e-78,"152":2.9051707960999293e-62,"153":-6.097857828933831e-77,"154":-5.4549060509174975e-48,"155":-1.5741345368687843e-31,"156":-1.0713499343090209e-45,"157":-6.598664400886444e-76,"158":-1.5011034924209738e-31,"159":-1.4277163001523076e-78,"160":-1.4040523569045352e-76,"161":-2.4563680787190434e-73,"162":-1.2377941494176352e-31,"163":-3.0896449104693334e-78,"164":2.5299487859331088e-62,"165":-3.186971946361074e-78,"166":2.817391751664258e-54,"167":-1.5281410357237586e-31,"168":-1.074028619814678e-45,"169":-6.650958617807154e-76,"170":-8.997271385948125e-32,"171":-3.8746145389015015e-78,"172":-1.411370948440229e-76,"173":-2.4489558326214048e-73,"174":-2.0201904060196715e-31,"175":-1.799218289270265e-78,"176":3.871517117208812e-62,"177":8.154351021222194e-80,"178":-2.8784028067584848e-55,"179":-5.4192803967755216e-33,"180":-1.1713967098816648e-45,"181":-3.866685729995945e-76,"182":-2.5319838787446554e-31,"183":-4.6155575597199576e-79,"184":-1.4214907277631752e-76,"185":-4.8438876487366265e-57,"186":-7.6805952272748625e-31,"187":5.050767771188878e-79,"188":3.3796295015733314e-62,"189":-2.128905080135138e-77,"190":-1.974681230699098e-54,"191":-7.71886345992241e-32,"192":-1.0245968399376659e-45,"193":-2.3802760439769487e-76,"194":-3.667359151542896e-31,"195":1.2520461757037732e-78,"196":-1.5211953037334538e-76,"197":-4.844200501557994e-57,"198":-9.895315480629496e-31,"199":-2.695293615826602e-78,"200":3.379734908237702e-62,"201":-1.731025217486114e-77,"202":-6.023198644631124e-55,"203":-1.886953410086904e-32,"204":-1.044652306938019e-45,"205":-1.3663609079524915e-76,"206":-1.7213267025058687e-31,"207":-5.235807796717536e-81,"208":-1.4173666105941803e-76,"209":-2.2351432422747544e-73,"210":-8.362516454953655e-31,"211":-1.5863042819295151e-78,"212":2.803781989967133e-62,"213":-2.5992903920562424e-76,"214":-1.473177399666334e-54,"215":-1.6058087708576898e-31,"216":-1.0695053631520642e-45,"217":-8.527224468908122e-77,"218":-1.5785230019923623e-31,"219":-6.519283143877588e-79,"220":-1.484727540532522e-76,"221":-2.2102859247515187e-73,"222":-5.772822976280474e-32,"223":-1.9059415225772045e-65,"224":2.229609534246096e-62,"225":9.56807512947287e-79,"226":-3.766226573084646e-55,"227":-3.0804737923454063e-32,"228":-1.076821371607699e-45,"229":1.1080090410131835e-76,"230":-1.6750034162713447e-31,"231":2.2582664687060466e-78,"232":-1.552934270183484e-76,"233":-3.4643117814698935e-65,"234":-1.1489661808234312e-31,"235":-2.209265742414203e-65,"236":3.4174759522070766e-62,"237":1.0785467903239683e-78,"238":-7.012471703252446e-55,"239":-1.0739410074121284e-31,"240":-1.1978750469806346e-45,"241":2.988022750140346e-76,"242":-3.0384202641069193e-31,"243":-7.974596349416501e-79,"244":-1.4530369156792895e-76,"245":-4.8311081706623427e-57,"246":-8.497910511358524e-31,"247":-6.049703859169153e-79,"248":4.725831913105035e-62,"249":-1.9044713087896562e-77,"250":-2.2352105288129094e-54,"251":-5.61727136721675e-32,"252":-1.0446991383607516e-45,"253":-2.5335741795501347e-76,"254":-3.191790632810308e-31,"255":-6.236989745955738e-79,"256":-1.4937723853150892e-76,"257":-4.833243597351218e-57,"258":-1.0097083338081667e-30,"259":3.586806881570472e-79,"260":4.5143618911703865e-62,"261":-1.8359290523846484e-77,"262":-6.935111777197793e-55,"263":-2.3124855628380578e-32,"264":-1.0409706569931655e-45,"265":-1.4485733003814806e-76,"266":-1.6100887772821951e-31,"267":-8.618201007020507e-79,"268":-1.3551090334312695e-76,"269":-1.8469474148126012e-73,"270":-8.935066797719242e-31,"271":-9.242354343608404e-79,"272":3.7481961052705627e-62,"273":-2.7300691744692696e-76,"274":-3.5051933116641775e-55,"275":-1.5526704452243043e-31,"276":-1.0682687351663449e-45,"277":-1.3200552537225121e-74,"278":-3.1044548522838985e-32,"279":3.808821804871644e-78,"280":-1.4656826345314803e-76,"281":-1.0137439807080588e-73,"282":-6.256705793086321e-32,"283":2.56070529728449e-78,"284":2.8675323830132024e-62,"285":-1.1916368438389246e-78,"286":-3.620212554245577e-55,"287":-3.354125987562778e-33,"288":-1.0761008982362935e-45,"289":1.402489727144378e-75,"290":-5.274256697732349e-32,"291":4.2794964433202594e-79,"292":-1.5167165579993437e-76,"293":-1.738476831018505e-73,"294":-6.123990500384081e-32,"295":-1.4384696991891296e-78,"296":3.788462943674963e-62,"297":-4.088013962249603e-79,"298":-6.387170863582762e-55,"299":-1.310837228252272e-32}},{"sx":5,"sy":5,"depth":12,"w":{"0":-8.290705216674921e-49,"1":-1.202822001151091e-75,"2":-3.9967261161161565e-47,"3":5.175591554591544e-80,"4":1.912243282069241e-77,"5":-4.882663180373987e-74,"6":-2.7711748188484884e-47,"7":-1.116319074451626e-78,"8":1.0359715236396398e-61,"9":3.459948169302911e-67,"10":3.124764771508108e-64,"11":-2.8413433531681e-47,"12":-1.1754051686627441e-48,"13":-1.2219723979379794e-76,"14":-3.4284111072536077e-47,"15":8.067459682042255e-79,"16":1.2147164160399375e-76,"17":4.264124843727544e-74,"18":-1.7707687327203776e-47,"19":1.4549175797139872e-75,"20":1.0598044727959221e-61,"21":1.6469171977797403e-67,"22":2.438969688790575e-49,"23":1.8524171941002105e-48,"24":-1.2796887072369273e-48,"25":-1.9840591320949847e-73,"26":-2.0750306203761571e-47,"27":-2.390082906390712e-78,"28":2.3104302347214983e-76,"29":-3.3706230396947365e-74,"30":-7.395318618264047e-48,"31":-2.7327127076651433e-78,"32":1.0555500779376592e-61,"33":8.644905072742604e-67,"34":8.416781302899544e-50,"35":1.7323258538406515e-48,"36":-1.2767509695938798e-48,"37":-2.379657421882021e-76,"38":-2.312856142815778e-47,"39":-4.648519135908399e-78,"40":3.102456052517426e-76,"41":-7.386592834455729e-74,"42":-4.2791834899254043e-48,"43":-1.614268967055301e-78,"44":1.0194717132166552e-61,"45":-2.7180226395622e-69,"46":8.649739281337578e-50,"47":-1.3436692722911372e-47,"48":-1.2308903843975897e-48,"49":-4.9156156013005845e-74,"50":-1.9470232162574072e-47,"51":-4.127035863608491e-78,"52":2.0381778705992784e-76,"53":-1.367832263356821e-73,"54":-7.590782143765455e-48,"55":1.2955070272271829e-78,"56":1.0805191348081991e-61,"57":-1.5099712333601444e-69,"58":5.143822246519467e-50,"59":-1.9627131316777245e-48,"60":-7.818275028764003e-49,"61":2.194160637792695e-75,"62":-3.8831062411633256e-47,"63":5.824887691776874e-79,"64":4.323883862177644e-77,"65":-5.703315144272217e-74,"66":-1.797410504470527e-47,"67":2.706767278736496e-78,"68":1.1146054191204258e-61,"69":2.9609904968010574e-67,"70":2.95079529531503e-64,"71":-1.7556511740447947e-47,"72":-1.2026549222073195e-48,"73":-9.97951836963963e-74,"74":-4.698669164166636e-47,"75":-4.8170818841026236e-79,"76":2.928810252643305e-76,"77":-1.1645249658713826e-73,"78":-2.6468098888645306e-48,"79":9.849097692108978e-78,"80":1.1680588044038353e-61,"81":-1.8934962998315638e-69,"82":2.355854956957187e-49,"83":5.793470884659249e-48,"84":-1.318556751406091e-48,"85":-4.462381786579725e-73,"86":-3.992662240304497e-47,"87":-4.161163423777012e-79,"88":2.93063943868565e-76,"89":5.234304706666476e-73,"90":-1.9852237726249196e-48,"91":2.1401555581738764e-72,"92":1.1774888912361368e-61,"93":8.710447470660343e-67,"94":1.1005079110339573e-49,"95":-4.7721200080360077e-48,"96":-1.3226764349025311e-48,"97":-1.0986895278993172e-73,"98":-6.019689253675789e-47,"99":-1.1644644968028026e-78,"100":2.584316848073828e-76,"101":-1.0905271380928598e-73,"102":-4.1815059165999764e-48,"103":-8.553958367180464e-78,"104":1.1297514689207436e-61,"105":-4.088943403453162e-69,"106":7.241045176441842e-50,"107":-1.5412755626246153e-47,"108":-1.290909796919848e-48,"109":-1.3990010498332648e-73,"110":-5.226557983919044e-47,"111":-1.3124066805842639e-79,"112":2.1346575089699778e-76,"113":-9.662976824167929e-74,"114":-8.016331931868507e-48,"115":-7.579795248042671e-78,"116":1.1613161025906507e-61,"117":-1.967962402221777e-69,"118":5.887631674204838e-50,"119":-2.81458170308956e-47,"120":-8.216192105345874e-49,"121":-1.187396575552818e-72,"122":-2.9391156482461776e-47,"123":-2.1709067958905623e-78,"124":-2.0803258418530257e-76,"125":-3.122926266127397e-60,"126":-1.4782985154895369e-47,"127":-1.131120472113263e-62,"128":1.1270041345008045e-61,"129":-6.743482245235534e-70,"130":3.034293693387429e-64,"131":-2.541113998360977e-47,"132":-1.2077486760920914e-48,"133":-9.805384965048532e-73,"134":-3.49790985125548e-47,"135":4.125201046806358e-80,"136":3.3294467793547093e-77,"137":-4.392365286141943e-57,"138":-2.0960013274612865e-48,"139":-1.4370237647703777e-62,"140":1.158308179491479e-61,"141":-1.755049178467925e-69,"142":2.32151473516446e-49,"143":5.011119652501284e-48,"144":-1.3117201100606e-48,"145":-3.1511729983180594e-73,"146":-3.5104228539723375e-47,"147":-1.7373967044212462e-78,"148":1.4445145721546694e-76,"149":-3.5023248219051096e-60,"150":-1.3044083930630627e-48,"151":-1.0216857839389677e-62,"152":1.2022158898425727e-61,"153":7.692137375609366e-67,"154":1.1533929179230395e-49,"155":-2.0214138205654625e-47,"156":-1.3143611799997976e-48,"157":-1.1648622503643555e-75,"158":-4.1999298553029796e-47,"159":8.277217386004267e-80,"160":-1.2167425448627877e-76,"161":-2.1575123272140245e-60,"162":-1.7770659390921445e-48,"163":-8.093576258047425e-63,"164":1.2001056991729458e-61,"165":-4.095539580748484e-69,"166":1.1441692924065646e-49,"167":-2.704836092360878e-47,"168":-1.2776308445920635e-48,"169":-8.768374445303187e-74,"170":-5.976268784587086e-47,"171":-1.5153395536801177e-78,"172":1.857354880386976e-76,"173":-2.71071031259188e-60,"174":-5.434177294985367e-48,"175":-3.651485869507064e-63,"176":1.2715422511734142e-61,"177":-1.9503684618731338e-69,"178":7.757921011090441e-50,"179":-3.0497689297069146e-47,"180":-9.025513721232566e-49,"181":-1.0585529569471751e-73,"182":-2.394634913371068e-47,"183":1.5064759096015767e-79,"184":-1.2608533075131816e-76,"185":-1.7912411467276515e-73,"186":-1.823499261317911e-47,"187":-6.152280158942823e-79,"188":1.1185123643677101e-61,"189":9.531553895896071e-68,"190":-8.03243046253309e-55,"191":-2.267100633583206e-47,"192":-1.2231400912964208e-48,"193":-4.981952733533724e-74,"194":-2.9563822347082033e-47,"195":7.641240729080433e-79,"196":2.6800403803166355e-76,"197":-1.77127941163824e-73,"198":-4.606412840030407e-49,"199":2.739389907665753e-77,"200":1.1508051034532177e-61,"201":-1.2631150713217076e-69,"202":2.8093956603999746e-49,"203":6.42088696162226e-48,"204":-1.300583700475669e-48,"205":-2.2260560681689918e-73,"206":-2.6040967606763165e-47,"207":2.6191904629898736e-78,"208":1.504371487400959e-76,"209":-1.0078832543652769e-73,"210":3.772428946527317e-48,"211":-1.7012512972664256e-76,"212":1.178503034599294e-61,"213":5.685756929654936e-67,"214":1.522177753145036e-49,"215":-1.8420549756424608e-47,"216":-1.3031397908322407e-48,"217":-1.0766043454507162e-73,"218":-2.7918119821470007e-47,"219":-3.5455180853949074e-79,"220":8.588632355230993e-77,"221":-3.749132241767837e-74,"222":2.761826930850804e-48,"223":-4.503792253820201e-78,"224":1.1846349819705859e-61,"225":-3.361751206821915e-69,"226":1.6040290013579433e-49,"227":-3.59755420791656e-47,"228":-1.2669870596169273e-48,"229":-1.5179300940623175e-73,"230":-2.452717158721543e-47,"231":-2.5124497665000137e-78,"232":1.9623271840017592e-76,"233":-1.8132831471144485e-73,"234":4.764835345784086e-48,"235":-5.2371132097552105e-78,"236":1.2702590412151008e-61,"237":-1.7677113358897746e-69,"238":1.160188965817382e-49,"239":-3.4324878001310385e-47,"240":-9.389344834039152e-49,"241":-1.0976656499884808e-73,"242":-1.9819354540550105e-47,"243":-3.913463716547359e-78,"244":3.2701881890596706e-77,"245":8.179204315021172e-75,"246":-3.6035503734342975e-47,"247":-1.120939193147398e-79,"248":1.0832099781468078e-61,"249":9.300901289498045e-68,"250":-8.03215160159109e-55,"251":-2.131382911269102e-47,"252":-1.2141628387425504e-48,"253":-8.642584491475954e-74,"254":-2.563451015231706e-47,"255":-2.8666842307080126e-78,"256":3.7509618463945506e-76,"257":-4.030622066239463e-57,"258":-1.3474523426300816e-47,"259":-8.337357520564841e-75,"260":1.1017742131375272e-61,"261":-9.020051645163947e-70,"262":2.3475612038532813e-49,"263":7.259033468626846e-49,"264":-1.2965755780169616e-48,"265":-3.426545412687497e-73,"266":-2.1047659560287684e-47,"267":2.375757732557252e-79,"268":3.563271777539508e-76,"269":2.528610008219047e-74,"270":-2.3799877982579856e-48,"271":-2.2262233635259177e-76,"272":1.0968603036756152e-61,"273":5.0717145969072894e-67,"274":1.0157666035706468e-49,"275":-1.27897450249745e-47,"276":-1.2994629593134894e-48,"277":-8.981631003054323e-75,"278":-1.9672109822403675e-47,"279":4.8787416483978554e-79,"280":2.4945857236842056e-76,"281":-8.483775559379102e-74,"282":-2.0161102510872555e-48,"283":-2.7053843042627083e-78,"284":1.0452754785994772e-61,"285":-1.8341409519377747e-69,"286":1.2225606726545704e-49,"287":-1.054638945877016e-47,"288":-1.278829101780939e-48,"289":-3.302963565792329e-74,"290":-2.498951207575644e-47,"291":-8.284827302116605e-79,"292":9.564753452502074e-77,"293":-1.1119002880236458e-73,"294":2.87203544717297e-49,"295":-5.854963393285815e-79,"296":1.1170745238496547e-61,"297":-1.0045481928227041e-69,"298":1.0975401159750032e-49,"299":-1.5276892910197376e-47}},{"sx":5,"sy":5,"depth":12,"w":{"0":1.2723106358175925e-25,"1":3.710239592818571e-74,"2":-0.0000024358683043656684,"3":-1.3350862763587665e-76,"4":9.13584950165401e-76,"5":-7.488041619353269e-54,"6":-0.07050207555673872,"7":8.764363403669084e-55,"8":-4.9354128534550593e-54,"9":7.174805633937995e-64,"10":-5.788032446884091e-39,"11":-0.28391666541946203,"12":1.8924508111175401e-25,"13":5.399816540655821e-73,"14":-2.0744128410396234e-7,"15":-1.0502021632671895e-76,"16":8.787603141725605e-76,"17":-2.157756151098419e-53,"18":-0.07396833683403832,"19":-2.2816468784161706e-53,"20":-2.057623948643865e-54,"21":-2.4283635323442294e-64,"22":1.1306243938159518e-38,"23":-0.08765379857710674,"24":9.68691932209443e-26,"25":3.232713765393008e-73,"26":-1.093839676267977e-7,"27":-3.8040624996729395e-77,"28":1.1097290924608404e-76,"29":-2.76992072879861e-53,"30":0.0346407093183801,"31":-1.051216045985821e-53,"32":1.434730219883652e-54,"33":-1.257680085403891e-64,"34":1.2870348186147325e-38,"35":0.1416982884867073,"36":1.1866638279281764e-25,"37":2.1411357356886544e-72,"38":-0.0000014431440172282516,"39":-4.364464554336539e-77,"40":-7.846747128538776e-76,"41":-5.035659168588394e-53,"42":0.19302097448421293,"43":-3.6195471496599188e-53,"44":-1.2487119552885679e-54,"45":-2.82844788002812e-64,"46":1.407646308254667e-38,"47":0.1866069338193404,"48":1.3570437707001592e-25,"49":2.049372269388581e-72,"50":-0.000001878512313876731,"51":-4.705928898303901e-77,"52":-9.207103625636957e-76,"53":-2.129989951143318e-53,"54":0.24627088140195905,"55":-5.584000844106433e-53,"56":4.8937579652309236e-55,"57":1.9829330172321043e-64,"58":2.4052066734769063e-38,"59":0.025359895240734683,"60":1.0785867831667388e-25,"61":9.620664651329621e-73,"62":-0.0000016125630582865077,"63":-7.466920741072303e-77,"64":-4.3627052375084e-76,"65":-2.5678743072980604e-53,"66":-0.005603805777062737,"67":-2.832593653455543e-53,"68":4.4815732636581626e-54,"69":8.107598005626716e-64,"70":6.439303987379226e-40,"71":-0.0691063535041035,"72":1.793590797806902e-25,"73":-6.270179997571181e-73,"74":-0.0000023319428273265406,"75":-4.552411475800572e-77,"76":8.036301628368877e-76,"77":-3.9716903510269866e-53,"78":-0.014447541607884484,"79":-2.1973232921128907e-53,"80":-1.776851578698652e-54,"81":8.031013859696738e-64,"82":7.284265572247667e-39,"83":0.007608223018199136,"84":9.038586174469333e-26,"85":-2.744904309772152e-72,"86":0.00000218851730890789,"87":-3.492517702400266e-77,"88":-4.0652810724620285e-76,"89":-5.274391979401025e-53,"90":-0.04289454243212027,"91":6.9588339350753e-54,"92":-7.613652466628811e-55,"93":1.6414363881160692e-65,"94":9.63813919168672e-39,"95":-0.057289418448305644,"96":1.0973014174319647e-25,"97":-1.57936270419496e-72,"98":-0.0000022518945434076848,"99":-7.36998877550749e-77,"100":-1.2161971216946556e-75,"101":-1.6594579378178247e-53,"102":0.07213937556937361,"103":-3.027535027570191e-53,"104":-1.720453289805082e-54,"105":1.0727273332236819e-65,"106":1.4443949252331147e-38,"107":0.07029114024197207,"108":1.019285478016259e-25,"109":8.489951997321476e-73,"110":1.3506868174005648e-7,"111":-5.651850030103678e-77,"112":-1.372671558117433e-75,"113":-3.1414407259062503e-53,"114":0.1800978788379795,"115":-2.4842957167808426e-53,"116":-1.3407752012353123e-54,"117":1.6783368296688194e-64,"118":2.147592365772851e-38,"119":0.21066052556657183,"120":6.481326584701611e-26,"121":1.247422295045512e-72,"122":-7.524662335344856e-7,"123":-6.651929278842204e-77,"124":8.905183419437004e-76,