{"layers":[{"out_depth":3,"out_sx":28,"out_sy":28,"layer_type":"input"},{"sx":3,"sy":3,"stride":1,"in_depth":3,"out_depth":12,"out_sx":28,"out_sy":28,"layer_type":"conv","l1_decay_mul":0,"l2_decay_mul":1,"pad":1,"filters":[{"sx":3,"sy":3,"depth":3,"w":{"0":0.014933520639298448,"1":0.17240730553637654,"2":0.1918480228997838,"3":0.030676582944904614,"4":0.05772318996627346,"5":-0.045979106612256064,"6":-0.04375413801358453,"7":0.09032685720044238,"8":0.041055350179091586,"9":-0.15278631315736263,"10":-0.3240270810683362,"11":-0.3131899314123181,"12":-0.08279736926365344,"13":-0.18673720682165607,"14":-0.08721627409148014,"15":0.06992914925393905,"16":0.0735440189331116,"17":-0.08499328113251481,"18":-0.021825637778061336,"19":0.05298522309462671,"20":0.15933378186274208,"21":-0.01807526704289379,"22":-0.19652865205477021,"23":-0.13367582185875945,"24":-0.16579240294750772,"25":0.10290501692632506,"26":-0.07677237037454293}},{"sx":3,"sy":3,"depth":3,"w":{"0":-0.014832521107676008,"1":0.09200860405487445,"2":-0.07489385680194122,"3":-0.014275601348869647,"4":-0.12797052309999163,"5":-0.0377006188556834,"6":-0.02924546280877535,"7":-0.15022808589726133,"8":-0.020346540940361913,"9":-0.06888741244561022,"10":0.16117026306795917,"11":0.02999034151751064,"12":-0.0720261041701343,"13":0.23099151077839597,"14":-0.11729942499152064,"15":-0.07573067526702872,"16":0.13672025746365782,"17":0.22986054234330663,"18":0.019907822001637404,"19":-0.21270544724383186,"20":-0.05333201009394796,"21":0.09056492071069525,"22":0.035791222812400755,"23":0.2084335616657339,"24":0.09860802835301548,"25":0.039899068486741116,"26":0.10191941382798504}},{"sx":3,"sy":3,"depth":3,"w":{"0":0.0449174725294963,"1":0.10769538984983872,"2":0.16600743508713606,"3":-0.00997659743849028,"4":0.16372182604910177,"5":-0.18590824207796658,"6":0.17944942806196557,"7":0.11293266564362288,"8":-0.04707822435943321,"9":-0.15340556860436144,"10":-0.2050455925182799,"11":0.03295519444158604,"12":0.0265260016392071,"13":-0.09266755876320888,"14":-0.05184387592598939,"15":0.13466415620755562,"16":0.006211082180377808,"17":0.07653716701891493,"18":-0.008445169853507873,"19":-0.06204572153839365,"20":-0.2093113434377044,"21":-0.15702468410964834,"22":-0.17798160300902338,"23":0.13537047048166834,"24":-0.15665295108668137,"25":0.20628140936609285,"26":0.23400592168303896}},{"sx":3,"sy":3,"depth":3,"w":{"0":-0.0643087480204274,"1":-0.341897159511891,"2":-0.4089321283459111,"3":0.20775307573988855,"4":0.006460137153751819,"5":-0.22476791153205822,"6":0.09024722786502241,"7":-0.08984541058368735,"8":-0.13233395554961638,"9":0.09850426422913187,"10":-0.16217006471512924,"11":-0.051709980194472364,"12":-0.11177381890780788,"13":-0.10570637145532398,"14":0.11988437698266947,"15":-0.1205758080332635,"16":0.09459945233992255,"17":0.0475933492060476,"18":-0.12930732369863324,"19":0.036889392819167754,"20":-0.03399004575508767,"21":-0.04575133622891684,"22":-0.14568379755230745,"23":0.11494457478705153,"24":0.05245098332546832,"25":0.060536265281554154,"26":0.07811346317530561}},{"sx":3,"sy":3,"depth":3,"w":{"0":0.0006849679304234813,"1":-0.07802246681448044,"2":-0.00249390059083728,"3":-0.010033528570839622,"4":-0.20401808260139276,"5":0.28117551810200614,"6":-0.08416968121729224,"7":-0.30633728357245577,"8":0.03076112652713611,"9":0.15794457620174976,"10":-0.07221518218459096,"11":-0.10163503973299187,"12":-0.027454362215738496,"13":-0.0798090941711528,"14":0.10203697214091827,"15":0.14007236016265845,"16":-0.14400706007393804,"17":-0.018852872162933798,"18":0.07809767517471572,"19":-0.046048676776594515,"20":0.0334301853010905,"21":-0.2237825160922724,"22":0.03555001129991309,"23":0.03631211219116602,"24":0.0976797220775078,"25":0.20138277176784652,"26":-0.04564187785901523}},{"sx":3,"sy":3,"depth":3,"w":{"0":0.010821867398661781,"1":0.22579964533903227,"2":-0.04627590525533155,"3":-0.11154216268972844,"4":-0.24166264551478414,"5":0.120441013567357,"6":-0.18972284291347696,"7":0.18229076259055912,"8":-0.15526098185784928,"9":0.1530716623402774,"10":0.03974271215163703,"11":0.13654984066678855,"12":-0.056826692919274766,"13":0.0644832989983408,"14":0.08733608784962857,"15":-0.13245352016511602,"16":0.13947922252841607,"17":-0.03814473330306273,"18":0.07505943347090316,"19":-0.082933444386316,"20":-0.04546620421544315,"21":-0.26215887756535566,"22":-0.17619587308213827,"23":0.11090424652680891,"24":-0.0799898337749912,"25":0.03036661594112063,"26":-0.014976380763674526}},{"sx":3,"sy":3,"depth":3,"w":{"0":0.08075333733609116,"1":0.07635308913566892,"2":-0.00928715009314786,"3":-0.025834060803756075,"4":0.15509365243474385,"5":-0.06494219136728835,"6":0.05004512798752959,"7":0.14333788323168778,"8":-0.16967480912561367,"9":0.05215495990190981,"10":0.09292107677117131,"11":0.04696957451183088,"12":0.008321340858000197,"13":0.1820135398633391,"14":-0.04322908029526542,"15":-0.05302722966949292,"16":0.25981919093412775,"17":-0.05251088061686476,"18":0.08265973727754851,"19":0.04287678112229728,"20":-0.11133883026624285,"21":-0.10921042078496841,"22":0.11948732539694801,"23":-0.11350672671918524,"24":-0.05695096455208684,"25":-0.10828336925944335,"26":0.14872400210711242}},{"sx":3,"sy":3,"depth":3,"w":{"0":-0.10591413383829594,"1":0.1624094100770874,"2":0.026561530643509225,"3":-0.0022625375775574452,"4":-0.07328783617104984,"5":-0.0904208985766504,"6":-0.11935703066226909,"7":0.2103354625738822,"8":0.08510464621569544,"9":-0.004999434510311817,"10":-0.2030465554169443,"11":0.034996531506784896,"12":-0.07071863011599851,"13":0.023118264695276114,"14":-0.043699009994858255,"15":-0.03482030190467083,"16":-0.10274699890673623,"17":0.016457834646753985,"18":-0.11429489743849822,"19":0.08557376699959955,"20":-0.1377383853507112,"21":-0.005053031318613909,"22":0.18543606636922802,"23":-0.048639892319425865,"24":-0.012948656709427997,"25":-0.07276158710145306,"26":-0.08941081021515329}},{"sx":3,"sy":3,"depth":3,"w":{"0":-0.13421752869237308,"1":-0.20213841145388192,"2":-0.31473752683309963,"3":-0.032186875411936884,"4":-0.23350230763561694,"5":0.12104063112911419,"6":0.07078828650731828,"7":0.05974517551918158,"8":0.09823248799368109,"9":0.007900680549394572,"10":-0.1578349000969877,"11":-0.19420646506161512,"12":-0.06990640106449716,"13":0.15784184075834615,"14":0.004105063440448836,"15":0.09384186742885307,"16":0.007881615118523679,"17":-0.13610294873385315,"18":-0.03635202819413999,"19":0.16633678531466528,"20":0.08068283680665306,"21":-0.09305295198196807,"22":0.07906071768029538,"23":0.12834338743250315,"24":-0.022332759015939257,"25":0.03498032593175525,"26":-0.0872225471958402}},{"sx":3,"sy":3,"depth":3,"w":{"0":-0.08596956176508987,"1":-0.13587331569564817,"2":0.26119545891223855,"3":-0.12474611055227956,"4":0.08006784579318514,"5":-0.05571045638064407,"6":-0.029119370444511017,"7":0.0665985035924258,"8":0.025122498670611036,"9":-0.15874597198289042,"10":-0.14117829834770182,"11":0.1142069453414855,"12":-0.06926079066390975,"13":-0.10616202111015598,"14":-0.11970216997407379,"15":-0.29013128700210933,"16":-0.10475275453217837,"17":0.15429131111442396,"18":-0.0008690012376673628,"19":-0.11311469408970048,"20":0.17307487663621135,"21":-0.05996508237626072,"22":-0.12383696514961866,"23":-0.06861935960921571,"24":-0.06795860798149933,"25":0.13463660131346022,"26":-0.08375182942193804}},{"sx":3,"sy":3,"depth":3,"w":{"0":0.27639382839798976,"1":0.030698974417077585,"2":-0.3932916891646448,"3":0.12389086066589688,"4":0.002637656951841369,"5":-0.32986824616527805,"6":0.033404181197816546,"7":0.14389870998948154,"8":-0.05856304326256899,"9":-0.028799915445136635,"10":-0.008335117520150655,"11":0.07764751288468803,"12":-0.05518690691937778,"13":0.153143432995034,"14":-0.22515642968758726,"15":0.19100522363804395,"16":0.18425961497456184,"17":-0.42007773588530267,"18":-0.15361867462486029,"19":0.215418607896225,"20":-0.06746581777592119,"21":0.07753667218556146,"22":0.015126279708074728,"23":-0.1707392189366105,"24":-0.04963385038201117,"25":0.18950913710678657,"26":-0.012648211925533448}},{"sx":3,"sy":3,"depth":3,"w":{"0":-0.27019172509775413,"1":0.02692527646745367,"2":-0.23850556784909682,"3":0.04627431367249618,"4":-0.06833420499225146,"5":0.11663541615037575,"6":-0.118612342998289,"7":0.162718474549739,"8":0.22460802241481087,"9":-0.13233748686027916,"10":-0.0009885920882051463,"11":-0.312845216807437,"12":-0.12921166642586354,"13":-0.20766970294839074,"14":-0.2938169299021796,"15":-0.21242273079680854,"16":-0.28674486250925596,"17":-0.14365166470299184,"18":0.012027901459752405,"19":-0.10769452593726153,"20":0.05379683616459999,"21":0.010617475568962996,"22":0.11984488474131556,"23":0.06140881889013698,"24":0.27241498046458335,"25":0.1449603886153257,"26":-0.003249074237136652}}],"biases":{"sx":1,"sy":1,"depth":12,"w":{"0":0.1117534125947103,"1":-0.1302955083944085,"2":0.05466446119729345,"3":0.02367197682176924,"4":0.024858616990481548,"5":0.10356672729065101,"6":-0.2674458524238856,"7":0.05591254586309301,"8":0.1055316581104063,"9":0.06574384737640741,"10":0.07947861587355119,"11":0.05942711991003984}}},{"out_depth":12,"out_sx":28,"out_sy":28,"layer_type":"relu"},{"sx":2,"sy":2,"stride":2,"in_depth":12,"out_depth":12,"out_sx":14,"out_sy":14,"layer_type":"pool","pad":0},{"sx":5,"sy":5,"stride":1,"in_depth":12,"out_depth":18,"out_sx":14,"out_sy":14,"layer_type":"conv","l1_decay_mul":0,"l2_decay_mul":1,"pad":2,"filters":[{"sx":5,"sy":5,"depth":12,"w":{"0":0.053614187221928886,"1":-0.029748548555267755,"2":-0.009083653878327849,"3":0.008764498559181816,"4":0.04486986764324568,"5":0.10527580216005826,"6":-0.12756886158681552,"7":0.028131654429413497,"8":-0.07905689344139198,"9":0.07610559883043348,"10":0.1561642465846376,"11":-0.056420828152471465,"12":-0.007553297234291425,"13":0.05628373154527255,"14":0.12932483645987,"15":-0.05135356536020475,"16":-0.028479382180182884,"17":-0.07390798327569462,"18":0.12036737003164855,"19":-0.002974987328947473,"20":-0.012421436067237607,"21":0.05031657364530763,"22":0.10155665900708112,"23":-0.08622281223108477,"24":0.010929515476976544,"25":-0.012991748158048133,"26":0.07394271807240617,"27":0.07774136584290843,"28":-0.08954735558838775,"29":0.08686430560737335,"30":0.04685291803643334,"31":0.025896854308625882,"32":0.03863279387614679,"33":-0.033094964313876214,"34":-0.10313893863002292,"35":-0.03588512927787376,"36":0.019765656912547017,"37":-0.06789874478087604,"38":-0.07556032363226538,"39":-0.031203015223232298,"40":-0.17256122596410411,"41":0.00743906491996531,"42":0.020780547393518627,"43":0.022628608716932872,"44":-0.013514956772932728,"45":-0.05650075955686409,"46":-0.008748815717481772,"47":-0.04116926763888831,"48":0.01480042154120103,"49":-0.03246159675749207,"50":0.12690287542491577,"51":-0.012952737754288653,"52":-0.11530725697681278,"53":0.03836219700823252,"54":-0.08817587731475075,"55":-0.021562579650782832,"56":-0.07688089661708448,"57":0.005790977050443297,"58":-0.15107519456307208,"59":0.07032668799104669,"60":-0.09603704881131356,"61":-0.007660455283614994,"62":0.0028909435840022714,"63":0.009602147500331844,"64":0.0848996903745379,"65":0.15689509864865617,"66":-0.21508797495161933,"67":0.013668883166040225,"68":0.021802925662871748,"69":0.03251966743631941,"70":0.10760795785177135,"71":0.014787821919195279,"72":-0.04380485110554666,"73":0.09787603059099811,"74":0.12651981795948927,"75":-0.011856150653170196,"76":0.10947115441795706,"77":0.005271723251182434,"78":-0.03740436531067482,"79":-0.01900546244289638,"80":-0.017211885769912467,"81":0.07473836839841819,"82":0.09481739793624885,"83":-0.09824907730935606,"84":-0.08843015327470033,"85":0.050264792237667666,"86":0.09732346931553432,"87":0.009430138822887298,"88":0.1124726604778006,"89":0.13032239908715126,"90":0.04480577951626788,"91":-0.032619798504011276,"92":0.07584069558893447,"93":0.03697317142705165,"94":0.029995250079681953,"95":-0.057129506754306274,"96":0.017419265506110868,"97":-0.01869942797239448,"98":-0.020157082233166805,"99":-0.01675579381126165,"100":0.15057180462514672,"101":0.027151670618154447,"102":-0.10755208266965591,"103":-0.0520058618344608,"104":-0.002099797152031109,"105":0.038535481034392756,"106":0.040743435087240036,"107":-0.10325860202097886,"108":-0.0014584195841732819,"109":-0.10016897388150105,"110":0.01060568284101303,"111":-0.024917685481472822,"112":-0.02873885245010149,"113":-0.01939233539166802,"114":-0.2257812984139306,"115":0.03336724886531748,"116":0.021534451560857898,"117":-0.07239487770806939,"118":-0.14469390308711444,"119":-0.10005223669986232,"120":0.04118801476558536,"121":-0.017194828099666697,"122":-0.18202012849486757,"123":-0.014748284277759264,"124":0.12173939947078101,"125":0.04364848122877964,"126":-0.03741396315727048,"127":0.05210315311048411,"128":0.04573187328494033,"129":0.023001805885809676,"130":0.055591069731948745,"131":-0.07090614636616321,"132":-0.0037612744696246068,"133":-0.022664706430769455,"134":-0.10375484486607972,"135":0.018294633624664425,"136":0.13435039689954467,"137":0.12128379971901071,"138":0.01044988561753467,"139":0.05400331189508697,"140":0.07267460854549009,"141":0.01905507057010383,"142":0.12818524787322247,"143":0.11774627785070238,"144":-0.05790709557776239,"145":-0.03814940389899709,"146":0.031622797636808794,"147":0.06587214928276607,"148":0.06029142704849565,"149":0.08751064608830118,"150":-0.014595796921002414,"151":0.005196733188829767,"152":-0.022453166454773892,"153":-0.039549198075630954,"154":0.1333411389094731,"155":0.020731517130230345,"156":-0.0989905230283928,"157":0.09167946279908366,"158":0.0930998847287073,"159":0.04769834875220736,"160":0.04337034572788912,"161":-0.15359156881347039,"162":-0.0745507062583658,"163":-0.0020335324795028088,"164":0.09049910652200847,"165":-0.0028016336092562674,"166":-0.0557634395980392,"167":0.09617620540481964,"168":-0.038450851525825495,"169":-0.07639543515375749,"170":0.03105009314569609,"171":0.02818268152315477,"172":-0.018996682869212668,"173":-0.04254357156869246,"174":-0.05613097131893593,"175":-0.010604409248377999,"176":0.10224163421239557,"177":-0.0504839218463524,"178":0.042950328308314197,"179":0.030054928924936882,"180":0.025297990355619932,"181":0.006139042759355439,"182":-0.06757869438633367,"183":0.036281983209939986,"184":-0.022929407440122358,"185":0.039613707541883224,"186":0.10261811506206314,"187":-0.05937205037844795,"188":0.053542694196311844,"189":0.01649084766623605,"190":0.029770675230121346,"191":0.036553136959123766,"192":-0.012604558102369458,"193":-0.0213886031710966,"194":-0.045510207511862355,"195":0.03964456942516072,"196":0.1402044522099233,"197":0.05121612253785544,"198":-0.1446509825454433,"199":-0.05659414697342374,"200":0.04622625976980939,"201":0.05855960699544432,"202":0.07626280236830002,"203":-0.0437613270633731,"204":-0.039462425944469075,"205":-0.020536664978048576,"206":0.053198554368191354,"207":0.07168617721401911,"208":0.027317932173752068,"209":-0.03819199549053885,"210":-0.10557906598780376,"211":0.042769905220458954,"212":-0.09989336941065687,"213":0.02074850995183435,"214":0.12595643037745674,"215":-0.005548185816922121,"216":-0.03454707726961749,"217":0.006567792059296771,"218":0.16970306025094084,"219":0.07504238102535171,"220":-0.016793866798711917,"221":-0.06238909854607127,"222":-0.07477706414361554,"223":0.008826679100477354,"224":-0.03167691875042347,"225":-0.030683070335715778,"226":-0.012718382499884264,"227":0.023218071153048934,"228":-0.07041212354373368,"229":0.02123714833530172,"230":-0.08278260300877256,"231":0.037848788819960844,"232":-0.02341981669742735,"233":0.041909150407271965,"234":-0.007361608084372204,"235":-0.025222640467399575,"236":0.05077130442756385,"237":-0.04527817891198905,"238":-0.07308623680922617,"239":0.04952226420022013,"240":-0.07278975834754087,"241":-0.02214056742802831,"242":0.07083458428734503,"243":-0.027066632714021616,"244":0.06425302483494791,"245":-0.017044585244213983,"246":0.07905625404440343,"247":-0.030410445178329446,"248":0.07512162063512572,"249":-0.09989663617026609,"250":0.005053246628615353,"251":-0.006901475832940116,"252":0.04442528767221348,"253":0.11399995976562156,"254":-0.011807728011228303,"255":0.03957654102026108,"256":0.2492458550729787,"257":-0.13415932433589933,"258":0.014042582810746876,"259":-0.029068417217826305,"260":0.12059963048766563,"261":-0.02608235213449261,"262":0.06888919009225464,"263":0.02498427117534025,"264":0.025619135684363237,"265":0.02863200345191109,"266":-0.018937418265592934,"267":-0.01144032822248709,"268":0.15333066833223066,"269":-0.006946316818740809,"270":-0.0613747408171323,"271":-0.035851519451475716,"272":0.020246732593427262,"273":-0.047742058457339476,"274":-0.028965096802280803,"275":-0.07476735454403391,"276":0.01632492421274232,"277":0.034225982731733696,"278":0.019595097545558816,"279":-0.01766887843369911,"280":-0.06240369273577605,"281":-0.11601272767256313,"282":0.07107037062482645,"283":0.03638204923570944,"284":0.012259634941284035,"285":0.03379279679038858,"286":-0.09594134073679939,"287":0.02545298608485494,"288":0.03831031788431572,"289":-0.02234816066458853,"290":-0.08821265352643608,"291":0.012347498109513948,"292":-0.10364288623901123,"293":-0.11569255836317527,"294":-0.011665551910308006,"295":-0.028654005178082143,"296":0.04767870795930128,"297":-0.09956817321390174,"298":-0.07455799912046347,"299":0.09983204143118252}},{"sx":5,"sy":5,"depth":12,"w":{"0":-0.030730546066385287,"1":0.019896724177958153,"2":-0.0029665293646450332,"3":-0.0027222964111195415,"4":0.009327115796695916,"5":0.012975130811584287,"6":-0.016110539569165614,"7":0.027682591420888154,"8":-0.007201744477157421,"9":-0.013449529282787693,"10":-0.00017022526477421314,"11":0.013371612185654913,"12":0.024447755892932292,"13":0.0006807233751386844,"14":-0.02904035409245187,"15":-0.03273972968428811,"16":-0.01692524984029126,"17":-0.006968561204574891,"18":0.011013772647551923,"19":0.045006059622020755,"20":-0.04125598880567366,"21":-0.05684148211745612,"22":-0.003615770350203946,"23":0.027069502398440925,"24":0.004901107792374565,"25":-0.03396502244879907,"26":-0.028083799253989586,"27":0.005773132098583062,"28":0.013462303594932308,"29":-0.0124110282952064,"30":-0.000008862115349418715,"31":0.014591719930365296,"32":-0.002600917874886701,"33":0.01848994970854431,"34":0.03157233069931532,"35":0.03701873915753411,"36":0.019190846181149947,"37":-0.00734200670227212,"38":0.04001919792719533,"39":-0.01852326969878012,"40":-0.04966831942005482,"41":-0.030123178679968676,"42":-0.04164195898149763,"43":-0.02605501216093412,"44":0.01081940965007126,"45":-0.019281191766758375,"46":0.016718809278368045,"47":-0.005029958937542356,"48":0.017042274057267322,"49":-0.022699495780386526,"50":-0.03246854480725801,"51":0.0038923709341336563,"52":0.006454324825561271,"53":-0.01803826433041489,"54":0.02549293080007892,"55":-0.021944699034191748,"56":0.020788231640941728,"57":0.007469189309239591,"58":-0.01240786489992877,"59":-0.05203861751176317,"60":-0.016478781241365016,"61":-0.019249719770347833,"62":-0.003374530063142933,"63":-0.013979742801952896,"64":0.01598389270236855,"65":-0.0010725422381112624,"66":-0.022700789161681806,"67":-0.00048011300630655023,"68":0.039533631227854825,"69":0.007865743731785382,"70":0.019092794615369266,"71":0.017107694001186852,"72":0.0019948446989339146,"73":-0.021673699665694893,"74":-0.04706958981351389,"75":-0.01109199192479271,"76":0.020425968046521952,"77":0.010466786367009852,"78":-0.00955728838693951,"79":-0.0016921804286492597,"80":-0.004962063099194204,"81":-0.012296278334193927,"82":-0.013975371779457593,"83":-0.021416044023737587,"84":-0.005713427118790875,"85":-0.041593877764173275,"86":-0.003472222816687928,"87":-0.0046018592411565,"88":-0.004997619207652548,"89":-0.00004480853700384605,"90":-0.011786445496282619,"91":0.00791916093247025,"92":0.003970353093195158,"93":-0.021559069113432982,"94":-0.039477472704165545,"95":-0.009710108944200189,"96":-0.0154623530833077,"97":0.013379791726562961,"98":0.032211924208989065,"99":-0.027901026758467333,"100":0.00840566845999909,"101":-0.009892631645696216,"102":0.005241383304500434,"103":0.049003795436023005,"104":-0.020632792777206026,"105":0.0063280323093933685,"106":0.0006872967264760427,"107":-0.0010377983140339932,"108":-0.04019859509069651,"109":0.013568810038759267,"110":0.008021249799352892,"111":0.000978561071602532,"112":-0.029310432248794423,"113":-0.012478946931498786,"114":-0.00515001293637976,"115":-0.012157766672686759,"116":-0.031025165727758264,"117":0.017874246099515927,"118":-0.007471011647239855,"119":0.011243021654789465,"120":-0.0007972116361880888,"121":-0.02660461157535114,"122":-0.003761409370930866,"123":-0.006602412675419212,"124":0.03660964816491244,"125":-0.06601677623546608,"126":0.011233446399555671,"127":-0.0027390041174111175,"128":0.007439772194707005,"129":0.0023800375506451707,"130":-0.0177795635349824,"131":-0.0012460809154485868,"132":0.020039001437730172,"133":0.0015770207115683504,"134":-0.013954911173280878,"135":-0.03161153721617313,"136":-0.004689833720461769,"137":-0.014567116336405703,"138":0.01720996906449326,"139":-0.00443692873639247,"140":0.011861593949485912,"141":0.030581990662058356,"142":0.004127272131199156,"143":0.03271313714363338,"144":-0.022484759900765497,"145":-0.01970174123215547,"146":-0.028778328933332008,"147":-0.02517488274621641,"148":-0.024540817355955737,"149":-0.0317857331001889,"150":0.02565900191319181,"151":-0.028103892804687024,"152":-0.021452886889255725,"153":-0.003971440656852509,"154":-0.06102170438587374,"155":-0.050056746863451164,"156":0.017640984886798213,"157":0.00759616105893044,"158":-0.02137916988728846,"159":-0.010020047295570707,"160":-0.01625948723215127,"161":0.02579350773011972,"162":-0.02847026557435988,"163":-0.010291557410743302,"164":-0.03105702102821482,"165":-0.023869041206884253,"166":-0.03185052099823057,"167":0.006683382211965291,"168":-0.02406786827247401,"169":-0.0352713834900337,"170":0.018352964317527587,"171":-0.023436752730463764,"172":-0.03108833589464899,"173":0.018277297242276457,"174":-0.01548257618398047,"175":-0.029788076718699454,"176":-0.02457715427313648,"177":0.023783389647008806,"178":0.017658045475852892,"179":-0.020732099744128523,"180":-0.03913540295303497,"181":-0.0007752791188781216,"182":-0.04407597902583781,"183":-0.022321098927863114,"184":-0.03401553748111909,"185":-0.05409505266466351,"186":-0.02580291849340067,"187":0.02654642195101249,"188":0.019042101819607613,"189":-0.00835418608751627,"190":-0.007966842799424691,"191":-0.008153551843563346,"192":0.0048513153834996115,"193":-0.007248558096173393,"194":0.015580365039725447,"195":0.01872777885611274,"196":-0.006652960992483976,"197":-0.004714747517771864,"198":-0.0006416943901998266,"199":-0.059012199675137884,"200":-0.02664598534161914,"201":-0.01498487877140491,"202":0.02131511062560527,"203":-0.014880761208424013,"204":-0.000435026313280851,"205":-0.04579858616304694,"206":-0.02258134391171831,"207":-0.014287541936065387,"208":-0.02293925196736344,"209":0.006689827021375982,"210":-0.02294537827123101,"211":-0.023175106187584515,"212":-0.03334252149981297,"213":0.0459172182530731,"214":-0.030847192620794904,"215":0.014545326433800495,"216":0.029117492900659056,"217":0.03709835584960558,"218":0.0035772853615681794,"219":-0.03145728567833641,"220":-0.0011599897498007663,"221":0.004058879867412189,"222":-0.007623391993566431,"223":-0.027374754208729,"224":-0.009762241901953466,"225":-0.023896162766906745,"226":-0.038502516627257365,"227":-0.01896498179368553,"228":-0.0206499506916363,"229":-0.007379037410757427,"230":0.007592023790779305,"231":-0.04632874789650471,"232":-0.03213500808710221,"233":0.010610660901602615,"234":0.015976247611329777,"235":0.008346864244424868,"236":-0.015015889785168754,"237":0.012250510173301789,"238":-0.011311792887370622,"239":-0.014645967581822985,"240":-0.016574899258662144,"241":-0.030888672025017425,"242":0.02869039676714036,"243":-0.009144039759510215,"244":-0.009763517991177716,"245":0.011840230489468521,"246":-0.02813924605250707,"247":-0.009802813391012384,"248":-0.008971698700098701,"249":0.017635643741610744,"250":-0.02516627884482943,"251":-0.013853050290468176,"252":0.011620548704221939,"253":-0.0032257788364265646,"254":0.028721197383864427,"255":-0.014584511441819504,"256":-0.0010245214372154113,"257":-0.034553717492547965,"258":0.008704295251577298,"259":0.00041400381609641476,"260":-0.016973055288117093,"261":-0.009664145522220296,"262":-0.04307119021175563,"263":-0.017185747075691014,"264":-0.02273380707827547,"265":0.006056045148576881,"266":0.018211943708275426,"267":-0.02163286982303228,"268":0.010299167194811587,"269":0.01944984503708531,"270":-0.001459073457992386,"271":0.02118670892510578,"272":-0.016685279957517594,"273":0.048597072132601296,"274":-0.008589604215400792,"275":0.015177754090808964,"276":0.01933318037191331,"277":0.015346984988233846,"278":0.01165132399989792,"279":0.017076904638440804,"280":-0.007942935572092935,"281":-0.0419965947089871,"282":0.0058854328894075636,"283":0.0029885006907891956,"284":-0.014280516934413205,"285":0.012280213798703858,"286":-0.015611863823527167,"287":0.0004079105748678328,"288":0.0004307286036216806,"289":-0.04103090120720051,"290":-0.010016024259216104,"291":-0.025279213467868007,"292":0.019521363154022014,"293":-0.008173454533603802,"294":0.0025890740905740563,"295":0.004224207975699047,"296":-0.010117166100645374,"297":0.04485688245019665,"298":-0.02814249279259435,"299":-0.039385133657063566}},{"sx":5,"sy":5,"depth":12,"w":{"0":0.021346489906852933,"1":-0.03552086264775224,"2":0.0021897328819586426,"3":-0.04278866862033099,"4":0.028750124759047608,"5":0.0237897562489808,"6":-0.07595462911522037,"7":-0.021129449897314724,"8":-0.04831469727116436,"9":-0.029361145912865743,"10":0.05160723815555333,"11":0.007538464345101045,"12":-0.0435757766953038,"13":-0.031374086050878644,"14":0.025524790465808637,"15":-0.08330292234807689,"16":-0.06343493780651142,"17":-0.0716159028488496,"18":-0.017222408991232258,"19":-0.031590307617026574,"20":0.04397837230499861,"21":0.004913216685582338,"22":-0.0028503432843535095,"23":-0.007069629864864138,"24":0.028016101669612287,"25":-0.0134875067601684,"26":0.028635809024934192,"27":-0.03471936444431582,"28":-0.010817282795911536,"29":0.03035547018744223,"30":-0.010412200520745542,"31":0.023941120314974494,"32":0.02611140529481723,"33":-0.00883428272197296,"34":0.04257564434434661,"35":-0.0013887622767498697,"36":-0.015714975788121956,"37":-0.012281442804594558,"38":0.001446824812805925,"39":-0.021802171882130877,"40":-0.07628195423084441,"41":0.03955577313229784,"42":0.00856063947382147,"43":0.007970578557374083,"44":0.0007403725704677522,"45":-0.006716727137593093,"46":-0.014812606332348934,"47":0.020587537067824516,"48":-0.0309712557747668,"49":-0.12633110865388678,"50":-0.038595559796029015,"51":0.013470021087790655,"52":-0.021417748467831524,"53":-0.01815665744747618,"54":-0.03881416715618685,"55":-0.01600482348058547,"56":-0.008495496295940598,"57":0.0012866472539757555,"58":0.03729507503469711,"59":0.011143774833203985,"60":-0.0666266905723252,"61":0.1443164817122469,"62":-0.025104890570497505,"63":-0.05283286849709519,"64":-0.004878415924727106,"65":0.03614454569590345,"66":0.022281318620850525,"67":-0.004304456838949308,"68":-0.05470143005008742,"69":0.010088347692856525,"70":-0.026961655418838888,"71":-0.037008305607969604,"72":-0.055247141600523304,"73":-0.07571860662339332,"74":-0.04666987845861299,"75":-0.029371058735545588,"76":-0.02719477776589213,"77":0.028235815723849467,"78":-0.0013478183160434945,"79":0.006057888354202003,"80":-0.017187652375176683,"81":-0.004674569043500175,"82":0.057322458813459015,"83":-0.01920712357479546,"84":-0.018089420948873627,"85":-0.12052481277229103,"86":-0.09402194324942113,"87":-0.018105857833081114,"88":-0.005005766750104124,"89":0.01900032858944574,"90":-0.03975675411538883,"91":-0.00970655112815946,"92":0.012523868328251437,"93":0.010308533122046716,"94":-0.11914347656326535,"95":0.0233896401340701,"96":-0.046107252511482635,"97":-0.012830432037627666,"98":-0.023269209658087566,"99":-0.027074773760915664,"100":-0.016521453672968995,"101":-0.012743804140342919,"102":0.01480170403471221,"103":-0.022293278306786676,"104":-0.023760363120887258,"105":-0.0063213796585316045,"106":0.02185364187690077,"107":-0.04696093657470929,"108":0.00974184673558843,"109":-0.06623636472650157,"110":-0.06164111994069974,"111":0.01487727210668096,"112":0.03022122039518206,"113":0.035307387574223956,"114":-0.008229814090509975,"115":-0.01339554078764201,"116":-0.007587865943113834,"117":-0.031977398490349904,"118":0.03109822999098089,"119":0.0006294125461534548,"120":0.019821958236199377,"121":-0.04167499395224752,"122":-0.07685132004199986,"123":-0.055147683048528816,"124":-0.00027186231180891966,"125":0.01689285151661505,"126":0.06760626192457797,"127":0.027101033998846016,"128":-0.007197234875008334,"129":0.013655096777771632,"130":-0.01705070950520367,"131":-0.050414948379633555,"132":0.06211010030017477,"133":-0.02204116364051589,"134":0.008848920331370873,"135":-0.03429950273027803,"136":0.00764459638284158,"137":0.004131685881127158,"138":0.06396557335445399,"139":0.030664610748017244,"140":-0.06572447377632698,"141":-0.01850662648247131,"142":0.03397574910867383,"143":-0.04753529629124909,"144":0.04899760664963692,"145":-0.10955263704745745,"146":-0.023238420821033084,"147":-0.021994886353386953,"148":-0.04555513192952802,"149":0.0066624487004518515,"150":0.06821722351874428,"151":-0.04451620192532643,"152":0.0005244371025883063,"153":0.017725532794110127,"154":0.0727768779297022,"155":0.013186420443813128,"156":-0.00847940415219262,"157":-0.06454622686829524,"158":0.02217254183156347,"159":-0.06464650242385767,"160":-0.03213087947593802,"161":0.026690070159100642,"162":-0.04078125849667539,"163":0.0628941985765742,"164":0.027013660828388027,"165":-0.01192350846560743,"166":0.12304635131903396,"167":0.009063275137880184,"168":-0.04084765811484643,"169":0.03846773694803462,"170":0.10795558018799219,"171":0.03577796616860375,"172":0.04263383173458227,"173":0.0006226267108054985,"174":-0.044741086610000536,"175":0.026285500240766136,"176":-0.005016371105311509,"177":0.0017163764137762415,"178":-0.011645543625091351,"179":0.0397791396179154,"180":0.016614838193318524,"181":-0.004037178294585184,"182":-0.020087619720003932,"183":-0.05159743474364507,"184":-0.0553504888720197,"185":0.021738366462020514,"186":0.04348105574808639,"187":-0.01731680839263185,"188":0.07266603718616615,"189":0.021980655015828302,"190":-0.034447709314866404,"191":-0.012175525644866583,"192":0.02877032678205157,"193":-0.03408904591562806,"194":0.0938971138533025,"195":-0.006044702174498168,"196":0.07146155349177952,"197":-0.028665156761607836,"198":0.012307574803211506,"199":0.07860747971127455,"200":0.04129741552078022,"201":0.00020949253514047694,"202":0.08246226972775095,"203":0.008695863400434486,"204":0.024084735652209883,"205":-0.05619513526600478,"206":-0.008447009619893999,"207":0.03697645294341451,"208":-0.028221146030327153,"209":-0.015022927197878372,"210":-0.04114537937243447,"211":0.06627072066572395,"212":0.012544567368091107,"213":-0.0373859339407179,"214":0.14010721057453995,"215":-0.0011946799574901567,"216":-0.047090759918738456,"217":-0.021634868391469338,"218":0.041299003179755205,"219":-0.0682923774199599,"220":-0.048047897335070686,"221":0.03424441457198198,"222":-0.05294785185696836,"223":-0.02693104026365713,"224":-0.035618149271844986,"225":-0.015966155569952612,"226":0.0952617944360934,"227":0.021014867458646964,"228":0.03567258987117504,"229":0.05294053208545686,"230":0.10611363099650735,"231":-0.024431939768298046,"232":-0.10686948194977743,"233":-0.019704928572297296,"234":-0.039456619422581225,"235":-0.051886081434061426,"236":-0.07588329557123324,"237":-0.028008581158146754,"238":-0.014009744116749743,"239":0.10120576299962361,"240":0.09107804408689255,"241":-0.09548504619390862,"242":-0.13317232764890444,"243":-0.04829971901103077,"244":0.08112367332598883,"245":0.035513999302204516,"246":0.08118427866172609,"247":0.01064331232206065,"248":-0.03260867645967086,"249":0.009776915112888031,"250":0.05089303068342315,"251":-0.006750009579140153,"252":0.022748555332650477,"253":-0.07224285951847637,"254":-0.09505700693333895,"255":-0.045001394833002265,"256":0.0712383975678576,"257":-0.040523627942009866,"258":-0.025379270225996415,"259":0.045396219236495935,"260":-0.009966386487092777,"261":-0.01330289330416121,"262":0.0029053174139977906,"263":-0.0014738057174052558,"264":0.023176857753106,"265":-0.03155800777080733,"266":-0.1193367686293243,"267":-0.019797889487979357,"268":0.01997583738143179,"269":-0.0186271669709807,"270":-0.006882863315814004,"271":-0.02209585456016042,"272":-0.0296668605143274,"273":-0.019010351122539307,"274":0.04288359627202336,"275":0.023454453747012105,"276":-0.048003370986871054,"277":0.09520116705618425,"278":0.04868261403219622,"279":-0.014620908009304745,"280":0.028734006896518467,"281":-0.08013593642230532,"282":0.004291730799529969,"283":-0.07161669268984748,"284":0.02253902470236002,"285":-0.02046638996648832,"286":0.06787511866233203,"287":0.091845644878431,"288":0.007613184146154011,"289":0.0200257302522358,"290":0.03093260284981661,"291":-0.014009035165179253,"292":0.07390006331270692,"293":-0.0800760498704798,"294":0.05615116437350532,"295":-0.0141359367995671,"296":0.06312787918973153,"297":0.025055822584680105,"298":-0.009846427878663522,"299":-0.03203897943994561}},{"sx":5,"sy":5,"depth":12,"w":{"0":-0.0253531744987178,"1":0.01636624591513321,"2":-0.0021028997852626506,"3":-0.0196670346885689,"4":0.01368567614082355,"5":-0.0007614294346904363,"6":-0.017449270815033092,"7":0.01210248941910436,"8":-0.019569227767151576,"9":-0.03786070307608439,"10":-0.004731043783779108,"11":-0.038995951416934675,"12":0.0035755544745693438,"13":0.011220130024770738,"14":-0.0003730303333351487,"15":0.0030082237444298853,"16":-0.00107795321293435,"17":-0.03898628886582524,"18":0.02091139891476916,"19":-0.00048657330243786356,"20":-0.00020517466616343157,"21":0.008021390218944362,"22":0.024349306603509122,"23":0.013042841078073445,"24":-0.02515450271275043,"25":-0.00777115297364523,"26":0.00267736146381174,"27":0.013661497819876932,"28":-0.0081439177610033,"29":-0.0230348626262857,"30":0.004056053419388368,"31":-0.01212075838197711,"32":0.03448542227014062,"33":-0.006875365752505464,"34":0.010191656273410996,"35":-0.020438694664679794,"36":0.003805192971079651,"37":-0.002563993024260173,"38":-0.005772572331603413,"39":0.041938570505629866,"40":0.014618355811829343,"41":-0.008533216479027848,"42":-0.027852577703241847,"43":-0.020499733940373254,"44":-0.021047679622831682,"45":0.012536706461390039,"46":-0.015642037877852514,"47":-0.010400843297749658,"48":-0.019082636349356398,"49":0.003402427686331136,"50":-0.03094190402978659,"51":-0.017126611543114123,"52":-0.003155877103139808,"53":0.01411196489447763,"54":-0.0128363291670338,"55":-0.01241987396284551,"56":0.018818488082797,"57":0.02973278983267811,"58":0.03248700521429276,"59":0.014038198887055566,"60":-0.0036574103964007966,"61":-0.008396833728962026,"62":-0.015457273187516718,"63":0.007657276221064045,"64":-0.046528771365288976,"65":0.003918335815251014,"66":-0.0014546854628178564,"67":-0.02826246240265455,"68":-0.010912744206455001,"69":-0.0057485806846739665,"70":-0.01543647139220892,"71":-0.008000611903228297,"72":0.0038054103063374523,"73":-0.0026017059802181906,"74":-0.01935723674159759,"75":-0.02047004950058639,"76":-0.008104346672648064,"77":-0.030243335521267366,"78":-0.012766734269657208,"79":0.0035319274326126213,"80":-0.015043194036333495,"81":-0.019179480088912636,"82":-0.021535013850486496,"83":-0.03133092195808017,"84":0.0075412674154575875,"85":-0.04812148586559874,"86":-0.015440861295054571,"87":0.0038862365757922515,"88":-0.002044914548929295,"89":-0.009529316619111638,"90":0.010435057400889862,"91":-0.005965429566749045,"92":-0.015714874801515663,"93":0.05957205918702478,"94":-0.06141919555907942,"95":-0.018298882270336315,"96":-0.019880971137486173,"97":0.013589736765613022,"98":-0.026610267189089994,"99":0.022364200252587195,"100":-0.00030578055815932173,"101":-0.02633419971729589,"102":0.02051131510626833,"103":-0.017835714556056,"104":0.01408707408485879,"105":-0.0139517132262988,"106":-0.01787944121262132,"107":-0.01437057892989822,"108":0.01724950241014095,"109":-0.02502126240492681,"110":0.039465018889860745,"111":-0.013635049968561654,"112":-0.030758349048853734,"113":-0.02295714785493777,"114":-0.048043181023367826,"115":0.00010293234107120682,"116":-0.009855122190080159,"117":-0.002996156282508607,"118":-0.004779535824100838,"119":0.016890642267594427,"120":-0.012823121251801371,"121":0.00041369327321663993,"122":0.0024608285852648097,"123":-0.007516131653765799,"124":-0.039356974198340916,"125":-0.033439339400427946,"126":-0.00027415813315461536,"127":-0.017016170572867192,"128":-0.020997088032975574,"129":0.01744804020204762,"130":-0.024981302607830037,"131":0.022071474568406493,"132":-0.004480268764715377,"133":-0.024953965143532708,"134":0.018420523638256598,"135":-0.021412792209669997,"136":-0.0011589871055060462,"137":-0.02901306418149066,"138":0.0055211325024588104,"139":-0.0049389058331345955,"140":0.01550801166523699,"141":-0.030814071038803893,"142":-0.011901330378663073,"143":0.004155358112174851,"144":0.017396162790598062,"145":-0.02659389617814449,"146":-0.05012132041050243,"147":-0.03179914415090523,"148":0.012185744500607191,"149":0.0002343931414611257,"150":-0.014410168649479414,"151":-0.01585202588855126,"152":-0.018522502107588185,"153":0.0035529228916632892,"154":-0.060177750193766394,"155":-0.01347446977100456,"156":-0.0047664977908292465,"157":-0.02631534903661426,"158":-0.0022046927893406027,"159":0.0007974779332839291,"160":0.03090851367985537,"161":-0.006237227669434286,"162":-0.022063246786594045,"163":0.0023488897015310497,"164":0.0012596869613451514,"165":-0.008167025893418214,"166":-0.09483614969780801,"167":-0.03816950147253311,"168":0.02273486241616481,"169":0.004485433635322082,"170":-0.012113067022092019,"171":-0.025623109201462532,"172":-0.034456565652198796,"173":-0.006975744497472458,"174":0.0184340535142255,"175":0.033211691073103566,"176":-0.0038036845997359656,"177":-0.011407335533827475,"178":0.012028979353767308,"179":-0.02174855421550348,"180":-0.04050186834639973,"181":0.0036158466912703992,"182":0.0068946665834268275,"183":0.0022118401769519527,"184":-0.00780094507418469,"185":-0.0030970834168641947,"186":-0.039490094452133626,"187":-0.0215478097533843,"188":-0.019706506255954534,"189":-0.007567484311441651,"190":0.017227385342820624,"191":-0.013640346976128658,"192":-0.005921973664244122,"193":-0.032374668653697286,"194":-0.0006729512514771983,"195":-0.017356388732125434,"196":0.015974279880737186,"197":-0.01115846306769545,"198":0.015677774064164266,"199":0.013171103354439464,"200":-0.010137732580524706,"201":-0.010765423587986697,"202":-0.03714343015276134,"203":0.01515357601278305,"204":0.003299185051318645,"205":-0.02101760974353302,"206":-0.0108716797509972,"207":-0.00314090575665118,"208":-0.04487089807380559,"209":0.04287808688967006,"210":-0.006640883764967346,"211":-0.008987085055649165,"212":0.009541132316230444,"213":-0.011526244304776672,"214":-0.02017783612104952,"215":-0.032875142028832995,"216":0.004124332630522479,"217":-0.018084728690200294,"218":0.005779452630184839,"219":-0.03846886344550022,"220":0.06310642533282577,"221":-0.043960922467657676,"222":-0.016509419641617347,"223":-0.01634357232376515,"224":0.056912865940374716,"225":-0.025438491775622865,"226":-0.028420259254828995,"227":-0.0012993478512693054,"228":0.0002841383440122401,"229":-0.04999919758573368,"230":-0.02058730040976885,"231":-0.043654759856288444,"232":-0.001387176921495636,"233":0.053961169435227045,"234":-0.001388202196795262,"235":-0.04328505052562202,"236":0.014065880430370298,"237":-0.02412610908088823,"238":-0.023022628247968,"239":0.032290635754729125,"240":-0.014994985138916882,"241":-0.008260766521031318,"242":0.05001881684619004,"243":-0.008762738620336575,"244":0.014643337104814948,"245":-0.025172176085412317,"246":-0.019717380435097537,"247":-0.03532220931685248,"248":0.0054819749357627005,"249":0.023587987998191694,"250":-0.008000427411823078,"251":-0.021249495065220836,"252":0.00046859919289572965,"253":-0.02788512808718214,"254":-0.021201763556702162,"255":-0.006922068727096737,"256":-0.01760877031204812,"257":0.01050006115935911,"258":0.046734405986246765,"259":0.02399376921088396,"260":-0.00180993110384224,"261":-0.024974726451521146,"262":-0.039622200872452225,"263":0.021646353962141113,"264":0.02934416208419981,"265":0.012922963544114978,"266":-0.011780264381733086,"267":0.01325477459588568,"268":-0.013518274594779214,"269":0.009616877329465631,"270":0.012472728253899645,"271":-0.018898996586947405,"272":-0.007403038471745194,"273":-0.04604634701664809,"274":-0.03688313132300532,"275":-0.0036452972998418363,"276":-0.005527031653319083,"277":-0.024408993300355494,"278":-0.009976784330377712,"279":-0.009163459507780228,"280":-0.024992934566754835,"281":0.01715225431501872,"282":-0.016120883079728178,"283":0.03126914579741238,"284":0.028944892613975867,"285":0.007161646850149237,"286":-0.009322710323269848,"287":-0.017101997323533517,"288":-0.01831123451463124,"289":-0.010190699346178755,"290":-0.037944490140631164,"291":-0.019302158498317644,"292":-0.04997771017436809,"293":-0.014079813277739295,"294":0.03213538177994479,"295":-0.0015972122306296215,"296":0.027117892210697086,"297":0.02400577601890752,"298":-0.030029132758350712,"299":-0.0175392148155874}},{"sx":5,"sy":5,"depth":12,"w":{"0":0.0042428326450581295,"1":0.01607458414280169,"2":0.00028342273224538154,"3":0.0317811868716674,"4":-0.01624952546375785,"5":-0.011744094404319599,"6":0.020331899334087022,"7":-0.018986295329245496,"8":0.012216407190571987,"9":-0.01984911710428401,"10":-0.056740673907472346,"11":0.0005720937430729996,"12":0.0207538900705421,"13":-0.053664399388340514,"14":-0.058683544665373996,"15":0.016906557357064544,"16":-0.034956957955493216,"17":-0.013126448905795259,"18":0.016885126479951027,"19":-0.014822710939705172,"20":0.012547234766799014,"21":-0.013978456034021243,"22":-0.03587865444630447,"23":-0.02705669935468236,"24":-0.018624348830210694,"25":-0.005184738539803257,"26":-0.025595714869218328,"27":0.011457504453485999,"28":-0.0012024524769706849,"29":0.058437867114598245,"30":-0.020223242246708743,"31":0.0037859484199193874,"32":-0.013677128140857834,"33":0.02748998215598758,"34":-0.03244443619438455,"35":-0.0345914342468782,"36":0.021951980636258427,"37":-0.006986791681333052,"38":-0.047414879799447834,"39":-0.007917147948362744,"40":0.01096630538588597,"41":0.022768484643720287,"42":-0.0002836290103954401,"43":0.031034009119041823,"44":-0.04212592271527835,"45":0.02784902834630823,"46":-0.028028727140201798,"47":0.01899584677267022,"48":-0.007650150972643703,"49":0.009858026100774886,"50":-0.022936729663411266,"51":-0.029292621594864045,"52":-0.01970432139376866,"53":0.017955473802659626,"54":-0.02455754804257459,"55":0.019389963501206017,"56":-0.017945639698519467,"57":-0.032493746537734194,"58":0.013776973873926068,"59":-0.03937838871247707,"60":-0.0009239045737498732,"61":-0.039790617457446366,"62":-0.030469980435095773,"63":-0.02376416317601888,"64":-0.00915527495795029,"65":0.032328327646207355,"66":-0.012382852159251742,"67":-0.00911503342859717,"68":0.02560168464943057,"69":-0.018077757887419565,"70":0.013413815900729107,"71":-0.020809849384739343,"72":-0.0019967151310510255,"73":-0.015740959414087003,"74":0.003302342740610335,"75":-0.018481456125621666,"76":0.009232339512490027,"77":-0.029692756722655166,"78":0.011462660707633236,"79":0.005053643038877708,"80":-0.01129680860200737,"81":-0.01592572928815973,"82":-0.011724380234474292,"83":-0.009385480669422198,"84":-0.004577883411736891,"85":-0.014004747927281088,"86":-0.02776976957986026,"87":-0.013699780585277179,"88":-0.027600179734308845,"89":-0.00673707404478648,"90":-0.06108585694635131,"91":-0.013655110704551998,"92":-0.059679616956227255,"93":-0.010252126600687025,"94":-0.039176140524138696,"95":-0.01807584458839869,"96":-0.020554007536074115,"97":0.00004422180200647264,"98":-0.01725067443252842,"99":0.01763127691779554,"100":0.0175433776153512,"101":0.005819763114922913,"102":-0.011256017572940563,"103":0.006142413539683647,"104":-0.031015680329401236,"105":0.010807195064991625,"106":-0.020914974104409456,"107":-0.055191205140912865,"108":-0.003229576222016718,"109":-0.018301889829479015,"110":-0.032184707488999896,"111":-0.00346868138943061,"112":-0.021950002510753942,"113":-0.04929377861705748,"114":0.01806881329199152,"115":-0.020500890594935744,"116":-0.05368645331614016,"117":0.03950091417144794,"118":0.021493881304329585,"119":0.007429076856206832,"120":0.007223796097904398,"121":-0.006885244228891632,"122":-0.04753353044134918,"123":0.015328921957075895,"124":-0.01803728098897096,"125":0.028128438785528412,"126":0.01002933634762976,"127":-0.00796847506369194,"128":0.01540266849887332,"129":0.008526824475163647,"130":-0.019327123333085054,"131":0.015032186089348382,"132":-0.0008134794916142335,"133":0.023726234431899244,"134":-0.014974263347290446,"135":-0.013843849832743912,"136":-0.018891686243855312,"137":-0.040931811799440374,"138":-0.00847863066641941,"139":-0.037805114900411045,"140":0.002020628800671887,"141":0.002074688045289381,"142":0.0025229887004387104,"143":-0.0030660796093494674,"144":-0.04525654400784768,"145":0.0012491082451551836,"146":0.017404587540187758,"147":0.016916202350028692,"148":-0.023237695813548304,"149":0.01846105195137503,"150":-0.004755110625137023,"151":-0.006375343161415358,"152":-0.006502532579136277,"153":-0.029326950989594838,"154":-0.009938170344594523,"155":0.050664323144586035,"156":-0.019681864037234348,"157":-0.033651480996734255,"158":-0.02362156501472627,"159":0.013086107279721496,"160":-0.036184973522830816,"161":-0.02288103702802381,"162":0.00741119161187627,"163":-0.024515551935630913,"164":-0.015370059221950972,"165":-0.01579900029620402,"166":-0.020626364868245792,"167":0.0279930979808825,"168":0.023774433235798403,"169":-0.0004990894293726635,"170":-0.03204463071958299,"171":0.007049007530232582,"172":0.007848034402449846,"173":-0.0019429807723560786,"174":-0.010314688902202829,"175":-0.006735995973809294,"176":-0.0073044008456090975,"177":-0.012437561014361232,"178":-0.004955969941764029,"179":-0.00040147415359477283,"180":0.07914559807849644,"181":-0.002818508289657165,"182":0.02076632233105354,"183":-0.00944225104335134,"184":0.03098160440636826,"185":-0.012622891738081404,"186":0.0032563599320495212,"187":-0.010993434647411197,"188":0.002421653384021684,"189":0.00812441664481209,"190":0.014386665273497527,"191":0.019850304264543008,"192":0.003336755432374438,"193":-0.035673344117654215,"194":-0.014046765809759621,"195":-0.034247656646931544,"196":-0.009039743990908974,"197":-0.005504097629451933,"198":-0.020359263071810702,"199":0.037339541748798416,"200":0.0271808273174557,"201":-0.018669214114874558,"202":-0.05193041955275992,"203":-0.013751979716783196,"204":0.00020133159609639584,"205":-0.0015131157479207065,"206":0.039157891022413224,"207":0.0016740810165014857,"208":0.006591433984927864,"209":-0.004791061413721273,"210":0.002946002698656755,"211":-0.017657896608000993,"212":0.011173848788234644,"213":0.045592313765314016,"214":-0.00038059917167463476,"215":-0.03576829366720965,"216":0.04563091883664464,"217":-0.01633336824707284,"218":0.039382784886689025,"219":0.05024317831077699,"220":0.0159244941086914,"221":-0.0319603126984743,"222":0.026290868479375746,"223":-0.03500451050206218,"224":0.01226919583908941,"225":-0.002345914917328826,"226":-0.007057995297939979,"227":0.02894486849531714,"228":0.017091630008691478,"229":0.013190545682105521,"230":-0.02774733543559383,"231":-0.014821646110255497,"232":0.01284595753690324,"233":-0.012116730245304979,"234":0.015147958139916045,"235":-0.03645780290694541,"236":0.014724868155664466,"237":0.010715824621743426,"238":-0.035016664507566964,"239":0.02805982212698281,"240":-0.0024790678507306354,"241":-0.04086816865393713,"242":-0.015011814905618955,"243":0.0043740460812461725,"244":0.004332248006750355,"245":-0.017443756717835508,"246":0.0003125469861077937,"247":-0.05615715421921704,"248":0.022446525137705516,"249":-0.002941958886940142,"250":-0.011864161340019897,"251":-0.04028111167567331,"252":0.004510672790209835,"253":0.016037659474008766,"254":-0.03050869997973541,"255":-0.055330696552282115,"256":-0.00446537341460946,"257":-0.002697638461604749,"258":-0.02361142720469067,"259":0.006381888324619842,"260":-0.009271222071084844,"261":0.009545514378271489,"262":-0.029128801754132155,"263":-0.012227528527975054,"264":-0.0002569400971248865,"265":-0.013298027544494991,"266":-0.0041851591248042875,"267":0.0221405135274779,"268":-0.016609854641153853,"269":0.0003149012711776544,"270":-0.021485646875186382,"271":-0.009819670473524266,"272":-0.06965239026805074,"273":-0.023750555593039995,"274":-0.03340104666796138,"275":0.011481871697467949,"276":0.004659326014980218,"277":-0.03904176364090355,"278":-0.02639626884054851,"279":-0.0037343877632001862,"280":0.007017283839085809,"281":0.03728972875950175,"282":-0.014764328311302952,"283":0.013603074009054986,"284":0.007349868542526824,"285":0.03378469666476202,"286":0.006806829990028809,"287":0.03586202950340845,"288":-0.0069927646678191084,"289":-0.01199271386335579,"290":-0.03108995307831277,"291":-0.014145606516342559,"292":-0.049331404753162215,"293":-0.036149775682199806,"294":-0.023169699967024598,"295":0.0014209843666140632,"296":-0.021442389792307438,"297":-0.009955180222414869,"298":-0.05880016276989649,"299":0.06404979800913754}},{"sx":5,"sy":5,"depth":12,"w":{"0":0.09560039513694249,"1":0.07021441825967674,"2":0.08730062574614764,"3":-0.055792153366565324,"4":-0.04622107189925148,"5":-0.09806103485068045,"6":0.02407972909500742,"7":-0.02703450733610114,"8":-0.16592802132767998,"9":-0.08820180069826349,"10":-0.10717096123790752,"11":0.05069433718290591,"12":0.06993628655321306,"13":0.22816707560480487,"14":0.03952488449535918,"15":-0.0067256433982847575,"16":-0.036103117688217966,"17":-0.009000623245939853,"18":0.1099218011533751,"19":-0.011554907211863072,"20":0.12584433137297116,"21":0.0799703876876258,"22":-0.15225549667374927,"23":0.06748009818146934,"24":0.12512602697205016,"25":0.031116059346090408,"26":-0.06395134767243375,"27":0.03800124868794411,"28":-0.015141144847288813,"29":0.07250533332604521,"30":0.12694972236368318,"31":-0.014054787030286117,"32":0.11783673768930025,"33":0.003477894189279891,"34":-0.1583577200133067,"35":0.017071173852742094,"36":0.10552224036570987,"37":-0.03615089936221501,"38":-0.0682115055285065,"39":0.04642358503652944,"40":-0.03386798833002649,"41":0.0031387047929566465,"42":0.048693979149153806,"43":-0.025513808301977452,"44":0.05678367266781808,"45":-0.03262948768391729,"46":0.014694226967988333,"47":0.06488025042442891,"48":-0.06753852653693039,"49":0.0036115421809454137,"50":-0.03660669598134869,"51":0.08566188535917395,"52":0.0801200345185271,"53":0.12248607162568874,"54":0.030652641622658943,"55":0.12490769367587744,"56":-0.11646106418900629,"57":0.020116975293980474,"58":0.10511354442964867,"59":-0.02775162239848466,"60":0.0008832780058099835,"61":-0.16088476411395916,"62":0.033360941022683936,"63":-0.021294461068022717,"64":0.03205882791413112,"65":-0.08380001866284797,"66":-0.0038578178719524047,"67":0.06361005178000606,"68":-0.061467134834291566,"69":-0.09988839344545482,"70":0.11494257723929148,"71":-0.001006820242862057,"72":-0.08929091416101063,"73":-0.11777058934615357,"74":0.1656257561368587,"75":-0.10010607594714155,"76":-0.17722335718514412,"77":-0.1049131475121798,"78":0.05722354863490234,"79":0.06805075340721342,"80":-0.10420713796529711,"81":-0.0497160764466259,"82":-0.06100246703191972,"83":0.0022759415296593507,"84":0.026872224181505255,"85":-0.038384783432572456,"86":0.20032850213604594,"87":-0.05411231785823691,"88":-0.0881000278718022,"89":-0.03240062236731421,"90":0.04809453091344959,"91":0.05960348081757539,"92":0.08500758501005083,"93":-0.005614543364928236,"94":-0.06328777570333509,"95":-0.019406785049492125,"96":0.018578631413193325,"97":0.05278970309700524,"98":0.018596059716265583,"99":-0.08540996056761885,"100":0.1180474016630617,"101":0.02084528620496413,"102":-0.08942292153595499,"103":0.023594218112672278,"104":0.0757861129799938,"105":0.04151515579594287,"106":-0.0025036775439351063,"107":-0.03318720596243268,"108":-0.073896474763438,"109":-0.04362633418593538,"110":-0.05106242113112308,"111":-0.06277213462163224,"112":0.10483771247307498,"113":-0.016833094834701228,"114":-0.12267652129176518,"115":0.001084012583021868,"116":0.07743465484798502,"117":0.022097906859629677,"118":0.14167484735273136,"119":-0.04998836058974482,"120":0.054876897736025686,"121":-0.05010150712214186,"122":-0.09112618557691846,"123":0.010632800864677548,"124":0.1841156889338144,"125":0.08309453020217238,"126":-0.19107368657292684,"127":0.07896673463144492,"128":-0.21355907491885026,"129":0.008760036335474449,"130":0.19124792676523422,"131":-0.14779576290171365,"132":-0.0666247077048902,"133":-0.07175746783543768,"134":-0.06741927671614521,"135":-0.08944697304578633,"136":0.06880423269765201,"137":0.05787698366021586,"138":-0.17116913688517463,"139":0.03921998401471752,"140":-0.1381325987147297,"141":-0.07491933618530781,"142":0.19187165961521985,"143":-0.32198648650691014,"144":-0.19572794352597,"145":-0.0868500792897421,"146":0.09382292008235917,"147":-0.07464504729023921,"148":-0.03141608566533711,"149":0.034429055016048773,"150":-0.10718948903711878,"151":-0.028797738754954783,"152":-0.10316951562410598,"153":-0.029701472055630996,"154":0.07593589256676256,"155":-0.059041436151830905,"156":-0.0955076123688228,"157":-0.020701963903997207,"158":-0.030131158640186943,"159":-0.0345753348536355,"160":0.04633927914104077,"161":-0.01843659619869989,"162":-0.0019303151543698229,"163":-0.0014649939728205697,"164":0.009479347785573588,"165":-0.03374549834530058,"166":0.01930565418196081,"167":0.0237400723739006,"168":0.006677754457382175,"169":-0.006968833554902576,"170":-0.08714979436602431,"171":0.02107787864408743,"172":0.12613905943876305,"173":0.00021096688874768155,"174":0.04435844016115875,"175":0.009599108349705976,"176":-0.13882771035734573,"177":-0.0480433628510158,"178":0.09712996996996277,"179":-0.051971286988259466,"180":0.08911601610883889,"181":0.17450191148548316,"182":-0.08957929686761922,"183":-0.006473934472957902,"184":0.013683799510174588,"185":0.07144227724846554,"186":0.08847739822001725,"187":0.02625781199717243,"188":0.0530417694431234,"189":-0.05070826531707383,"190":0.025806743861209562,"191":0.10739014442970657,"192":0.00785493724876807,"193":-0.024790414743336563,"194":-0.12629129408438716,"195":-0.06100150048295412,"196":-0.0026450780705715225,"197":0.1995409128236749,"198":-0.051847093007246575,"199":0.04544889550625007,"200":-0.09484601469647606,"201":0.03816984423763912,"202":0.0023204066845855923,"203":0.028459163493862953,"204":-0.036894289339855196,"205":-0.02618372974169723,"206":-0.060167747422781866,"207":-0.02180282330163321,"208":-0.04374902491762957,"209":0.10940363832301772,"210":-0.1365813231723239,"211":0.03593596902344284,"212":-0.07824678245000148,"213":0.0426292039385201,"214":-0.032507362598251675,"215":-0.030129155468225702,"216":-0.017706471017824466,"217":-0.05545267675383731,"218":0.08209313853468701,"219":-0.06028877230088628,"220":0.016296465548985714,"221":0.05168995401951929,"222":-0.0298682299525267,"223":0.027560471307566066,"224":0.016530450590740337,"225":-0.026018521527357143,"226":-0.001626991572989393,"227":0.015372473205587312,"228":0.03583695710874908,"229":0.10158398296708347,"230":0.09267066983530513,"231":0.03222670570336899,"232":-0.03756076695370625,"233":-0.03008480843366846,"234":0.047566999697485665,"235":0.010149431159708736,"236":-0.020123687298201617,"237":-0.01489261804137333,"238":-0.014241572245119436,"239":0.04828384516111663,"240":0.14590136338698798,"241":0.08991673762781706,"242":0.03360481576192825,"243":-0.03050311840211798,"244":-0.1250308847757265,"245":-0.1019789030668328,"246":0.14386432402046792,"247":0.048900089816320345,"248":0.0701604038087779,"249":0.00839888254402557,"250":-0.07859193363504374,"251":-0.06492773406176157,"252":0.05474423615115368,"253":0.12222955075978942,"254":-0.09212685966388674,"255":0.0036465106215360765,"256":0.04753258892615427,"257":0.05685819322032125,"258":0.02090855456952158,"259":-0.07887289163172913,"260":0.050965249468072994,"261":-0.011875013964362005,"262":-0.09361681311358204,"263":-0.10400691827190406,"264":0.044720712711399484,"265":-0.03258423602585425,"266":-0.05508648387964136,"267":0.025414473303255743,"268":0.045965040566934165,"269":0.008505727228578253,"270":0.004465953238652255,"271":0.03536256104599838,"272":-0.00935025161325574,"273":0.04281837326427905,"274":-0.06161504256506379,"275":-0.04327223915222694,"276":-0.11292617191273364,"277":-0.11297138550885916,"278":-0.04158631176547186,"279":0.08493689480606491,"280":0.07610490221977549,"281":0.055259142600251984,"282":-0.10140750445618105,"283":0.06967107216805711,"284":-0.024968468777495194,"285":0.037831043003507064,"286":0.0989512458642939,"287":0.03882777455347965,"288":-0.04415121374497574,"289":0.019295575029777953,"290":0.0543444521009611,"291":-0.04613852931212686,"292":-0.010075763451976956,"293":0.028824524746833884,"294":0.02378866477080017,"295":-0.09028518440063106,"296":-0.040140716807991306,"297":0.03933865990236422,"298":0.04144692616573887,"299":-0.004737080504949372}},{"sx":5,"sy":5,"depth":12,"w":{"0":0.012832025096641385,"1":-0.010785535195556589,"2":-0.036213570626547446,"3":-0.033285497326014955,"4":0.009814608358759896,"5":-0.00547521005644749,"6":-0.00031793489345543623,"7":-0.04291768479165791,"8":0.002739541729115836,"9":0.005070153015232764,"10":-0.005888616004992017,"11":-0.027009349490967623,"12":0.016630898265015934,"13":-0.018319199488196873,"14":-0.016733092509400384,"15":0.003233710398767798,"16":0.007012622770514047,"17":0.015778421649398022,"18":-0.02141037770235544,"19":0.004666405377213354,"20":-0.0174519960341463,"21":0.01160661942413674,"22":0.01769201761083213,"23":-0.006057932294070017,"24":0.0382191401504482,"25":-0.025348844885988688,"26":-0.055677916616410854,"27":-0.008059909286097842,"28":-0.00791624148437691,"29":-0.0054273839378253304,"30":0.010616653067129403,"31":-0.002183778946001565,"32":-0.04824568576444582,"33":0.06512940672802325,"34":-0.032515036760723176,"35":-0.0013963831211186173,"36":0.019645358502690616,"37":0.010101969522798898,"38":-0.022131875459413607,"39":-0.03481140519875484,"40":0.022289395549491418,"41":-0.006629823698467353,"42":-0.007994625790496177,"43":-0.03260276369968064,"44":0.01850190526335174,"45":-0.022884149277077506,"46":-0.01501317694159037,"47":-0.008333599368976494,"48":0.005740435960748347,"49":0.0038155242108840214,"50":-0.03209170092082508,"51":-0.00903431200077186,"52":-0.009327851498942075,"53":0.03152115036476065,"54":-0.01633932563556935,"55":0.0035792621522266906,"56":0.029375789143510554,"57":0.019731212193331016,"58":-0.03928462399215579,"59":-0.00872164435432802,"60":-0.03146659691011715,"61":0.025050172185776463,"62":-0.03745181566563504,"63":0.028308311132340946,"64":-0.014110798740304032,"65":0.006419352928220841,"66":-0.0018220103929438626,"67":-0.02506133442013656,"68":0.0009067063941607845,"69":-0.0059975876693321726,"70":-0.029918689927561554,"71":0.03711134787398994,"72":0.008965084783988147,"73":0.006969272319155526,"74":-0.025888432551067275,"75":-0.004741751117310329,"76":0.015361549083085405,"77":-0.012971690323117256,"78":-0.0030755222401187125,"79":-0.037900971724243,"80":-0.035420324945263405,"81":-0.004218740508589437,"82":0.00533781317484577,"83":-0.024712380671838098,"84":0.009209432908226031,"85":-0.027255949529236018,"86":-0.010673299152835634,"87":-0.007524460551661508,"88":-0.004707959760182812,"89":-0.03718775863304399,"90":-0.05791139353822414,"91":0.020410429303728928,"92":-0.026045610562410716,"93":0.023695961352825545,"94":-0.045675592053871956,"95":-0.013124987064802964,"96":-0.03331537217379449,"97":-0.005831522506994154,"98":0.057125214223383465,"99":-0.029810806380358847,"100":-0.0066862520850046875,"101":-0.0034612684623446894,"102":-0.0379847701386299,"103":-0.04810224458715945,"104":-0.026548284708978673,"105":0.010070510183836092,"106":-0.0277149275010752,"107":0.020035954923206336,"108":-0.006510669939595221,"109":-0.00007848180804072806,"110":0.002008140745613672,"111":-0.026195926927331466,"112":-0.032128545130268964,"113":-0.015544452581108351,"114":-0.0010645374940854001,"115":-0.001979823977697928,"116":0.009477929772378402,"117":0.028452244496457023,"118":0.0004703369886646608,"119":0.04853646356845394,"120":0.010790674220678505,"121":-0.03195886366913163,"122":-0.017447490859931462,"123":0.009393135429697053,"124":-0.005562148970915324,"125":-0.011097871751650569,"126":-0.021948693907814707,"127":0.001844454403738097,"128":-0.004864304258672586,"129":0.01013011985170871,"130":-0.02376781875299709,"131":-0.008020225115805997,"132":0.008309469703740658,"133":0.005920286431777901,"134":-0.035368568261752505,"135":0.004760510337626619,"136":0.030292547609485854,"137":0.016218373116059254,"138":-0.04938079802248845,"139":-0.012278552337578769,"140":0.0016319747807009071,"141":0.014182978360802226,"142":-0.0021666407284699316,"143":-0.01479062747817719,"144":-0.0011730447213736607,"145":-0.03343328110290131,"146":-0.04876671921449912,"147":0.02069729679538265,"148":-0.03856473310564243,"149":0.023300872912828115,"150":-0.028506184757219083,"151":0.007285730743005641,"152":0.024989444159581417,"153":-0.017615248705314928,"154":0.0021924335609014643,"155":0.02441477483797212,"156":-0.006167511156027956,"157":-0.03386821123791126,"158":0.00460984138160745,"159":-0.005543865260551372,"160":0.017841628169400905,"161":-0.013571524185692317,"162":-0.005713881973059713,"163":0.022638557896449103,"164":-0.04144053150694817,"165":-0.021811972684387112,"166":-0.005233723161047614,"167":-0.005813656733825555,"168":-0.020896840412927095,"169":-0.00875751901259399,"170":-0.019968409982920796,"171":0.007471807586616067,"172":-0.0733859136531718,"173":0.0007608839312470656,"174":-0.008498550371079192,"175":-0.013763281977298524,"176":-0.0036363581230814267,"177":-0.020818923003347707,"178":0.01604301275011923,"179":-0.004464470035846141,"180":0.0037785605901883654,"181":-0.07331337692112051,"182":0.008841015657250755,"183":-0.015379175693586449,"184":0.019969128031869714,"185":0.03203065225268374,"186":0.0411162028197623,"187":0.025868776264069478,"188":0.006200065461901972,"189":-0.000953454558556005,"190":-0.00017445708011538813,"191":-0.0063106623642106,"192":-0.009749566604369595,"193":-0.04454865721490365,"194":0.004381859896857031,"195":0.012667624450112231,"196":-0.01075074569977141,"197":0.022928277199957933,"198":-0.009661292624030786,"199":0.020453106016234245,"200":0.028018194227166275,"201":-0.013912742863500928,"202":-0.003949161704844875,"203":-0.012045021564060784,"204":0.025115033214297856,"205":-0.030765461793594517,"206":-0.04304110500305093,"207":0.002499652164558295,"208":0.010407043939334367,"209":-0.00043859514711387746,"210":-0.012055071490218111,"211":-0.0024707677236537814,"212":-0.02218672148308094,"213":-0.00003888947079239207,"214":-0.008885307322817662,"215":-0.0001593658237859131,"216":0.02547486095495228,"217":0.04943778466157279,"218":-0.0019923320768219567,"219":-0.012246441260969602,"220":-0.019934120723785184,"221":0.0243537462457801,"222":-0.02421636227131606,"223":-0.028140151644304546,"224":-0.02450281087113597,"225":-0.014644792619461089,"226":0.026834533303193183,"227":-0.014882924794990218,"228":-0.0023397950797680246,"229":-0.004242886404402605,"230":0.008492136799477322,"231":0.008812551686015885,"232":-0.017722360420380053,"233":0.0035523395918940774,"234":-0.02192171596025902,"235":0.012124599787604202,"236":-0.02959909186778401,"237":0.016541376522387248,"238":0.02400729853388852,"239":0.036389795623853104,"240":0.007701046733963338,"241":-0.014385642735577494,"242":0.01943031807943781,"243":-0.0058937927499394535,"244":0.007729929628464103,"245":-0.027904283063969734,"246":0.01784794606049033,"247":-0.00019961851269312953,"248":0.013358076731066806,"249":-0.00468284412091295,"250":-0.03588842101459541,"251":0.025084447736714505,"252":0.010619940009657861,"253":0.057257327605789075,"254":-0.006660233265848705,"255":0.006597867212652153,"256":-0.009199820304862577,"257":-0.04819961728924533,"258":-0.009400364870875902,"259":0.019561194982444925,"260":-0.009766725518746043,"261":0.00003346139343992456,"262":0.028698902205938254,"263":0.011956181555048103,"264":0.01613415778407499,"265":-0.0077494269362607775,"266":-0.023639202504389164,"267":-0.005894689887305085,"268":0.018369946812466478,"269":0.026954883121395497,"270":0.010521128651314072,"271":0.002240804739202479,"272":-0.005941525102368862,"273":0.00020354108926173668,"274":-0.030621009964135026,"275":-0.001243337866462098,"276":-0.02384393541225092,"277":0.010015670753901846,"278":-0.01864364456749995,"279":-0.038372909881326925,"280":-0.015203867049967608,"281":0.00569273704772828,"282":-0.03180370367720584,"283":-0.0020231741723111575,"284":-0.011572920440994415,"285":0.014024965461593729,"286":0.009986638767802881,"287":-0.01907855169143345,"288":-0.0068911469482761285,"289":-0.017723560137536523,"290":-0.017986606670087946,"291":-0.013390854941858203,"292":-0.013260403201302156,"293":0.017542319810694443,"294":-0.004992767458079041,"295":0.0013756774718492566,"296":0.030760030090160994,"297":-0.0010995705441227712,"298":0.012852431989135556,"299":0.006641831385183784}},{"sx":5,"sy":5,"depth":12,"w":{"0":-0.02274872317753303,"1":0.06853202380750169,"2":-0.07751581498014176,"3":-0.025795553082667705,"4":-0.03502854192725519,"5":0.04416552068550419,"6":0.07617452415749916,"7":-0.01606515961863086,"8":-0.0013405476256906973,"9":0.009868306805195742,"10":-0.03420517363998657,"11":0.030443713417309864,"12":0.02076174585099682,"13":0.06518432871468413,"14":-0.08499096963641727,"15":0.02024359265406235,"16":-0.033456191227958336,"17":-0.04823935658973197,"18":-0.03870558809205738,"19":-0.03931403065175731,"20":-0.0114842165497567,"21":-0.0026670410665938994,"22":0.01199718440883147,"23":-0.024560260901233723,"24":0.008027873075486906,"25":0.02939653356916792,"26":-0.0830000881091708,"27":0.00517557197301917,"28":0.0238454254763705,"29":-0.00788117815192021,"30":-0.09574938653809674,"31":0.03572099720099498,"32":-0.025372357449131383,"33":-0.005996808832567091,"34":-0.029926776385027158,"35":-0.0009129519208739062,"36":0.04309325108658129,"37":-0.004920339546379334,"38":0.0943551159512419,"39":0.01568128788174031,"40":0.15252222662331202,"41":-0.018695479318406996,"42":-0.06292672427820678,"43":-0.0017724680069316425,"44":0.0018968509517914957,"45":-0.030812241265600435,"46":-0.041357345673788376,"47":0.041325464084440676,"48":0.010606699172466445,"49":0.004960876356852721,"50":0.02404676783383223,"51":-0.017140895084974673,"52":0.0873862711241611,"53":-0.00608033665133834,"54":-0.02478589632861714,"55":0.016906670857766506,"56":0.004772541541508285,"57":0.00679908368157516,"58":0.0037650782372344407,"59":0.0559475065482194,"60":-0.0030109627459466307,"61":0.014566147459096616,"62":-0.002915107651465755,"63":-0.04921641640895085,"64":-0.0668135395863493,"65":-0.014814199454283401,"66":0.015042698554692325,"67":-0.005593305805058425,"68":0.01046199459219967,"69":-0.01626152314469991,"70":-0.033184849424381935,"71":-0.030174714594244045,"72":0.017462309854800327,"73":0.0029825158941232774,"74":-0.055457752424836707,"75":-0.005840673848561785,"76":0.023182663435582593,"77":0.02030136175447322,"78":-0.058022147932319426,"79":-0.03210471616269608,"80":-0.0003620147969005571,"81":0.059813521378804566,"82":-0.04080550348088933,"83":0.04558514132448644,"84":0.015648662874412744,"85":-0.02643768426880392,"86":-0.06659575398037094,"87":-0.0029946862171586564,"88":-0.000582553405299202,"89":0.03445432950523417,"90":-0.07861134822309009,"91":-0.03220387063870693,"92":0.031091895313936163,"93":-0.02259331319187713,"94":-0.006376574977733968,"95":0.06444092352026153,"96":-0.018149727581807718,"97":-0.035525161030267566,"98":0.0027701808330983517,"99":-0.03232363180648586,"100":0.054301407753256835,"101":-0.017149894361505713,"102":-0.03550521861191167,"103":-0.05860250835194569,"104":-0.04921903773021421,"105":0.01173996211825544,"106":-0.0093514237692094,"107":0.020114324994451947,"108":-0.03567162113910655,"109":0.03473715367200539,"110":0.010839933607940873,"111":0.046267906670035976,"112":-0.014883534647989529,"113":-0.013331050875511138,"114":0.11186350601454556,"115":-0.035736429731840935,"116":-0.008867194634471214,"117":0.027658592146647974,"118":0.042264374427468415,"119":0.05040716046080791,"120":0.005994112206953472,"121":-0.052483312737440176,"122":-0.03984948009152931,"123":-0.0005449394110626817,"124":0.016775076600303557,"125":0.010881096059680965,"126":-0.09571570025255072,"127":-0.019227987361794444,"128":0.01758323797532315,"129":0.03578807898879187,"130":0.09836371719826265,"131":-0.011199311414806736,"132":-0.009319201749396964,"133":-0.04413226678603614,"134":-0.12689166209032784,"135":0.03132608329179916,"136":0.014469619791871502,"137":-0.04508682504519642,"138":-0.07444350965481132,"139":0.007034646042415093,"140":-0.03295132567170978,"141":-0.002137323218515213,"142":0.02423844709642526,"143":-0.02194777996129343,"144":-0.016663524765475994,"145":-0.062246758717666745,"146":-0.06977529826322985,"147":0.048530881957648216,"148":-0.10056909472661146,"149":0.01289594805680534,"150":0.007697760131223517,"151":-0.02090936369008809,"152":-0.04945407395443324,"153":-0.005464526573495542,"154":0.03618795980267205,"155":0.0035337950552163195,"156":0.03509672378483208,"157":-0.08203029028798009,"158":-0.0053807516238115055,"159":-0.05629286403133502,"160":0.013581773473839329,"161":-0.0014748347446378854,"162":-0.03986274870360266,"163":-0.038693134652095985,"164":0.011455915947793308,"165":0.02288742071906942,"166":0.00899065931178278,"167":-0.013204918222513164,"168":-0.0031275394831797652,"169":-0.07579520748455817,"170":-0.026659822322881516,"171":-0.0005682427323002404,"172":-0.09459856514136958,"173":-0.004002118655794011,"174":0.045161670749029645,"175":-0.044569368442583975,"176":-0.02744174689852534,"177":-0.007776968463621313,"178":0.039420537969626704,"179":0.020996523322814598,"180":-0.022541073967717085,"181":-0.05036067100993448,"182":-0.011712923552244028,"183":0.03652145023673051,"184":0.00889251045209067,"185":0.00280083727031417,"186":0.0047393422486499024,"187":-0.011465853702856164,"188":0.01681306412205243,"189":0.0067600390704217785,"190":0.10361810529106315,"191":0.05345523605232197,"192":0.004692414085425821,"193":-0.039130507893100144,"194":-0.03487059282170904,"195":0.04945223988702781,"196":0.019908653896856268,"197":-0.007235792706644056,"198":-0.004411035702042787,"199":-0.055352485747955246,"200":-0.02452424759481494,"201":-0.016316636495065227,"202":0.03749178327902718,"203":0.011389362141668666,"204":-0.015465957586543368,"205":-0.13037228778293888,"206":-0.017887603777249506,"207":0.040260889233784576,"208":0.013450031540029788,"209":-0.011110001054352215,"210":-0.012360904961980994,"211":-0.06163051451895047,"212":-0.010266435381667145,"213":0.017280083280888696,"214":0.009807608573526189,"215":0.00936598982185995,"216":-0.00025944245065480105,"217":-0.11422102257878422,"218":-0.02971313229800885,"219":0.055451323910800016,"220":0.06294566543649083,"221":0.0032906505096838247,"222":0.016961522505861207,"223":0.009390921095551738,"224":-0.004830960347881474,"225":0.014000577909875803,"226":0.10790733658527511,"227":0.032324369388811065,"228":0.014897048006287194,"229":-0.1489538484241081,"230":0.035517553791641586,"231":-0.023386735204592272,"232":0.07365765566965089,"233":0.04383787564654036,"234":-0.11779306056202167,"235":-0.010062681866588206,"236":0.026702516162480573,"237":0.007070538191755866,"238":0.08300802655259888,"239":-0.0040985800666074,"240":-0.059036659124056846,"241":-0.030569552518729046,"242":-0.1404863447644344,"243":-0.03090865335553698,"244":-0.04492080912530803,"245":0.005398739533152098,"246":0.015695825799659786,"247":-0.041023725705838406,"248":-0.059027809807664595,"249":-0.001992022044354494,"250":0.09585047425442378,"251":-0.01555374764863626,"252":-0.020157554631441317,"253":-0.05781663916513437,"254":-0.07829425576010796,"255":-0.02181305396560016,"256":-0.056139909818499256,"257":-0.043436452037060896,"258":-0.03699794365072891,"259":-0.03118653399571546,"260":-0.04687310565815994,"261":0.017197470209614225,"262":0.027319085397245438,"263":-0.021429772059324417,"264":0.025310805145722738,"265":-0.036366650138143795,"266":0.0022078291529097757,"267":0.01905450176471071,"268":0.016243751616822368,"269":-0.03206589242905039,"270":0.06749529472925675,"271":-0.025244159040859804,"272":-0.0015523843875367874,"273":-0.03019713950115108,"274":0.004008177940564027,"275":0.011912946602604007,"276":0.0427054782139958,"277":0.016066631412447952,"278":-0.00004324757597003484,"279":0.08804115591433342,"280":0.052719854518795274,"281":-0.029035594044451368,"282":0.04078940752208926,"283":-0.02179116076854498,"284":0.004883496204835539,"285":0.02053140467418012,"286":-0.06550742627918564,"287":-0.012516906323696795,"288":-0.0073359379974987935,"289":0.02013939509537409,"290":-0.10060388528858219,"291":0.008160535250051627,"292":-0.029710809177645247,"293":-0.07860161106411535,"294":0.03915727983714792,"295":-0.03658753298725825,"296":-0.0026162638863903905,"297":-0.0019599243804141503,"298":0.068834472087496,"299":0.015555071667748596}},{"sx":5,"sy":5,"depth":12,"w":{"0":-0.010738290263872347,"1":0.0000760907560379157,"2":-0.0042968317527473715,"3":0.02849035949273099,"4":0.0012502767096148825,"5":0.00937018695767976,"6":-0.03245743546394921,"7":-0.002807643898695932,"8":-0.01283052155327662,"9":-0.020275980760937888,"10":-0.001850104121680142,"11":0.019250222748741726,"12":-0.003117820918745917,"13":-0.009372252932658321,"14":-0.029871135763375436,"15":0.004228038252339681,"16":0.0040869614569856785,"17":-0.024214660968290898,"18":0.0033945994816226145,"19":-0.020299724247725217,"20":0.011488203698483709,"21":-0.005155276329853038,"22":0.03622655380265574,"23":-0.02883751848811404,"24":0.023441587043394038,"25":0.005704758114508718,"26":-0.029268526352586553,"27":-0.030497282704848278,"28":-0.04470683830461833,"29":0.03332112404593858,"30":0.024491124058795794,"31":0.006477404736864021,"32":0.023866781163949434,"33":-0.02453260421157015,"34":-0.03360873902580304,"35":0.023797611340009753,"36":-0.003799865483885056,"37":-0.00911040002340923,"38":0.01123900440984971,"39":-0.022450528466498726,"40":-0.0018975985025435982,"41":0.007038560809612148,"42":0.002182151026733846,"43":0.017819669419073432,"44":0.0007359386318855708,"45":-0.010033374144152297,"46":0.025012774956226485,"47":-0.0018203546289622212,"48":0.04100592966291502,"49":-0.052653386104129285,"50":-0.0047672722957717234,"51":-0.030081056993287794,"52":0.009402843480996381,"53":-0.03615519802479592,"54":-0.02365290435011655,"55":-0.021683351514986706,"56":-0.019055292524468297,"57":-0.02128448292002534,"58":0.019584166371368637,"59":0.02222189344241177,"60":-0.010874585142421732,"61":0.010089760129499564,"62":-0.028255922290205442,"63":0.0233418099195754,"64":-0.018605449616203022,"65":0.00926514788138673,"66":-0.02082984690273546,"67":0.004573937234273957,"68":-0.022268749469464194,"69":0.004893359462973001,"70":0.009473549064750918,"71":0.019620310763503686,"72":-0.008169527871052377,"73":0.001838828347634336,"74":-0.018214861976573793,"75":0.0181415950318021,"76":-0.015612161602870284,"77":-0.029249884004020683,"78":-0.01762042186097523,"79":0.02065400726995246,"80":0.00127002259911747,"81":0.008623380461059683,"82":0.05584303248180426,"83":-0.024243953722839533,"84":-0.01084930889506246,"85":0.020249346257321315,"86":-0.030176604385102095,"87":-0.04180240078747586,"88":-0.008481832191396052,"89":-0.010356578560593174,"90":-0.017874234407854815,"91":0.003448547010211222,"92":0.041411247518173495,"93":-0.007238156039961617,"94":-0.024006947045327964,"95":0.01586228017524798,"96":0.019099430962625,"97":-0.032762848538046396,"98":-0.01694473975441117,"99":-0.016582397599552275,"100":0.0005020304791669952,"101":0.0439361891174307,"102":-0.03521745875748391,"103":-0.033004150592061285,"104":-0.04504891042484422,"105":0.0016084768311253345,"106":0.0006325799917927061,"107":-0.03747810114594902,"108":-0.0039885044188203295,"109":0.02261903251946328,"110":-0.023816507638044004,"111":-0.029376127792234526,"112":0.010469098546552806,"113":0.033573549062025886,"114":-0.03859607194216504,"115":0.003217980935618683,"116":-0.010305659569627555,"117":0.004558801808694449,"118":0.005607660518643562,"119":-0.0010898795464624631,"120":0.042001021902750596,"121":-0.0222080751506724,"122":0.008594555801508615,"123":-0.01096936391211278,"124":0.012101087130937185,"125":0.021150664367860117,"126":-0.02404813996833367,"127":-0.00276234769791264,"128":-0.014431023830262265,"129":0.011420255305401666,"130":0.0360459936704879,"131":-0.0019347171299087583,"132":-0.008548679134220138,"133":-0.025704137209231637,"134":-0.01350434387418978,"135":0.008485304510523178,"136":0.013679072848485423,"137":-0.015387242750885878,"138":0.0008854019951231616,"139":-0.03649230734583414,"140":0.01757846558998775,"141":-0.00153332558582108,"142":-0.03399956988200263,"143":-0.028804242176973166,"144":0.013855150126057177,"145":-0.01712727607064626,"146":0.0036558580867007296,"147":0.006888216293365642,"148":-0.008293077595367855,"149":-0.004097582221525102,"150":-0.00044765270909751637,"151":-0.030803998294055394,"152":-0.015454262041279233,"153":0.016921914516174974,"154":-0.005550479273576057,"155":-0.021759364909990378,"156":-0.003441664201658277,"157":-0.0066925813052068125,"158":-0.0022124473418313104,"159":-0.018867681936031375,"160":0.01342626617241651,"161":0.02517677708862643,"162":-0.04734169469746534,"163":-0.040830593867557254,"164":-0.0408660583713967,"165":-0.04703379999218697,"166":-0.01072226823239524,"167":-0.03250278570114216,"168":0.00009953537108384445,"169":-0.018244215944438726,"170":0.00097330270580244,"171":-0.05120416176699036,"172":-0.00958662557895501,"173":-0.009509175597513093,"174":-0.024276196051386634,"175":-0.02377721498636346,"176":-0.023953331365631755,"177":0.0010776222011984007,"178":0.005577390311150334,"179":0.011041113223773637,"180":0.01843795805486635,"181":0.006775850127318611,"182":-0.015574148795315696,"183":-0.006099599573595971,"184":-0.02863304947063731,"185":0.04951037565448,"186":-0.02397391392943424,"187":0.006674742685357951,"188":0.010420298704675951,"189":-0.026926647467139846,"190":-0.008729962256927614,"191":0.019887628219619365,"192":0.02273390522192905,"193":-0.018574921398819322,"194":-0.007088928771431842,"195":0.01654616933326547,"196":-0.05212172625394023,"197":-0.024604982216887325,"198":-0.045933116018807,"199":-0.03561912199661387,"200":0.022402004478642597,"201":0.02658467558057682,"202":0.015569747075598347,"203":-0.000699402975337866,"204":-0.007964050854345515,"205":0.008989765569395559,"206":-0.009110571859311212,"207":-0.00006921591592999046,"208":-0.00995219044797537,"209":0.014352242997232903,"210":-0.015552893301575974,"211":-0.020963491851597665,"212":-0.015358650510635723,"213":0.011840599091471775,"214":-0.013072682236685956,"215":0.0017437332329604503,"216":0.005538992368888576,"217":0.01783540228038718,"218":-0.040776376174073786,"219":-0.008615341325669093,"220":0.005438321452756467,"221":-0.01711395252317594,"222":-0.01446816553258808,"223":-0.017839712891906046,"224":-0.0216901300912405,"225":0.012646780136285153,"226":0.012788877177824176,"227":-0.014074004218218656,"228":-0.015517480984076194,"229":-0.03548215819903421,"230":-0.041521264286282104,"231":0.029843782826641473,"232":0.01428791550384103,"233":-0.006089389274006804,"234":0.014479345220263187,"235":0.017776715987365365,"236":-0.0067649426816707384,"237":0.013852414185395266,"238":0.004442662746326797,"239":-0.019225475109662594,"240":-0.015897749903296,"241":-0.00673222171511351,"242":-0.010846521756178127,"243":-0.010538671096922076,"244":-0.021193252048730085,"245":-0.010442850606661802,"246":-0.01673901555378205,"247":-0.007994867000760596,"248":-0.0019537054550797946,"249":0.007685075289202124,"250":0.01629449883548172,"251":0.014114760805094096,"252":0.008006990244553945,"253":0.025641783560115004,"254":-0.02909825264809507,"255":-0.00824237131414197,"256":-0.004394678663792064,"257":-0.0015766003850294266,"258":-0.02966062174962186,"259":0.004740071489187192,"260":-0.04764241736118813,"261":0.013077432577527826,"262":-0.022622045253948474,"263":0.04260941252280402,"264":-0.007761397004891378,"265":-0.029248208729124554,"266":-0.009998754078618442,"267":-0.011253421730887,"268":-0.011752053132466248,"269":-0.008608872896225014,"270":-0.01594459864584049,"271":-0.01221405137667362,"272":0.0001209314341928685,"273":0.02842391814824746,"274":-0.0075811073707257835,"275":-0.02091457406700067,"276":-0.026516413864465925,"277":0.006378294890292904,"278":0.03806742705750416,"279":0.05033482778796774,"280":-0.015203161215176642,"281":-0.03341401321803252,"282":0.007077083021325904,"283":0.03384049657836325,"284":0.0070468584704925785,"285":-0.02067778608350056,"286":-0.021692772834196555,"287":0.007556060557040113,"288":0.022374505505702115,"289":-0.0030301069140908623,"290":0.00812267550957764,"291":0.005655587732069571,"292":0.01846051150157841,"293":-0.014130133412800323,"294":-0.020803020571501216,"295":-0.019009813036377124,"296":0.015823177717316228,"297":-0.006963378343075919,"298":-0.021781081610995918,"299":0.009372633835034394}},{"sx":5,"sy":5,"depth":12,"w":{"0":0.019624569869746252,"1":0.00353508837372615,"2":0.02292693628262522,"3":0.000733378376158728,"4":-0.033861479825315725,"5":-0.0033603832186958125,"6":0.0007940520151132751,"7":-0.01475219470625814,"8":-0.04362204374943839,"9":0.008775265828002428,"10":-0.041103436922804465,"11":-0.02371084843567919,"12":0.0013021660038069582,"13":-0.027101935993675767,"14":-0.011560916111798266,"15":0.010661392619384168,"16":-0.0034099780028181,"17":-0.013935429686271266,"18":0.0032402795714472125,"19":0.01290209426026297,"20":0.004056326291267046,"21":0.008740677871590802,"22":-0.01008031871807245,"23":-0.014454236207490432,"24":0.03935365476640375,"25":-0.0024362713759406144,"26":-0.016421758552370852,"27":-0.02594462255970744,"28":0.03672528732923963,"29":0.0025898494238793045,"30":-0.0027858065459799384,"31":-0.02264292831004504,"32":-0.020903535024597047,"33":-0.0019760157912587254,"34":-0.036394465045705156,"35":-0.012539907198631099,"36":-0.022601447221662338,"37":-0.007703609372317403,"38":-0.03728608059356116,"39":-0.06114037515499267,"40":0.02076480022571876,"41":0.0024159327582140957,"42":0.004964091364807532,"43":-0.021332879035663596,"44":0.010740649789960387,"45":0.01280850422246972,"46":-0.022758833872197674,"47":-0.019417107165463302,"48":0.012026907812578806,"49":-0.008920782838483375,"50":-0.02664252000671804,"51":-0.05454002969701951,"52":-0.015241907461440612,"53":-0.003407053485131124,"54":0.025020331373790904,"55":0.01712040447969745,"56":0.027267750671216333,"57":0.022151357777399513,"58":0.000541838949547332,"59":-0.012074775421934905,"60":-0.013833064887742975,"61":-0.004116551300431534,"62":-0.02080317668398452,"63":0.008521818234131813,"64":-0.03448616777477391,"65":0.010319935620537898,"66":-0.01882744483699733,"67":0.03577173809247693,"68":0.012170981906755592,"69":-0.02950530792063116,"70":-0.03075572999047307,"71":0.010266792837644114,"72":-0.007358158208315835,"73":-0.03939589282549944,"74":-0.010216981898933745,"75":-0.0063659195545079554,"76":-0.01079613988267659,"77":-0.021181456725694946,"78":0.00808640408399589,"79":0.008600484937220801,"80":-0.0745799342021085,"81":0.00962837414929054,"82":-0.02107867627367526,"83":-0.010083830457517373,"84":0.01742224503879793,"85":-0.02766691562998662,"86":0.00024413606325853418,"87":-0.0040803174799088834,"88":0.0019538616300234166,"89":-0.0008317449279950484,"90":0.005121855814466391,"91":0.014984305454307708,"92":-0.01352178841260537,"93":0.006562970669504031,"94":-0.009308102070373095,"95":0.00467139157540838,"96":0.014774716289383264,"97":-0.029197481996615773,"98":0.011025121994731123,"99":-0.015388751243670163,"100":-0.0447438864336198,"101":-0.04022630696827438,"102":-0.0026689990275193267,"103":-0.03176521117378528,"104":-0.0011978149565746942,"105":-0.03194177971697505,"106":-0.021784203445561836,"107":-0.009452273707584329,"108":-0.025129936912043613,"109":0.015197486430642193,"110":-0.007573779540603329,"111":-0.0017343852040675872,"112":-0.008664269639003101,"113":-0.05469203201413229,"114":0.017673171510321658,"115":-0.021810881435282044,"116":0.030607266734996946,"117":-0.004029747054640641,"118":-0.013227957736014522,"119":0.023760066407367844,"120":0.021836857555317366,"121":-0.0376772145157212,"122":-0.0024859077482152375,"123":-0.028689944632235134,"124":0.032738850543552016,"125":-0.02389214302604113,"126":-0.0037987233384221795,"127":-0.030491571028686593,"128":0.03539316778973521,"129":-0.024809982806145502,"130":-0.02249617046365484,"131":-0.015259605178900314,"132":-0.01481779375694756,"133":0.0029032018696678193,"134":0.00872713981199524,"135":0.0005451579679496052,"136":0.003143646647120938,"137":0.003133268071656576,"138":-0.048735931902470414,"139":0.017556207507027022,"140":-0.013859339625519907,"141":-0.025871600103150764,"142":-0.056831367533959606,"143":0.022411118945889947,"144":0.010498235067956583,"145":0.001066414431761555,"146":-0.003934805647590816,"147":-0.02294561144360911,"148":-0.029981090723550822,"149":0.003873584477900269,"150":-0.03684372527374283,"151":-0.011097206930910195,"152":-0.02736092963796084,"153":-0.010795746136427175,"154":-0.029704313235901766,"155":-0.013596301284904593,"156":-0.03611857487708181,"157":0.002040354511309927,"158":-0.04007791775409498,"159":0.00046477901502961055,"160":-0.03170473469405588,"161":-0.004412438554370177,"162":-0.016656367020231135,"163":-0.009723045778048616,"164":0.009615677088947549,"165":-0.021331300673244725,"166":-0.0037015300620787455,"167":-0.008875098348856992,"168":-0.020761562123117295,"169":-0.027564928117487498,"170":-0.03508228878040134,"171":-0.020025671460476898,"172":-0.03862561588197467,"173":-0.010008237046239609,"174":0.012082073109457149,"175":-0.03335618629260838,"176":0.008311158398598285,"177":-0.012990488178580272,"178":-0.023215357299855417,"179":0.009184299336205085,"180":-0.017407392863915502,"181":-0.009069386669495161,"182":-0.002494890816582315,"183":0.0001167395478965088,"184":-0.033321951580177395,"185":-0.0037802914305398675,"186":-0.012223815784968747,"187":-0.008130033443095945,"188":-0.011441063014887787,"189":-0.00224416862518468,"190":0.02074316700957186,"191":0.014956478208963533,"192":0.011876544625135401,"193":0.008235555578534975,"194":0.0364434486076535,"195":0.010098131357341684,"196":0.000886479276990286,"197":0.0077484147652341065,"198":-0.005998740424849058,"199":0.027257137691495233,"200":-0.019994840395236805,"201":-0.0027750841214571036,"202":-0.03981981270461888,"203":0.0001077853149030659,"204":-0.00217993125404814,"205":-0.013141612296642546,"206":0.018542460756467243,"207":0.029795919848429216,"208":-0.02284052081877453,"209":-0.012102172974991717,"210":-0.03476599518578978,"211":0.0018579046449164302,"212":-0.002382981716957777,"213":-0.01055157062202634,"214":-0.0039697205761395765,"215":0.012947914009636293,"216":-0.06599555861918759,"217":0.025566732022240357,"218":-0.045476917533075464,"219":-0.0025389377636002536,"220":0.013077521664279997,"221":0.04944725126917143,"222":-0.012335831660792159,"223":0.017619755894558355,"224":-0.05209691644495441,"225":-0.015186089431553244,"226":0.004245947955604101,"227":0.003987582994532754,"228":0.018495452400221386,"229":-0.012630006012162735,"230":0.01422106559956483,"231":-0.03320278511451116,"232":-0.010080079585264292,"233":0.0020619903022090534,"234":0.031602551948944416,"235":0.0071909215838836795,"236":0.018993366855137604,"237":-0.023687108302415733,"238":-0.018652829883694606,"239":0.020628021886429038,"240":-0.021470317065753333,"241":-0.006109530817691429,"242":0.01003037197821047,"243":-0.05291889997864146,"244":-0.016873248994249867,"245":-0.007118428764666267,"246":-0.016616229304975395,"247":-0.018523097202845496,"248":-0.010784799131199703,"249":0.026894599056769674,"250":0.02219410102121694,"251":-0.0154521098383454,"252":-0.026269237620455414,"253":0.03684760396296439,"254":-0.05987085072889341,"255":-0.03788410091415765,"256":-0.0025398739111628468,"257":0.02459342273819547,"258":-0.020858109488576537,"259":0.01985981859096996,"260":-0.0017291978354920968,"261":-0.010575939018900552,"262":-0.0063675309521144,"263":0.020656450602450815,"264":-0.0056295848493280705,"265":-0.0030003990303111155,"266":-0.019675288348529846,"267":0.003916057352915248,"268":-0.0025209001788517394,"269":-0.023342304987164216,"270":-0.028783771383637625,"271":-0.016208423590674606,"272":-0.03469081523371534,"273":0.031014392128267527,"274":0.010057825867330438,"275":0.013645087923532695,"276":-0.018862985456446928,"277":-0.009479282357244899,"278":0.012786429812538047,"279":0.006447404950522344,"280":-0.010824715595253342,"281":-0.044805120422057115,"282":0.00041576940907278077,"283":-0.03575247350240245,"284":0.007968189623736062,"285":0.02355521145950504,"286":0.003048147099698446,"287":-0.020087493142496464,"288":0.011409312855368487,"289":-0.005210006951901681,"290":0.01157876383116105,"291":-0.01094865037116932,"292":0.014597825453042196,"293":0.0007878594519745467,"294":-0.0363121747179167,"295":-0.007737511573023938,"296":-0.005337099495917047,"297":0.025016813614390312,"298":-0.007423678650771666,"299":-0.024545348349037533}},{"sx":5,"sy":5,"depth":12,"w":{"0":-0.04369791935419234,"1":-0.053478933263491325,"2":0.041244129488921366,"3":-0.028741520220440346,"4":0.025739428418338674,"5":0.0845770835481199,"6":-0.026547618339826405,"7":-0.005600783443110819,"8":0.023533293928073476,"9":0.0025448113936520004,"10":-0.053550220208059385,"11":-0.01869736900337161,"12":0.00038281041531252035,"13":-0.0310886136171547,"14":0.07545026073780985,"15":0.03723247811694894,"16":0.03536180602086241,"17":-0.023467131255509102,"18":-0.019666956590452905,"19":-0.004820172167453943,"20":-0.008407603114281785,"21":0.0037651716663301624,"22":0.03468383574832115,"23":0.025324538403323906,"24":0.04594185424767025,"25":0.047783404068781364,"26":0.03589023476297727,"27":-0.013422983894969587,"28":0.06775681692067914,"29":0.019102036962698712,"30":-0.01683058290033595,"31":-0.018731679235844654,"32":0.010240939201398597,"33":-0.01676659535554488,"34":-0.07338346598007196,"35":0.009144055094437059,"36":0.0097422118741008,"37":-0.08166060202687965,"38":0.057289087211063204,"39":0.02439940450805707,"40":0.003061777661792791,"41":0.0705497603585057,"42":0.05410277583459867,"43":-0.0034366028272469267,"44":0.017306051539835856,"45":0.015783383636122136,"46":0.019935821054577765,"47":-0.0417651504779302,"48":-0.021068156462834157,"49":-0.027722507178848436,"50":-0.0021123465684739105,"51":-0.0019536105454412804,"52":-0.023652180809566714,"53":-0.020997317821228826,"54":0.13728688957110632,"55":0.007170161935570911,"56":0.003618707533397381,"57":-0.043413727885478495,"58":-0.03865357393810662,"59":-0.03037062669725815,"60":0.14285811973817975,"61":-0.012488311299298642,"62":0.057334888873930276,"63":-0.031674773454195775,"64":0.03972206429812113,"65":-0.002702375473619272,"66":-0.052916451378963246,"67":0.0031553220218356924,"68":0.04297845795416306,"69":-0.030857124577396016,"70":0.014652621431175824,"71":0.04884540894474829,"72":0.09551802342933592,"73":-0.0884144146594194,"74":-0.024581065263175154,"75":-0.015313846472564327,"76":0.056924345197160345,"77":-0.0052126759999962125,"78":-0.04028318757061194,"79":0.005996609409308809,"80":0.07389912609034752,"81":0.009511585705993246,"82":0.008405127035720487,"83":0.00009559351238819272,"84":0.12721322412607391,"85":-0.03308271007996562,"86":-0.04486806706498298,"87":-0.003701641529210738,"88":0.0000017043091261411506,"89":0.018480194069207142,"90":0.012058589683794531,"91":-0.009159326482831949,"92":0.012121940082420348,"93":-0.012951476786114373,"94":0.002132584709604073,"95":0.1100028293286861,"96":0.055751314908698765,"97":-0.08100037544752137,"98":0.04722802364135182,"99":-0.03040717876773574,"100":-0.10332819455364052,"101":-0.06265683942120231,"102":0.0007951558332164408,"103":0.007558455111516981,"104":-0.011567978516412634,"105":-0.0004965919596542858,"106":0.023997528953059396,"107":0.14333392485980817,"108":0.10034015355524925,"109":-0.03312778641140287,"110":0.12576164656028632,"111":-0.009731815663478225,"112":-0.012113018376518271,"113":-0.015431326394990555,"114":-0.0577100588152123,"115":0.015757307252563732,"116":-0.0038999202031269457,"117":0.0313843100027005,"118":0.05340852874120801,"119":0.10767317057833967,"120":-0.0394732236082217,"121":0.017167092658549783,"122":-0.014405164866799618,"123":-0.04981826882930204,"124":0.07859363600787043,"125":0.07102196517317325,"126":0.04683348653116615,"127":-0.008885550841733866,"128":0.043322157437538616,"129":0.028574570330646736,"130":0.06809284408532802,"131":0.04608704834762529,"132":-0.02325961445286426,"133":-0.03900276072605235,"134":-0.06829310029653345,"135":-0.011249341803266588,"136":0.0693270142831192,"137":0.022782873744393122,"138":0.0593354832976122,"139":-0.021090910332969285,"140":0.0148250067802148,"141":-0.0018218700354857805,"142":0.017186164425867706,"143":0.01785565857876837,"144":0.012078000955426584,"145":-0.011299031517575709,"146":0.02781023654698248,"147":0.04377790550010838,"148":0.10642222971490015,"149":0.028599287485274846,"150":-0.03707723174766444,"151":-0.01966033480820282,"152":0.052591895608050214,"153":-0.028599552328122967,"154":0.004359785890644618,"155":0.05372047152403505,"156":0.007835462943683143,"157":0.06631475871988804,"158":-0.05113495693158643,"159":-0.0032160608435868585,"160":0.10382492473149336,"161":0.005999627703113011,"162":0.023017356137039657,"163":-0.009426293399288868,"164":0.026620148839489013,"165":0.006295400513190562,"166":0.05659515534393828,"167":0.004672429488694324,"168":0.0389311436536592,"169":0.04200484928369686,"170":-0.0719714650917379,"171":0.015197669804401247,"172":0.01976457836214455,"173":-0.02984307960261201,"174":-0.06038516807982212,"175":0.01651222078395749,"176":0.050627993150166126,"177":-0.014076656553055247,"178":0.03685984381162978,"179":0.00475639781924877,"180":-0.013113090862380335,"181":-0.048679493596345866,"182":0.011018464432972521,"183":-0.002958916695601821,"184":-0.010729174780492096,"185":-0.03524510430820138,"186":-0.027908541426663224,"187":0.005974300162607885,"188":-0.01686053216352521,"189":0.02314158027641693,"190":-0.029740968909977857,"191":-0.003473019852311691,"192":-0.023818607910340517,"193":-0.038704675335077154,"194":-0.016735340870073976,"195":0.02375297716622866,"196":0.004470758602943663,"197":-0.03945146296974459,"198":0.022966252544468786,"199":-0.026082476227864835,"200":-0.0011038511062780876,"201":-0.019193192865389095,"202":-0.04540611908160331,"203":0.0620603742455442,"204":0.003099315162715349,"205":-0.02259990583831981,"206":-0.09630645707789025,"207":-0.022982308139044234,"208":0.020911007932254675,"209":-0.0198889645763464,"210":-0.046220827761142065,"211":0.005317499993075775,"212":0.00912698181603953,"213":0.009639067908855683,"214":-0.08118697489793192,"215":-0.011581797218073044,"216":0.0031197330824503187,"217":-0.005988265215370664,"218":-0.04696957175236223,"219":-0.004789045499590699,"220":0.00652090505729038,"221":-0.03914264491962965,"222":-0.016715983839105865,"223":0.024317302451558106,"224":-0.022739679121464504,"225":-0.013751756975220202,"226":-0.010088774801264409,"227":-0.040025647144991135,"228":-0.025446541320138606,"229":-0.06211296958444038,"230":-0.05888959009328696,"231":0.010726155557146348,"232":-0.001594501678952527,"233":-0.019784568522421976,"234":-0.0601405092743958,"235":0.04464927868973386,"236":-0.03887723183415105,"237":0.01621820693836791,"238":0.04795886000714677,"239":0.009213095146149871,"240":-0.00030020788289673856,"241":0.022627286062763517,"242":-0.057259030745534845,"243":0.04046503719530812,"244":0.03276607503389399,"245":-0.01746983511526961,"246":0.019582228475408046,"247":0.03492463777535702,"248":0.014138284384574356,"249":0.027564674932331727,"250":-0.044192051579523876,"251":-0.039123595134074325,"252":0.02701424680592913,"253":-0.011602778401389598,"254":-0.03534211558356923,"255":-0.02220286849230243,"256":0.007835368432517649,"257":-0.02504055169597163,"258":-0.056785426296379074,"259":-0.013309488592812502,"260":0.0016560124052494042,"261":0.0014076410890640476,"262":-0.012932964922295885,"263":0.01795529866034305,"264":-0.057233642308660765,"265":-0.04039622114784203,"266":-0.06117840605498298,"267":0.00750598482854555,"268":-0.024943578279312484,"269":-0.00564766359522741,"270":-0.025202438181906466,"271":0.006484200330948052,"272":-0.056371080270843824,"273":0.015563838395635788,"274":-0.00005885091418040886,"275":-0.026061972530832506,"276":-0.04295375016257768,"277":-0.08995006790392508,"278":-0.06686111132900474,"279":-0.03173461355981663,"280":-0.04268998488805452,"281":0.03688335128918977,"282":-0.013827545711356371,"283":0.013199425065666027,"284":-0.011806720418783436,"285":0.026849425939192418,"286":0.028665676605375133,"287":-0.011665487011090932,"288":-0.02461127020560489,"289":-0.029442454314383637,"290":-0.053658855871521076,"291":-0.001898077490356534,"292":0.003439981972163507,"293":0.008396680526221117,"294":-0.02614697687992346,"295":-0.01093061907560154,"296":-0.026766387746462,"297":0.000822733867198569,"298":-0.0014366946173024024,"299":-0.028385574608863637}},{"sx":5,"sy":5,"depth":12,"w":{"0":-0.02945197543691547,"1":-0.015037244838857324,"2":-0.03445395032361137,"3":-0.04889076658098574,"4":0.019617993805112442,"5":0.01823132478536845,"6":-0.0034522232393022754,"7":-0.01325909902703264,"8":0.012512563098746685,"9":-0.021606515511861792,"10":0.0070342077964194874,"11":0.06540941287329956,"12":-0.029171206333990417,"13":-0.007311849024351097,"14":-0.012965896865060824,"15":0.02811395691690852,"16":-0.014480120983871627,"17":0.01268087244910022,"18":0.003311277349441567,"19":-0.050703726622366614,"20":0.006405504934292887,"21":-0.0200003754362248,"22":-0.0210027835058453,"23":-0.008057539810614136,"24":-0.02332694905422953,"25":0.002884534784521453,"26":-0.02479683265009283,"27":0.042790328238524404,"28":0.02570004793725885,"29":-0.01029227447776217,"30":0.0018498224301513326,"31":-0.027149685086336216,"32":0.06339395465510952,"33":0.018989478758036676,"34":0.011115214394818131,"35":0.04208903009754539,"36":0.025498942220468702,"37":-0.014381786334798984,"38":-0.03396795263966293,"39":-0.018450831064234396,"40":0.008670185943127236,"41":-0.0003429153977150126,"42":-0.006834474160294722,"43":0.009864268418353484,"44":0.0018751652797694119,"45":0.00841173186426247,"46":0.005393993630891341,"47":0.005482714457067179,"48":0.040729198613603676,"49":-0.0065251282116319965,"50":-0.04747590224986427,"51":-0.030373200659079846,"52":-0.028167564556244726,"53":-0.009274640484985889,"54":-0.027089347683255396,"55":-0.0242695234656234,"56":-0.03508521893439278,"57":-0.05452320052398043,"58":-0.01979126032601495,"59":-0.029390460249897204,"60":-0.0014722400334066434,