{"layers":[{"out_depth":3,"out_sx":28,"out_sy":28,"layer_type":"input"},{"sx":3,"sy":3,"stride":1,"in_depth":3,"out_depth":12,"out_sx":28,"out_sy":28,"layer_type":"conv","l1_decay_mul":0,"l2_decay_mul":1,"pad":1,"filters":[{"sx":3,"sy":3,"depth":3,"w":{"0":-1.1023184019215996e-25,"1":-1.0253686773109558e-25,"2":-9.183638656630315e-26,"3":-1.1354842871254657e-25,"4":-7.202536550949382e-26,"5":-4.991502433712241e-26,"6":-1.0774723746081809e-25,"7":-7.393825144431099e-26,"8":-5.987809801555978e-26,"9":-1.0350482538032837e-25,"10":-6.64338068434086e-26,"11":-2.3081611834855987e-26,"12":-1.068774993042362e-25,"13":-5.006223437020348e-26,"14":6.606543470184217e-27,"15":-8.702158422454818e-26,"16":-6.010304386156079e-26,"17":-8.365861892925221e-27,"18":-7.15222218791477e-26,"19":-7.381861515857599e-26,"20":-5.73683689201902e-26,"21":-6.44380230446024e-26,"22":-7.283817021016848e-26,"23":-4.896545753495225e-26,"24":-9.165388280224729e-26,"25":-8.417361872853578e-26,"26":-8.517806469557865e-26}},{"sx":3,"sy":3,"depth":3,"w":{"0":-7.55831744470636e-73,"1":-2.9162487868754406e-72,"2":-4.3563471936352183e-72,"3":-1.0223629506495404e-72,"4":-3.8549796893191485e-72,"5":-5.841386885935121e-72,"6":-7.796850096753808e-73,"7":-3.233152271319674e-72,"8":-4.097485465934008e-72,"9":-4.4558764075229814e-72,"10":-5.467224205345919e-72,"11":-6.449950682144808e-72,"12":-6.281291221765948e-72,"13":-4.958013680810668e-72,"14":-1.2251043123302401e-71,"15":-9.606833433633197e-72,"16":-4.653149106624606e-72,"17":-5.99623632604796e-72,"18":-5.447191750174807e-72,"19":-7.982605449818504e-72,"20":-3.510301893924063e-72,"21":-6.615916272680373e-72,"22":-5.223724739097229e-72,"23":5.939105080771827e-72,"24":-1.9955263546518867e-72,"25":1.8672730201484595e-72,"26":2.9499763073912916e-72}},{"sx":3,"sy":3,"depth":3,"w":{"0":-0.0000011269905102750668,"1":-0.0000022583418271762763,"2":-0.000002105062666946401,"3":-0.000002492823726460896,"4":-0.0000031064453650613224,"5":-0.000004968182211042199,"6":0.0000016334653175465349,"7":0.000004686151532950441,"8":0.0000018740205585320826,"9":-0.0000029601520852648217,"10":-0.0000017315081572942763,"11":-0.0000027417603431309106,"12":-0.0000032344482324517366,"13":-0.0000019870734005225686,"14":-0.000003123651224702211,"15":-0.000002509727805472307,"16":-9.207050349495687e-7,"17":-0.000004169232715519746,"18":-8.205609850427821e-7,"19":-0.0000015197202785262253,"20":-0.0000014847219219405087,"21":-0.0000033309265533469598,"22":-0.0000015848191490269204,"23":-0.0000034614993345912033,"24":-0.0000022025848415516766,"25":-0.000003116600723331337,"26":-0.000004149901682573971}},{"sx":3,"sy":3,"depth":3,"w":{"0":-7.687771793517296e-77,"1":-2.604024000101337e-76,"2":-2.365860569163415e-76,"3":-3.4053707515937083e-77,"4":-3.1075647724154156e-76,"5":-3.3018167128743714e-76,"6":-7.0878279204029e-77,"7":-2.6224676941520585e-76,"8":-3.366178057867986e-76,"9":-7.204983628932719e-78,"10":-1.8695362914657628e-76,"11":-8.324617355877574e-77,"12":-1.6269785886548916e-76,"13":-1.925663623058717e-76,"14":9.598641325349877e-77,"15":-1.2173486859294063e-76,"16":-3.358861408744477e-77,"17":1.533532154039973e-76,"18":-1.9347822016806438e-76,"19":1.4430463496514961e-77,"20":-9.493384313014628e-77,"21":-2.5092882772649467e-76,"22":-5.628664487371697e-76,"23":-9.905229197770958e-77,"24":-1.367786425312806e-76,"25":-3.788728727989177e-76,"26":-1.0221582295615013e-76}},{"sx":3,"sy":3,"depth":3,"w":{"0":-3.995273060363821e-76,"1":-1.6499610378372647e-75,"2":-1.7858989875889166e-75,"3":-3.645726553173935e-76,"4":-2.525082039285734e-75,"5":1.940111691934832e-75,"6":-9.43015064071996e-76,"7":-2.8043629305890077e-75,"8":-1.2436976780900525e-75,"9":-2.9657623260398654e-76,"10":-2.8438805979089475e-75,"11":-1.8796014625699514e-75,"12":-9.055866573752652e-76,"13":-2.495997618471801e-75,"14":5.538523682227611e-76,"15":4.725083347002136e-76,"16":-1.8963375487725527e-75,"17":-1.2829974871605717e-75,"18":-6.033607404943232e-77,"19":-6.899340691388103e-76,"20":-2.0603737276542794e-75,"21":-3.605111619611143e-75,"22":-1.0902143184478752e-75,"23":-1.7136443443354647e-75,"24":-2.8812417862277226e-76,"25":2.190856245501668e-75,"26":-2.7180419567843675e-75}},{"sx":3,"sy":3,"depth":3,"w":{"0":3.7117298049075775e-55,"1":-3.730266059255527e-54,"2":1.1037314622052118e-54,"3":-2.38118297957451e-53,"4":-2.687600889482571e-54,"5":-1.8643858217422055e-53,"6":-4.673131394182807e-53,"7":-8.347971084230714e-54,"8":-4.315972452288803e-53,"9":-1.2569804844643783e-53,"10":1.4452229851189564e-53,"11":-4.186418820595214e-54,"12":-3.6207369538979395e-53,"13":1.2925296798736296e-53,"14":-2.2551423765015445e-53,"15":-4.662023286705036e-53,"16":-1.4164380786443067e-53,"17":-5.770665086566133e-53,"18":-3.4586069158208596e-53,"19":-1.5628315363598353e-53,"20":-5.919992646214114e-53,"21":-4.338771279024122e-53,"22":-1.659162195600044e-53,"23":-5.572829282840617e-53,"24":-2.5689551742351654e-53,"25":-1.9842110942022447e-53,"26":-5.27308767953334e-53}},{"sx":3,"sy":3,"depth":3,"w":{"0":-0.032713662069299806,"1":-0.1569677916712648,"2":0.07878661558720651,"3":0.04693153180284422,"4":0.12258404755295434,"5":-0.02283417858218256,"6":0.0028365834868878934,"7":0.04773928408455901,"8":-0.018419872018917746,"9":-0.020730422298854554,"10":0.0957684135313379,"11":-0.0532573214360521,"12":0.13767149645926804,"13":0.353165230895322,"14":0.0917088025965032,"15":-0.052725423239575464,"16":0.19125368286372693,"17":-0.1353515035182008,"18":0.050544153488129184,"19":-0.07730098848488383,"20":0.12594089630693514,"21":-0.04732525818350462,"22":0.02166188688742003,"23":-0.11466815859070295,"24":0.02821576196046458,"25":0.004126125556734773,"26":0.0806795839827991}},{"sx":3,"sy":3,"depth":3,"w":{"0":6.571052133958682e-54,"1":1.8245895567224278e-53,"2":-1.6027726903657031e-55,"3":-3.3051310494745823e-53,"4":3.770425664498027e-54,"5":-3.597373364789476e-53,"6":-4.6422788687504505e-53,"7":1.4982504796656386e-53,"8":-3.7517208200660683e-53,"9":-7.992973194102866e-53,"10":-3.6476616904989886e-53,"11":-9.02429668485707e-53,"12":-1.1786717142379423e-52,"13":-4.154585700124531e-53,"14":-1.5253112633860726e-52,"15":-6.357295534315776e-53,"16":1.580696952374622e-53,"17":-9.555243652053807e-53,"18":-1.0383572189963172e-52,"19":-4.881997388447759e-53,"20":-1.2022067469311101e-52,"21":-1.0252803273490772e-52,"22":-7.359857366781862e-53,"23":-1.2182549320805249e-52,"24":-3.493014087808716e-53,"25":-2.4936908136214095e-53,"26":-7.9420235367330415e-53}},{"sx":3,"sy":3,"depth":3,"w":{"0":-4.310280129398112e-54,"1":-1.077109818004856e-54,"2":-9.44125471510672e-55,"3":-4.411175872836846e-54,"4":-1.0801463962120998e-54,"5":-8.646366643629733e-55,"6":-3.309482588226597e-54,"7":-2.5765652132707908e-54,"8":-2.639344768708433e-54,"9":-3.111667511718385e-54,"10":-3.1279361391989944e-54,"11":-2.838759138552297e-54,"12":-3.3000827775832256e-54,"13":-3.258475727318561e-54,"14":-2.869467085329474e-54,"15":-3.4294954304733426e-54,"16":-3.3809572364283046e-54,"17":-2.950859053527049e-54,"18":-2.6327842121494932e-55,"19":-2.1504886646991046e-55,"20":-1.2208577511670423e-55,"21":-3.2507396042996534e-54,"22":-3.803803515786009e-55,"23":-2.6921371655601854e-55,"24":-2.1126956455828e-54,"25":-9.625190245286807e-55,"26":-7.056052463091777e-55}},{"sx":3,"sy":3,"depth":3,"w":{"0":-4.263049791505747e-64,"1":-5.6583885931259796e-64,"2":-3.246279707289956e-64,"3":-3.952530098300148e-64,"4":-6.629113890406526e-64,"5":-3.1193821354870084e-64,"6":-4.4656776240861105e-64,"7":-8.291518713239816e-64,"8":-2.9260640728773304e-64,"9":-4.9866396616497543e-64,"10":-6.010219943032374e-64,"11":-3.614321346742919e-64,"12":-4.383811894038406e-64,"13":-6.321250156811994e-64,"14":-3.526613746100993e-64,"15":-5.059747135589557e-64,"16":-7.809304416307398e-64,"17":-3.150315639436804e-64,"18":-5.8432663462123086e-64,"19":-6.494655626771732e-64,"20":-4.719273913214031e-64,"21":-5.189953798607153e-64,"22":-6.530910329085157e-64,"23":-4.2044464222988624e-64,"24":-5.4980221984944395e-64,"25":-6.851673760395091e-64,"26":-2.7251440764587988e-64}},{"sx":3,"sy":3,"depth":3,"w":{"0":-4.708070238575469e-39,"1":-2.7730809516767302e-39,"2":-5.6308638712940794e-39,"3":-3.9848015885074835e-39,"4":-1.736889311063219e-39,"5":-4.759983983218288e-39,"6":-3.927336137993777e-39,"7":-1.7719656443795887e-39,"8":-4.522287457504987e-39,"9":-4.598686603812159e-39,"10":-2.9001264786053285e-39,"11":-5.7230034593612854e-39,"12":-4.2861703424201886e-39,"13":-1.8224546979973412e-39,"14":-4.960774753517795e-39,"15":-4.2839977911761903e-39,"16":-1.9164857926240714e-39,"17":-4.7913142313109475e-39,"18":-4.596338091692877e-39,"19":-4.254992221452226e-39,"20":-4.2317218373249805e-39,"21":-4.439360451030618e-39,"22":-3.120895106649672e-39,"23":-3.7140299639932896e-39,"24":-4.602522028107197e-39,"25":-3.0732774409583876e-39,"26":-4.4517737927495774e-39}},{"sx":3,"sy":3,"depth":3,"w":{"0":-0.07381524367745822,"1":-0.08617013816667951,"2":-0.027861614764473876,"3":-0.020652948885506832,"4":0.025395891166340417,"5":0.0005456063650217826,"6":0.07907949107404055,"7":0.23902681323942318,"8":0.04643102104542623,"9":-0.09326118226366306,"10":-0.16868707278978823,"11":-0.13115048511074903,"12":-0.0670510678595798,"13":-0.16437958970782482,"14":-0.13090101382180225,"15":0.07178423486054233,"16":0.09034162760777614,"17":0.012588393102729823,"18":-0.17722669345449793,"19":-0.25913256591253697,"20":-0.03331132199818775,"21":0.004776682196761571,"22":-0.05214571900578614,"23":0.049535613047462006,"24":0.22593691099099303,"25":0.3461772683607119,"26":0.08414968498299577}}],"biases":{"sx":1,"sy":1,"depth":12,"w":{"0":-0.008002834252570062,"1":-0.6338261595567202,"2":-2.1314963818791655,"3":-0.05537205616655249,"4":-0.12851156196555735,"5":-0.015430561115270025,"6":-5.337838373585677,"7":-0.011876227320261447,"8":-0.003159608998818995,"9":-0.006470397994681005,"10":-0.000318945173505723,"11":-0.17937208901583404}}},{"out_depth":12,"out_sx":28,"out_sy":28,"layer_type":"relu"},{"sx":2,"sy":2,"stride":2,"in_depth":12,"out_depth":12,"out_sx":14,"out_sy":14,"layer_type":"pool","pad":0},{"sx":5,"sy":5,"stride":1,"in_depth":12,"out_depth":18,"out_sx":14,"out_sy":14,"layer_type":"conv","l1_decay_mul":0,"l2_decay_mul":1,"pad":2,"filters":[{"sx":5,"sy":5,"depth":12,"w":{"0":1.7851912036951255e-25,"1":-3.3237013781400344e-73,"2":-7.6692228595421e-8,"3":8.292429959796627e-77,"4":7.124623377652839e-76,"5":-1.6913530335848842e-54,"6":-0.00003842028876967941,"7":5.376973684293651e-54,"8":6.023447014809775e-55,"9":4.1077329407986627e-64,"10":-4.510785388119751e-39,"11":-0.00003285534353675976,"12":1.0891783875492296e-25,"13":-4.375113582166416e-73,"14":-4.870256950938093e-7,"15":6.892477004648928e-78,"16":-9.108754997804834e-76,"17":-9.922469360791883e-54,"18":-0.000054203476394927267,"19":4.640125374907233e-54,"20":5.1158005373914916e-55,"21":2.1653188960812953e-63,"22":-5.033290277224856e-39,"23":-0.000011869543051320769,"24":6.216578899896135e-26,"25":-1.158558317256838e-72,"26":-6.761464436470054e-7,"27":8.860422057047154e-77,"28":-1.5727970582684126e-75,"29":-1.0014394390069406e-53,"30":-0.00003763978597180237,"31":-7.396322027662569e-54,"32":-6.108435329308784e-55,"33":1.4017593947442432e-63,"34":-6.015288286939041e-39,"35":-0.00005413956656891556,"36":5.1007977564619385e-26,"37":-4.911268860762093e-73,"38":2.5114980786975583e-7,"39":-1.0436071762899374e-76,"40":-1.54421338152125e-75,"41":-9.08267918773288e-54,"42":-0.0000046730642016466405,"43":8.638773970639345e-54,"44":-1.040647785749196e-54,"45":5.2231995841371284e-64,"46":-5.79660902530488e-39,"47":-0.000010270255620976548,"48":-4.5560256689033355e-26,"49":-5.072711023701862e-73,"50":-1.6214989061120905e-8,"51":-9.077676844077366e-77,"52":-2.1579034269479504e-75,"53":-1.5730297889243798e-54,"54":-0.0000015861456314186994,"55":1.5617866654348277e-53,"56":-4.632290507989275e-55,"57":1.0244737958519727e-63,"58":-5.521848806333254e-39,"59":-0.0000031637441688390683,"60":9.642047889358696e-26,"61":-1.053844965977924e-72,"62":-9.144116290854414e-7,"63":-6.303106123781721e-77,"64":2.3107661966804885e-75,"65":-1.3200407270936326e-53,"66":-0.00002113961885730644,"67":-1.6958030395816102e-53,"68":8.00077022108949e-55,"69":5.0408669854759384e-64,"70":-4.818092921927608e-39,"71":-0.000041521480046753404,"72":1.534921874189538e-25,"73":7.113217681702759e-73,"74":-9.219978187480163e-7,"75":-4.3317205825799815e-77,"76":9.030825575150063e-76,"77":1.9671733009325716e-53,"78":-0.000029243935289369503,"79":6.833442305556717e-54,"80":8.573387084072858e-55,"81":2.4690642957520576e-64,"82":-5.4153795245542354e-39,"83":-0.000016530402363325786,"84":5.693645021770698e-26,"85":1.2816369632877478e-72,"86":-4.822796727661829e-7,"87":-2.7469820762917884e-78,"88":2.2873350842666727e-76,"89":1.6759535933915546e-53,"90":-0.000021521624405333485,"91":1.0928247001458565e-53,"92":8.985971779437537e-55,"93":2.31076086287997e-64,"94":-6.78911114770238e-39,"95":-0.00002075315031996959,"96":3.753906288520328e-26,"97":-1.170660614710349e-73,"98":-3.115236582790244e-7,"99":-1.2109785399374943e-76,"100":1.0224481616177999e-75,"101":3.233641719703463e-54,"102":-0.000028715121228457444,"103":-1.2271007152892085e-53,"104":2.2735731943844987e-54,"105":5.308097601195955e-64,"106":-6.830593167566085e-39,"107":-0.000013934804436234275,"108":-5.348170163091423e-26,"109":-7.442822829952994e-74,"110":-2.7549615290778342e-8,"111":-2.4303539475696325e-76,"112":-1.2959218212009164e-75,"113":3.362715943117103e-55,"114":-0.000008704363442952517,"115":-1.0001561267234945e-53,"116":9.568613061668936e-55,"117":2.2494248919127824e-64,"118":-6.473504182627989e-39,"119":-0.00003402396350019936,"120":2.4000576073372875e-26,"121":-5.0304741410300016e-73,"122":-8.952054164454469e-7,"123":1.2448316226289395e-76,"124":1.5452555308312623e-75,"125":6.812961063083781e-54,"126":-0.000022217816262261966,"127":4.287633333299754e-55,"128":1.3258966623679343e-54,"129":5.0995631656369725e-65,"130":-4.834434624085616e-39,"131":-0.0000028801702946710347,"132":1.4697381707106125e-26,"133":-9.607261872187622e-73,"134":-7.865761066218685e-7,"135":-6.293492793263142e-77,"136":2.3324871026336265e-75,"137":5.193124338120351e-55,"138":-0.000021344415787086104,"139":2.0200095816399394e-53,"140":-1.2846004221871578e-54,"141":2.7038314882996365e-67,"142":-5.1163142004211605e-39,"143":-0.000004315729304457791,"144":1.9817922314696843e-26,"145":-5.2655598846986997e-73,"146":8.52383190550443e-8,"147":-2.9679400179648553e-77,"148":1.7734735289822752e-75,"149":1.6407166706307833e-53,"150":-0.000014019155603191472,"151":2.9921557661660136e-53,"152":-1.7129673391325344e-54,"153":4.499396550353603e-64,"154":-6.67200612357808e-39,"155":-0.000018093071401256677,"156":2.4955559000519576e-26,"157":-5.4594670219244295e-73,"158":-6.389131738037335e-8,"159":2.1204971056223976e-77,"160":1.8766485356628955e-75,"161":-6.110528838309559e-54,"162":-0.000028589817687915096,"163":7.8376285925264535e-56,"164":-3.307988836805643e-54,"165":-8.901412377455313e-66,"166":-7.15772147886787e-39,"167":-0.0000066194302587005555,"168":9.030699738706637e-26,"169":-6.133246168417693e-73,"170":-8.173760416556448e-8,"171":1.0346091850612693e-76,"172":8.51347997594878e-76,"173":-1.8663529753126295e-53,"174":-0.00001631052670295434,"175":-2.3553942189074735e-53,"176":1.3259454877565863e-54,"177":-4.634719494339891e-64,"178":-8.943422335749377e-39,"179":-0.000018549546379548188,"180":1.208245037293823e-26,"181":-5.1406144849900853e-73,"182":5.836492655778728e-7,"183":2.5583738711727465e-76,"184":9.520312076218146e-76,"185":-8.72101392657708e-54,"186":-0.000040107926300905094,"187":1.7977509278891637e-54,"188":-2.6885333940212313e-56,"189":-6.466800834859512e-64,"190":-4.041371506255967e-39,"191":-0.0000038097392511076692,"192":3.5142311249040705e-26,"193":-1.2972780350265072e-72,"194":6.733061546516962e-7,"195":2.528801183173811e-77,"196":2.1696353538502568e-75,"197":-8.673012041356072e-55,"198":-0.000039200911781780005,"199":2.1730744381945785e-53,"200":-2.182991015721372e-55,"201":1.020132414378947e-63,"202":-4.102242813942383e-39,"203":-0.00002262514052515463,"204":7.400239733714779e-26,"205":-2.0134668340109813e-72,"206":3.2542616012030146e-7,"207":7.948280881529586e-77,"208":2.0260123747152645e-75,"209":1.613973281380286e-53,"210":-0.00002204476237082251,"211":1.939353384388578e-53,"212":-1.370637903369709e-54,"213":1.0102412654027545e-63,"214":-4.806175746474638e-39,"215":-9.467402972880921e-7,"216":1.0243686418797677e-25,"217":-7.608562119677504e-73,"218":-1.3296283760360435e-7,"219":1.1919371102874783e-77,"220":1.9631064538847205e-76,"221":-3.763241160073165e-54,"222":-0.000009160506443783959,"223":-9.687001090161885e-54,"224":-2.3906190388252248e-54,"225":3.555161599413344e-64,"226":-5.060190118209331e-39,"227":-0.00001317190592897158,"228":-1.0308430519545908e-26,"229":-5.590535125348005e-73,"230":-2.3229005125971425e-7,"231":3.601898569228231e-77,"232":-8.381508653779197e-76,"233":-1.0475462518967688e-53,"234":-0.000018250237021069082,"235":-1.679385768865896e-53,"236":-1.5703517169350805e-55,"237":-5.322886381025763e-64,"238":-7.182068949102324e-39,"239":-0.000002508676475689235,"240":3.53520397829866e-26,"241":-5.839452728268881e-74,"242":5.997229795192628e-7,"243":4.484520543212275e-77,"244":-2.5092539959815746e-76,"245":-2.095293245472437e-53,"246":-0.00004278347718803192,"247":-1.8889829564061175e-53,"248":2.32881455470584e-54,"249":-5.929635074773709e-64,"250":-6.476286238418461e-39,"251":-0.00001301506343838101,"252":3.531005052675601e-26,"253":-4.8524167792033714e-73,"254":6.564693054935359e-7,"255":2.946318998771598e-76,"256":2.07479174289152e-76,"257":-1.3188155350724426e-53,"258":-0.000051117494067585155,"259":-1.040021434049954e-53,"260":1.2020605432806704e-54,"261":1.0339776515286335e-63,"262":-6.467147289574312e-39,"263":-0.000026193445587960164,"264":4.904159715319571e-26,"265":-4.726945565958569e-73,"266":4.3247558965988303e-7,"267":4.1237753576832646e-77,"268":1.1257202620247512e-75,"269":-5.060813040656372e-55,"270":-0.000012592291172392813,"271":4.2726531430908584e-54,"272":4.122578545389902e-56,"273":1.1866195114065001e-63,"274":-7.082912074100327e-39,"275":-0.000012022235544364047,"276":7.145803397376613e-26,"277":5.52245955597947e-73,"278":-1.5461337761006775e-7,"279":-1.387055225380885e-76,"280":1.4406875517546577e-75,"281":2.441669589444617e-54,"282":-0.000028131078630095198,"283":-3.418057835744392e-54,"284":-1.347367811643047e-54,"285":1.8534548101012316e-63,"286":-7.210484141305728e-39,"287":-0.000013788838422377197,"288":-1.6325356409625653e-26,"289":9.507211729328449e-74,"290":-2.729938545122713e-7,"291":-1.7243720194670424e-76,"292":-9.011595548971657e-77,"293":-6.590531359556489e-54,"294":-0.000014379686961665694,"295":-1.9410762232169034e-53,"296":-1.1824618166750082e-54,"297":9.961208749434844e-64,"298":-9.012785445503929e-39,"299":-0.000005380688490185094}},{"sx":5,"sy":5,"depth":12,"w":{"0":-2.067703534290469e-48,"1":4.83509002783451e-74,"2":-2.2760905427237334e-48,"3":-1.6900080554092153e-79,"4":-5.664243531910311e-78,"5":-3.331203976906111e-60,"6":-2.6584245739500014e-47,"7":-1.6087694996884347e-71,"8":2.7272994513831724e-62,"9":3.258975994531057e-67,"10":-1.223145331495045e-61,"11":-2.920329045722384e-48,"12":-1.515865062870486e-48,"13":-8.759564701050656e-74,"14":-2.1420116931244435e-48,"15":-2.0327659022060957e-78,"16":-8.984717248096834e-77,"17":3.007372256510133e-59,"18":-3.569261603802745e-48,"19":-2.139952177888325e-71,"20":2.6048267033918395e-62,"21":1.5535332309559423e-67,"22":-1.2152458848118157e-61,"23":-4.454490942194154e-49,"24":-1.4211958966173752e-48,"25":-1.04698443144264e-73,"26":-2.5240003481297116e-48,"27":3.583193348227041e-79,"28":-8.645213450490517e-77,"29":3.342379872301889e-59,"30":-2.6498228152005704e-48,"31":-2.799868981568854e-71,"32":1.6868180428505721e-62,"33":8.124121612330748e-67,"34":-1.2124657722674328e-61,"35":-1.5630055011595573e-49,"36":-1.5344072315934754e-48,"37":1.0485539021955135e-73,"38":-2.4497359311380646e-48,"39":-1.1496784889670194e-78,"40":-9.436911596665814e-77,"41":-8.915824342243653e-57,"42":-2.3644536884666863e-48,"43":-2.6622911209966386e-71,"44":1.3993410713148154e-62,"45":-5.3906763307239165e-70,"46":-1.177674579994624e-61,"47":-1.9404051019147586e-48,"48":-1.6450772149119516e-48,"49":1.4067958205970635e-73,"50":-2.5243340806889718e-46,"51":2.4158667083649514e-79,"52":-9.71107143176578e-77,"53":-3.8173172697707384e-58,"54":-2.9512902811967574e-48,"55":-2.2151803646300747e-71,"56":1.7465705358331006e-62,"57":-4.123851198631373e-70,"58":-1.0216248664589288e-61,"59":-8.060314519325409e-47,"60":-2.050248141785392e-48,"61":-9.914284482475346e-74,"62":-3.3084546478100676e-48,"63":-8.560358903409152e-79,"64":-3.6196323583829595e-78,"65":1.4358072085843708e-60,"66":-3.8760657987114127e-48,"67":-1.6164862568471684e-71,"68":3.3099307942328657e-62,"69":2.7836355688699185e-67,"70":-1.2238520457488609e-61,"71":-4.001546210214735e-48,"72":-1.493047579691458e-48,"73":-1.0128848502394985e-73,"74":-2.924452827996281e-48,"75":-6.738618894084573e-79,"76":-8.368861981214847e-77,"77":3.8887460199968265e-59,"78":-3.803738526759366e-48,"79":-2.0904163259451214e-71,"80":3.2034164072356546e-62,"81":-9.347593408415279e-70,"82":-1.1305232255730852e-56,"83":-2.5819722329603353e-48,"84":-1.409835485948188e-48,"85":-1.0828878636860065e-73,"86":-2.2578954491794378e-48,"87":-2.810806177046679e-79,"88":-8.393045069151407e-77,"89":5.102076253358357e-59,"90":-2.646349874992021e-48,"91":-2.786604329235777e-71,"92":1.8354103471767078e-62,"93":8.191642214979684e-67,"94":-1.3202779230131728e-56,"95":-2.0192843847798105e-48,"96":-1.5780898885248964e-48,"97":6.243606921311426e-74,"98":-1.8469069013039718e-48,"99":-1.7315961344221745e-78,"100":-8.512875511375412e-77,"101":-6.192865590238367e-57,"102":-2.0083783526794394e-48,"103":-2.717464300651673e-71,"104":1.1722977269822992e-62,"105":-4.8338926246380056e-70,"106":-1.0816047038457372e-61,"107":-2.002569372067905e-48,"108":-1.718179406172663e-48,"109":-8.432373821189566e-74,"110":-2.8309634811196316e-46,"111":6.087944314304157e-80,"112":-9.148037573240621e-77,"113":-2.357982515486904e-58,"114":-2.241088151485141e-48,"115":-2.1322448540224486e-71,"116":2.198048684643488e-62,"117":-1.8375206572299172e-70,"118":-3.6063897586523944e-57,"119":-5.427923665325173e-47,"120":-1.9356051048806302e-48,"121":-5.405507460526449e-74,"122":-2.794815023989513e-48,"123":-4.090711924753556e-79,"124":-1.4934407282580593e-77,"125":-7.046211673870764e-60,"126":-3.3490146686107e-48,"127":-1.2892199446590517e-71,"128":2.8492888500110686e-62,"129":-7.068627749510476e-70,"130":1.106353195810693e-55,"131":-3.491925951800464e-48,"132":-1.4549578874032302e-48,"133":-1.2631959630147064e-73,"134":-2.290426498433387e-48,"135":-1.9647197348343997e-78,"136":-8.287852373493398e-77,"137":3.6686385512459262e-59,"138":-2.939983084547491e-48,"139":-1.888261563644644e-71,"140":2.5768420041501247e-62,"141":-9.549621532555582e-70,"142":5.329730384634251e-56,"143":-2.0781441285492247e-48,"144":-1.4261249037114818e-48,"145":-1.4127723853307713e-73,"146":-1.9995341536749643e-48,"147":-1.5625461508157614e-78,"148":-8.161684026038382e-77,"149":5.234460777341993e-59,"150":-2.389772464567178e-48,"151":-2.865657795470959e-71,"152":9.757916187884282e-63,"153":7.234577478034957e-67,"154":1.6436497085252413e-56,"155":-1.5691603244247398e-48,"156":-1.5899006429824295e-48,"157":-1.1960086073671094e-73,"158":-1.4658655917570565e-48,"159":-6.416974919320001e-79,"160":-8.27506698883973e-77,"161":-1.969288095118418e-58,"162":-2.3018795655120364e-48,"163":-2.8161869751101587e-71,"164":3.382318967075865e-63,"165":-6.613006796494798e-70,"166":5.852071758605889e-57,"167":-1.9576598726583167e-48,"168":-1.7061947460151218e-48,"169":3.3685989970140797e-74,"170":-2.4590384312339404e-46,"171":-1.472483878958161e-78,"172":-9.08900564543849e-77,"173":-3.8728159950976426e-58,"174":-2.48212155889554e-48,"175":-2.2830204222167575e-71,"176":1.4557181521960434e-62,"177":-3.099018657259798e-70,"178":-8.79634161732029e-62,"179":-2.2786591111557e-48,"180":-1.887760898076347e-48,"181":1.9466541931058196e-73,"182":-3.3429300145023905e-48,"183":-1.3853972479157829e-78,"184":-3.928457969546743e-77,"185":-1.0013417389302338e-59,"186":-3.8906225600456775e-48,"187":-1.122396361986059e-71,"188":2.333300963719584e-62,"189":8.931898288042421e-68,"190":1.5949343036385943e-56,"191":-2.769704837176511e-48,"192":-1.4617689914913067e-48,"193":2.190695961418624e-73,"194":-3.434342731249739e-48,"195":1.159984462524216e-78,"196":-8.892154919354535e-77,"197":3.2641223852241675e-59,"198":-3.6754092731040145e-48,"199":-1.7627708790756236e-71,"200":2.820869719302282e-62,"201":-8.553670500741027e-70,"202":1.2234700229202394e-56,"203":-1.7277539472735447e-48,"204":-1.424781918880931e-48,"205":-4.815562719223078e-74,"206":-2.4922881195243044e-48,"207":-8.867807691854885e-79,"208":-8.880521094584511e-77,"209":5.263610090742379e-59,"210":-3.3484964585879775e-48,"211":-2.826152815627535e-71,"212":1.3720758756467991e-62,"213":5.3491177502889526e-67,"214":-1.1343814106172916e-61,"215":-1.8715391004462225e-48,"216":-1.541851325621536e-48,"217":2.2895610831250723e-73,"218":-2.2377841782605517e-48,"219":-1.952443285078058e-78,"220":-8.73028231978198e-77,"221":-2.2445028936623132e-58,"222":-3.4791395257117306e-48,"223":-2.804293034464968e-71,"224":4.5646639060806894e-63,"225":-8.578529091257811e-70,"226":-9.912605571735747e-62,"227":-1.947687199958453e-48,"228":-1.626106625188874e-48,"229":2.65762341992886e-73,"230":-1.129383342197625e-46,"231":-2.8754731148376364e-78,"232":-9.45529312823646e-77,"233":-4.343790218660893e-58,"234":-3.79395551564311e-48,"235":-2.2536254070435744e-71,"236":1.3506343317593357e-62,"237":-6.135154168650984e-70,"238":-1.0205908711891972e-61,"239":3.6842265861779784e-49,"240":-1.9415510444032715e-48,"241":2.0998525797466833e-73,"242":-2.766469841530283e-48,"243":-5.675404941909287e-79,"244":-1.5990069994804193e-77,"245":-8.152310170821242e-60,"246":-2.723418926895435e-46,"247":-1.062871433159717e-71,"248":2.777930950635096e-62,"249":8.722462221103124e-68,"250":4.391663948588667e-56,"251":-2.3130107858912043e-48,"252":-1.5748060286288677e-48,"253":2.918160813828458e-73,"254":-3.3555770693728886e-48,"255":-9.052126882090533e-79,"256":-7.043676696775278e-77,"257":2.822503969483578e-59,"258":-1.88977016352221e-48,"259":-1.6824877353978663e-71,"260":2.915645960452006e-62,"261":-4.448509682027902e-70,"262":2.873336907689963e-56,"263":-1.8067388415757697e-48,"264":-1.4666146842895504e-48,"265":-3.1577228248491266e-74,"266":-2.7313755817775476e-48,"267":-1.3426811293649576e-78,"268":-8.143642282309001e-77,"269":3.8705491591078823e-59,"270":-1.8313379579955865e-48,"271":-2.623487926227447e-71,"272":2.233512956915864e-62,"273":4.766297521876443e-67,"274":-1.219433910342279e-61,"275":-2.056039975702443e-48,"276":-1.4947614407572437e-48,"277":2.553407632063624e-73,"278":-2.6262073685839588e-48,"279":1.0599073443169332e-78,"280":-8.210987530270826e-77,"281":-4.6513738389809165e-58,"282":-2.4383171278143685e-48,"283":-2.644654155540218e-71,"284":1.4752964975602135e-62,"285":-7.515055965507507e-70,"286":-1.2061924716462878e-61,"287":-2.0360083860880996e-48,"288":-1.473697883287207e-48,"289":2.6744849815227567e-73,"290":1.4197592955585083e-48,"291":-1.568997695060697e-78,"292":-8.45079882673753e-77,"293":-7.335998080563427e-58,"294":-3.2042409873898517e-48,"295":-2.12375979607564e-71,"296":1.8970304682182573e-62,"297":-6.522774086856466e-70,"298":-1.181827197486858e-61,"299":-2.417779927580009e-48}},{"sx":5,"sy":5,"depth":12,"w":{"0":-7.651504406215877e-26,"1":-1.674744254017123e-72,"2":-8.106225360986602e-7,"3":-8.050676893754987e-77,"4":1.999587009867286e-77,"5":1.357257926012097e-53,"6":-0.1609415060484489,"7":1.692358296422976e-53,"8":-2.0514671110757127e-54,"9":-4.376440643578283e-64,"10":-9.187620015306616e-39,"11":0.05864482546426161,"12":3.3571736908861094e-26,"13":-6.259076406006139e-73,"14":5.254219934606703e-8,"15":-8.012357566320864e-77,"16":-2.874327533737835e-76,"17":-1.0529554680332039e-54,"18":0.006113133601914546,"19":7.31204051280603e-55,"20":-4.939284919165512e-55,"21":-5.291515451556521e-64,"22":-8.968960317718702e-39,"23":0.11210835643167724,"24":4.195534639667604e-26,"25":-1.5559567068352922e-72,"26":-2.2007394478297706e-7,"27":-2.2514463489368475e-77,"28":-1.4614687842099737e-76,"29":1.938243752313001e-54,"30":0.11033308292279041,"31":-3.688196370203184e-54,"32":1.1841926314104244e-54,"33":-5.852994190358649e-64,"34":-9.755721790470771e-39,"35":-0.22232647960808027,"36":5.974108266536625e-26,"37":-9.732322836583971e-73,"38":-1.9257311397255828e-7,"39":-4.740419550817288e-77,"40":-1.3104841570022154e-76,"41":7.854664555405154e-54,"42":0.07878800529538958,"43":1.3405928784532185e-53,"44":5.173754340376434e-55,"45":-3.4487966973029693e-64,"46":-9.788629595776356e-39,"47":-0.12057471400150359,"48":-2.163360094950124e-26,"49":-9.436586887987996e-73,"50":-2.090477244108047e-7,"51":-2.6393786699900406e-77,"52":9.63769412886307e-77,"53":1.433371472998034e-53,"54":-0.29131700193039484,"55":1.9977209579523155e-53,"56":-1.959685642091195e-54,"57":-2.116201033603654e-64,"58":-4.834745542287079e-39,"59":0.09288040003789755,"60":-6.429021345318546e-26,"61":-6.59620155694498e-73,"62":-2.0356129566981713e-7,"63":-1.839228274810245e-77,"64":-6.764552071448723e-76,"65":1.5315318803830436e-53,"66":0.16347062226887543,"67":6.933372048896484e-54,"68":-3.6270632069447855e-54,"69":-3.8385624882822663e-64,"70":7.383904040446903e-39,"71":-0.01619682808134488,"72":-1.138116148032893e-25,"73":1.798036643193758e-73,"74":-7.609496212812796e-8,"75":-4.579225054786605e-77,"76":1.2737481208997068e-76,"77":9.989391629428475e-54,"78":0.2286581881543681,"79":8.539243232405655e-54,"80":-3.034050429853171e-54,"81":-4.7288884035966914e-64,"82":8.247648798906934e-39,"83":-0.016619151533883905,"84":-9.733616309739496e-26,"85":1.899098439126508e-73,"86":-2.1401257092357478e-8,"87":9.576971250104242e-78,"88":-8.536874488148155e-76,"89":1.4980210576731617e-53,"90":0.007548053469558958,"91":2.6577064440019305e-53,"92":-2.8714913601681105e-54,"93":-4.353334697312349e-64,"94":7.118980908881547e-39,"95":-0.1334766205569315,"96":4.691939409229079e-26,"97":8.803542393515892e-73,"98":-5.3656869996404564e-8,"99":3.100994520547603e-78,"100":-2.6344402224909335e-76,"101":1.0272506082908712e-53,"102":-0.0625653898796607,"103":-8.361507326133486e-54,"104":-2.27865599687975e-54,"105":-1.101346402484376e-64,"106":-5.009183150545435e-41,"107":-0.22835794208967067,"108":-8.746977642648043e-27,"109":-2.2193545600195383e-73,"110":-2.1770179167860233e-7,"111":-4.099410591270176e-77,"112":-5.614104066033441e-77,"113":6.22220372815546e-54,"114":-0.26585754809337775,"115":1.7480460199357052e-53,"116":-1.8230086312416842e-54,"117":1.1438168424344688e-64,"118":2.671182326972103e-40,"119":-0.011394022222261489,"120":-1.9562993001869766e-25,"121":-1.7529822555481432e-72,"122":-6.285329732892447e-7,"123":-1.6880773516618668e-76,"124":-3.0528557063274663e-76,"125":1.2469703550672426e-53,"126":0.16358381963063212,"127":2.359969542997372e-53,"128":-3.8213951686988155e-54,"129":-4.9876405852243924e-64,"130":7.442973121426588e-39,"131":0.022200507179182764,"132":-2.5775322257577817e-25,"133":-1.8816845295804067e-72,"134":-3.6627315623461804e-7,"135":-2.6609843773258823e-76,"136":-7.603251520262898e-76,"137":2.8192903093795697e-53,"138":0.04564952558634759,"139":2.780889033554369e-53,"140":-3.2554388991669703e-54,"141":-5.697878336285835e-64,"142":7.888031527809166e-39,"143":-0.12879951011214014,"144":-2.4061472574179584e-25,"145":-1.5224320550495715e-72,"146":-0.0000015723381253905215,"147":-2.3032820464749927e-76,"148":-3.7406408314873394e-76,"149":2.6658939072759864e-53,"150":-0.3152821956719991,"151":-1.7392422166074368e-53,"152":-3.3384954281481446e-54,"153":-5.532774437801418e-64,"154":8.162771803267848e-39,"155":-0.10977659662533285,"156":-3.9828883458294037e-26,"157":-1.0246310428680907e-72,"158":-0.0000013776798896613137,"159":-3.2256717788531114e-76,"160":-6.43073200899829e-76,"161":2.94688118536628e-53,"162":-0.024953556520943762,"163":-2.0861735168078697e-53,"164":-2.2865978898011965e-55,"165":-2.360343182112951e-64,"166":3.826737508145959e-39,"167":0.0417212530104888,"168":-1.0289956213452302e-25,"169":-1.4668321338316278e-73,"170":-3.107881879571243e-7,"171":-3.104685865568712e-76,"172":-2.5813021230152066e-76,"173":1.9697026735334905e-53,"174":0.12232125621339082,"175":4.857802542727088e-53,"176":2.6317257539609585e-55,"177":-1.3011780853849628e-64,"178":2.996267894752276e-39,"179":0.06345267762866483,"180":-2.8855678963773886e-26,"181":-7.674786565555617e-73,"182":-7.005295515696289e-7,"183":-2.3092739029692197e-76,"184":-8.464129163297492e-76,"185":1.1913060036395502e-54,"186":-0.265831057238443,"187":1.9730395365559954e-54,"188":-7.548990740560221e-55,"189":-1.797809126193468e-64,"190":5.137506250783324e-39,"191":-0.10635037629654978,"192":-1.1583906652124252e-26,"193":-1.5210966612218518e-72,"194":7.377529303230621e-7,"195":-2.534392262571838e-76,"196":-8.163794149788091e-76,"197":-9.260766620754772e-54,"198":-0.1650032833802314,"199":2.6887272866892413e-54,"200":-3.7432929661196714e-54,"201":-2.6277380731688543e-64,"202":7.315117848173807e-39,"203":-0.17510843510896132,"204":3.724059245847973e-26,"205":-5.729726390154277e-73,"206":-0.0000023747049697324057,"207":-7.684747215264161e-77,"208":-5.608073047765614e-76,"209":-1.3016152737508277e-53,"210":-0.18013027235076426,"211":4.481953360390684e-53,"212":-3.357032189402283e-54,"213":-3.698096356995164e-64,"214":9.429079314143399e-39,"215":0.0470887219931266,"216":-1.0911416076400093e-25,"217":9.646027407354466e-73,"218":-0.0000012213657520016542,"219":-2.809882475148188e-76,"220":-3.8882488430408205e-76,"221":-1.3293457584177527e-53,"222":0.08439690324112537,"223":-3.198896817403826e-53,"224":-2.0606683351656825e-54,"225":-4.5885061428285544e-64,"226":2.984265442955137e-39,"227":0.11821055664569731,"228":-1.087121006187563e-25,"229":-4.958937629444737e-73,"230":-1.0828510096620564e-7,"231":-3.857288873053299e-76,"232":2.4090828985434317e-76,"233":-8.188370951184012e-54,"234":0.12498528679630161,"235":-4.292908888406207e-53,"236":-2.1107426565125466e-54,"237":-2.4156260785410712e-64,"238":3.200624561472307e-39,"239":-0.01913064610886395,"240":-7.661082379182091e-26,"241":7.440906385754056e-73,"242":-0.0000010296758722848582,"243":-2.409316682332975e-76,"244":1.4232784876421848e-76,"245":-9.315147390451107e-54,"246":0.06908531805175107,"247":-2.2555185711363774e-53,"248":-8.616880785230418e-55,"249":-1.0532282176623075e-64,"250":3.4029458869637735e-39,"251":-0.009318608267391502,"252":-5.326015963534985e-26,"253":6.151255777024075e-73,"254":-2.192864693143508e-7,"255":-1.5572690290616802e-76,"256":-7.377475159272383e-77,"257":-1.5679844650935322e-54,"258":0.03596993990572402,"259":-1.1423926040724353e-53,"260":-6.676016664263686e-55,"261":-2.304985247062359e-64,"262":1.952785907709418e-39,"263":0.12030573952964853,"264":-8.11595627390478e-26,"265":5.301672108543906e-73,"266":3.8367279964862346e-7,"267":-2.1091674526981512e-76,"268":-3.845257145937765e-76,"269":-1.504818366179187e-53,"270":0.0019631855634042977,"271":-2.3744547427528383e-53,"272":-8.858860572034705e-55,"273":-2.670464253542939e-64,"274":7.33406441197441e-39,"275":0.0753571388140627,"276":-8.197227886605483e-26,"277":1.6176139558302943e-72,"278":-7.417300642331349e-7,"279":-1.1473237257245357e-76,"280":-4.3784939420620846e-76,"281":-2.675473908265905e-53,"282":0.2023694505997847,"283":-3.844686967392547e-53,"284":-1.5738205702702692e-54,"285":-2.5412916062473235e-64,"286":1.2132063975582912e-39,"287":0.08188975473018813,"288":-8.168001819078798e-26,"289":-2.2175925337849117e-73,"290":7.289318713264792e-7,"291":-1.694677756158422e-76,"292":1.034114621645427e-76,"293":-2.529549818105556e-54,"294":0.11632907169266601,"295":-3.006218087097065e-53,"296":-1.5926008452247853e-54,"297":-4.345197521673029e-65,"298":2.2090377263973534e-39,"299":-0.03726593554357037}},{"sx":5,"sy":5,"depth":12,"w":{"0":-1.3468643515103214e-61,"1":2.3938812034385746e-76,"2":-2.0729935702404966e-61,"3":-1.286440570575082e-78,"4":1.74443190643603e-79,"5":9.160284505373861e-80,"6":-3.084334167834697e-60,"7":7.511247424546483e-79,"8":-4.648878721719789e-69,"9":1.933196293751057e-67,"10":-4.184459572991018e-62,"11":-9.952124092052299e-62,"12":-1.2900219974272754e-61,"13":1.987519043130265e-76,"14":-1.6425217468499478e-61,"15":2.014738799933561e-79,"16":-2.487660623405673e-78,"17":-2.221347541551032e-78,"18":-3.098442690534782e-60,"19":-3.0200103347665196e-80,"20":-5.301037777794558e-69,"21":9.215666935876164e-68,"22":-3.685719897800584e-62,"23":-2.7778089999258807e-60,"24":-1.276641818839622e-61,"25":2.178174111858352e-75,"26":-2.870124349894143e-60,"27":7.972323452489271e-79,"28":-2.7885887943069686e-77,"29":-7.569388287647644e-74,"30":-3.131143640828004e-60,"31":9.855419899359656e-77,"32":-1.118685099411838e-68,"33":4.821118497954873e-67,"34":-3.5774189463798058e-62,"35":-2.835018488392015e-60,"36":-1.2825434416311944e-61,"37":2.6429310703162654e-75,"38":-6.720668688465012e-61,"39":2.6979285153373077e-78,"40":-2.6603737481871417e-77,"41":-7.991073658742262e-74,"42":-3.136029109353313e-60,"43":1.3469771419705686e-76,"44":-1.0303701064911586e-68,"45":-2.5885708924976013e-70,"46":-3.0518093290762914e-62,"47":-6.113623426758651e-63,"48":-1.3145191737767734e-61,"49":2.730245698166955e-75,"50":-2.2427882207855854e-61,"51":-1.0640967885453128e-78,"52":-1.101461067948457e-76,"53":-7.850247863302335e-74,"54":-3.160154724834632e-60,"55":1.709444076322659e-76,"56":-1.0806918849340072e-68,"57":-3.557413430969009e-71,"58":-3.1958164928782262e-62,"59":-2.8918355932907444e-62,"60":-1.2698055609040085e-61,"61":1.8514889967194673e-76,"62":-3.083475103959221e-60,"63":4.558273964060186e-79,"64":-8.703921214190508e-78,"65":-2.6339211970900366e-79,"66":-3.10659910391687e-60,"67":-1.7542154037749175e-78,"68":6.23787845030879e-70,"69":1.65270842932808e-67,"70":-2.5445079126167468e-62,"71":-2.7976937872129644e-61,"72":-1.2349697134821854e-61,"73":1.2614471969323521e-76,"74":-3.001829014792006e-60,"75":-1.2970324090624007e-78,"76":-1.097179938117115e-76,"77":-2.4787038451200323e-78,"78":-3.1355682389457605e-60,"79":2.192350680531581e-79,"80":-6.724859842427962e-69,"81":-5.588486051698613e-70,"82":-2.7125539029329484e-62,"83":-3.48414116776283e-60,"84":-1.2087936613465275e-61,"85":-7.177380346780094e-77,"86":-3.032249191232545e-60,"87":2.5336897033383873e-79,"88":-1.3638110527574548e-76,"89":-7.493774035162314e-74,"90":-3.1536461013244775e-60,"91":1.0670357520935507e-76,"92":-5.50748073972449e-69,"93":4.860556496463349e-67,"94":-2.379620682078989e-62,"95":-3.8752584055177425e-60,"96":-1.2110456087008806e-61,"97":-2.2721532265613887e-76,"98":-3.041801116900446e-60,"99":1.3822348967880908e-78,"100":-1.326705303095156e-76,"101":-8.022733631538953e-74,"102":-3.1407474588204005e-60,"103":1.3604608754180278e-76,"104":-6.359420275623082e-69,"105":-4.910644101149399e-70,"106":-1.2245833828779597e-62,"107":-4.587212752695319e-61,"108":-1.256037679509968e-61,"109":-9.315152542346404e-77,"110":-3.056274803670693e-60,"111":-8.466116096183396e-79,"112":-1.3373728805609151e-76,"113":-7.801065527684755e-74,"114":-3.5627774228745304e-60,"115":1.7092080625023378e-76,"116":1.2662650890628879e-69,"117":-3.12439204807095e-70,"118":-1.0951584122446076e-62,"119":-5.74762873225971e-61,"120":-1.276911341678391e-61,"121":1.7580448075413978e-76,"122":-9.9765912637554e-61,"123":-4.8477103501760015e-79,"124":-1.2053090449566366e-78,"125":-2.884563879571588e-78,"126":-3.084278030130501e-60,"127":-1.0561522898891763e-78,"128":-7.227058237487284e-69,"129":-1.532554644373662e-70,"130":-2.354804584942448e-62,"131":-2.6852505593424716e-60,"132":-1.2427310712563703e-61,"133":9.76214884805476e-77,"134":-1.9286873427975353e-60,"135":-1.365916335591454e-78,"136":-1.190936751822575e-76,"137":-2.581010049649381e-78,"138":-3.1034711319214745e-60,"139":-3.065270200552259e-79,"140":-9.980924144306007e-69,"141":-4.1975554514247916e-70,"142":-2.3144980682736394e-62,"143":-2.0236601433160756e-60,"144":-1.2052911591616725e-61,"145":-1.4059910799044474e-76,"146":-2.2204930255197865e-60,"147":-1.9827055434377187e-78,"148":-1.2775904380610526e-76,"149":-7.418879112572666e-74,"150":-3.1163353340128873e-60,"151":1.0697755276797827e-76,"152":-1.016811547867967e-68,"153":4.2940576721503615e-67,"154":-1.8895573726393533e-62,"155":-1.6401713207924232e-60,"156":-1.2324869206914121e-61,"157":-1.3723433364087098e-76,"158":-6.81940896760233e-62,"159":3.13650710599954e-80,"160":-1.2540568092890992e-76,"161":-8.0213494892348e-74,"162":-3.4238877058757745e-60,"163":1.358857741352577e-76,"164":-9.938018722856597e-69,"165":-4.8041413974563514e-70,"166":-3.126026989280234e-63,"167":-2.0744888474569022e-60,"168":-1.25699103883852e-61,"169":-1.3130426080388675e-76,"170":-2.2105421926500387e-60,"171":-1.593381017592993e-78,"172":-1.2353252303872795e-76,"173":-7.776309864322596e-74,"174":-3.2965394514300705e-60,"175":1.753564117931645e-76,"176":-9.90853782965426e-69,"177":-3.797721447690422e-70,"178":-4.946398712031415e-63,"179":-2.14751083598094e-60,"180":-1.3073833329702452e-61,"181":5.795561158874006e-77,"182":-1.1882060858910205e-61,"183":1.262337884237069e-79,"184":-1.164684592649186e-78,"185":-1.8181517856704858e-78,"186":-3.115713792465507e-60,"187":-1.3374017303317187e-78,"188":-6.425369764620925e-69,"189":5.327636645192079e-68,"190":-2.9186088441447218e-62,"191":-5.617268162195918e-62,"192":-1.2607697967671568e-61,"193":-1.3666162747739993e-77,"194":-2.8940230300980393e-60,"195":-1.126535522382235e-78,"196":-7.203870259062859e-78,"197":-1.4340062257437846e-78,"198":-3.046617203945442e-60,"199":8.174864661127491e-79,"200":-4.248724022557131e-68,"201":-9.54226927610637e-71,"202":-2.6139212407777435e-62,"203":-3.002779801316833e-60,"204":-1.2165165854072e-61,"205":-3.362589618951784e-76,"206":-2.9350307357850704e-60,"207":-2.1456346344404222e-79,"208":-1.1060001726821729e-76,"209":-7.310051092020188e-74,"210":-3.043372422723035e-60,"211":1.0765995635566474e-76,"212":-7.341809947089068e-69,"213":3.17731745231913e-67,"214":-3.16480941847877e-62,"215":-3.150015515949186e-60,"216":-1.2650781367866077e-61,"217":-1.7083494965893917e-76,"218":-1.6999296761949618e-61,"219":-2.4112538765232853e-78,"220":-2.2786165197224115e-77,"221":-8.000545246170828e-74,"222":-3.3753498844425913e-60,"223":1.3747833207621642e-76,"224":-6.277757663202725e-69,"225":-3.6587481399551124e-70,"226":-1.3038789936634037e-62,"227":-1.4698997736678719e-61,"228":-1.2720776424335125e-61,"229":-1.0187596411682028e-76,"230":-2.3350952530825502e-60,"231":-2.7235696863153147e-78,"232":-1.010197907502546e-76,"233":-7.806503055903771e-74,"234":-3.322753859195225e-60,"235":1.738078969341895e-76,"236":-9.453325427586797e-69,"237":-3.50108880037699e-70,"238":-6.345146896713537e-63,"239":-1.4661928123461963e-61,"240":-1.3422180011203635e-61,"241":3.0484108104760457e-76,"242":4.215678062589364e-63,"243":-5.495021693101171e-79,"244":2.717706981146866e-79,"245":-1.725049254328468e-78,"246":-3.072013625746683e-60,"247":-2.192333432485622e-78,"248":-9.699261109254902e-69,"249":5.184479622164861e-68,"250":-1.1451507395844027e-62,"251":-9.185097657820209e-62,"252":-1.3035904301388087e-61,"253":-2.2476952664202528e-76,"254":-2.5038011028078683e-60,"255":-4.391207689865117e-79,"256":-8.948384741457081e-77,"257":1.7639180009482353e-78,"258":-3.0791449451454627e-60,"259":1.4892901143418023e-78,"260":-9.572496950824642e-69,"261":-1.734796588219089e-78,"262":-1.1299954578656075e-62,"263":-2.944807900459492e-60,"264":-1.2598787619109e-61,"265":-3.878768254918524e-76,"266":-2.8112851334081165e-60,"267":8.033617162020575e-79,"268":-1.2461364742490327e-76,"269":-7.314138267102266e-74,"270":-3.437959276479613e-60,"271":1.0526651685121688e-76,"272":-9.945235717781745e-69,"273":2.833017917031669e-67,"274":-2.0808225244736414e-62,"275":-3.2160521576628973e-60,"276":-1.284395387989411e-61,"277":-9.598235850196727e-75,"278":-2.0739836174304293e-61,"279":-5.879742767087064e-79,"280":-1.2351700404236319e-76,"281":-8.017896168046941e-74,"282":-3.3465081201697587e-60,"283":1.4137969769157968e-76,"284":-9.617708713342874e-69,"285":-3.541823703717608e-79,"286":-1.7811932339392635e-62,"287":-2.667538440127141e-60,"288":-1.3061962419939915e-61,"289":-2.2256069520415743e-75,"290":-1.5932798196906885e-60,"291":-1.208723484836669e-78,"292":-1.0726928996482271e-76,"293":-7.894866261532963e-74,"294":-3.233783367480169e-60,"295":1.7428772102785364e-76,"296":-6.344397638864492e-69,"297":-6.906261961655132e-71,"298":-3.2877836852620815e-62,"299":-2.5809496066327063e-60}},{"sx":5,"sy":5,"depth":12,"w":{"0":-1.60187309677269e-61,"1":-8.98231238262239e-75,"2":-1.3010967662214972e-49,"3":1.2468084725767093e-78,"4":-1.275273396428284e-76,"5":-1.6564591401673994e-76,"6":-8.757676589322196e-50,"7":-1.1784169537008304e-78,"8":-2.726380006445265e-68,"9":-4.59795952060108e-78,"10":-1.4536003603165976e-51,"11":-8.572727083925094e-50,"12":-1.612667599337471e-61,"13":-1.4154053586006268e-74,"14":-9.530788535655853e-50,"15":6.144362801109522e-79,"16":-1.3232139637107897e-76,"17":-2.468864852580635e-76,"18":-7.224950053898465e-50,"19":-2.1250473008795544e-75,"20":-2.414005624774873e-68,"21":-6.024263608316786e-77,"22":1.5038525382530915e-51,"23":-1.076699669279256e-49,"24":-1.5172793590215322e-61,"25":-7.984937869318645e-75,"26":-8.157967242749108e-50,"27":5.0581815918946543e-79,"28":-2.968679573107987e-77,"29":-2.7990026285305263e-67,"30":-2.2330608479091907e-51,"31":-1.2973529887051361e-75,"32":-2.5305687567528795e-68,"33":-5.355726934351228e-77,"34":3.1617782808112426e-52,"35":-1.3496458195687289e-49,"36":-1.4610608799152558e-61,"37":-2.9222321782087765e-75,"38":-5.239584940916443e-50,"39":-9.427430671367487e-79,"40":-3.773313548206613e-77,"41":-2.4010047163676874e-67,"42":-1.7381341475531794e-49,"43":-1.8127359542174546e-75,"44":-1.868016514535125e-68,"45":-7.633990188662532e-77,"46":6.61774534426377e-53,"47":-3.5860365644299333e-50,"48":-1.4410261960667298e-61,"49":-2.6715383947185234e-75,"50":-3.8008510032418447e-50,"51":-1.7696733659471416e-78,"52":-1.07043242405314e-76,"53":-2.3607391133107563e-67,"54":-1.9339413818055026e-49,"55":-2.302108239031243e-75,"56":-1.1252301949669929e-68,"57":-7.66784472817883e-77,"58":-9.210483501216579e-62,"59":-1.4521533658125727e-49,"60":-1.150041569240479e-61,"61":-1.7330520988991194e-74,"62":-9.62445063643516e-50,"63":-1.6018845832248033e-78,"64":-1.3581686288256337e-76,"65":-1.646874173381136e-76,"66":-2.99247257086306e-50,"67":-3.347473352508727e-76,"68":1.4211676932602688e-68,"69":-1.2900639124007896e-77,"70":3.575955133240626e-52,"71":-8.214553407553894e-50,"72":-1.1509041413468655e-61,"73":-1.7714768618366183e-74,"74":-8.938197128087544e-50,"75":-1.0457151273573224e-78,"76":-1.4247034303674052e-76,"77":-2.5513906111518298e-76,"78":-7.504314651320813e-51,"79":-5.4297390200489476e-76,"80":-4.847866697490575e-69,"81":-8.600368431680846e-77,"82":-5.55394651578171e-52,"83":-1.1603726967843738e-49,"84":-1.2022922354650204e-61,"85":-6.790204194703774e-76,"86":-6.690837377470849e-50,"87":-8.941272908935172e-79,"88":-4.475929681214608e-77,"89":-6.74341719718005e-68,"90":9.706281937587425e-52,"91":-1.9090409231371743e-75,"92":-1.1840720706218615e-69,"93":-6.757004075239521e-77,"94":3.763366094933441e-51,"95":-6.846398132297219e-50,"96":-1.2721028797901289e-61,"97":-9.194390568967489e-76,"98":-3.5783797468015097e-50,"99":9.544870214258662e-79,"100":-2.6000721969709863e-77,"101":-9.272659553668875e-68,"102":-1.951820690036581e-49,"103":-2.271907160279526e-75,"104":5.1793756624809665e-61,"105":-6.4455686376366855e-77,"106":-5.2046609425971314e-52,"107":-1.6056740270482895e-49,"108":-1.2163531992668127e-61,"109":-6.086503233173545e-75,"110":-3.0131665069440933e-50,"111":1.03920650918658e-78,"112":-8.972411487646124e-77,"113":-1.0364138582251389e-67,"114":-2.7532129243320926e-49,"115":-2.6266623502218706e-75,"116":-1.0315389304027513e-68,"117":-5.655152607791463e-77,"118":1.0278063366842431e-51,"119":-1.620131127633728e-49,"120":-1.6038986579191094e-61,"121":-2.6370131137380815e-75,"122":-1.0901246280248334e-49,"123":1.8292095191163657e-79,"124":-2.314045826335113e-77,"125":-3.7783324738901896e-57,"126":-1.012632338406004e-49,"127":-2.7302518512100952e-73,"128":-2.547091680336318e-68,"129":-7.897578910235019e-79,"130":-1.2153146341811855e-52,"131":-1.2102544251973136e-49,"132":-1.5879357225900057e-61,"133":-4.550541469486425e-75,"134":-1.1559237824740112e-49,"135":-7.32601899832322e-79,"136":-1.0952523288219269e-76,"137":-2.7678347266297757e-70,"138":-1.127068388448109e-50,"139":-1.4149180388212044e-65,"140":-2.274628330234338e-68,"141":-7.226352398639471e-78,"142":-5.206428518217262e-52,"143":-1.2956489439248665e-49,"144":9.936081971806933e-60,"145":-1.128536985245622e-74,"146":-1.308074920854756e-49,"147":3.8163212554797744e-78,"148":-8.09582203310141e-77,"149":-1.4581032868546186e-68,"150":-4.651310729756826e-51,"151":-3.708282361276789e-66,"152":1.8620574626426193e-66,"153":-9.026028975653287e-78,"154":3.2300025219247347e-51,"155":-9.945941688707946e-50,"156":-1.3499889721820038e-61,"157":-5.865611057984381e-75,"158":-9.107033147864375e-50,"159":3.454938064113465e-78,"160":-1.313032893664223e-76,"161":-2.0149378525042438e-67,"162":-2.422244552211327e-49,"163":-2.2416605531456333e-73,"164":1.8246554203819424e-66,"165":-1.1703063900978716e-77,"166":-7.030956378884687e-52,"167":-1.63760337028925e-49,"168":-1.3829270854752453e-61,"169":-9.75037936388804e-75,"170":-1.039456046135648e-49,"171":3.0246506326398986e-78,"172":-1.420666375279506e-76,"173":-2.1146316014791005e-67,"174":-1.9190567608931525e-49,"175":-2.5862389411071624e-73,"176":1.3431200123106836e-66,"177":-1.6035810682152976e-77,"178":-1.750550552190452e-52,"179":-1.8036254223525653e-49,"180":-1.6330698086632838e-61,"181":-1.0031790548239369e-74,"182":-1.217662911113099e-49,"183":-1.2450175654772142e-78,"184":-8.713340291974865e-77,"185":-1.6312833942701774e-78,"186":-1.1197990565533094e-49,"187":-8.768804010780813e-79,"188":-1.0773876423184446e-69,"189":6.04685993897505e-79,"190":5.4979497933155095e-52,"191":-8.868979940051772e-50,"192":-1.6021855181710418e-61,"193":-1.8072259469957167e-74,"194":-9.353030279006066e-50,"195":-2.381871456623727e-78,"196":-1.0462632664958672e-76,"197":-3.834824260414833e-57,"198":-1.3546854420726336e-50,"199":2.1841095624969424e-78,"200":-4.567671620953199e-69,"201":-7.767091232089266e-78,"202":-6.6561270887481175e-52,"203":-1.1081862581165938e-49,"204":1.0517746629171933e-59,"205":-4.441294542534821e-75,"206":2.7553519604249976e-51,"207":2.355053568548355e-78,"208":-9.727934612963747e-77,"209":9.343139799752622e-67,"210":-5.645498517209777e-51,"211":-1.4606258610972286e-75,"212":-1.8307120481141966e-69,"213":1.2744821316417398e-78,"214":-1.7271392001723296e-52,"215":-7.894917544577083e-50,"216":-1.4011591150998085e-61,"217":-1.0468022275732422e-75,"218":-7.418760343587771e-50,"219":5.002674721842475e-78,"220":-8.185046977155618e-77,"221":-2.553854867430203e-78,"222":-2.202768460068812e-49,"223":-1.8595458404491234e-75,"224":6.212965011816455e-73,"225":-6.385275748572058e-77,"226":-1.3131897145296063e-52,"227":-1.312313391819264e-49,"228":-1.4092246815449601e-61,"229":-2.130550002725587e-76,"230":-5.021152178046137e-50,"231":6.319059512330376e-79,"232":-1.1805123070531632e-76,"233":-1.9038990052199147e-78,"234":-1.4062901260443166e-49,"235":-2.382542306262617e-75,"236":-1.0086448654761013e-68,"237":-6.4137006706710536e-77,"238":-9.174854981622534e-52,"239":-9.112127180676004e-50,"240":-1.5973061818763513e-61,"241":-2.899153947457998e-75,"242":-9.824761736836787e-50,"243":1.4763346333583435e-79,"244":-1.962366302864562e-77,"245":-3.5042145130129986e-57,"246":-1.1205821363736947e-49,"247":-1.5590730623502936e-75,"248":4.409716399745693e-68,"249":-6.489588267615159e-77,"250":1.067597382128008e-51,"251":-8.427383617264846e-50,"252":-1.5551856211201956e-61,"253":-8.660751914310318e-75,"254":-1.0253554673984404e-49,"255":-2.819672213480489e-78,"256":-1.0506885044280481e-76,"257":-3.4807473802616194e-57,"258":-1.1501773654862646e-50,"259":-1.34657103280078e-79,"260":4.7900395512307315e-68,"261":-6.831464457526783e-77,"262":5.2649714122528455e-53,"263":-1.3417772988787518e-49,"264":5.844147245236024e-60,"265":-4.305369712506168e-75,"266":-4.016362643117577e-50,"267":4.441758194686868e-78,"268":-9.972590630099117e-77,"269":1.4696170915815768e-66,"270":-2.6838568922170306e-51,"271":-4.597401391831346e-72,"272":3.848848011309182e-68,"273":-1.08112156468264e-77,"274":-5.433560202295562e-53,"275":-1.0270126892920594e-49,"276":-1.4301418480235222e-61,"277":-5.118435045430346e-75,"278":-2.5085812811115927e-50,"279":-7.086426479046975e-79,"280":-1.2010949190524895e-76,"281":2.6169970804692003e-78,"282":-2.0645417910053662e-49,"283":-1.8843379266273617e-75,"284":2.9968693991879062e-68,"285":-1.312396870862915e-77,"286":-3.7131735121371526e-53,"287":-8.736202358757332e-50,"288":-1.4068120944408277e-61,"289":-4.91752149591472e-75,"290":-7.279453447258935e-50,"291":-9.923339255064355e-79,"292":-1.257846396107001e-76,"293":-4.551562557095077e-78,"294":-1.3103569653751862e-49,"295":-2.3640624549844735e-75,"296":2.4260371940131538e-68,"297":-2.0575242574773705e-77,"298":-7.076055123964767e-54,"299":-2.169946595862363e-49}},{"sx":5,"sy":5,"depth":12,"w":{"0":9.674693791391047e-26,"1":1.7889589133769534e-72,"2":6.050892596574693e-7,"3":2.6156469467717856e-76,"4":4.97267253005962e-76,"5":1.2059812894834505e-53,"6":0.12078013258669573,"7":1.6363713780124217e-53,"8":9.973030001287359e-55,"9":-1.9744305665274887e-64,"10":1.0221066932327298e-38,"11":-0.023281936655924155,"12":1.7500811943868038e-25,"13":2.0507395811975824e-72,"14":-7.065853548894307e-7,"15":-1.2649079635761253e-77,"16":-4.273085588662901e-76,"17":1.5129448799313333e-53,"18":0.100742975693231,"19":5.6801752270242525e-53,"20":7.759313909298442e-55,"21":-7.206588186992599e-64,"22":1.1344647678747081e-38,"23":-0.09006155222419977,"24":1.9574820982390164e-25,"25":2.9684625382522375e-73,"26":-0.0000012574075095240953,"27":-1.0254187746671767e-76,"28":-1.2667438065685782e-75,"29":2.7092824494705407e-53,"30":0.1279273553454173,"31":6.9793464057688795e-53,"32":-6.908574919135639e-55,"33":4.048065613516609e-65,"34":1.1208971270327579e-38,"35":0.003406891696702532,"36":7.840354339914585e-26,"37":8.606252231198314e-73,"38":-0.0000014834077266576888,"39":-6.4378613946141546e-77,"40":-1.6573830396037146e-75,"41":2.0365710290384708e-53,"42":0.12994050378892488,"43":5.415018868111033e-53,"44":2.123957061865839e-54,"45":2.858088081236202e-64,"46":1.2718897171246022e-38,"47":-0.0850852577345734,"48":5.334143552389863e-26,"49":-4.1155333348867654e-73,"50":-5.713255574074084e-7,"51":-1.1867426259501534e-76,"52":1.0315122535867064e-75,"53":1.47963111850946e-53,"54":-0.206382777362187,"55":4.153996537948932e-53,"56":-1.4309214201108273e-54,"57":-3.1180440617199245e-64,"58":1.224352893498699e-38,"59":-0.008849283385500013,"60":7.570327212818992e-26,"61":-2.1373329372257792e-72,"62":3.1798351940490065e-7,"63":-5.144563235122414e-77,"64":1.4379591146589488e-75,"65":1.6559632852877447e-54,"66":-0.036186608069489104,"67":9.060923549362384e-54,"68":5.8856193624963354e-55,"69":2.6953827656516754e-64,"70":9.781588167504108e-39,"71":-0.011081318964830913,"72":3.3637760024882265e-26,"73":-2.1406620838771598e-72,"74":-0.000002060375856418524,"75":-3.254962010577269e-76,"76":7.914457936366714e-77,"77":1.2902130571374407e-53,"78":0.010081806752589814,"79":3.4328746906992814e-53,"80":5.39662037013847e-55,"81":-6.251749744391192e-64,"82":8.863300191076854e-39,"83":-0.03959498473083273,"84":2.2936242387520774e-26,"85":-2.5517664254405553e-72,"86":-0.0000020046764907333583,"87":-2.996436313687214e-76,"88":-4.903460128133134e-76,"89":4.162095708091235e-53,"90":-0.1675518241147328,"91":8.636722498465695e-53,"92":2.2002004538066472e-54,"93":8.606777940853345e-64,"94":8.77162953384067e-39,"95":0.0651852589353206,"96":6.042477638538124e-28,"97":-5.722423531631156e-74,"98":-0.000001317898588877345,"99":-2.4797716880238184e-76,"100":1.9820270875808334e-75,"101":2.4136680129097413e-53,"102":-0.09525176308356395,"103":5.05469538631799e-53,"104":-2.9088115694784546e-56,"105":6.0321258314491226e-64,"106":9.44232808353593e-39,"107":-0.03225720890067401,"108":5.91129697491605e-26,"109":-2.581824750598471e-72,"110":-0.000001708180043427413,"111":-3.238752848981561e-76,"112":1.4611399146763003e-75,"113":2.91578225735786e-53,"114":-0.0508634211209724,"115":4.58817439293226e-53,"116":1.7963703682046533e-54,"117":1.6475366049840855e-64,"118":1.0838658241521189e-38,"119":-0.045071018686063266,"120":1.0560149945969998e-25,"121":9.703704706318848e-73,"122":-4.90795312559715e-7,"123":-2.98857414751305e-77,"124":-6.593812584475264e-76,"125":2.41348092727467e-53,"126":-0.18809352495408788,"127":8.533445070798063e-54,"128":-2.76524955898077e-54,"129":3.636882257845915e-64,"130":9.884299302944012e-39,"131":-0.08337923488518804,"132":-1.1685969846292301e-26,"133":-2.2481431891333033e-72,"134":-7.169671124542036e-7,"135":-7.349599402886616e-77,"136":1.3393484697067574e-75,"137":4.9150418446125945e-53,"138":-0.13917001801653245,"139":6.277723208152173e-53,"140":-2.6550121332695335e-54,"141":-2.222348935466161e-64,"142":8.032486164018619e-39,"143":-0.12029790256500018,"144":7.16301587947251e-26,"145":-1.7732696781838372e-72,"146":-0.000001530912729058938,"147":-1.3589182973292563e-76,"148":-1.207174595358619e-75,"149":6.476593321327774e-53,"150":-0.2253355568411977,"151":1.4375099443864348e-52,"152":-3.558883486050022e-55,"153":-4.794662795373776e-65,"154":3.490068489681072e-39,"155":-0.10412092702940787,"156":1.9512196553861894e-26,"157":1.0829457070908348e-72,"158":-6.118793081799069e-7,"159":6.087777165794124e-77,"160":1.8548179201219707e-75,"161":4.339248744117959e-53,"162":-0.02036775070307983,"163":7.331586707066426e-53,"164":-1.4759662819843186e-54,"165":5.93628909316801e-64,"166":6.402215039201233e-39,"167":-0.06029259364166308,"168":-2.8084009700647626e-26,"169":-7.932529262320945e-74,"170":-0.0000015865802895771913,"171":3.3679200321230196e-77,"172":-4.791989020486636e-76,"173":1.7595638851128577e-53,"174":0.00285334612597367,"175":3.0154037217524866e-53,"176":-1.3583866917894483e-54,"177":1.8103096260126454e-64,"178":1.010838969865268e-38,"179":-0.28978649374530674,"180":-1.1812387502237189e-25,"181":8.007429264819413e-72,"182":-1.163924453477311e-7,"183":6.269085546505984e-76,"184":8.447852579623633e-76,"185":-2.6538376437524693e-55,"186":0.11660944723557311,"187":-8.548209600217512e-54,"188":-1.2866618216708767e-54,"189":1.6859465814756125e-64,"190":8.671330662579452e-39,"191":0.013093362356311396,"192":-1.7211373478598947e-26,"193":1.289458042099552e-72,"194":4.110918759604432e-7,"195":4.011696439506888e-78,"196":1.4678409099360487e-75,"197":1.9935175790610142e-54,"198":0.1696731637157234,"199":1.2851796687465648e-53,"200":-1.465331965659842e-54,"201":-8.75441734595589e-64,"202":6.291739935510719e-39,"203":0.08400250374526516,"204":1.5066615638696782e-25,"205":2.0076653357937489e-72,"206":9.014464474563446e-7,"207":-9.739876004455639e-77,"208":2.518063421856084e-76,"209":1.3481779688084436e-53,"210":-0.09541481026673691,"211":2.3057155704436753e-53,"212":-3.080929665605392e-54,"213":-9.51600925810071e-64,"214":2.0056763234378034e-39,"215":0.08553024100275489,"216":8.307509283197882e-26,"217":1.1328223263558669e-72,"218":0.0000019922615164482775,"219":-5.232371257176168e-78,"220":-1.7357774374341423e-77,"221":1.3276086919715167e-53,"222":0.07207220824371668,"223":4.389492970158087e-53,"224":-2.6101829369335284e-54,"225":1.8828479120239273e-64,"226":8.579386880877541e-39,"227":0.1843026866126255,"228":1.727463739755482e-27,"229":2.297680505738706e-72,"230":-0.0000012757650685618772,"231":1.599482509770597e-76,"232":-1.307306750403957e-75,"233":2.88453509578948e-54,"234":0.21439552985291996,"235":6.69368269544478e-55,"236":-2.8001343178078807e-54,"237":-1.42601457355358e-65,"238":1.0049078211418242e-38,"239":-0.018802023699683004,"240":2.563500677041266e-26,"241":6.380579474202559e-73,"242":0.0000017145799106900367,"243":-1.238818056587643e-76,"244":-1.4303046040717466e-75,"245":-2.0511439804843037e-53,"246":0.20003059226588493,"247":-2.166121021184116e-53,"248":1.1842401352152755e-54,"249":-7.941196155086744e-64,"250":-9.215255421964762e-40,"251":-0.045269623154315305,"252":-3.298048735458818e-26,"253":-4.466534043218712e-73,"254":8.75856109814438e-7,"255":-2.0943444294448783e-77,"256":5.201525841816728e-76,"257":4.078703660079917e-54,"258":0.12958274981585766,"259":-7.238949829994437e-54,"260":1.0687918076980466e-54,"261":-8.81693514261959e-64,"262":-1.4786763207982574e-39,"263":0.01700197305219065,"264":1.7562206068908416e-25,"265":-1.0837988043604744e-72,"266":0.000001629225924753445,"267":-1.7216684521032277e-76,"268":6.511688319216913e-76,"269":1.8396500446266367e-53,"270":-0.07338963422092055,"271":7.732721673552896e-54,"272":3.0267024086988383e-55,"273":-8.673494404751835e-64,"274":4.311306571174155e-39,"275":-0.14548007402784327,"276":1.5168580177657291e-25,"277":1.2056882606329798e-72,"278":7.427194140712862e-7,"279":-3.227764660659165e-76,"280":1.5899071131449473e-75,"281":1.4040574754299659e-53,"282":-0.014947654122379778,"283":5.82589468894261e-53,"284":1.3686144895757473e-54,"285":4.4088931580320046e-64,"286":6.519445319116178e-39,"287":-0.06580183836644268,"288":1.1124061365202874e-25,"289":-8.776130719936744e-73,"290":-9.64726846670368e-7,"291":-4.136694495443047e-76,"292":-7.142728395977268e-76,"293":9.823577664232972e-54,"294":-0.11644257123061756,"295":1.9594558591207555e-53,"296":-1.677934607788993e-55,"297":-3.3052517817210164e-64,"298":7.653610078800211e-39,"299":-0.01814945387816845}},{"sx":5,"sy":5,"depth":12,"w":{"0":7.952607262632249e-56,"1":8.169667134063878e-74,"2":-4.637205680463826e-44,"3":-2.0734779452464124e-78,"4":-1.0302597214643659e-76,"5":-8.440013708702326e-80,"6":-7.665417209812095e-44,"7":-2.55485450354643e-65,"8":-2.0310113680685544e-65,"9":-1.9174841996866605e-77,"10":3.859040905638005e-56,"11":-8.89449728282154e-45,"12":-1.6930627471759634e-51,"13":-6.48965636858281e-74,"14":-4.920213328662187e-44,"15":1.999544521726429e-79,"16":-1.2499349811392786e-76,"17":-3.198224329125174e-79,"18":-8.10619316710145e-44,"19":-3.1982492839267605e-65,"20":-2.0661017045126254e-65,"21":-2.0588323248040313e-77,"22":4.799511325855603e-56,"23":-2.5273076174280898e-45,"24":-2.1033507003343304e-51,"25":-5.808010309693529e-74,"26":-2.4792815996357897e-44,"27":-5.002525413439342e-79,"28":-1.269994699691785e-76,"29":-7.641682894138828e-75,"30":-5.504818644328049e-44,"31":5.179364484354937e-63,"32":-2.3702566684630615e-65,"33":5.321805472830922e-77,"34":9.810515685871667e-57,"35":-8.40547351104411e-44,"36":-7.667460756035528e-50,"37":-5.254429868725321e-74,"38":-3.7648688616665495e-44,"39":-2.160629506752522e-78,"40":-1.1937115539293791e-76,"41":-1.8300859560156846e-75,"42":-5.061068686397143e-44,"43":-3.304705003047704e-65,"44":-2.070851782655459e-65,"45":7.82011113649629e-77,"46":1.3691636549318468e-62,"47":-7.225815785678032e-44,"48":-1.2731636315047216e-49,"49":4.001917262084885e-74,"50":-3.3918860649293255e-44,"51":-5.607300528475891e-79,"52":-1.1412728172498542e-76,"53":-1.9200523076400413e-75,"54":-5.167212592899504e-44,"55":-3.1580306071555265e-65,"56":-2.041407826239108e-65,"57":9.29609258282635e-77,"58":1.334855521060112e-66,"59":-5.377335640636095e-44,"60":6.149637636911728e-57,"61":-2.587453206253047e-73,"62":-5.933153762789879e-44,"63":1.7554955519450303e-78,"64":-1.1510930432908824e-76,"65":6.188171891136316e-79,"66":-8.499550525694273e-44,"67":-3.2571587676033925e-65,"68":-2.0567355327621265e-65,"69":-2.0795151824531732e-77,"70":-3.164163158938974e-57,"71":-1.5475821050269428e-44,"72":-2.631186827702903e-51,"73":-6.087811571653955e-74,"74":-6.103451120867282e-44,"75":-2.9595795722280116e-79,"76":-1.2349783942161495e-76,"77":-2.0735376417685877e-78,"78":-8.725875703625138e-44,"79":-3.2087949329001172e-65,"80":-2.0774391087309476e-65,"81":-2.224435277697047e-77,"82":-6.277149077268863e-57,"83":-4.817104102273924e-45,"84":-3.096159891111445e-51,"85":-6.315737381639805e-74,"86":-3.382378406406436e-44,"87":-4.6701823570738955e-79,"88":-1.2706518455847986e-76,"89":5.868823148273343e-76,"90":-4.927368955953114e-44,"91":3.835701163392255e-63,"92":-2.0886253817478972e-65,"93":5.60331061453481e-77,"94":4.350154512857606e-54,"95":-9.365438448605452e-44,"96":-9.932506933068617e-50,"97":-7.245290184472598e-74,"98":-5.016090614253359e-44,"99":-1.8502587733174856e-78,"100":-1.2078277952762518e-76,"101":-1.653012282209528e-75,"102":-4.176390519405655e-44,"103":-3.2432592319679455e-65,"104":-2.0885220989468265e-65,"105":8.635314089462715e-77,"106":5.465584881813983e-61,"107":-7.997991381323803e-44,"108":-1.2845984359617358e-49,"109":-2.1127063110140804e-73,"110":-5.561678606572549e-44,"111":-1.6258950865579472e-78,"112":-1.1289887085785877e-76,"113":-1.9141974200520834e-75,"114":-3.9763641863132956e-44,"115":-2.98557123821068e-65,"116":-2.069196420203197e-65,"117":9.402831926889976e-77,"118":5.319886898228215e-60,"119":-6.649076090929776e-44,"120":1.261372211568807e-55,"121":-2.2649626427272936e-74,"122":-6.192500888800234e-44,"123":5.744608812074784e-79,"124":-1.133059721729857e-76,"125":3.757571748081533e-65,"126":-8.704282633792685e-44,"127":4.0430100480220586e-64,"128":-2.083593561205848e-65,"129":-1.96273022219011e-77,"130":2.2196804097917597e-56,"131":-1.4553856953238725e-44,"132":-2.4235162942609093e-51,"133":-1.2569572430113313e-73,"134":-6.047248455831755e-44,"135":2.954692302999583e-79,"136":-1.1854202374296042e-76,"137":4.42006555305035e-64,"138":-8.721108051631475e-44,"139":2.510351292672962e-64,"140":-2.032422614642541e-65,"141":-1.977421045676157e-77,"142":2.730165648673487e-56,"143":-5.623576964748291e-45,"144":-3.0262030085291805e-51,"145":-1.4049814938513805e-73,"146":-3.190597798233355e-44,"147":1.2846131864647918e-78,"148":-1.2783090587735124e-76,"149":-5.974924329674631e-76,"150":-7.191892525256395e-44,"151":2.895359991194494e-63,"152":-2.0539509092780156e-65,"153":5.226898026901782e-77,"154":-9.711088181717353e-52,"155":-7.893893743057703e-44,"156":-9.899689461771624e-50,"157":-1.3094185973259117e-73,"158":-4.2712565218127594e-44,"159":-3.447391369109394e-79,"160":-1.1662317490344448e-76,"161":-1.4127909780161978e-75,"162":-4.553679182472376e-44,"163":-3.439581713132584e-65,"164":-2.0782067445552107e-65,"165":8.379763542048675e-77,"166":1.664959957062478e-62,"167":-9.91841352345222e-45,"168":-1.1154146825096328e-49,"169":-1.2355518680106002e-73,"170":-4.389669642242668e-44,"171":4.6374902102106895e-79,"172":-1.1410863705623695e-76,"173":-1.3234607094603975e-75,"174":-3.5420119180505484e-44,"175":-3.078144671891214e-65,"176":-2.046331446943483e-65,"177":8.935238951661702e-77,"178":8.358974689308877e-72,"179":-1.0441320456015381e-43,"180":-3.270741998405486e-55,"181":-1.297335576770719e-73,"182":-7.129996994470542e-44,"183":-9.545348886554536e-79,"184":-8.26462529267379e-77,"185":-4.1490701781284216e-57,"186":-8.842527354629582e-44,"187":-1.725732480297895e-64,"188":-2.0506631114080014e-65,"189":-2.1712598098879314e-77,"190":-1.2597243453833021e-57,"191":-1.526264874858992e-44,"192":-2.331915608023368e-51,"193":-2.049690430959592e-73,"194":-6.949821136113641e-44,"195":7.862386286086442e-79,"196":-1.1495113738842127e-76,"197":-4.1470010691246667e-57,"198":-8.903986829499752e-44,"199":-2.926456344764277e-65,"200":-2.0854661301326882e-65,"201":-2.020565694028313e-77,"202":4.3303644385342606e-54,"203":-4.5086385302787955e-45,"204":-3.002740955835329e-51,"205":-1.9451099951181918e-73,"206":-3.7255161431830164e-44,"207":1.5514847765017352e-79,"208":-1.2506065658298638e-76,"209":-5.507690233804949e-75,"210":-1.1141524549844208e-43,"211":3.7190876262518485e-63,"212":-2.0697904848225765e-65,"213":6.617701297395542e-77,"214":1.4727040868829968e-62,"215":-8.021852798217187e-44,"216":-9.665977647879581e-50,"217":-1.7459205771971183e-73,"218":-4.80241412022592e-44,"219":-7.641135330313945e-79,"220":-1.2378126100656037e-76,"221":-1.001041772403972e-75,"222":-3.704067060343577e-44,"223":-3.1499580995512322e-65,"224":-2.0695324961349683e-65,"225":8.230690155718621e-77,"226":-3.935928118679585e-62,"227":-1.466272542859915e-44,"228":-9.368631907314412e-50,"229":-6.944300137693778e-74,"230":-4.489649789331687e-44,"231":5.469437786416713e-79,"232":-1.1739592122715453e-76,"233":-1.4871409138873827e-75,"234":-3.3411933294616714e-44,"235":-2.875040298597377e-65,"236":-2.0485651510371218e-65,"237":8.637284037684766e-77,"238":1.294534664090146e-63,"239":-1.0213074169580235e-43,"240":-1.5747087823338123e-61,"241":-7.423422366718727e-74,"242":-5.487068164488775e-44,"243":-3.981747501353544e-79,"244":-1.0439864613558833e-76,"245":-4.126124170207896e-57,"246":-7.707214809936731e-44,"247":-2.881709296935158e-64,"248":-2.1014020252810377e-65,"249":-1.7731480388454326e-77,"250":4.486477269576055e-62,"251":-1.3071109937456955e-44,"252":-2.1565280210898787e-51,"253":-3.527747630453608e-74,"254":-5.654474759624832e-44,"255":3.8271786072808674e-79,"256":-1.2136858813162216e-76,"257":-4.1161367427531977e-57,"258":-7.715786527006869e-44,"259":-1.90831582461218e-64,"260":-2.0810114399197695e-65,"261":-1.7940689476522742e-77,"262":4.454930985196395e-62,"263":-3.449668556070132e-45,"264":-2.929518068885874e-51,"265":-7.00126304821462e-75,"266":-3.4664660189521083e-44,"267":-3.887071611911804e-79,"268":-1.2320016646305728e-76,"269":-1.1823453476022785e-74,"270":-1.0903592295479769e-43,"271":3.8151274628422005e-63,"272":-2.054401368794351e-65,"273":7.043761494352454e-77,"274":4.217183102652897e-62,"275":-8.677364936450584e-44,"276":-1.0677340950119615e-49,"277":-1.2257810721950265e-73,"278":-4.441002930453656e-44,"279":-2.3854396363482887e-78,"280":-1.241246251746363e-76,"281":-1.3990119639011113e-75,"282":-7.057258627426116e-44,"283":-3.1315688725930473e-65,"284":-2.0794984297972847e-65,"285":8.254967874410897e-77,"286":2.4281085910457273e-62,"287":-1.6032356769150915e-44,"288":-9.82983967591781e-50,"289":-2.592909792767982e-73,"290":-4.2770507791434283e-44,"291":-8.311626985718027e-79,"292":-1.1902306693427823e-76,"293":-1.628811062911712e-75,"294":-7.052651140225832e-44,"295":-3.0032831436906716e-65,"296":-2.0611260911804176e-65,"297":8.212714886928526e-77,"298":2.1058378898246805e-63,"299":-9.71693748849946e-44}},{"sx":5,"sy":5,"depth":12,"w":{"0":8.928614318289029e-26,"1":8.933632464398602e-73,"2":6.639432203646081e-7,"3":1.6953244218879818e-77,"4":-1.3516794017114144e-75,"5":-1.5365874621976653e-53,"6":0.15777546937652273,"7":-1.70753648841102e-53,"8":-3.404954439764207e-54,"9":3.6974883393089293e-65,"10":-3.745285045968142e-39,"11":-0.0037031797745246315,"12":9.995786185119448e-26,"13":2.0664070089189472e-73,"14":-9.689847942299452e-7,"15":8.654979891560336e-79,"16":2.213455005363921e-76,"17":9.49267184770048e-54,"18":0.08390069646166826,"19":8.932777057868471e-54,"20":-7.728284701627846e-55,"21":-1.6240797227146754e-64,"22":-3.4987445354334376e-39,"23":-0.10963273072015864,"24":7.149733757475916e-26,"25":-7.402040846883115e-73,"26":-3.832973881072008e-7,"27":-4.871797429536224e-77,"28":6.242964248452719e-76,"29":-2.016226855722258e-54,"30":-0.17017515405771272,"31":-1.1925905226221049e-53,"32":2.8812098784526806e-55,"33":-1.3852986572830014e-64,"34":-4.867019693252911e-39,"35":-0.12191587780591898,"36":5.362575784015139e-26,"37":-2.7541089396487985e-73,"38":-8.257085379757432e-7,"39":6.821072689657856e-78,"40":1.1245385220959602e-76,"41":1.3712892444252243e-53,"42":-0.2173886743001268,"43":1.1944269745683538e-53,"44":4.830654790608706e-55,"45":1.4785197424507082e-65,"46":-3.3904940960655676e-39,"47":0.08439600450462366,"48":6.063947412344754e-26,"49":1.8729562367326432e-72,"50":1.9271939253663146e-7,"51":-6.450413014838988e-77,"52":-5.609243269191273e-76,"53":5.1500793459917424e-54,"54":-0.04852009915895737,"55":-1.6980969425171404e-54,"56":-1.568731259043392e-54,"57":1.269775539882523e-64,"58":-3.06125841160284e-39,"59":0.12902903673432883,"60":5.028673787199576e-26,"61":6.715596073515146e-76,"62":9.325303451929108e-7,"63":3.3801562265545518e-77,"64":-1.1501961913335496e-75,"65":-8.991940548950101e-54,"66":0.19965343216754586,"67":6.605087402598168e-55,"68":-1.7632447945224927e-54,"69":-3.831573623866192e-64,"70":-6.138755945133744e-39,"71":0.11751125131843435,"72":1.6335256537890452e-26,"73":-1.814290356531844e-72,"74":-3.6559871440645504e-8,"75":-1.2587804689650417e-76,"76":1.5573526186876475e-76,"77":4.138492370430692e-54,"78":-0.06814889001474753,"79":3.41608369252575e-53,"80":-2.134095532022218e-54,"81":-1.854859583253322e-64,"82":-5.659448205113115e-39,"83":0.004986571964565705,"84":3.718919286776213e-26,"85":-1.5697730115224324e-72,"86":-9.817011133752519e-8,"87":-1.7600819851977378e-76,"88":1.364436566455012e-75,"89":3.476741038213552e-55,"90":-0.09777632873103718,"91":2.9308725617809577e-53,"92":-1.3117149468777898e-54,"93":3.4332285565539974e-64,"94":-5.801435397251488e-39,"95":-0.07260352135865572,"96":-3.638147587705757e-27,"97":-3.467504703256188e-73,"98":-5.330096116083591e-7,"99":-1.7482717252952994e-77,"100":-9.487615593910482e-77,"101":2.2094931877484888e-53,"102":-0.07647289259987053,"103":3.8063357605583168e-53,"104":-1.6178385605188086e-54,"105":4.3876157621243565e-64,"106":-4.578469432501934e-39,"107":0.12261173211005987,"108":-2.160032877258052e-27,"109":1.7488525735055213e-73,"110":0.0000018876541399115526,"111":2.8439763327579537e-77,"112":-9.155792834546024e-76,"113":7.263211676130264e-54,"114":0.0885862532664312,"115":2.0617314207745476e-53,"116":-1.3223466435655772e-54,"117":7.25183293847082e-65,"118":-5.94040560383452e-39,"119":0.361089377560779,"120":4.165756194654297e-26,"121":-2.8726753599171e-74,"122":1.706678902375775e-7,"123":5.084232816537827e-77,"124":-6.886482207417024e-76,"125":2.403758020379679e-54,"126":-0.043224110055161385,"127":-4.781747482113874e-54,"128":3.6813224228531246e-55,"129":-1.0827457132475108e-63,"130":-6.971254503837315e-39,"131":-0.07298329219575442,"132":1.737143063085987e-26,"133":-5.176508495558136e-73,"134":7.867795640511332e-7,"135":1.0495135982420807e-78,"136":2.6091427179030907e-76,"137":2.240741697433662e-53,"138":-0.03050355699341874,"139":1.9370445123274163e-53,"140":2.756387758013766e-55,"141":-6.282260534100523e-64,"142":-8.078721960018279e-39,"143":-0.16596330814643162,"144":3.327538110132264e-26,"145":6.075131493150922e-73,"146":3.7075482758564726e-7,"147":-5.8483259382888636e-77,"148":3.136377435523986e-76,"149":1.742728682120804e-53,"150":-0.05535693079429536,"151":1.6212106415621366e-53,"152":-7.090759884747983e-55,"153":2.010503368127451e-64,"154":-7.293712822572878e-39,"155":-0.09518364356212541,"156":3.50342378853545e-26,"157":1.2390354374588692e-72,"158":3.4366818130517906e-7,"159":-7.829291538809725e-77,"160":-3.0184769765125157e-76,"161":1.647096467667213e-53,"162":-0.18331975562108535,"163":1.368380572099231e-53,"164":-7.46699425825748e-55,"165":4.730099113525905e-64,"166":-4.9196765346720114e-39,"167":-0.15951561685812654,"168":-4.0601723344361e-26,"169":-6.157458611820877e-73,"170":-5.985301791941509e-7,"171":-3.849130558895852e-77,"172":-8.49398962452339e-76,"173":-8.995842532309333e-54,"174":-0.0954871533552266,"175":2.7855711438785473e-53,"176":1.364542110373293e-54,"177":1.8208323578216176e-64,"178":-6.624212251213619e-39,"179":0.1517136539791593,"180":2.9456784996176466e-26,"181":-2.608191935136045e-73,"182":-2.4316809234298184e-7,"183":-7.727183510955697e-78,"184":-1.231996195231499e-75,"185":5.609239309638696e-54,"186":-0.050407286480447885,"187":8.573104460707585e-54,"188":6.813890233509711e-55,"189":-4.974110805098297e-64,"190":-6.935867527292877e-39,"191":-0.08779364684931122,"192":2.6168856412552884e-26,"193":1.2451713551870146e-73,"194":-9.251252545716934e-8,"195":-2.9902098901264773e-77,"196":-1.083449233286029e-76,"197":1.2048471253709645e-53,"198":0.10211168502191353,"199":2.9543240778749186e-53,"200":7.608575173938788e-55,"201":-5.5570562970253426e-64,"202":-7.653302902194595e-39,"203":-0.020592844000183533,"204":2.402521436861257e-26,"205":-5.580615009703364e-73,"206":1.8310202866091547e-7,"207":-5.3325292588392315e-77,"208":4.504855675522331e-76,"209":-4.8745872689494544e-54,"210":0.16565555418537384,"211":1.1958449673381343e-53,"212":5.819932046466639e-55,"213":-5.837038260491819e-65,"214":-7.983730684114804e-39,"215":-0.02088017927330817,"216":5.26657475956729e-26,"217":1.659919321728718e-72,"218":-0.0000010059221021719317,"219":-1.99818509259982e-77,"220":-4.538729034502365e-76,"221":-1.9246827177609401e-53,"222":-0.0023562463933766774,"223":9.863508275163695e-54,"224":7.288632688546848e-55,"225":-2.5157705204246074e-64,"226":-4.905709251463653e-39,"227":-0.24182003916516073,"228":9.141886884283165e-26,"229":1.656045006551352e-72,"230":-1.588428181143825e-7,"231":-4.482388558877024e-77,"232":-9.79671138200349e-76,"233":-1.036833860538916e-53,"234":-0.13196470113809153,"235":-8.404798628842315e-55,"236":-2.4446434501409837e-54,"237":-1.7876228934798243e-64,"238":-5.838429584325694e-39,"239":0.07318041189527529,"240":-1.5653645550347983e-26,"241":3.8233734865484965e-73,"242":4.4138008839310926e-7,"243":-5.608203123880371e-77,"244":-3.541131118993089e-76,"245":1.0037368360908602e-53,"246":-0.07076057040419598,"247":2.473049250418976e-53,"248":-2.426735201747071e-54,"249":-1.3470806051060798e-63,"250":-9.37085646754483e-39,"251":-0.1345970006143037,"252":-1.56474573566968e-27,"253":1.8766560074517764e-73,"254":-4.6368430120584554e-7,"255":-3.022218400274418e-77,"256":-2.5862736242277966e-76,"257":2.391829635947519e-53,"258":-0.06726586463193007,"259":5.131956958090358e-53,"260":-2.1095572352833392e-54,"261":-1.3602030880917148e-63,"262":-8.560705202753209e-39,"263":-0.024435751115207724,"264":7.552187485328122e-27,"265":1.5140076227463765e-72,"266":-4.4777608833185824e-7,"267":-2.5293485494921404e-78,"268":1.4802016119807774e-77,"269":4.2798203246317034e-54,"270":-0.010297428904457758,"271":2.5405158203148036e-53,"272":-1.2823440536653283e-54,"273":-3.6110137776413157e-65,"274":-8.62442218438763e-39,"275":0.07849730767971856,"276":2.8432585014699937e-26,"277":2.5741357725285865e-72,"278":-9.308563294614547e-8,"279":1.485399689798964e-77,"280":-3.1742314683413954e-76,"281":-2.0426693090139424e-54,"282":0.18954174032202128,"283":1.8595141126731929e-53,"284":-1.0036709897917164e-54,"285":-1.6354892200999557e-64,"286":-8.416343678082994e-39,"287":-0.047864044385715385,"288":4.51263057453954e-26,"289":2.8443568567491426e-72,"290":0.000001184688030861277,"291":1.4255234557496873e-78,"292":-1.6693758237385558e-75,"293":2.5418333522481417e-54,"294":0.21594161450849045,"295":1.7854917655296403e-53,"296":2.8621970641782347e-54,"297":1.668647188637369e-64,"298":-8.78162857297559e-39,"299":-0.07465135484188115}},{"sx":5,"sy":5,"depth":12,"w":{"0":-8.829188638138021e-46,"1":-1.6586984034080587e-76,"2":-3.4531081077019635e-31,"3":1.7683029988916125e-78,"4":-8.27959006825795e-77,"5":-7.779005708619996e-74,"6":-3.300913086948419e-29,"7":-1.7426122891602924e-79,"8":3.1724059772820264e-62,"9":-1.3182370649186968e-77,"10":-3.701533543427382e-55,"11":-1.0391534154153192e-31,"12":-8.449293240132827e-46,"13":-1.6318540898858728e-76,"14":-4.514097008224717e-31,"15":2.6242046432033435e-79,"16":-1.0955766740848577e-76,"17":-1.3925253170388709e-73,"18":-7.090325099692519e-31,"19":-1.2599371651259204e-78,"20":3.0257616543279326e-62,"21":-8.499820631991474e-78,"22":-3.377703573799908e-55,"23":-1.8554328368002073e-31,"24":-9.807941866671203e-41,"25":-2.009159836980537e-75,"26":-1.0383391315932934e-31,"27":-1.8928672106414208e-78,"28":-1.2163362914591018e-76,"29":-1.5483792919973027e-73,"30":-6.3827658670116295e-31,"31":4.020312227503945e-79,"32":2.5837860281233784e-62,"33":2.0399622520600057e-76,"34":-3.3228027361392896e-54,"35":-1.812976387558837e-31,"36":-8.839753703835459e-46,"37":-2.572905838715931e-75,"38":-8.030527560755455e-32,"39":-1.393430578192103e-78,"40":-1.1753052638949331e-76,"41":-9.15851516868552e-74,"42":-1.044640366520954e-31,"43":1.1060083130615609e-78,"44":2.1593204277201786e-62,"45":-6.22916338773006e-79,"46":-4.594618315997216e-55,"47":-1.3108665260236614e-31,"48":-8.846318354901206e-46,"49":-2.766040294459154e-75,"50":-4.3648083469428523e-32,"51":-1.8670368718440708e-78,"52":-1.0874958030771944e-76,"53":-1.6671827208747935e-73,"54":-1.8675900630572425e-31,"55":-1.345814362067652e-78,"56":2.5562007631977195e-62,"57":-1.3210573474374883e-78,"58":-5.992087999915985e-55,"59":6.370463396574554e-33,"60":-9.531231380041737e-46,"61":-4.12657454971836e-76,"62":-3.297106866283778e-31,"63":1.4487454790182187e-78,"64":-1.217298009917244e-76,"65":-7.865535373876237e-74,"66":-3.6432224639192173e-31,"67":2.8388925098442946e-79,"68":3.0779145374414895e-62,"69":-1.583204524427513e-77,"70":-1.1666950555218931e-54,"71":-1.1198213113367296e-31,"72":-5.329435580153098e-45,"73":-1.220619998356986e-76,"74":-4.3701524060519405e-31,"75":1.1259889444810516e-78,"76":-1.2996598176505191e-76,"77":-1.5831620325625724e-73,"78":-7.520436986461548e-31,"79":1.2819263479010572e-78,"80":3.32620841274262e-62,"81":-1.5724742167673504e-77,"82":-4.352830269661599e-55,"83":-1.7860114047475392e-31,"84":-7.756733160737754e-41,"85":-1.3412750578804554e-76,"86":-6.684700605294138e-32,"87":-2.594538040863276e-78,"88":-1.156287634494125e-76,"89":-1.9083227205661103e-73,"90":-6.254859238276703e-31,"91":2.1403997859019567e-79,"92":3.3822815785417945e-62,"93":1.6709370764485604e-76,"94":-3.060461944933732e-54,"95":-1.916918341866581e-31,"96":-8.782067237019939e-46,"97":-1.2088833018667456e-76,"98":-9.192721461257076e-32,"99":-1.0401169498344137e-78,"100":-1.1698985702466673e-76,"101":-1.9043984769746084e-73,"102":-1.1532882781520801e-31,"103":-2.0484591531219438e-78,"104":2.998261603300447e-62,"105":3.010303496676709e-79,"106":-4.8541711458511595e-55,"107":-1.5836354314079791e-31,"108":-8.817740167414733e-46,"109":-1.4906796913615737e-76,"110":-2.4556969470379848e-32,"111":-1.831670324892305e-78,"112":-1.1830975123710934e-76,"113":-1.93250433850393e-73,"114":-1.8876805072118573e-31,"115":1.9972950014424793e-79,"116":3.579008293108808e-62,"117":2.79550722481804e-79,"118":-6.575662186433077e-55,"119":1.4489778543470388e-33,"120":-1.6329131533635706e-44,"121":-2.927934850985028e-76,"122":-4.388705112748144e-31,"123":-6.808323975353074e-79,"124":-1.1997964122772433e-76,"125":-7.963934683719608e-74,"126":-3.5578925521107e-31,"127":-5.667815291794923e-66,"128":2.8788391430261777e-62,"129":-1.5277595964388596e-77,"130":-1.539002437255842e-54,"131":-2.2109000463298766e-31,"132":1.0814066306601466e-44,"133":-2.1163571486774747e-76,"134":-5.00751421591304e-31,"135":5.266549976637785e-79,"136":-1.2476795621337609e-76,"137":-1.0302036717617077e-65,"138":-6.617969490630667e-31,"139":-6.569829142304599e-66,"140":2.7577305100919082e-62,"141":-1.6213573505880882e-77,"142":-1.570549286341698e-48,"143":-2.1813511334308068e-31,"144":-7.824270356150168e-41,"145":-5.002293194813954e-76,"146":-7.082847298303078e-32,"147":4.2753078358522103e-79,"148":-1.1302233725642214e-76,"149":-2.0117668974639987e-73,"150":-4.65128026379082e-31,"151":-1.9119029311212187e-78,"152":2.3829094829382803e-62,"153":-5.0016485315364924e-77,"154":-4.474279920037325e-48,"155":-1.2911530435184382e-31,"156":-8.787538142120514e-46,"157":-5.4124253199531386e-76,"158":-1.2312507587380708e-31,"159":-1.1710563506784916e-78,"160":-1.1516464644010502e-76,"161":-2.014787838368867e-73,"162":-1.0152764238620524e-31,"163":-2.5342207645598835e-78,"164":2.075140973274768e-62,"165":-2.614051360779583e-78,"166":2.3109104398287384e-54,"167":-1.2534277744295653e-31,"168":-8.809509535684806e-46,"169":-5.455318627833857e-76,"170":-7.379835751800538e-32,"171":-3.178076738164132e-78,"172":-1.1576493958622783e-76,"173":-2.008708088586292e-73,"174":-1.6570216395909456e-31,"175":-1.4757735858882225e-78,"176":3.175536138646176e-62,"177":6.688446821014198e-80,"178":-2.3609535636076498e-55,"179":-4.445058674524106e-33,"180":-9.608152236718686e-46,"181":-3.171573287848976e-76,"182":-2.076810218320801e-31,"183":-3.785820748600793e-79,"184":-1.16594994677869e-76,"185":-3.973104035039038e-57,"186":-6.299857903794778e-31,"187":4.142793406240443e-79,"188":2.772074949579008e-62,"189":-1.746192723174756e-77,"190":-1.6196936292799244e-54,"191":-6.331246672604301e-32,"192":-8.404055036467113e-46,"193":-1.9523748362120043e-76,"194":-3.0080795632682946e-31,"195":1.0269663694700511e-78,"196":-1.2477306737124961e-76,"197":-3.973360646442327e-57,"198":-8.116438843152648e-31,"199":-2.210761833720195e-78,"200":2.7721614073323295e-62,"201":-1.4198395534921602e-77,"202":-4.940410796907557e-55,"203":-1.5477366015089694e-32,"204":-8.568556079104805e-46,"205":-1.1207307911283882e-76,"206":-1.4118845364074973e-31,"207":-4.294568865413922e-81,"208":-1.1625672203916827e-76,"209":-1.8333324962828536e-73,"210":-6.859190443635168e-31,"211":-1.3011350387075297e-78,"212":2.2997472991789117e-62,"213":-2.1320170684822575e-76,"214":-1.2083449277501672e-54,"215":-1.3171332139918256e-31,"216":-8.772408408241347e-46,"217":-6.994288968270952e-77,"218":-1.2947525961411342e-31,"219":-5.347314397611508e-79,"220":-1.2178187047261285e-76,"221":-1.8129437681137557e-73,"222":-4.735045055516121e-32,"223":-1.5633112291270824e-65,"224":1.828793580582971e-62,"225":7.848026350152896e-79,"226":-3.0891736306676608e-55,"227":-2.526698334423951e-32,"228":-8.832416535645022e-46,"229":9.088227289618093e-77,"230":-1.3738887675538035e-31,"231":1.8522988701749725e-78,"232":-1.2737639397201118e-76,"233":-2.8415339321879546e-65,"234":-9.42417021241932e-32,"235":-1.812106983519473e-65,"236":2.8031177599472578e-62,"237":8.84656894495109e-79,"238":-5.7518426603177125e-55,"239":-8.808790912101139e-32,"240":-9.825335614199577e-46,"241":2.450867176588507e-76,"242":-2.4922047509950153e-31,"243":-6.541006569782427e-79,"244":-1.1918250899670956e-76,"245":-3.962621918279794e-57,"246":-6.970244768349512e-31,"247":-4.9621511803489485e-79,"248":3.8762711285781e-62,"249":-1.562105315044147e-77,"250":-1.8333876867487932e-54,"251":-4.6074568927748193e-32,"252":-8.568940204683464e-46,"253":-2.0781146314297263e-76,"254":-2.6180037940239896e-31,"255":-5.115768763261283e-79,"256":-1.2252375616253591e-76,"257":-3.964373460224909e-57,"258":-8.281934979049485e-31,"259":2.94200814046342e-79,"260":3.702816982163823e-62,"261":-1.5058848707973851e-77,"262":-5.688389695128009e-55,"263":-1.8967710209128584e-32,"264":-8.538358066037038e-46,"265":-1.1881638968848772e-76,"266":-1.3206438054894592e-31,"267":-7.068910692984648e-79,"268":-1.1115016612839632e-76,"269":-1.51492246691782e-73,"270":-7.328813655828839e-31,"271":-7.580860250841786e-79,"272":3.074384492351335e-62,"273":-2.2392858050389865e-76,"274":-2.8750662071604883e-55,"275":-1.2735475424611689e-31,"276":-8.762265209232185e-46,"277":-1.0827494845813147e-74,"278":-2.546368329460051e-32,"279":3.124111535829492e-78,"280":-1.2021974933424544e-76,"281":-8.315036582853456e-74,"282":-5.131940465020235e-32,"283":2.1003683997171792e-78,"284":2.3520373112960895e-62,"285":-9.774167973925782e-79,"286":-2.969408489629932e-55,"287":-2.751156191389116e-33,"288":-8.826506993833466e-46,"289":1.150364747925451e-75,"290":-4.3261058239155167e-32,"291":3.510173195558243e-79,"292":-1.244057070186056e-76,"293":-1.4259515936425595e-73,"294":-5.023083343801911e-32,"295":-1.179876615763452e-78,"296":3.1074125784145052e-62,"297":-3.353113438323883e-79,"298":-5.23895188551766e-55,"299":-1.075188579612671e-32}},{"sx":5,"sy":5,"depth":12,"w":{"0":-6.800288680989843e-49,"1":-9.865912037521268e-76,"2":-3.278236369299055e-47,"3":4.2451776714154276e-80,"4":1.5684801240068294e-77,"5":-4.004908905915705e-74,"6":-2.2730019052851294e-47,"7":-9.156388712383972e-79,"8":8.497353653179184e-62,"9":2.8379547647164643e-67,"10":2.563027143180089e-64,"11":-2.3305562721604054e-47,"12":-9.641030835299607e-49,"13":-1.0022989418881328e-76,"14":-2.812087106841688e-47,"15":6.617175900765753e-79,"16":9.963473647567324e-77,"17":3.4975649418588148e-74,"18":-1.4524383939679688e-47,"19":1.1933676678315502e-75,"20":8.692838753838845e-62,"21":1.350851596564283e-67,"22":2.0005171495666553e-49,"23":1.5194089463191393e-48,"24":-1.0496396149161387e-48,"25":-1.627385669347353e-73,"26":-1.7020032520358578e-47,"27":-1.9604187231583506e-78,"28":1.8950851782539528e-76,"29":-2.764687575505489e-74,"30":-6.065865348938776e-48,"31":-2.2414541114013234e-78,"32":8.657942912721596e-62,"33":7.090814180217713e-67,"34":6.903700123043359e-50,"35":1.420906375004758e-48,"36":-1.0472299931144128e-48,"37":-1.951867423546865e-76,"38":-1.8970749818862687e-47,"39":-3.8128568363163606e-78,"40":2.5447288530738702e-76,"41":-6.058708195558755e-74,"42":-3.5099165016615056e-48,"43":-1.324072524332498e-78,"44":8.362017187672998e-62,"45":-2.2294048705668385e-69,"46":7.094779345198327e-50,"47":-1.1021184211178588e-47,"48":-1.0096137457309319e-48,"49":-4.031937484206935e-74,"50":-1.5970076842811553e-47,"51":-3.385120389142457e-78,"52":1.6717755053458534e-76,"53":-1.1219376416001283e-73,"54":-6.226190479946999e-48,"55":1.0626142822780423e-78,"56":8.862746714538297e-62,"57":-1.2385243496761954e-69,"58":4.219119518286179e-50,"59":-1.6098770303078236e-48,"60":-6.4127870661758575e-49,"61":1.7997173171041001e-75,"62":-3.18504189073734e-47,"63":4.7777501193455526e-79,"64":3.5465811070863456e-77,"65":-4.678032616779887e-74,"66":-1.4742907857897998e-47,"67":2.2201728811493993e-78,"68":9.142332789941494e-62,"69":2.4286944998860355e-67,"70":2.4203320854165902e-64,"71":-1.4400385123585102e-47,"72":-9.864541605187107e-49,"73":-8.185504614770052e-74,"74":-3.8539914154146457e-47,"75":-3.951117131264044e-79,"76":2.4022992844757353e-76,"77":-9.551788101472613e-74,"78":-2.1709940056457924e-48,"79":8.078529606734001e-78,"80":9.580773720361074e-62,"81":-1.5531032787588346e-69,"82":1.932343917575093e-49,"83":4.7519810982247495e-48,"84":-1.0815203673862756e-48,"85":-3.6601813187737334e-73,"86":-3.274903054706316e-47,"87":-3.4131128523960126e-79,"88":2.403799638524521e-76,"89":4.2933359852193226e-73,"90":-1.6283409429466582e-48,"91":1.7554207075817734e-72,"92":9.658122161863313e-62,"93":7.144574049256182e-67,"94":9.026700739150785e-50,"95":-3.9142380324538676e-48,"96":-1.0848994571401603e-48,"97":-9.011785807398787e-74,"98":-4.937532287665294e-47,"99":-9.551292115773138e-79,"100":2.1197353121060747e-76,"101":-8.944835402626192e-74,"102":-3.4297983839728656e-48,"103":-7.016216925069433e-78,"104":9.266565298910279e-62,"105":-3.35387579427924e-69,"106":5.939325577859871e-50,"107":-1.2642011130394524e-47,"108":-1.0588434940994966e-48,"109":-1.1475032286444811e-73,"110":-4.2869818875114077e-47,"111":-1.076475892169284e-79,"112":1.750911040334941e-76,"113":-7.925867607726902e-74,"114":-6.575239364403086e-48,"115":-6.2171786937755685e-78,"116":9.525468028479427e-62,"117":-1.614182641728237e-69,"118":4.829214642851601e-50,"119":-2.3086055524860938e-47,"120":-6.739170759858456e-49,"121":-9.739388003251627e-73,"122":-2.4107520835127167e-47,"123":-1.7806438084285682e-78,"124":-1.7063465538095065e-76,"125":-2.561519145126412e-60,"126":-1.2125454227691624e-47,"127":-9.277794279643511e-63,"128":9.244030826063255e-62,"129":-5.531209322277978e-70,"130":2.488820012131247e-64,"131":-2.0842990202333529e-47,"132":-9.906322124432573e-49,"133":-8.04267509794663e-73,"134":-2.869092091318569e-47,"135":3.383615416573183e-80,"136":2.7309135538996404e-77,"137":-3.6027516547142795e-57,"138":-1.7192040640652633e-48,"139":-1.1786906163575627e-62,"140":9.500796127995677e-62,"141":-1.439544737269365e-69,"142":1.904177022786693e-49,"143":4.110272812914874e-48,"144":-1.0759127461354083e-48,"145":-2.584687974335846e-73,"146":-2.8793556368815545e-47,"147":-1.4250656409423466e-78,"148":1.1848348044978486e-76,"149":-2.872713384580236e-60,"150":-1.069915453379545e-48,"151":-8.380177669415302e-63,"152":9.860940528146607e-62,"153":6.309325125053048e-67,"154":9.460479657038863e-50,"155":-1.6580251214263873e-47,"156":-1.0780790320596903e-48,"157":-9.554554611509914e-76,"158":-3.4449102590844345e-47,"159":6.789225551877923e-80,"160":-9.980092572664975e-77,"161":-1.7696572576649813e-60,"162":-1.4576035542399403e-48,"163":-6.638597511057345e-63,"164":9.843632102204042e-62,"165":-3.359286179599539e-69,"166":9.384824674069252e-50,"167":-2.218588863323685e-47,"168":-1.0479516933599904e-48,"169":-7.192087516409178e-74,"170":-4.901917497759005e-47,"171":-1.2429276093451545e-78,"172":1.5234589868511135e-76,"173":-2.2234070774927512e-60,"174":-4.457277563705481e-48,"175":-2.9950598143642707e-63,"176":1.042957643779649e-61,"177":-1.599751556521371e-69,"178":6.363282864481123e-50,"179":-2.50151327182734e-47,"180":-7.40300097453376e-49,"181":-8.6825734400472e-74,"182":-1.9641524177880883e-47,"183":1.2356573787767697e-79,"184":-1.0341902469557645e-76,"185":-1.469230490853299e-73,"186":-1.4956895779617266e-47,"187":-5.046287382524601e-79,"188":9.174378743630551e-62,"189":7.818070523137344e-68,"190":-6.58844386908602e-55,"191":-1.8595449210053996e-47,"192":-1.0032567195102746e-48,"193":-4.086349218512352e-74,"194":-2.4249146631013493e-47,"195":6.267578146931745e-79,"196":2.1982506658429158e-76,"197":-1.452857268354892e-73,"198":-3.778319971263964e-49,"199":2.2469309540097843e-77,"200":9.439253615359988e-62,"201":-1.0360454144504776e-69,"202":2.3043518024757562e-49,"203":5.2666068550133545e-48,"204":-1.0667783241449906e-48,"205":-1.82587891958479e-73,"206":-2.1359593982683828e-47,"207":2.1483397121638461e-78,"208":1.2339312676563329e-76,"209":-8.266965122139746e-74,"210":3.0942610060856694e-48,"211":-1.3954180781933682e-76,"212":9.666440474302543e-62,"213":4.663630834904906e-67,"214":1.2485365086129822e-49,"215":-1.5109095394476487e-47,"216":-1.0688749072299141e-48,"217":-8.830636421070654e-74,"218":-2.289929134551991e-47,"219":-2.908141813541108e-79,"220":7.044657585097986e-77,"221":-3.075152339990344e-74,"222":2.265334483120131e-48,"223":-3.6941474440055743e-78,"224":9.716736572416828e-62,"225":-2.7574106282388905e-69,"226":1.3156733928948745e-49,"227":-2.950823424542661e-47,"228":-1.0392213370636626e-48,"229":-1.2450524493893158e-73,"230":-2.0117932426999347e-47,"231":-2.060787745090998e-78,"232":1.6095604642807227e-76,"233":-1.487310010245122e-73,"234":3.9082629308235227e-48,"235":-4.2956396049074044e-78,"236":1.0419051159274626e-61,"237":-1.4499306240597217e-69,"238":9.516222909709825e-50,"239":-2.8154309343817856e-47,"240":-7.701426323590286e-49,"241":-9.003387649237596e-74,"242":-1.6256437640015592e-47,"243":-3.209942015737821e-78,"244":2.6823078550714706e-77,"245":6.708832248802287e-75,"246":-2.95574166194635e-47,"247":-9.194284331695652e-80,"248":8.88481783034776e-62,"249":7.628882237275355e-68,"250":-6.588215138856525e-55,"251":-1.7482251156640947e-47,"252":-9.958933038136538e-49,"253":-7.088910768854237e-74,"254":-2.1026205211217976e-47,"255":-2.3513416309685324e-78,"256":3.076653037374759e-76,"257":-3.3060388589463203e-57,"258":-1.105221410517787e-47,"259":-6.838554320135552e-75,"260":9.037087334303369e-62,"261":-7.398520813547044e-70,"262":1.925541128924233e-49,"263":5.95408012244193e-49,"264":-1.0634907401487466e-48,"265":-2.810556807390847e-73,"266":-1.7263930790987237e-47,"267":1.948668779706386e-79,"268":2.922703932031816e-76,"269":2.0740428670585486e-74,"270":-1.9521384083028294e-48,"271":-1.8260161403268584e-76,"272":8.996781953735771e-62,"273":4.159974630046246e-67,"274":8.331626750998326e-50,"275":-1.049053802457618e-47,"276":-1.0658590581428497e-48,"277":-7.367007033859274e-75,"278":-1.613566304195939e-47,"279":4.0016923460679677e-79,"280":2.046135113622113e-76,"281":-6.9586508506500915e-74,"282":-1.6536749723680122e-48,"283":-2.219038523406064e-78,"284":8.573667522685256e-62,"285":-1.504418216404128e-69,"286":1.0027814627101872e-49,"287":-8.650469530328928e-48,"288":-1.0489345403658132e-48,"289":-2.7091912163278823e-74,"290":-2.0497158163389648e-47,"291":-6.795467436621119e-79,"292":7.845301809632371e-77,"293":-9.120144481592275e-74,"294":2.355730861535199e-49,"295":-4.8024191248401243e-79,"296":9.162585138208084e-62,"297":-8.239609932604511e-70,"298":9.002357981062625e-50,"299":-1.2530572396780368e-47}},{"sx":5,"sy":5,"depth":12,"w":{"0":1.043587896244529e-25,"1":3.0432514059309073e-74,"2":-0.000001997973299695154,"3":-1.0950783866982838e-76,"4":7.493501738835342e-76,"5":-6.141919575725951e-54,"6":-0.04426289791674782,"7":7.188797538016434e-55,"8":-4.0481757927973644e-54,"9":5.884993889619781e-64,"10":-4.747520326085564e-39,"11":-0.24320607692349747,"12":1.5522457371043761e-25,"13":4.429093827505639e-73,"14":-1.7014965306267854e-7,"15":-8.61407768937799e-77,"16":7.207859478288672e-76,"17":-1.7698572494338102e-53,"18":-0.05071377431729186,"19":-1.8714761936177115e-53,"20":-1.687725770246159e-54,"21":-1.9918176573345867e-64,"22":9.273725294506657e-39,"23":-0.06422595283204433,"24":7.94550597302747e-26,"25":2.6515701925413302e-73,"26":-8.972005848648412e-8,"27":-3.1202078088935952e-77,"28":9.102335674953835e-77,"29":-2.271973262467883e-53,"30":0.041737051728084985,"31":-8.622393863931532e-54,"32":1.1768093810555115e-54,"33":-1.031587473629723e-64,"34":1.0556651189892022e-38,"35":0.15699291622614736,"36":9.733377784280302e-26,"37":1.756224679003365e-72,"38":-0.00000118371063364516,"39":-3.57986662554856e-77,"40":-6.436140748735092e-76,"41":-4.1304008706762735e-53,"42":0.19071166226330857,"43":-2.9688627045424214e-53,"44":-1.024231540434778e-54,"45":-2.3199790127189022e-64,"46":1.1545943326520157e-38,"47":0.20844583204831996,"48":1.1130885916603806e-25,"49":1.680957491846149e-72,"50":-0.0000015408129575591578,"51":-3.8599460702468115e-77,"52":-7.551946539383859e-76,"53":-1.7470825673851618e-53,"54":0.22313167672373332,"55":-4.580167397393502e-53,"56":4.014009186037694e-55,"57":1.6264619956723867e-64,"58":1.9728236970951049e-38,"59":0.05027462690269664,"60":8.846896978416128e-26,"61":7.891161876127487e-73,"62":-0.0000013226732860544464,"63":-6.124595588712422e-77,"64":-3.578423580355223e-76,"65":-2.106248639862638e-53,"66":-0.014680773375494685,"67":-2.3233795022280253e-53,"68":3.6759227522148274e-54,"69":6.650098575063246e-64,"70":5.281713059916249e-40,"71":-0.09109703981652736,"72":1.4711577461616214e-25,"73":-5.142992417519943e-73,"74":-0.0000019127304612748205,"75":-3.734026409216708e-77,"76":6.591619117093021e-76,"77":-3.257701273006714e-53,"78":-0.0298868142296216,"79":-1.8023114224079902e-53,"80":-1.4574277293228212e-54,"81":6.587281928336549e-64,"82":5.974776261571923e-39,"83":0.014678073816003459,"84":7.413723398435625e-26,"85":-2.2514540344048146e-72,"86":0.0000017950884870425507,"87":-2.8646692867599736e-77,"88":-3.334467230423765e-76,"89":-4.32621678605643e-53,"90":-0.07761458780784819,"91":5.707847330816059e-54,"92":-6.244949414637557e-55,"93":1.3463560697128845e-65,"94":7.905495025828246e-39,"95":-0.03698928769295379,"96":9.000400102983548e-26,"97":-1.2954413454374349e-72,"98":-0.0000018470724231659309,"99":-6.045089041195713e-77,"100":-9.975618845883401e-76,"101":-1.361137893122104e-53,"102":0.04388141925130279,"103":-2.4832763487812293e-53,"104":-1.4111681367348755e-54,"105":8.798835987121386e-66,"106":1.1847366664522728e-38,"107":0.09852434077714652,"108":8.360489629893283e-26,"109":6.963716952981664e-73,"110":1.1078744251402793e-7,"111":-4.635819364203705e-77,"112":-1.1259069784085727e-75,"113":-2.5767052683786813e-53,"114":0.16287818762319592,"115":-2.0376949368647143e-53,"116":-1.0997446159796202e-54,"117":1.3766229346485742e-64,"118":1.761520603455077e-38,"119":0.18856496148431465,"120":5.31618127286661e-26,"121":1.0231737218627751e-72,"122":-6.171957001245117e-7,"123":-5.456114793549253e-77,"124":7.304302399696592e-76,"125":5.104379777978598e-54,"126":0.016068982106514168,"127":9.637548573258132e-54,"128":-2.664344389452379e-54,